{"learner":{"attributes":{"scikit_learn":"{\"_estimator_type\": \"regressor\"}"},"feature_names":["hour","day_of_week","month","holiday","temperature","cloud_cover"],"feature_types":["int","int","int","int","float","float"],"gradient_booster":{"model":{"gbtree_model_param":{"num_parallel_tree":"1","num_trees":"200"},"iteration_indptr":[0,1,2,3,4,5,6,7,8,9,10,11,12,13,14,15,16,17,18,19,20,21,22,23,24,25,26,27,28,29,30,31,32,33,34,35,36,37,38,39,40,41,42,43,44,45,46,47,48,49,50,51,52,53,54,55,56,57,58,59,60,61,62,63,64,65,66,67,68,69,70,71,72,73,74,75,76,77,78,79,80,81,82,83,84,85,86,87,88,89,90,91,92,93,94,95,96,97,98,99,100,101,102,103,104,105,106,107,108,109,110,111,112,113,114,115,116,117,118,119,120,121,122,123,124,125,126,127,128,129,130,131,132,133,134,135,136,137,138,139,140,141,142,143,144,145,146,147,148,149,150,151,152,153,154,155,156,157,158,159,160,161,162,163,164,165,166,167,168,169,170,171,172,173,174,175,176,177,178,179,180,181,182,183,184,185,186,187,188,189,190,191,192,193,194,195,196,197,198,199,200],"tree_info":[0,0,0,0,0,0,0,0,0,0,0,0,0,0,0,0,0,0,0,0,0,0,0,0,0,0,0,0,0,0,0,0,0,0,0,0,0,0,0,0,0,0,0,0,0,0,0,0,0,0,0,0,0,0,0,0,0,0,0,0,0,0,0,0,0,0,0,0,0,0,0,0,0,0,0,0,0,0,0,0,0,0,0,0,0,0,0,0,0,0,0,0,0,0,0,0,0,0,0,0,0,0,0,0,0,0,0,0,0,0,0,0,0,0,0,0,0,0,0,0,0,0,0,0,0,0,0,0,0,0,0,0,0,0,0,0,0,0,0,0,0,0,0,0,0,0,0,0,0,0,0,0,0,0,0,0,0,0,0,0,0,0,0,0,0,0,0,0,0,0,0,0,0,0,0,0,0,0,0,0,0,0,0,0,0,0,0,0,0,0,0,0,0,0,0,0,0,0,0,0],"trees":[{"base_weights":[2.32725E-2,1.1960306E0,-1.1744197E1,-8.721778E0,1.918323E0,-7.522508E0,-1.7138494E1,-3.4810908E0,-1.0942332E1,6.9727836E0,8.121293E-1,-4.9477787E0,-1.708939E1,-1.5211371E1,-9.6805555E-1,-7.0712817E-1,-1.2005212E0,-1.1694483E1,8.408665E0,-9.923864E0,8.473897E0,2.5586221E0,-5.090139E0,-8.115576E0,2.1347384E0,-4.8350167E0,-1.0160803E0,-1.7457355E1,-1.2936936E1,-1.21869545E1,7.0001763E-1,-8.976698E-1,-1.0350426E1,2.3937746E1,-8.493562E-1,-1.1108386E1,1.8259033E1,2.0802262E0,1.3932569E1,1.0457199E0,4.5259047E0,9.842635E-1,-1.0021089E1,-3.296322E0,-1.2391317E1,2.1125175E1,-8.4885955E-1,-6.3356924E-1,5.574544E-2,-1.9215397E1,-8.678337E0,-1.1032513E1,-1.0295227E0,-2.5305665E-1,-8.276904E-1,-8.989217E-2,1.0141586E0,-6.1446875E-1,-3.5125193E-1,-5.6623745E-1,1.6627598E0,-5.1806074E-2,-6.7290074E-1,-5.6623745E-1,1.935665E0,-4.649883E-1,2.6095435E-1,8.946417E-1,5.409668E-1,-6.7993306E-2,1.9698438E-1,-5.1392716E-1,3.264879E-1,-2.7770913E-1,1.5645474E-1,-4.2051154E-1,-8.920318E-1,-4.6543518E-1,3.0273518E-1,-1.0569767E0,-5.055861E-1,-7.549833E-1,1.6816113E0,-3.8774547E-1,2.5023237E-1,1.4469504E-1,-5.6623745E-1,-7.028041E-1,-1.0545994E0,-2.2125795E-1,-6.44856E-1,-8.6471695E-1,-3.9715105E-1],"categories":[],"categories_nodes":[],"categories_segments":[],"categories_sizes":[],"default_left":[0,0,0,0,0,0,0,0,0,0,0,0,0,0,0,0,0,0,0,0,0,0,0,0,0,0,0,0,0,0,0,0,0,0,0,0,0,0,0,0,0,0,0,0,0,0,0,0,0,0,0,0,0,0,0,0,0,0,0,0,0,0,0,0,0,0,0,0,0,0,0,0,0,0,0,0,0,0,0,0,0,0,0,0,0,0,0,0,0,0,0,0,0],"id":0,"left_children":[1,3,5,7,9,11,13,15,17,19,21,23,25,27,-1,-1,29,31,33,35,37,39,41,43,45,47,-1,49,51,53,55,-1,57,59,-1,61,63,65,67,69,71,73,75,77,79,81,83,-1,85,87,89,91,-1,-1,-1,-1,-1,-1,-1,-1,-1,-1,-1,-1,-1,-1,-1,-1,-1,-1,-1,-1,-1,-1,-1,-1,-1,-1,-1,-1,-1,-1,-1,-1,-1,-1,-1,-1,-1,-1,-1,-1,-1],"loss_changes":[7.172091E4,3.3871707E4,1.059718E4,3.697459E3,2.4629223E4,6.4675938E3,5.8783984E2,2.3415017E3,3.3731777E3,2.0146848E4,3.728772E4,4.751315E3,2.119836E3,3.6161523E2,0E0,0E0,1.699823E3,1.6396523E3,3.955993E3,2.3727388E3,2.5344004E4,8.302139E3,2.475069E4,2.9676133E3,3.7574812E3,4.9894193E2,0E0,6.8210547E2,6.6194336E2,2.896278E2,3.4605854E3,0E0,1.0807109E3,2.347946E3,0E0,1.4770186E3,2.253762E3,1.2050526E4,4.6394688E3,1.0997862E4,3.60519E4,5.220233E3,5.5938125E3,3.9918958E3,1.3218076E3,4.585428E3,2.3834377E3,0E0,3.2346924E2,1.392168E2,1.4030377E2,8.4926953E2,0E0,0E0,0E0,0E0,0E0,0E0,0E0,0E0,0E0,0E0,0E0,0E0,0E0,0E0,0E0,0E0,0E0,0E0,0E0,0E0,0E0,0E0,0E0,0E0,0E0,0E0,0E0,0E0,0E0,0E0,0E0,0E0,0E0,0E0,0E0,0E0,0E0,0E0,0E0,0E0,0E0],"parents":[2147483647,0,0,1,1,2,2,3,3,4,4,5,5,6,6,7,7,8,8,9,9,10,10,11,11,12,12,13,13,16,16,17,17,18,18,19,19,20,20,21,21,22,22,23,23,24,24,25,25,27,27,28,28,29,29,30,30,32,32,33,33,35,35,36,36,37,37,38,38,39,39,40,40,41,41,42,42,43,43,44,44,45,45,46,46,48,48,49,49,50,50,51,51],"right_children":[2,4,6,8,10,12,14,16,18,20,22,24,26,28,-1,-1,30,32,34,36,38,40,42,44,46,48,-1,50,52,54,56,-1,58,60,-1,62,64,66,68,70,72,74,76,78,80,82,84,-1,86,88,90,92,-1,-1,-1,-1,-1,-1,-1,-1,-1,-1,-1,-1,-1,-1,-1,-1,-1,-1,-1,-1,-1,-1,-1,-1,-1,-1,-1,-1,-1,-1,-1,-1,-1,-1,-1,-1,-1,-1,-1,-1,-1],"split_conditions":[3.1851648E1,7.2967734E0,3.3872932E1,2E0,1.2387596E1,5E0,4E0,3.6921978E0,1E0,8E0,8E0,3.3167538E1,3.214165E1,4E0,-9.6805555E-1,-7.0712817E-1,9E0,4.28205E0,1E1,1.2267227E1,9.673136E0,2.5277172E1,1.51952715E1,3E0,1E0,4E0,-1.0160803E0,3.6324226E1,5E0,1E0,6.964152E0,-8.976698E-1,5E0,4E0,-8.493562E-1,9.774741E0,1E0,9E0,1.0864107E1,6E0,2E0,1.3098945E1,1.9054005E1,4E0,3E0,3E0,4E0,-6.3356924E-1,6E0,3.4299545E1,3.6966507E1,3.449603E1,-1.0295227E0,-2.5305665E-1,-8.276904E-1,-8.989217E-2,1.0141586E0,-6.1446875E-1,-3.5125193E-1,-5.6623745E-1,1.6627598E0,-5.1806074E-2,-6.7290074E-1,-5.6623745E-1,1.935665E0,-4.649883E-1,2.6095435E-1,8.946417E-1,5.409668E-1,-6.7993306E-2,1.9698438E-1,-5.1392716E-1,3.264879E-1,-2.7770913E-1,1.5645474E-1,-4.2051154E-1,-8.920318E-1,-4.6543518E-1,3.0273518E-1,-1.0569767E0,-5.055861E-1,-7.549833E-1,1.6816113E0,-3.8774547E-1,2.5023237E-1,1.4469504E-1,-5.6623745E-1,-7.028041E-1,-1.0545994E0,-2.2125795E-1,-6.44856E-1,-8.6471695E-1,-3.9715105E-1],"split_indices":[4,4,4,1,4,2,1,4,3,2,2,4,4,2,0,0,2,4,2,4,4,4,4,1,1,1,0,4,2,1,4,0,1,1,0,4,3,2,4,2,2,4,4,2,2,2,1,0,1,4,4,4,0,0,0,0,0,0,0,0,0,0,0,0,0,0,0,0,0,0,0,0,0,0,0,0,0,0,0,0,0,0,0,0,0,0,0,0,0,0,0,0,0],"split_type":[0,0,0,0,0,0,0,0,0,0,0,0,0,0,0,0,0,0,0,0,0,0,0,0,0,0,0,0,0,0,0,0,0,0,0,0,0,0,0,0,0,0,0,0,0,0,0,0,0,0,0,0,0,0,0,0,0,0,0,0,0,0,0,0,0,0,0,0,0,0,0,0,0,0,0,0,0,0,0,0,0,0,0,0,0,0,0,0,0,0,0,0,0],"sum_hessian":[5.195E3,4.725E3,4.7E2,3.2E2,4.405E3,2.65E2,2.05E2,9.6E1,2.24E2,7.9E2,3.615E3,2.1E2,5.5E1,1.14E2,9.1E1,1.6E1,8E1,2.16E2,8E0,6.4E1,7.26E2,2.79E3,8.25E2,1.45E2,6.5E1,1.2E1,4.3E1,5.4E1,6E1,1.1E1,6.9E1,3.6E1,1.8E2,5E0,3E0,6.2E1,2E0,3.35E2,3.91E2,1.578E3,1.212E3,3.7E2,4.55E2,6.9E1,7.6E1,8E0,5.7E1,4E0,8E0,4.4E1,1E1,5E1,1E1,5E0,6E0,6.2E1,7E0,1.12E2,6.8E1,1E0,4E0,1.2E1,5E1,1E0,1E0,7.2E1,2.63E2,1.7E2,2.21E2,8.62E2,7.16E2,1.44E2,1.068E3,9.1E1,2.79E2,3.79E2,7.6E1,4.2E1,2.7E1,1.4E1,6.2E1,2E0,6E0,2.6E1,3.1E1,7E0,1E0,1.4E1,3E1,6E0,4E0,1.5E1,3.5E1],"tree_param":{"num_deleted":"0","num_feature":"6","num_nodes":"93","size_leaf_vector":"1"}},{"base_weights":[-1.9506185E-1,-1.1258354E0,1.3588351E1,5.163388E1,-2.0260906E1,2.0999937E-1,6.012785E1,-1.8530665E-1,-1.1323855E0,6.696811E1,1.3533968E0,1.9526743E0,7.4323746E1,3.9748673E0,2.9902775E0],"categories":[],"categories_nodes":[],"categories_segments":[],"categories_sizes":[],"default_left":[0,0,0,0,0,0,0,0,0,0,0,0,0,0,0],"id":1,"left_children":[1,-1,3,5,7,-1,9,-1,-1,11,-1,-1,13,-1,-1],"loss_changes":[1.5651078E6,0E0,4.051218E6,5.96445E5,6.5705125E4,0E0,2.822175E5,0E0,0E0,2.10641E5,0E0,0E0,5.69865E4,0E0,0E0],"parents":[2147483647,0,0,2,2,3,3,4,4,6,6,9,9,12,12],"right_children":[2,-1,4,6,8,-1,10,-1,-1,12,-1,-1,14,-1,-1],"split_conditions":[9E0,-1.1258354E0,1.6E1,1E1,1.7E1,2.0999937E-1,1.5E1,-1.8530665E-1,-1.1323855E0,1.1E1,1.3533968E0,1.9526743E0,1.4E1,3.9748673E0,2.9902775E0],"split_indices":[0,0,0,0,0,0,0,0,0,0,0,0,0,0,0],"split_type":[0,0,0,0,0,0,0,0,0,0,0,0,0,0,0],"sum_hessian":[5.085E3,1.941E3,3.144E3,1.48E3,1.664E3,2.25E2,1.255E3,2.1E2,1.454E3,1.039E3,2.16E2,2.18E2,8.21E2,6.02E2,2.19E2],"tree_param":{"num_deleted":"0","num_feature":"6","num_nodes":"15","size_leaf_vector":"1"}},{"base_weights":[1.9573733E-2,1.0310016E0,-1.1466014E1,-1.349737E1,1.3513266E0,-7.900941E0,-1.5061957E1,-1.6153831E1,-8.976007E0,2.6484555E-1,3.4296453E0,-5.451377E0,-1.7627726E1,-1.6305817E1,-1.0743761E1,-8.368103E-1,-6.051049E0,1.2893993E0,-1.3421518E1,3.438593E0,-1.93605E0,5.248868E0,-7.2721505E0,-8.819518E0,2.1503603E0,-9.1054994E-1,1.5716138E-1,-1.2694637E1,-9.1648525E-1,6.5386615E0,-1.7166265E1,-7.7322906E-1,7.9007703E-1,-5.436038E0,2.0498662E0,-7.907317E0,-8.531481E-1,4.5003395E0,-1.1277194E1,1.2249584E0,-7.651527E0,-4.3397303E0,6.890699E0,-3.4768462E0,-1.2866507E1,-1.7239346E1,-5.6211963E0,-9.0724564E-1,4.6424704E0,-1.3952813E1,1.5384425E0,-1.8493987E0,1.8955675E0,-9.228927E-1,-7.6320195E0,6.4598566E-1,-5.1995796E-1,-7.011418E-1,-2.760301E-1,8.271161E-3,4.0832457E-1,-3.060951E-1,-1.0176328E0,-1.08067945E-1,2.3075075E-1,-8.5005574E-2,-4.9374261E-1,4.1413328E-1,-6.8157953E-1,3.189977E-1,2.2709088E0,2.9561352E-3,-7.651045E-1,-6.9072E-1,-1.8087777E-1,-8.988568E-2,-1.0016164E0,-1.7992772E-1,-9.634337E-1,1.3075415E0,-8.5290186E-2,-7.914464E-1,-5.1640356E-1,-5.945824E-1,7.29404E-1,9.418864E-1,-8.346757E-1],"categories":[],"categories_nodes":[],"categories_segments":[],"categories_sizes":[],"default_left":[0,0,0,0,0,0,0,0,0,0,0,0,0,0,0,0,0,0,0,0,0,0,0,0,0,0,0,0,0,0,0,0,0,0,0,0,0,0,0,0,0,0,0,0,0,0,0,0,0,0,0,0,0,0,0,0,0,0,0,0,0,0,0,0,0,0,0,0,0,0,0,0,0,0,0,0,0,0,0,0,0,0,0,0,0,0,0],"id":2,"left_children":[1,3,5,7,9,11,13,15,17,19,21,23,25,27,29,-1,31,33,35,37,39,41,43,45,47,-1,-1,49,-1,51,53,-1,-1,55,-1,57,-1,59,61,63,65,67,69,71,73,75,77,-1,79,81,-1,83,-1,-1,85,-1,-1,-1,-1,-1,-1,-1,-1,-1,-1,-1,-1,-1,-1,-1,-1,-1,-1,-1,-1,-1,-1,-1,-1,-1,-1,-1,-1,-1,-1,-1,-1],"loss_changes":[5.9710777E4,2.2002797E4,5.2140312E3,1.0801074E3,1.0438076E4,4.9312734E3,9.3128516E2,2.6939453E2,1.8427046E3,2.1220365E4,3.093539E4,4.3715977E3,5.6607715E2,9.220742E2,5.55107E3,0E0,1.2729146E3,3.694554E3,4.2730762E2,1.948755E4,3.2420982E4,2.1392965E4,4.859921E3,3.080755E3,2.764874E3,0E0,0E0,3.7103926E3,0E0,3.754297E3,3.024453E2,0E0,0E0,1.2275759E3,0E0,1.1233356E2,0E0,1.84498E4,3.8054824E3,1.3280632E4,8.438414E3,2.3452729E4,2.2516695E4,5.813008E3,7.653594E2,1.3440879E3,2.332205E3,0E0,6.5985737E3,2.3774414E2,0E0,2.1543074E3,0E0,0E0,1.7536008E3,0E0,0E0,0E0,0E0,0E0,0E0,0E0,0E0,0E0,0E0,0E0,0E0,0E0,0E0,0E0,0E0,0E0,0E0,0E0,0E0,0E0,0E0,0E0,0E0,0E0,0E0,0E0,0E0,0E0,0E0,0E0,0E0],"parents":[2147483647,0,0,1,1,2,2,3,3,4,4,5,5,6,6,7,7,8,8,9,9,10,10,11,11,12,12,13,13,14,14,16,16,17,17,18,18,19,19,20,20,21,21,22,22,23,23,24,24,27,27,29,29,30,30,33,33,35,35,37,37,38,38,39,39,40,40,41,41,42,42,43,43,44,44,45,45,46,46,48,48,49,49,51,51,54,54],"right_children":[2,4,6,8,10,12,14,16,18,20,22,24,26,28,30,-1,32,34,36,38,40,42,44,46,48,-1,-1,50,-1,52,54,-1,-1,56,-1,58,-1,60,62,64,66,68,70,72,74,76,78,-1,80,82,-1,84,-1,-1,86,-1,-1,-1,-1,-1,-1,-1,-1,-1,-1,-1,-1,-1,-1,-1,-1,-1,-1,-1,-1,-1,-1,-1,-1,-1,-1,-1,-1,-1,-1,-1,-1],"split_conditions":[3.2292625E1,5.0918226E0,3.3872932E1,4.28205E0,2.3652086E1,5E0,5.5649024E-1,6.031008E-1,4.7031718E-1,1.3810101E1,6E0,3.3315002E1,1E0,4.739258E-1,5.7843E-1,-8.368103E-1,1E1,4.661227E-1,4.6827736E0,5.932042E-1,8E0,2E0,2.670441E1,3E0,4.063086E-1,-9.1054994E-1,1.5716138E-1,4.732181E-1,-9.1648525E-1,5.7188463E-1,6.358227E-1,-7.7322906E-1,7.9007703E-1,4.2409298E-1,2.0498662E0,5.0509757E-1,-8.531481E-1,9.774741E0,1.1128602E1,6E0,1.51952715E1,2.6090393E1,6.358227E-1,7E0,6.125894E-1,3.2432625E1,5.7523924E-1,-9.0724564E-1,4.8835558E-1,4.357043E-1,1.5384425E0,4E0,1.8955675E0,-9.228927E-1,6.3949645E-1,6.4598566E-1,-5.1995796E-1,-7.011418E-1,-2.760301E-1,8.271161E-3,4.0832457E-1,-3.060951E-1,-1.0176328E0,-1.08067945E-1,2.3075075E-1,-8.5005574E-2,-4.9374261E-1,4.1413328E-1,-6.8157953E-1,3.189977E-1,2.2709088E0,2.9561352E-3,-7.651045E-1,-6.9072E-1,-1.8087777E-1,-8.988568E-2,-1.0016164E0,-1.7992772E-1,-9.634337E-1,1.3075415E0,-8.5290186E-2,-7.914464E-1,-5.1640356E-1,-5.945824E-1,7.29404E-1,9.418864E-1,-8.346757E-1],"split_indices":[4,4,4,4,4,2,5,5,5,4,2,4,3,5,5,0,2,5,4,5,2,2,4,2,5,0,0,5,0,5,5,0,0,5,0,5,0,4,4,2,4,4,5,2,5,4,5,0,5,5,0,2,0,0,5,0,0,0,0,0,0,0,0,0,0,0,0,0,0,0,0,0,0,0,0,0,0,0,0,0,0,0,0,0,0,0,0],"split_type":[0,0,0,0,0,0,0,0,0,0,0,0,0,0,0,0,0,0,0,0,0,0,0,0,0,0,0,0,0,0,0,0,0,0,0,0,0,0,0,0,0,0,0,0,0,0,0,0,0,0,0,0,0,0,0,0,0,0,0,0,0,0,0,0,0,0,0,0,0,0,0,0,0,0,0,0,0,0,0,0,0,0,0,0,0,0,0],"sum_hessian":[5.138E3,4.723E3,4.15E2,1.01E2,4.622E3,2.1E2,2.05E2,6.2E1,3.9E1,3.036E3,1.586E3,1.69E2,4.1E1,1.57E2,4.8E1,5.8E1,4E0,1.2E1,2.7E1,1.243E3,1.793E3,1.356E3,2.3E2,1.17E2,5.2E1,4E1,1E0,5.9E1,9.8E1,1.3E1,3.5E1,3E0,1E0,1.1E1,1E0,1.2E1,1.5E1,1.16E3,8.3E1,1.155E3,6.38E2,1.98E2,1.158E3,1.38E2,9.2E1,3.1E1,8.6E1,5E0,4.7E1,5.8E1,1E0,1.1E1,2E0,3E1,5E0,2E0,9E0,2E0,1E1,5.32E2,6.28E2,5.4E1,2.9E1,5.78E2,5.77E2,1.74E2,4.64E2,8.4E1,1.14E2,1.144E3,1.4E1,1.07E2,3.1E1,8.3E1,9E0,5E0,2.6E1,7.6E1,1E1,1E1,3.7E1,3.6E1,2.2E1,7E0,4E0,1E0,4E0],"tree_param":{"num_deleted":"0","num_feature":"6","num_nodes":"87","size_leaf_vector":"1"}},{"base_weights":[-1.6013515E-1,-1.8118962E0,7.1342105E-1,-6.9658476E-1,-4.2071023E0,2.3371992E0,-1.2021317E0,-4.8662257E0,-1.00267105E-1,-2.2313583E0,-8.157231E0,1.2230367E1,1.4094253E0,-6.0391216E0,-5.5134517E-1,5.2359076E0,-8.162006E0,1.3885288E1,-4.777939E-1,-3.3451858E0,1.510577E1,-1.1625428E1,-2.4081159E0,-8.489316E-1,1.3110726E1,5.615178E-1,6.5959296E0,-4.565777E0,-1.0078663E0,4.243877E0,-1.6491225E0,-1.1207764E1,3.4225613E1,-4.661672E0,-1.6718544E1,2.1683645E1,-9.161312E-1,-8.468223E-1,6.38958E0,-1.0127378E1,-1.9054258E-1,3.5620506E1,7.428315E0,-9.984666E-1,-1.0105906E1,2.2699845E0,-7.418393E0,2.2794302E1,1.0441427E1,3.056181E-2,1.1219229E1,4.077031E1,4.4011908E0,6.608614E0,-7.1614738E0,3.08746E0,2.23039E0,-1.063984E0,-1.0319049E1,-8.753789E-1,-2.5036845E-1,1.8324616E0,6.796389E-2,-5.541303E-1,9.922631E-4,4.488928E-1,-9.793723E-1,1.4088194E0,-8.10049E-1,-3.3254863E-3,-2.0664333E-1,-1.4170842E-1,8.0385464E-1,-8.289959E-2,-8.292923E-1,2.2183636E-1,-2.0428792E-1,-5.446584E-1,2.3550937E0,-6.7634714E-1,8.264281E-1,-8.9561176E-1,-4.0985784E-1,-3.493581E-1,8.465044E-1,3.072822E-1,-6.175004E-1,3.2679865E-1,1.753828E0,-8.528224E-1,5.763654E-1,-2.1084292E-2,2.0787571E-1,-3.5410783E-1,8.266246E-1,2.277065E0,-5.313134E-1,3.4151983E-1,-1.8125407E-1,4.9541909E-1,-6.5959036E-1,-4.5880723E-1,-4.2378645E-2,4.0144667E-2,5.8415395E-1,1.14483826E-1,-1.1097461E-1,-9.5908546E-1,-3.880427E-1],"categories":[],"categories_nodes":[],"categories_segments":[],"categories_sizes":[],"default_left":[0,0,0,0,0,0,0,0,0,0,0,0,0,0,0,0,0,0,0,0,0,0,0,0,0,0,0,0,0,0,0,0,0,0,0,0,0,0,0,0,0,0,0,0,0,0,0,0,0,0,0,0,0,0,0,0,0,0,0,0,0,0,0,0,0,0,0,0,0,0,0,0,0,0,0,0,0,0,0,0,0,0,0,0,0,0,0,0,0,0,0,0,0,0,0,0,0,0,0,0,0,0,0,0,0,0,0,0,0],"id":3,"left_children":[1,3,5,7,9,11,13,15,17,19,21,23,25,27,29,31,33,35,37,39,41,43,45,-1,47,49,51,53,-1,55,57,59,61,63,65,67,-1,69,71,73,75,77,79,-1,81,83,85,87,89,91,93,95,97,99,101,103,-1,105,107,-1,-1,-1,-1,-1,-1,-1,-1,-1,-1,-1,-1,-1,-1,-1,-1,-1,-1,-1,-1,-1,-1,-1,-1,-1,-1,-1,-1,-1,-1,-1,-1,-1,-1,-1,-1,-1,-1,-1,-1,-1,-1,-1,-1,-1,-1,-1,-1,-1,-1],"loss_changes":[7.420716E3,4.7494907E3,1.0466305E4,3.020525E3,4.3913096E3,1.6697033E4,4.856948E3,5.1034873E3,5.624471E3,7.3499277E3,3.7205479E3,4.234051E3,7.3228237E3,3.714545E3,7.176683E3,1.8498086E4,3.3663994E3,7.4300273E3,2.6334343E3,7.614831E3,3.3579224E3,1.2816055E3,1.7044172E3,0E0,3.6909453E3,8.1086826E3,1.7371463E4,4.8912173E3,0E0,1.1718365E4,5.6150967E3,8.8886646E2,1.0653594E3,2.4951768E3,2.608628E3,6.113912E3,0E0,2.5254048E3,4.7813896E3,6.1535166E3,4.4160356E3,3.7173335E3,3.6561458E3,0E0,1.3581035E3,5.2753003E3,2.4171401E3,6.160787E3,3.8096006E3,2.5512617E3,6.72941E3,3.9169062E3,4.333701E3,2.2214868E3,1.7222017E3,4.860661E3,0E0,4.0352715E3,1.4382026E3,0E0,0E0,0E0,0E0,0E0,0E0,0E0,0E0,0E0,0E0,0E0,0E0,0E0,0E0,0E0,0E0,0E0,0E0,0E0,0E0,0E0,0E0,0E0,0E0,0E0,0E0,0E0,0E0,0E0,0E0,0E0,0E0,0E0,0E0,0E0,0E0,0E0,0E0,0E0,0E0,0E0,0E0,0E0,0E0,0E0,0E0,0E0,0E0,0E0,0E0],"parents":[2147483647,0,0,1,1,2,2,3,3,4,4,5,5,6,6,7,7,8,8,9,9,10,10,11,11,12,12,13,13,14,14,15,15,16,16,17,17,18,18,19,19,20,20,21,21,22,22,24,24,25,25,26,26,27,27,29,29,30,30,31,31,32,32,33,33,34,34,35,35,37,37,38,38,39,39,40,40,41,41,42,42,44,44,45,45,46,46,47,47,48,48,49,49,50,50,51,51,52,52,53,53,54,54,55,55,57,57,58,58],"right_children":[2,4,6,8,10,12,14,16,18,20,22,24,26,28,30,32,34,36,38,40,42,44,46,-1,48,50,52,54,-1,56,58,60,62,64,66,68,-1,70,72,74,76,78,80,-1,82,84,86,88,90,92,94,96,98,100,102,104,-1,106,108,-1,-1,-1,-1,-1,-1,-1,-1,-1,-1,-1,-1,-1,-1,-1,-1,-1,-1,-1,-1,-1,-1,-1,-1,-1,-1,-1,-1,-1,-1,-1,-1,-1,-1,-1,-1,-1,-1,-1,-1,-1,-1,-1,-1,-1,-1,-1,-1,-1,-1],"split_conditions":[4.809927E-1,9E0,5.424598E-1,3.9675665E-1,4.5541915E-1,2E0,2E0,3.6001876E-1,4.0120563E-1,4.518584E-1,4.7163895E-1,4.8197502E-1,6E0,6.822117E-1,4E0,5E0,7E0,6E0,1E0,1E1,3E0,1E0,4E0,-8.489316E-1,4.9430528E-1,1E0,4.8481247E-1,1E0,-1.0078663E0,6.492695E-1,6.3949645E-1,3.3528268E-1,1E0,3E0,3.6725268E-1,6E0,-9.161312E-1,4.7110236E-1,4.5464307E-1,2E0,3E0,1E0,4.5292553E-1,-9.984666E-1,4.5798352E-1,4.7687975E-1,4.739258E-1,4.8902375E-1,4.9640563E-1,1.1E1,4.9588394E-1,1E0,5.2807564E-1,6.125894E-1,6.20779E-1,5.9859896E-1,2.23039E0,2E0,6.4432234E-1,-8.753789E-1,-2.5036845E-1,1.8324616E0,6.796389E-2,-5.541303E-1,9.922631E-4,4.488928E-1,-9.793723E-1,1.4088194E0,-8.10049E-1,-3.3254863E-3,-2.0664333E-1,-1.4170842E-1,8.0385464E-1,-8.289959E-2,-8.292923E-1,2.2183636E-1,-2.0428792E-1,-5.446584E-1,2.3550937E0,-6.7634714E-1,8.264281E-1,-8.9561176E-1,-4.0985784E-1,-3.493581E-1,8.465044E-1,3.072822E-1,-6.175004E-1,3.2679865E-1,1.753828E0,-8.528224E-1,5.763654E-1,-2.1084292E-2,2.0787571E-1,-3.5410783E-1,8.266246E-1,2.277065E0,-5.313134E-1,3.4151983E-1,-1.8125407E-1,4.9541909E-1,-6.5959036E-1,-4.5880723E-1,-4.2378645E-2,4.0144667E-2,5.8415395E-1,1.14483826E-1,-1.1097461E-1,-9.5908546E-1,-3.880427E-1],"split_indices":[5,2,5,5,5,2,2,5,5,5,5,5,1,5,2,2,2,2,3,2,1,1,1,0,5,3,5,1,0,5,5,5,3,2,5,1,0,5,5,1,1,1,5,0,5,5,5,5,5,2,5,3,5,5,5,5,0,1,5,0,0,0,0,0,0,0,0,0,0,0,0,0,0,0,0,0,0,0,0,0,0,0,0,0,0,0,0,0,0,0,0,0,0,0,0,0,0,0,0,0,0,0,0,0,0,0,0,0,0],"split_type":[0,0,0,0,0,0,0,0,0,0,0,0,0,0,0,0,0,0,0,0,0,0,0,0,0,0,0,0,0,0,0,0,0,0,0,0,0,0,0,0,0,0,0,0,0,0,0,0,0,0,0,0,0,0,0,0,0,0,0,0,0,0,0,0,0,0,0,0,0,0,0,0,0,0,0,0,0,0,0,0,0,0,0,0,0,0,0,0,0,0,0,0,0,0,0,0,0,0,0,0,0,0,0,0,0,0,0,0,0],"sum_hessian":[5.141E3,1.778E3,3.363E3,1.214E3,5.64E2,1.82E3,1.543E3,1.51E2,1.063E3,3.77E2,1.87E2,1.55E2,1.665E3,1.82E2,1.361E3,3.7E1,1.14E2,2.7E1,1.036E3,3.55E2,2.2E1,1.16E2,7.1E1,4E0,1.51E2,1.432E3,2.33E2,1.66E2,1.6E1,2.53E2,1.108E3,2.4E1,1.3E1,8.2E1,3.2E1,2.2E1,5E0,9.84E2,5.2E1,1.12E2,2.43E2,5E0,1.7E1,1.6E1,1E2,3.7E1,3.4E1,3.1E1,1.2E2,1.365E3,6.7E1,1.3E1,2.2E2,3.1E1,1.35E2,2.47E2,6E0,1.039E3,6.9E1,1.1E1,1.3E1,1.2E1,1E0,3.4E1,4.8E1,3E0,2.9E1,1.9E1,3E0,7.96E2,1.88E2,2.7E1,2.5E1,4.9E1,6.3E1,1.11E2,1.32E2,1E0,4E0,5E0,1.2E1,1.8E1,8.2E1,2.3E1,1.4E1,9E0,2.5E1,1.4E1,1.7E1,4E0,1.16E2,1.231E3,1.34E2,1.5E1,5.2E1,1.2E1,1E0,1.69E2,5.1E1,2.7E1,4E0,1.02E2,3.3E1,1.96E2,5.1E1,2.66E2,7.73E2,1.4E1,5.5E1],"tree_param":{"num_deleted":"0","num_feature":"6","num_nodes":"109","size_leaf_vector":"1"}},{"base_weights":[1.1513937E-1,1.1264588E0,-9.590033E0,-7.2614994E0,1.6615235E0,-5.9249935E0,-1.4663297E1,-1.3013071E1,-5.5052156E0,5.4474616E0,8.103834E-1,2.2670999E0,-7.470457E0,-1.5392745E1,-6.7506294E0,7.394662E0,-1.4472507E1,-4.2558637E0,-9.5405287E-1,9.1146404E-1,9.472619E0,-1.6359179E0,4.0997634E0,-1.2454853E1,5.228857E0,-1.6026375E1,-6.4897547E0,-1.3475187E1,-1.7712109E1,-1.220739E1,4.347729E0,1.9188598E0,-9.945271E0,-7.7661076E0,-1.5792593E1,1.3913311E0,-4.5569143E0,-2.7893746E0,3.632484E0,1.1671044E1,-7.3808937E0,-4.0780287E0,-3.7600777E-1,5.635329E0,-2.6495574E0,-9.10865E-1,3.2216613E0,8.150376E0,-8.133775E-1,-9.4119924E-1,-1.1008837E1,2.0301206E0,-7.1166697E0,-5.0083447E0,-1.4815784E1,-1.0934134E1,-9.2563754E-1,5.158797E0,-8.966562E-1,1.8554595E0,-8.089346E-1,-6.421947E-1,-3.1235075E-2,-7.524212E-1,2.71941E-1,-8.450147E-1,-3.286911E-1,-3.3286473E-1,3.3198178E-2,-3.611111E-1,1.1608856E-1,6.48848E-1,5.0940007E-2,8.3388016E-2,6.8875176E-1,-5.3839093E-1,2.803093E-1,-2.4206233E-1,7.590865E-1,6.9743465E-3,-5.8814704E-1,9.0117104E-2,3.324972E-1,-1.5752222E-1,2.2741988E0,7.981216E-1,-5.56497E-1,3.0732557E-1,1.9070443E0,7.260629E-1,-9.147832E-1,-2.730371E-1,-4.4157735E-1,-5.829865E-1,5.978323E-1,-8.506822E-1,-4.631485E-1,-7.028844E-1,-9.767468E-2,9.1040224E-1,-2.63015E-1],"categories":[],"categories_nodes":[],"categories_segments":[],"categories_sizes":[],"default_left":[0,0,0,0,0,0,0,0,0,0,0,0,0,0,0,0,0,0,0,0,0,0,0,0,0,0,0,0,0,0,0,0,0,0,0,0,0,0,0,0,0,0,0,0,0,0,0,0,0,0,0,0,0,0,0,0,0,0,0,0,0,0,0,0,0,0,0,0,0,0,0,0,0,0,0,0,0,0,0,0,0,0,0,0,0,0,0,0,0,0,0,0,0,0,0,0,0,0,0,0,0],"id":4,"left_children":[1,3,5,7,9,11,13,15,17,19,21,23,25,27,29,31,33,35,-1,37,39,41,43,45,47,49,51,53,55,57,59,-1,61,63,65,-1,67,69,71,73,75,77,79,81,83,-1,85,87,-1,-1,89,-1,91,93,95,97,-1,99,-1,-1,-1,-1,-1,-1,-1,-1,-1,-1,-1,-1,-1,-1,-1,-1,-1,-1,-1,-1,-1,-1,-1,-1,-1,-1,-1,-1,-1,-1,-1,-1,-1,-1,-1,-1,-1,-1,-1,-1,-1,-1,-1],"loss_changes":[5.0754496E4,2.102984E4,8.986852E3,2.7668496E3,1.4183654E4,3.6252021E3,1.0735547E3,2.0429658E3,3.599331E3,1.4743918E4,2.894305E4,2.0708555E3,1.9097871E3,5.885625E2,1.2037349E3,3.0678474E3,4.173877E2,2.0584946E3,0E0,3.8468237E3,1.5944047E4,6.345988E3,1.5913342E4,7.813707E2,2.5818708E3,1.2966064E2,6.6954014E3,1.1289609E3,2.3714453E2,1.3851578E3,5.307707E3,0E0,1.0004367E2,1.2357952E3,3.9948145E2,0E0,2.1866206E3,3.6871904E3,5.35995E3,7.9537656E3,2.25968E3,1.0392475E4,7.996449E3,4.8492773E3,7.014491E3,0E0,7.2621216E2,1.868959E3,0E0,0E0,2.3120435E3,0E0,5.623115E2,1.944862E3,9.5299414E2,2.8110498E2,0E0,6.3962524E2,0E0,0E0,0E0,0E0,0E0,0E0,0E0,0E0,0E0,0E0,0E0,0E0,0E0,0E0,0E0,0E0,0E0,0E0,0E0,0E0,0E0,0E0,0E0,0E0,0E0,0E0,0E0,0E0,0E0,0E0,0E0,0E0,0E0,0E0,0E0,0E0,0E0,0E0,0E0,0E0,0E0,0E0,0E0],"parents":[2147483647,0,0,1,1,2,2,3,3,4,4,5,5,6,6,7,7,8,8,9,9,10,10,11,11,12,12,13,13,14,14,15,15,16,16,17,17,19,19,20,20,21,21,22,22,23,23,24,24,25,25,26,26,27,27,28,28,29,29,30,30,32,32,33,33,34,34,36,36,37,37,38,38,39,39,40,40,41,41,42,42,43,43,44,44,46,46,47,47,50,50,52,52,53,53,54,54,55,55,57,57],"right_children":[2,4,6,8,10,12,14,16,18,20,22,24,26,28,30,32,34,36,-1,38,40,42,44,46,48,50,52,54,56,58,60,-1,62,64,66,-1,68,70,72,74,76,78,80,82,84,-1,86,88,-1,-1,90,-1,92,94,96,98,-1,100,-1,-1,-1,-1,-1,-1,-1,-1,-1,-1,-1,-1,-1,-1,-1,-1,-1,-1,-1,-1,-1,-1,-1,-1,-1,-1,-1,-1,-1,-1,-1,-1,-1,-1,-1,-1,-1,-1,-1,-1,-1,-1,-1],"split_conditions":[3.165797E1,6.964152E0,3.3872932E1,4.28205E0,1.2387596E1,1E0,1E0,4.1175243E-1,6.7623773E0,9.673136E0,2.3652086E1,3.198216E1,4.0991402E-1,4E0,3.494934E1,2E0,1E0,3.5022628E-1,-9.5405287E-1,3E0,5.7523924E-1,4.795402E-1,2.9871277E1,5.6323344E-1,5.6451064E-1,5E0,4.1175243E-1,4.4943047E-1,4.0278852E-1,4.739258E-1,3.523122E1,1.9188598E0,3.9675665E-1,5.189029E-1,6E0,1.3913311E0,5E0,5.0007355E-1,4E0,4.3157938E-1,1.1905515E1,2.330442E1,2.330442E1,4.5798352E-1,6.4432234E-1,-9.10865E-1,5.7611865E-1,5.6246495E-1,-8.133775E-1,-9.4119924E-1,3.9188978E-1,2.0301206E0,5.0750047E-1,4.357043E-1,5.605771E-1,4.0120563E-1,-9.2563754E-1,3.4110287E1,-8.966562E-1,1.8554595E0,-8.089346E-1,-6.421947E-1,-3.1235075E-2,-7.524212E-1,2.71941E-1,-8.450147E-1,-3.286911E-1,-3.3286473E-1,3.3198178E-2,-3.611111E-1,1.1608856E-1,6.48848E-1,5.0940007E-2,8.3388016E-2,6.8875176E-1,-5.3839093E-1,2.803093E-1,-2.4206233E-1,7.590865E-1,6.9743465E-3,-5.8814704E-1,9.0117104E-2,3.324972E-1,-1.5752222E-1,2.2741988E0,7.981216E-1,-5.56497E-1,3.0732557E-1,1.9070443E0,7.260629E-1,-9.147832E-1,-2.730371E-1,-4.4157735E-1,-5.829865E-1,5.978323E-1,-8.506822E-1,-4.631485E-1,-7.028844E-1,-9.767468E-2,9.1040224E-1,-2.63015E-1],"split_indices":[4,4,4,4,4,1,3,5,4,4,4,4,5,1,4,1,1,5,0,1,5,5,4,5,5,1,5,5,5,5,4,0,5,5,1,0,1,5,1,5,4,4,4,5,5,0,5,5,0,0,5,0,5,5,5,5,0,4,0,0,0,0,0,0,0,0,0,0,0,0,0,0,0,0,0,0,0,0,0,0,0,0,0,0,0,0,0,0,0,0,0,0,0,0,0,0,0,0,0,0,0],"split_type":[0,0,0,0,0,0,0,0,0,0,0,0,0,0,0,0,0,0,0,0,0,0,0,0,0,0,0,0,0,0,0,0,0,0,0,0,0,0,0,0,0,0,0,0,0,0,0,0,0,0,0,0,0,0,0,0,0,0,0,0,0,0,0,0,0,0,0,0,0,0,0,0,0,0,0,0,0,0,0,0,0,0,0,0,0,0,0,0,0,0,0,0,0,0,0,0,0,0,0,0,0],"sum_hessian":[5.169E3,4.682E3,4.87E2,2.8E2,4.402E3,2.84E2,2.03E2,6.4E1,2.16E2,8.07E2,3.595E3,4.5E1,2.39E2,1.85E2,1.8E1,4E0,6E1,1.99E2,1.7E1,3.8E2,4.27E2,2.062E3,1.533E3,7E0,3.8E1,2.3E1,2.16E2,1.05E2,8E1,1.2E1,6E0,1E0,3E0,1.1E1,4.9E1,1E0,1.98E2,1.61E2,2.19E2,3.78E2,4.9E1,7.01E2,1.361E3,1.249E3,2.84E2,5E0,2E0,3.4E1,4E0,1.3E1,1E1,2E0,2.14E2,1.5E1,9E1,1E1,7E1,3E0,9E0,2E0,4E0,2E0,1E0,7E0,4E0,4.3E1,6E0,1.41E2,5.7E1,8.6E1,7.5E1,4.7E1,1.72E2,6.6E1,3.12E2,3.9E1,1E1,6.75E2,2.6E1,1.303E3,5.8E1,2.62E2,9.87E2,2.82E2,2E0,1E0,1E0,3.3E1,1E0,2E0,8E0,1.11E2,1.03E2,1.1E1,4E0,6.3E1,2.7E1,7E0,3E0,1E0,2E0],"tree_param":{"num_deleted":"0","num_feature":"6","num_nodes":"101","size_leaf_vector":"1"}},{"base_weights":[-4.974044E-2,-2.1144747E1,1.3011622E1,-1.0724124E0,-9.796916E-1,4.9717514E1,-1.9287704E1,4.134795E0,5.7515083E1,-3.6127744E0,-2.156099E1,1.5140975E0,4.2274213E0,6.41173E1,1.2621473E0,-1.1116525E0,-3.7682345E0,-1.0014931E0,-1.0888702E0,9.132959E-2,1.4012242E-2,4.043316E0,2.7140352E-1,1.8443539E0,7.050554E1,-5.9633994E-1,-7.7088684E-2,-3.54712E0,-2.3609598E-1,2.214901E-1,1.8615851E-1,3.7583568E0,2.8183136E0,-2.6650748E-3,-3.842346E-2,-1.5476362E-1,-1.8847434E-1],"categories":[],"categories_nodes":[],"categories_segments":[],"categories_sizes":[],"default_left":[0,0,0,0,0,0,0,0,0,0,0,0,0,0,0,0,0,0,0,0,0,0,0,0,0,0,0,0,0,0,0,0,0,0,0,0,0],"id":5,"left_children":[1,3,5,-1,-1,7,9,11,13,15,17,19,21,23,-1,25,27,-1,-1,-1,-1,29,-1,-1,31,33,-1,35,-1,-1,-1,-1,-1,-1,-1,-1,-1],"loss_changes":[1.4151191E6,5.0425E2,3.7616045E6,0E0,0E0,5.2758225E5,6.00715E4,4.651758E1,2.685515E5,7.94082E1,5.225E1,2.9582539E0,2.4472168E1,1.80398E5,0E0,2.1836338E0,2.5847168E1,0E0,0E0,0E0,0E0,6.520996E0,0E0,0E0,5.1854E4,7.068217E-1,0E0,5.2124023E0,0E0,0E0,0E0,0E0,0E0,0E0,0E0,0E0,0E0],"parents":[2147483647,0,0,1,1,2,2,5,5,6,6,7,7,8,8,9,9,10,10,11,11,12,12,13,13,15,15,16,16,21,21,24,24,25,25,27,27],"right_children":[2,4,6,-1,-1,8,10,12,14,16,18,20,22,24,-1,26,28,-1,-1,-1,-1,30,-1,-1,32,34,-1,36,-1,-1,-1,-1,-1,-1,-1,-1,-1],"split_conditions":[9E0,3.214165E1,1.6E1,-1.0724124E0,-9.796916E-1,1E1,1.7E1,1.2387596E1,1.5E1,5.327835E0,6.964152E0,1.214982E1,3.3457787E1,1.1E1,1.2621473E0,1E1,2.4489614E1,-1.0014931E0,-1.0888702E0,9.132959E-2,1.4012242E-2,2.1199783E1,2.7140352E-1,1.8443539E0,1.4E1,2.8415768E0,-7.7088684E-2,6E0,-2.3609598E-1,2.214901E-1,1.8615851E-1,3.7583568E0,2.8183136E0,-2.6650748E-3,-3.842346E-2,-1.5476362E-1,-1.8847434E-1],"split_indices":[0,4,0,0,0,0,0,4,0,4,4,4,4,0,0,2,4,0,0,0,0,4,0,0,0,4,0,2,0,0,0,0,0,0,0,0,0],"split_type":[0,0,0,0,0,0,0,0,0,0,0,0,0,0,0,0,0,0,0,0,0,0,0,0,0,0,0,0,0,0,0,0,0,0,0,0,0],"sum_hessian":[5.134E3,1.963E3,3.171E3,1.631E3,3.32E2,1.484E3,1.687E3,2.17E2,1.267E3,2.14E2,1.473E3,8E0,2.09E2,1.051E3,2.16E2,1.3E1,2.01E2,1.94E2,1.279E3,6E0,2E0,1.85E2,2.4E1,2.01E2,8.5E2,7E0,6E0,1.67E2,3.4E1,7.8E1,1.07E2,6.36E2,2.14E2,2E0,5E0,6E1,1.07E2],"tree_param":{"num_deleted":"0","num_feature":"6","num_nodes":"37","size_leaf_vector":"1"}},{"base_weights":[-1.6825585E-1,-1.0032617E0,1.1793377E1,4.5991398E1,-1.8295807E1,1.9303499E-1,5.361861E1,-3.3491473E0,-1.0242876E0,5.9834713E1,1.2009631E0,-2.8148465E0,-3.4481742E0,1.7572731E0,6.657448E1,-1.8764798E-1,-1.2107139E-1,-1.7340107E-1,-8.4898494E-2,3.551897E0,2.6697206E0],"categories":[],"categories_nodes":[],"categories_segments":[],"categories_sizes":[],"default_left":[0,0,0,0,0,0,0,0,0,0,0,0,0,0,0,0,0,0,0,0,0],"id":6,"left_children":[1,-1,3,5,7,-1,9,11,-1,13,-1,15,17,-1,19,-1,-1,-1,-1,-1,-1],"loss_changes":[1.2316504E6,0E0,3.326539E6,4.8598E5,5.6231125E4,0E0,2.3425725E5,1.9868164E0,0E0,1.73711E5,0E0,5.6753235E0,4.3359375E-1,0E0,4.5035E4,0E0,0E0,0E0,0E0,0E0,0E0],"parents":[2147483647,0,0,2,2,3,3,4,4,6,6,7,7,9,9,11,11,12,12,14,14],"right_children":[2,-1,4,6,8,-1,10,12,-1,14,-1,16,18,-1,20,-1,-1,-1,-1,-1,-1],"split_conditions":[9E0,-1.0032617E0,1.6E1,1E1,1.7E1,1.9303499E-1,1.5E1,4.4852513E-1,-1.0242876E0,1.1E1,1.2009631E0,4.0120563E-1,6.3949645E-1,1.7572731E0,1.4E1,-1.8764798E-1,-1.2107139E-1,-1.7340107E-1,-8.4898494E-2,3.551897E0,2.6697206E0],"split_indices":[0,0,0,0,0,0,0,5,0,0,0,5,5,0,0,0,0,0,0,0,0],"split_type":[0,0,0,0,0,0,0,0,0,0,0,0,0,0,0,0,0,0,0,0,0],"sum_hessian":[5.173E3,1.942E3,3.231E3,1.512E3,1.719E3,2.32E2,1.28E3,2.2E2,1.499E3,1.057E3,2.23E2,3.9E1,1.81E2,2.28E2,8.29E2,9E0,3E1,1.78E2,3E0,6.16E2,2.13E2],"tree_param":{"num_deleted":"0","num_feature":"6","num_nodes":"21","size_leaf_vector":"1"}},{"base_weights":[-1.3613772E-1,-9.5371306E-1,1.1650151E1,4.471105E1,-1.7491194E1,1.894397E-1,5.1304317E1,-3.208586E0,-9.7343487E-1,5.7225754E1,1.1362152E0,-3.4760919E0,-2.6949947E0,1.6732725E0,6.3423607E1,-1.2708642E-1,-1.7960565E-1,-1.2183727E-1,-1.7163713E-1,3.386685E0,2.5427425E0],"categories":[],"categories_nodes":[],"categories_segments":[],"categories_sizes":[],"default_left":[0,0,0,0,0,0,0,0,0,0,0,0,0,0,0,0,0,0,0,0,0],"id":7,"left_children":[1,-1,3,5,7,-1,9,11,-1,13,-1,15,17,-1,19,-1,-1,-1,-1,-1,-1],"loss_changes":[1.1468529E6,0E0,3.0519935E6,4.0020575E5,4.750022E4,0E0,2.1498125E5,1.8933838E1,0E0,1.53682E5,0E0,5.1793213E0,5.9244995E0,0E0,4.195175E4,0E0,0E0,0E0,0E0,0E0,0E0],"parents":[2147483647,0,0,2,2,3,3,4,4,6,6,7,7,9,9,11,11,12,12,14,14],"right_children":[2,-1,4,6,8,-1,10,12,-1,14,-1,16,18,-1,20,-1,-1,-1,-1,-1,-1],"split_conditions":[9E0,-9.5371306E-1,1.6E1,1E1,1.7E1,1.894397E-1,1.5E1,8E0,-9.7343487E-1,1.1E1,1.1362152E0,2E0,1.1E1,1.6732725E0,1.4E1,-1.2708642E-1,-1.7960565E-1,-1.2183727E-1,-1.7163713E-1,3.386685E0,2.5427425E0],"split_indices":[0,0,0,0,0,0,0,2,0,0,0,2,2,0,0,0,0,0,0,0,0],"split_type":[0,0,0,0,0,0,0,0,0,0,0,0,0,0,0,0,0,0,0,0,0],"sum_hessian":[5.136E3,1.97E3,3.166E3,1.483E3,1.683E3,2.06E2,1.277E3,2.05E2,1.478E3,1.057E3,2.2E2,1.31E2,7.4E1,2.2E2,8.37E2,1.7E1,1.14E2,5.8E1,1.6E1,6.2E2,2.17E2],"tree_param":{"num_deleted":"0","num_feature":"6","num_nodes":"21","size_leaf_vector":"1"}},{"base_weights":[-1.1780374E-1,-1.811751E1,1.1031643E1,-9.200581E-1,-8.3148825E-1,4.2359512E1,-1.654636E1,3.5731993E0,4.9111446E1,-3.044258E0,-1.8497952E1,7.772933E-1,3.6740868E0,5.4756626E1,1.0897744E0,-9.920558E-1,-3.1714194E0,-8.07421E-1,-9.308618E-1,1.023456E0,-2.8092067E-3,3.4759526E0,2.237012E-1,1.5804368E0,6.0499134E1,-1.5877123E0,-4.8472297E-1,-3.0451496E0,-4.1147394E0,2.2730332E-2,8.151932E-2,1.8806432E-1,1.5631135E-1,3.2166214E0,2.4146376E0,-3.5513233E-2,-1.1142025E-1,-5.5499556E-3,-3.2654252E-2,-1.1342464E-1,-1.55828E-1,-2.1137074E-1,-4.6530962E-2],"categories":[],"categories_nodes":[],"categories_segments":[],"categories_sizes":[],"default_left":[0,0,0,0,0,0,0,0,0,0,0,0,0,0,0,0,0,0,0,0,0,0,0,0,0,0,0,0,0,0,0,0,0,0,0,0,0,0,0,0,0,0,0],"id":8,"left_children":[1,3,5,-1,-1,7,9,11,13,15,17,19,21,23,-1,25,27,-1,-1,29,-1,31,-1,-1,33,35,37,39,41,-1,-1,-1,-1,-1,-1,-1,-1,-1,-1,-1,-1,-1,-1],"loss_changes":[1.0341381E6,5.258125E2,2.7498222E6,0E0,0E0,3.900295E5,4.455525E4,5.976416E1,1.9449075E5,5.2960205E1,1.1384375E2,1.9040418E0,1.8366455E1,1.37794E5,0E0,3.4611454E0,1.1531006E1,0E0,0E0,1.6755795E0,0E0,5.804199E0,0E0,0E0,3.624425E4,1.790288E0,4.937966E-1,3.0240479E0,3.6000977E0,0E0,0E0,0E0,0E0,0E0,0E0,0E0,0E0,0E0,0E0,0E0,0E0,0E0,0E0],"parents":[2147483647,0,0,1,1,2,2,5,5,6,6,7,7,8,8,9,9,10,10,11,11,12,12,13,13,15,15,16,16,19,19,21,21,24,24,25,25,26,26,27,27,28,28],"right_children":[2,4,6,-1,-1,8,10,12,14,16,18,20,22,24,-1,26,28,-1,-1,30,-1,32,-1,-1,34,36,38,40,42,-1,-1,-1,-1,-1,-1,-1,-1,-1,-1,-1,-1,-1,-1],"split_conditions":[9E0,3.2292625E1,1.6E1,-9.200581E-1,-8.3148825E-1,1E1,1.7E1,1.2387596E1,1.5E1,5.327835E0,5.0918226E0,6E0,3.214165E1,1.1E1,1.0897744E0,3E0,2.5200344E1,-8.07421E-1,-9.308618E-1,4E0,-2.8092067E-3,2.282672E1,2.237012E-1,1.5804368E0,1.4E1,1E1,3.6921978E0,2E0,5E0,2.2730332E-2,8.151932E-2,1.8806432E-1,1.5631135E-1,3.2166214E0,2.4146376E0,-3.5513233E-2,-1.1142025E-1,-5.5499556E-3,-3.2654252E-2,-1.1342464E-1,-1.55828E-1,-2.1137074E-1,-4.6530962E-2],"split_indices":[0,4,0,0,0,0,0,4,0,4,4,1,4,0,0,1,4,0,0,1,0,4,0,0,0,2,4,2,2,0,0,0,0,0,0,0,0,0,0,0,0,0,0],"split_type":[0,0,0,0,0,0,0,0,0,0,0,0,0,0,0,0,0,0,0,0,0,0,0,0,0,0,0,0,0,0,0,0,0,0,0,0,0,0,0,0,0,0,0],"sum_hessian":[5.151E3,1.97E3,3.181E3,1.645E3,3.25E2,1.489E3,1.692E3,2.21E2,1.268E3,2.14E2,1.478E3,8E0,2.13E2,1.05E3,2.18E2,1.3E1,2.01E2,7.8E1,1.4E3,6E0,2E0,1.75E2,3.8E1,2.1E2,8.4E2,5E0,8E0,1.81E2,2E1,4E0,2E0,9.1E1,8.4E1,6.36E2,2.04E2,3E0,2E0,3E0,5E0,1.8E1,1.63E2,1.9E1,1E0],"tree_param":{"num_deleted":"0","num_feature":"6","num_nodes":"43","size_leaf_vector":"1"}},{"base_weights":[-7.167598E-2,-1.7211079E1,1.048749E1,-8.749348E-1,-7.878079E-1,4.0529503E1,-1.5768379E1,3.390808E0,4.676457E1,-2.9636385E0,-1.756788E1,2.1776226E0,3.5581322E0,5.191425E1,1.0290534E0,-9.2527443E-1,-3.0908697E0,-8.145691E-1,-8.880479E-1,5.0753593E-1,1.1754022E-1,3.617724E0,6.2968636E-1,1.5028332E0,5.738181E1,-1.5072651E0,-4.344724E-1,-2.9734359E0,-2.0024867E-1,3.5568174E-2,-2.5986673E-3,1.7064945E-1,2.2163141E-1,-3.0243397E-3,4.0867567E-2,3.0638537E0,2.29381E0,-2.7998194E-2,-9.204624E-2,-5.341816E-3,-2.902422E-2,-1.1482532E-1,-1.5284567E-1],"categories":[],"categories_nodes":[],"categories_segments":[],"categories_sizes":[],"default_left":[0,0,0,0,0,0,0,0,0,0,0,0,0,0,0,0,0,0,0,0,0,0,0,0,0,0,0,0,0,0,0,0,0,0,0,0,0,0,0,0,0,0,0],"id":9,"left_children":[1,3,5,-1,-1,7,9,11,13,15,17,19,21,23,-1,25,27,-1,-1,29,-1,31,33,-1,35,37,39,41,-1,-1,-1,-1,-1,-1,-1,-1,-1,-1,-1,-1,-1,-1,-1],"loss_changes":[9.4615125E5,5.583125E2,2.5523395E6,0E0,0E0,3.4926875E5,3.974175E4,3.6504883E1,1.7314075E5,5.2639526E1,8.38125E1,7.194504E0,3.087915E1,1.27224E5,0E0,3.3441248E0,9.668091E0,0E0,0E0,4.9314547E-1,0E0,1.5903809E1,6.970457E-1,0E0,3.58215E4,8.656063E-1,3.6853218E-1,3.2642822E0,0E0,0E0,0E0,0E0,0E0,0E0,0E0,0E0,0E0,0E0,0E0,0E0,0E0,0E0,0E0],"parents":[2147483647,0,0,1,1,2,2,5,5,6,6,7,7,8,8,9,9,10,10,11,11,12,12,13,13,15,15,16,16,19,19,21,21,22,22,24,24,25,25,26,26,27,27],"right_children":[2,4,6,-1,-1,8,10,12,14,16,18,20,22,24,-1,26,28,-1,-1,30,-1,32,34,-1,36,38,40,42,-1,-1,-1,-1,-1,-1,-1,-1,-1,-1,-1,-1,-1,-1,-1],"split_conditions":[9E0,3.2292625E1,1.6E1,-8.749348E-1,-7.878079E-1,1E1,1.7E1,1.435299E1,1.5E1,5.327835E0,7.1494527E0,1.1128602E1,6.4432234E-1,1.1E1,1.0290534E0,3E0,2.558563E1,-8.145691E-1,-8.880479E-1,3E0,1.1754022E-1,3.214165E1,2.7504587E1,1.5028332E0,1.4E1,1E0,3.6921978E0,4.3984535E-1,-2.0024867E-1,3.5568174E-2,-2.5986673E-3,1.7064945E-1,2.2163141E-1,-3.0243397E-3,4.0867567E-2,3.0638537E0,2.29381E0,-2.7998194E-2,-9.204624E-2,-5.341816E-3,-2.902422E-2,-1.1482532E-1,-1.5284567E-1],"split_indices":[0,4,0,0,0,0,0,4,0,4,4,4,5,0,0,1,4,0,0,1,0,4,4,0,0,1,4,5,0,0,0,0,0,0,0,0,0,0,0,0,0,0,0],"split_type":[0,0,0,0,0,0,0,0,0,0,0,0,0,0,0,0,0,0,0,0,0,0,0,0,0,0,0,0,0,0,0,0,0,0,0,0,0,0,0,0,0,0,0],"sum_hessian":[5.226E3,1.992E3,3.234E3,1.654E3,3.38E2,1.508E3,1.726E3,2.17E2,1.291E3,2.13E2,1.513E3,2.8E1,1.89E2,1.078E3,2.13E2,1.3E1,2E2,2.1E2,1.303E3,3E0,2.5E1,1.85E2,4E0,2.17E2,8.61E2,5E0,8E0,1.81E2,1.9E1,2E0,1E0,1.52E2,3.3E1,1E0,3E0,6.4E2,2.21E2,2E0,3E0,3E0,5E0,2.3E1,1.58E2],"tree_param":{"num_deleted":"0","num_feature":"6","num_nodes":"43","size_leaf_vector":"1"}},{"base_weights":[-8.5967846E-2,-1.6339104E1,1.0069688E1,-8.311941E-1,-7.497274E-1,3.810732E1,-1.4957929E1,3.2304811E0,4.4009125E1,-2.722384E0,-1.6684814E1,3.0289283E0,2.1101479E-1,4.902827E1,9.8489636E-1,-1.5772686E0,-2.9623368E0,-7.725354E-1,-8.437765E-1,3.3233695E0,2.353774E0,1.4304103E0,5.433159E1,-8.7162554E-1,-1.9525759E0,-2.7999444E0,-3.83356E0,3.3795644E-2,1.7140238E-1,1.2349438E-1,3.0288562E-2,2.8931835E0,2.184783E0,-2.3655053E-2,-6.95281E-2,-1.0057318E-1,-1.4953995E-2,-9.0888344E-2,-1.4448321E-1,-1.9650213E-1,-4.0361453E-2],"categories":[],"categories_nodes":[],"categories_segments":[],"categories_sizes":[],"default_left":[0,0,0,0,0,0,0,0,0,0,0,0,0,0,0,0,0,0,0,0,0,0,0,0,0,0,0,0,0,0,0,0,0,0,0,0,0,0,0,0,0],"id":10,"left_children":[1,3,5,-1,-1,7,9,11,13,15,17,19,-1,21,-1,23,25,-1,-1,27,29,-1,31,33,35,37,39,-1,-1,-1,-1,-1,-1,-1,-1,-1,-1,-1,-1,-1,-1],"loss_changes":[8.442877E5,5.03875E2,2.2095692E6,0E0,0E0,3.0552475E5,3.5113875E4,3.0309082E1,1.540015E5,5.220581E1,8.240625E1,2.855664E1,0E0,1.12371E5,0E0,8.3617325E0,1.3317871E1,0E0,0E0,3.232422E1,1.0478851E1,0E0,2.88025E4,2.4442577E0,1.7353058E0,7.7009277E0,3.835266E0,0E0,0E0,0E0,0E0,0E0,0E0,0E0,0E0,0E0,0E0,0E0,0E0,0E0,0E0],"parents":[2147483647,0,0,1,1,2,2,5,5,6,6,7,7,8,8,9,9,10,10,11,11,13,13,15,15,16,16,19,19,20,20,22,22,23,23,24,24,25,25,26,26],"right_children":[2,4,6,-1,-1,8,10,12,14,16,18,20,-1,22,-1,24,26,-1,-1,28,30,-1,32,34,36,38,40,-1,-1,-1,-1,-1,-1,-1,-1,-1,-1,-1,-1,-1,-1],"split_conditions":[9E0,3.214165E1,1.6E1,-8.311941E-1,-7.497274E-1,1E1,1.7E1,3.214165E1,1.5E1,6.7623773E0,7.1494527E0,2.7210932E1,2.1101479E-1,1.1E1,9.8489636E-1,5.327835E0,2.5200344E1,-7.725354E-1,-8.437765E-1,1.203107E1,6.358227E-1,1.4304103E0,1.4E1,1E1,6.6415133E0,2E0,5E0,3.3795644E-2,1.7140238E-1,1.2349438E-1,3.0288562E-2,2.8931835E0,2.184783E0,-2.3655053E-2,-6.95281E-2,-1.0057318E-1,-1.4953995E-2,-9.0888344E-2,-1.4448321E-1,-1.9650213E-1,-4.0361453E-2],"split_indices":[0,4,0,0,0,0,0,4,0,4,4,4,0,0,0,4,4,0,0,4,5,0,0,2,4,2,2,0,0,0,0,0,0,0,0,0,0,0,0,0,0],"split_type":[0,0,0,0,0,0,0,0,0,0,0,0,0,0,0,0,0,0,0,0,0,0,0,0,0,0,0,0,0,0,0,0,0,0,0,0,0,0,0,0,0],"sum_hessian":[5.113E3,1.966E3,3.147E3,1.613E3,3.53E2,1.484E3,1.663E3,2.15E2,1.269E3,2.06E2,1.457E3,1.82E2,3.3E1,1.051E3,2.18E2,3.7E1,1.69E2,2.06E2,1.251E3,1.24E2,5.8E1,2.18E2,8.33E2,1.4E1,2.3E1,1.46E2,2.3E1,5E0,1.19E2,5.4E1,4E0,6.22E2,2.11E2,9E0,5E0,2.2E1,1E0,1.4E1,1.32E2,2.2E1,1E0],"tree_param":{"num_deleted":"0","num_feature":"6","num_nodes":"41","size_leaf_vector":"1"}},{"base_weights":[-1.6986386E-1,-1.5539203E1,9.160034E0,-7.856414E-1,-6.873266E-1,3.658392E1,-1.4159498E1,3.032823E0,4.23065E1,-2.613718E0,-1.5843121E1,2.8548322E0,2.168899E-1,4.6848286E1,9.352197E-1,-6.713276E-1,-2.7313244E0,-7.3248076E-1,-8.0094206E-1,7.860797E-1,2.9170055E0,1.3547367E0,5.1777973E1,-1.3759149E0,-4.392368E-1,-2.5948424E0,-1.8160199E-1,4.7538932E-2,-5.052853E-3,1.6310029E-1,1.2459061E-1,2.769027E0,2.0779676E0,-1.4004326E-2,-8.918929E-2,1.6659498E-4,-5.297497E-2,-9.251697E-2,-1.352474E-1],"categories":[],"categories_nodes":[],"categories_segments":[],"categories_sizes":[],"default_left":[0,0,0,0,0,0,0,0,0,0,0,0,0,0,0,0,0,0,0,0,0,0,0,0,0,0,0,0,0,0,0,0,0,0,0,0,0,0,0],"id":11,"left_children":[1,3,5,-1,-1,7,9,11,13,15,17,19,-1,21,-1,23,25,-1,-1,27,29,-1,31,33,35,37,-1,-1,-1,-1,-1,-1,-1,-1,-1,-1,-1,-1,-1],"loss_changes":[7.3948375E5,3.903125E2,2.0527126E6,0E0,0E0,2.8306988E5,3.368475E4,3.7787476E1,1.3419025E5,4.8879517E1,8.2875E1,2.2530884E1,0E0,1.0142925E5,0E0,1.6850429E0,1.6268066E1,0E0,0E0,1.1188564E0,1.93031E1,0E0,2.876875E4,8.412552E-1,3.2976358E0,1.0160156E1,0E0,0E0,0E0,0E0,0E0,0E0,0E0,0E0,0E0,0E0,0E0,0E0,0E0],"parents":[2147483647,0,0,1,1,2,2,5,5,6,6,7,7,8,8,9,9,10,10,11,11,13,13,15,15,16,16,19,19,20,20,22,22,23,23,24,24,25,25],"right_children":[2,4,6,-1,-1,8,10,12,14,16,18,20,-1,22,-1,24,26,-1,-1,28,30,-1,32,34,36,38,-1,-1,-1,-1,-1,-1,-1,-1,-1,-1,-1,-1,-1],"split_conditions":[9E0,3.3872932E1,1.6E1,-7.856414E-1,-6.873266E-1,1E1,1.7E1,3.3457787E1,1.5E1,5.327835E0,6.964152E0,1.2387596E1,2.168899E-1,1.1E1,9.352197E-1,4.0991402E-1,2.5200344E1,-7.3248076E-1,-8.0094206E-1,1.214982E1,2.4902685E1,1.3547367E0,1.4E1,9E0,5.52769E-1,4.4097343E-1,-1.8160199E-1,4.7538932E-2,-5.052853E-3,1.6310029E-1,1.2459061E-1,2.769027E0,2.0779676E0,-1.4004326E-2,-8.918929E-2,1.6659498E-4,-5.297497E-2,-9.251697E-2,-1.352474E-1],"split_indices":[0,4,0,0,0,0,0,4,0,4,4,4,0,0,0,5,4,0,0,4,4,0,0,2,5,5,0,0,0,0,0,0,0,0,0,0,0,0,0],"split_type":[0,0,0,0,0,0,0,0,0,0,0,0,0,0,0,0,0,0,0,0,0,0,0,0,0,0,0,0,0,0,0,0,0,0,0,0,0,0,0],"sum_hessian":[5.155E3,1.947E3,3.208E3,1.768E3,1.79E2,1.474E3,1.734E3,2.15E2,1.259E3,2.21E2,1.513E3,1.92E2,2.3E1,1.055E3,2.04E2,1.3E1,2.08E2,2.05E2,1.308E3,6E0,1.86E2,2.12E2,8.43E2,2E0,1.1E1,1.84E2,2.4E1,5E0,1E0,9.9E1,8.7E1,6.2E2,2.23E2,1E0,1E0,7E0,4E0,2.6E1,1.58E2],"tree_param":{"num_deleted":"0","num_feature":"6","num_nodes":"39","size_leaf_vector":"1"}},{"base_weights":[-9.989149E-4,-1.4775571E1,9.066677E0,-7.505203E-1,-6.7640126E-1,3.474439E1,-1.3429052E1,2.9058478E0,3.9799004E1,-2.4554307E0,-1.5066468E1,1.6688721E0,3.0589545E0,4.4341095E1,8.8623995E-1,-1.4058591E0,-2.6690927E0,-6.244404E-1,-7.5708073E-1,8.8041264E-1,9.9406146E-2,2.8586962E0,1.8625349E-1,1.2806636E0,4.9047768E1,-7.0815736E-1,-1.7543079E0,-2.5552084E0,-1.7183982E-1,6.0454655E-2,-8.998967E-3,1.7364012E-1,1.1790627E-1,2.6265733E0,1.9738816E0,-7.049942E-2,-1.0812149E-2,-1.0265775E-1,-3.2492176E-2,-1.4170061E-1,-1.1599713E-1],"categories":[],"categories_nodes":[],"categories_segments":[],"categories_sizes":[],"default_left":[0,0,0,0,0,0,0,0,0,0,0,0,0,0,0,0,0,0,0,0,0,0,0,0,0,0,0,0,0,0,0,0,0,0,0,0,0,0,0,0,0],"id":12,"left_children":[1,3,5,-1,-1,7,9,11,13,15,17,19,21,23,-1,25,27,-1,-1,29,-1,31,-1,-1,33,35,37,39,-1,-1,-1,-1,-1,-1,-1,-1,-1,-1,-1,-1,-1],"loss_changes":[6.957115E5,3.7553125E2,1.8593085E6,0E0,0E0,2.4176438E5,3.0796719E4,3.4098633E1,1.2925525E5,4.648047E1,1.00125E2,4.5425415E0,1.3762451E1,9.35005E4,0E0,8.482201E0,7.3927E0,0E0,0E0,3.354383E0,0E0,3.6384155E1,0E0,0E0,2.6531375E4,4.873711E0,7.24749E0,4.248047E0,0E0,0E0,0E0,0E0,0E0,0E0,0E0,0E0,0E0,0E0,0E0,0E0,0E0],"parents":[2147483647,0,0,1,1,2,2,5,5,6,6,7,7,8,8,9,9,10,10,11,11,12,12,13,13,15,15,16,16,19,19,21,21,24,24,25,25,26,26,27,27],"right_children":[2,4,6,-1,-1,8,10,12,14,16,18,20,22,24,-1,26,28,-1,-1,30,-1,32,-1,-1,34,36,38,40,-1,-1,-1,-1,-1,-1,-1,-1,-1,-1,-1,-1,-1],"split_conditions":[9E0,3.2292625E1,1.6E1,-7.505203E-1,-6.7640126E-1,1E1,1.7E1,1.401231E1,1.5E1,6.7623773E0,4.28205E0,1.2387596E1,3.198216E1,1.1E1,8.8623995E-1,5.0918226E0,2.558563E1,-6.244404E-1,-7.5708073E-1,1.214982E1,9.9406146E-2,2.2326242E1,1.8625349E-1,1.2806636E0,1.4E1,3E0,6.366954E0,1.5890563E1,-1.7183982E-1,6.0454655E-2,-8.998967E-3,1.7364012E-1,1.1790627E-1,2.6265733E0,1.9738816E0,-7.049942E-2,-1.0812149E-2,-1.0265775E-1,-3.2492176E-2,-1.4170061E-1,-1.1599713E-1],"split_indices":[0,4,0,0,0,0,0,4,0,4,4,4,4,0,0,4,4,0,0,4,0,4,0,0,0,1,4,4,0,0,0,0,0,0,0,0,0,0,0,0,0],"split_type":[0,0,0,0,0,0,0,0,0,0,0,0,0,0,0,0,0,0,0,0,0,0,0,0,0,0,0,0,0,0,0,0,0,0,0,0,0,0,0,0,0],"sum_hessian":[5.191E3,1.974E3,3.217E3,1.652E3,3.22E2,1.502E3,1.715E3,2.06E2,1.296E3,2.23E2,1.492E3,2.4E1,1.82E2,1.074E3,2.22E2,3.9E1,1.84E2,4.7E1,1.445E3,8E0,1.6E1,1.44E2,3.8E1,2.17E2,8.57E2,1.4E1,2.5E1,1.64E2,2E1,6E0,2E0,6.2E1,8.2E1,6.25E2,2.32E2,5E0,9E0,1.9E1,6E0,7E1,9.4E1],"tree_param":{"num_deleted":"0","num_feature":"6","num_nodes":"41","size_leaf_vector":"1"}},{"base_weights":[-3.1966634E-2,5.6130195E-1,-5.9683633E0,-6.6121807E0,7.501611E-1,-3.7964468E0,-8.626666E0,-8.800448E0,-4.4578953E0,1.9360006E0,-7.599966E-2,-2.2048042E0,-9.454171E0,-9.021611E0,-4.1608176E0,-6.6305776E0,-6.074193E-1,-9.182993E0,-1.6985015E0,-1.1828127E0,3.224127E0,1.7925183E0,-1.6625937E0,4.8535476E0,-3.4902205E0,-8.7437385E-1,-1.0446415E1,-8.120705E0,-5.136679E-1,-9.915304E0,3.3347561E0,-8.797656E0,6.3934474E0,-4.686585E0,-4.9414712E-1,-2.881639E0,3.5421462E0,2.376416E0,-4.430057E0,4.497682E0,-1.6564456E0,-9.7661996E-1,3.3686318E0,4.0393928E-1,-4.2400403E0,-9.111696E0,1.0714369E1,-7.3655667E0,-2.9391005E0,-2.9742044E-1,4.4182544E0,-1.0687737E1,-3.0226786E0,-9.094567E0,-7.1721215E0,-3.2772777E0,-5.5131394E-1,-4.4877124E0,1.423477E1,-2.8665894E-1,-4.940384E-1,-4.2169124E-1,7.95777E-1,-1.24494486E-1,-3.3683416E-1,3.485721E-1,-2.4104205E-1,-2.4856742E-1,1.5784153E0,-1.7413627E-1,2.0398472E-1,-4.685661E-1,-1.6273697E-1,-3.408575E-2,2.793807E-1,-3.2123348E-1,8.921426E-3,-3.4723374E-1,3.4758564E-2,-1.7504692E-1,2.1824817E-1,1.4444181E-1,-2.496428E-1,-1.074234E-1,-3.6239657E-1,4.6756896E-1,-6.1010957E-1,2.4706915E-1,9.5727634E-1,-5.199211E-1,-1.0831896E-1,-2.7970114E-1,-1.0105802E-1,5.24689E-1,-3.452081E-1,-2.2541752E-1,-5.5684155E-1,-3.2336125E-1,9.666033E-2,-5.041957E-1,-2.1552019E-1,-2.0699213E-1,-4.4439968E-1,-3.0285922E-1,5.706339E-2,-5.000798E-1,5.770427E-1,1.1654413E0,-3.2468483E-1],"categories":[],"categories_nodes":[],"categories_segments":[],"categories_sizes":[],"default_left":[0,0,0,0,0,0,0,0,0,0,0,0,0,0,0,0,0,0,0,0,0,0,0,0,0,0,0,0,0,0,0,0,0,0,0,0,0,0,0,0,0,0,0,0,0,0,0,0,0,0,0,0,0,0,0,0,0,0,0,0,0,0,0,0,0,0,0,0,0,0,0,0,0,0,0,0,0,0,0,0,0,0,0,0,0,0,0,0,0,0,0,0,0,0,0,0,0,0,0,0,0,0,0,0,0,0,0,0,0],"id":13,"left_children":[1,3,5,7,9,11,13,15,17,19,21,23,25,27,29,31,-1,33,35,37,39,41,43,45,47,49,51,53,-1,55,57,59,61,63,-1,65,67,69,71,73,75,77,79,81,83,85,87,89,91,-1,93,95,97,99,101,103,-1,105,107,-1,-1,-1,-1,-1,-1,-1,-1,-1,-1,-1,-1,-1,-1,-1,-1,-1,-1,-1,-1,-1,-1,-1,-1,-1,-1,-1,-1,-1,-1,-1,-1,-1,-1,-1,-1,-1,-1,-1,-1,-1,-1,-1,-1,-1,-1,-1,-1,-1,-1],"loss_changes":[1.8257242E4,6.3900283E3,2.6866191E3,5.3118066E2,4.499882E3,2.3294802E3,3.3461816E2,3.4806006E2,8.0582214E2,7.5806787E3,8.031061E3,1.8768887E3,4.761211E2,1.342207E2,8.5259546E2,1.1287625E3,0E0,2.6069824E1,2.644239E2,6.390369E3,8.305377E3,5.432698E3,7.8048584E3,2.7167559E3,3.4997778E2,2.1426642E2,5.9061523E1,4.2855957E1,0E0,4.498535E1,8.312666E2,5.2884277E1,9.813487E2,5.743614E0,0E0,6.8325E2,2.0657412E3,2.6488625E3,1.6478823E3,5.9820684E3,2.4246445E3,4.5145864E3,5.442868E3,1.0930555E4,4.0863047E3,6.847078E2,1.0248728E3,3.0860913E2,3.6400085E2,0E0,3.4760928E2,8.577197E1,6.3714798E1,2.1212695E2,2.9619702E2,4.3762302E1,0E0,6.457049E2,9.0372534E2,0E0,0E0,0E0,0E0,0E0,0E0,0E0,0E0,0E0,0E0,0E0,0E0,0E0,0E0,0E0,0E0,0E0,0E0,0E0,0E0,0E0,0E0,0E0,0E0,0E0,0E0,0E0,0E0,0E0,0E0,0E0,0E0,0E0,0E0,0E0,0E0,0E0,0E0,0E0,0E0,0E0,0E0,0E0,0E0,0E0,0E0,0E0,0E0,0E0,0E0],"parents":[2147483647,0,0,1,1,2,2,3,3,4,4,5,5,6,6,7,7,8,8,9,9,10,10,11,11,12,12,13,13,14,14,15,15,17,17,18,18,19,19,20,20,21,21,22,22,23,23,24,24,25,25,26,26,27,27,29,29,30,30,31,31,32,32,33,33,35,35,36,36,37,37,38,38,39,39,40,40,41,41,42,42,43,43,44,44,45,45,46,46,47,47,48,48,50,50,51,51,52,52,53,53,54,54,55,55,57,57,58,58],"right_children":[2,4,6,8,10,12,14,16,18,20,22,24,26,28,30,32,-1,34,36,38,40,42,44,46,48,50,52,54,-1,56,58,60,62,64,-1,66,68,70,72,74,76,78,80,82,84,86,88,90,92,-1,94,96,98,100,102,104,-1,106,108,-1,-1,-1,-1,-1,-1,-1,-1,-1,-1,-1,-1,-1,-1,-1,-1,-1,-1,-1,-1,-1,-1,-1,-1,-1,-1,-1,-1,-1,-1,-1,-1,-1,-1,-1,-1,-1,-1,-1,-1,-1,-1,-1,-1,-1,-1,-1,-1,-1,-1],"split_conditions":[3.1851648E1,5.327835E0,3.3872932E1,1E1,6E0,5E0,1E0,4.6827736E0,3.6921978E0,2.3571543E1,1.3810101E1,1E0,3.198216E1,4E0,4E0,4.28205E0,-6.074193E-1,1E0,5.0918226E0,2E0,2.9871277E1,9.078647E0,8E0,3E0,3.214165E1,5E0,1E0,4E0,-5.136679E-1,2E0,3.494934E1,2E0,4E0,2.8415768E0,-4.9414712E-1,1E0,4E0,1.698107E1,2.0585646E1,2E0,3E0,9E0,8E0,2.330442E1,1.6782984E1,3.198216E1,3.3167538E1,5E0,3E0,-2.9742044E-1,6E0,3.214165E1,3E0,3.6324226E1,3.494934E1,1E0,-5.5131394E-1,5E0,4E0,-2.8665894E-1,-4.940384E-1,-4.2169124E-1,7.95777E-1,-1.24494486E-1,-3.3683416E-1,3.485721E-1,-2.4104205E-1,-2.4856742E-1,1.5784153E0,-1.7413627E-1,2.0398472E-1,-4.685661E-1,-1.6273697E-1,-3.408575E-2,2.793807E-1,-3.2123348E-1,8.921426E-3,-3.4723374E-1,3.4758564E-2,-1.7504692E-1,2.1824817E-1,1.4444181E-1,-2.496428E-1,-1.074234E-1,-3.6239657E-1,4.6756896E-1,-6.1010957E-1,2.4706915E-1,9.5727634E-1,-5.199211E-1,-1.0831896E-1,-2.7970114E-1,-1.0105802E-1,5.24689E-1,-3.452081E-1,-2.2541752E-1,-5.5684155E-1,-3.2336125E-1,9.666033E-2,-5.041957E-1,-2.1552019E-1,-2.0699213E-1,-4.4439968E-1,-3.0285922E-1,5.706339E-2,-5.000798E-1,5.770427E-1,1.1654413E0,-3.2468483E-1],"split_indices":[4,4,4,2,2,2,3,4,4,4,4,1,4,1,2,4,0,1,4,2,4,4,2,2,4,1,3,2,0,1,4,1,1,4,0,1,1,4,4,2,2,2,2,4,4,4,4,1,2,0,1,4,1,4,4,1,0,1,1,0,0,0,0,0,0,0,0,0,0,0,0,0,0,0,0,0,0,0,0,0,0,0,0,0,0,0,0,0,0,0,0,0,0,0,0,0,0,0,0,0,0,0,0,0,0,0,0,0,0],"split_type":[0,0,0,0,0,0,0,0,0,0,0,0,0,0,0,0,0,0,0,0,0,0,0,0,0,0,0,0,0,0,0,0,0,0,0,0,0,0,0,0,0,0,0,0,0,0,0,0,0,0,0,0,0,0,0,0,0,0,0,0,0,0,0,0,0,0,0,0,0,0,0,0,0,0,0,0,0,0,0,0,0,0,0,0,0,0,0,0,0,0,0,0,0,0,0,0,0,0,0,0,0,0,0,0,0,0,0,0,0],"sum_hessian":[5.182E3,4.712E3,4.7E2,1.2E2,4.592E3,2.6E2,2.1E2,5.8E1,6.2E1,1.885E3,2.707E3,2.04E2,5.6E1,1.92E2,1.8E1,3.7E1,2.1E1,2.2E1,4E1,5.51E2,1.334E3,1.243E3,1.464E3,3.1E1,1.73E2,6E0,5E1,1.16E2,7.6E1,1E1,8E0,3.2E1,5E0,4E0,1.8E1,3.3E1,7E0,2.63E2,2.88E2,1.058E3,2.76E2,4.51E2,7.92E2,8.13E2,6.51E2,9E0,2.2E1,2E1,1.53E2,3E0,3E0,4.8E1,2E0,5.3E1,6.3E1,2E0,8E0,5E0,3E0,1E1,2.2E1,2E0,3E0,3E0,1E0,5E0,2.8E1,6E0,1E0,5.9E1,2.04E2,5.4E1,2.34E2,1.84E2,8.74E2,7.6E1,2E2,9.8E1,3.53E2,1E2,6.92E2,5.57E2,2.56E2,3.85E2,2.66E2,1E0,8E0,1.4E1,8E0,1.2E1,8E0,3.8E1,1.15E2,2E0,1E0,4E0,4.4E1,1E0,1E0,4.3E1,1E1,2.4E1,3.9E1,1E0,1E0,4E0,1E0,2E0,1E0],"tree_param":{"num_deleted":"0","num_feature":"6","num_nodes":"109","size_leaf_vector":"1"}},{"base_weights":[3.4636667E-1,-1.3938956E1,9.016003E0,-7.297629E-1,-6.8024606E-1,3.323159E1,-1.2843464E1,2.7537873E0,3.8251003E1,-2.457138E0,-7.168801E-1,2.547254E0,3.0067158E0,4.2395615E1,8.403463E-1,-1.9185163E0,-2.5378964E0,3.4386864E0,2.3766758E0,1.7087485E-1,2.3608463E0,1.2234329E0,4.658264E1,-1.3146643E-1,-1.2195886E0,-2.6207001E0,-2.02824E0,1.8050061E-1,6.893594E-2,1.20706044E-1,3.951037E-2,8.496534E-2,1.3517521E-1,2.4772677E0,1.8728987E0,-3.780588E-2,-8.5220635E-2,-1.1980422E-1,-1.4155744E-1,-6.861109E-2,-1.2245911E-1],"categories":[],"categories_nodes":[],"categories_segments":[],"categories_sizes":[],"default_left":[0,0,0,0,0,0,0,0,0,0,0,0,0,0,0,0,0,0,0,0,0,0,0,0,0,0,0,0,0,0,0,0,0,0,0,0,0,0,0,0,0],"id":14,"left_children":[1,3,5,-1,-1,7,9,11,13,15,-1,17,19,21,-1,23,25,27,29,-1,31,-1,33,-1,35,37,39,-1,-1,-1,-1,-1,-1,-1,-1,-1,-1,-1,-1,-1,-1],"loss_changes":[6.4042275E5,2.295625E2,1.7038424E6,0E0,0E0,2.3349625E5,2.622225E4,3.6767578E0,1.1580575E5,4.4396973E0,0E0,1.0986816E1,1.6340454E1,8.1276625E4,0E0,1.2691116E1,2.4074707E0,1.375473E0,4.567505E0,0E0,4.246475E0,0E0,2.217725E4,0E0,2.7558994E0,4.9597168E-1,4.9235535E0,0E0,0E0,0E0,0E0,0E0,0E0,0E0,0E0,0E0,0E0,0E0,0E0,0E0,0E0],"parents":[2147483647,0,0,1,1,2,2,5,5,6,6,7,7,8,8,9,9,11,11,12,12,13,13,15,15,16,16,17,17,18,18,20,20,22,22,24,24,25,25,26,26],"right_children":[2,4,6,-1,-1,8,10,12,14,16,-1,18,20,22,-1,24,26,28,30,-1,32,-1,34,-1,36,38,40,-1,-1,-1,-1,-1,-1,-1,-1,-1,-1,-1,-1,-1,-1],"split_conditions":[9E0,3E0,1.6E1,-7.297629E-1,-6.8024606E-1,1E1,1.7E1,5.189029E-1,1.5E1,4.4852513E-1,-7.168801E-1,4.083147E-1,5.616421E-1,1.1E1,8.403463E-1,4.083147E-1,5.845927E-1,1E0,5.147187E-1,1.7087485E-1,3E0,1.2234329E0,1.4E1,-1.3146643E-1,4E0,4E0,6.0664254E-1,1.8050061E-1,6.893594E-2,1.20706044E-1,3.951037E-2,8.496534E-2,1.3517521E-1,2.4772677E0,1.8728987E0,-3.780588E-2,-8.5220635E-2,-1.1980422E-1,-1.4155744E-1,-6.861109E-2,-1.2245911E-1],"split_indices":[0,0,0,0,0,0,0,5,0,5,0,5,5,0,0,5,5,3,5,0,1,0,0,0,1,1,5,0,0,0,0,0,0,0,0,0,0,0,0,0,0],"split_type":[0,0,0,0,0,0,0,0,0,0,0,0,0,0,0,0,0,0,0,0,0,0,0,0,0,0,0,0,0,0,0,0,0,0,0,0,0,0,0,0,0],"sum_hessian":[5.169E3,1.952E3,3.217E3,6.44E2,1.308E3,1.526E3,1.691E3,2.16E2,1.31E3,2.13E2,1.478E3,1.25E2,9.1E1,1.097E3,2.13E2,3.1E1,1.82E2,1.7E1,1.08E2,5.3E1,3.8E1,2.09E2,8.88E2,1.4E1,1.7E1,1.53E2,2.9E1,1.5E1,2E0,1.05E2,3E0,1.5E1,2.3E1,6.67E2,2.21E2,1E1,7E0,8E1,7.3E1,1.3E1,1.6E1],"tree_param":{"num_deleted":"0","num_feature":"6","num_nodes":"41","size_leaf_vector":"1"}},{"base_weights":[6.2433325E-2,-1.8074583E0,3.7849885E-1,-1.0408386E0,-4.493593E0,6.901509E-1,-2.1123245E0,-2.9642122E0,1.5549515E-1,-8.20132E0,-2.7779815E0,1.4448872E0,1.5000208E-1,8.2609236E-1,-5.503452E0,-7.3203474E-1,-4.7584515E0,1.0965984E0,-5.334248E0,-2.1902847E-1,-1.0337568E1,-1.2287283E0,-7.547849E0,7.6732415E-1,3.7260175E0,-5.091894E0,2.9046845E-1,1.7800562E0,-6.4322176E0,-1.921617E0,-7.5651927E0,-6.6753526E0,9.115281E-1,-1.04311285E1,-3.6967602E0,4.937782E0,-9.046861E-1,-6.1363773E0,9.0941185E-1,-4.7901464E0,1.2515818E0,-1.152824E1,-6.499423E0,2.7249095E-1,-6.3464985E0,-8.486156E0,-1.5344042E0,4.5093384E0,4.5003638E-1,-3.6033669E0,4.7586083E0,7.240557E-1,-9.266831E0,1.07477045E1,1.9608578E-1,3.893238E-2,7.216567E0,7.852971E0,-8.243237E0,-7.785126E0,2.9847336E0,-6.7568874E0,-5.219234E-1,-5.626742E-1,-1.3201119E-1,-1.8670143E-1,2.3986511E-1,-3.1245813E-1,-6.174923E-1,-5.706669E-1,-1.3415606E-1,4.728683E-1,4.433031E-2,-3.0525914E-1,4.9171722E-3,-3.8089254E-1,4.2379856E-2,2.2910796E-1,-4.4387656E-1,-2.8665385E-1,-5.979906E-1,-5.8441335E-1,-5.6167662E-2,-1.3625862E-1,5.6228787E-1,-4.983358E-1,3.253749E-1,-2.3727389E-1,-6.2377757E-1,2.7742952E-1,-4.0529653E-1,4.7697338E-1,-1.1028826E-2,-4.682431E-1,3.1878572E-2,-3.2447615E-1,-1.4332727E-3,1.482015E-1,5.119342E-1,2.1428485E-1,-4.7777495E-1,3.9045045E-1,-5.8610344E-1,2.040174E0,-9.955591E-2,6.2355096E-3,4.2270318E-1,3.56255E-2,-3.9752766E-1,5.901913E-1,-6.0469557E-2,-1.9459296E-2,5.3650427E-1,-2.3450927E-1,-5.991064E-1,-2.485374E-1,-6.227874E-1,4.454758E-1,3.4941114E-2,-2.3607199E-1,-3.9455864E-1],"categories":[],"categories_nodes":[],"categories_segments":[],"categories_sizes":[],"default_left":[0,0,0,0,0,0,0,0,0,0,0,0,0,0,0,0,0,0,0,0,0,0,0,0,0,0,0,0,0,0,0,0,0,0,0,0,0,0,0,0,0,0,0,0,0,0,0,0,0,0,0,0,0,0,0,0,0,0,0,0,0,0,0,0,0,0,0,0,0,0,0,0,0,0,0,0,0,0,0,0,0,0,0,0,0,0,0,0,0,0,0,0,0,0,0,0,0,0,0,0,0,0,0,0,0,0,0,0,0,0,0,0,0,0,0,0,0,0,0,0,0],"id":15,"left_children":[1,3,5,7,9,11,13,15,17,19,21,23,25,27,29,31,33,35,37,39,41,43,45,47,49,51,53,55,57,59,61,63,65,67,69,71,73,75,-1,77,-1,79,81,83,85,87,89,91,93,95,97,99,101,103,105,107,109,111,113,115,117,119,-1,-1,-1,-1,-1,-1,-1,-1,-1,-1,-1,-1,-1,-1,-1,-1,-1,-1,-1,-1,-1,-1,-1,-1,-1,-1,-1,-1,-1,-1,-1,-1,-1,-1,-1,-1,-1,-1,-1,-1,-1,-1,-1,-1,-1,-1,-1,-1,-1,-1,-1,-1,-1,-1,-1,-1,-1,-1,-1],"loss_changes":[3.061516E3,1.5376968E3,3.4411108E3,1.3442432E3,1.0331458E3,1.605595E3,4.9170674E3,8.9365027E2,1.8709253E3,8.8444775E2,8.405449E2,2.5365771E3,1.6927834E3,1.8463535E3,1.6765859E3,9.926746E2,7.082449E2,2.3798433E3,1.1116178E3,1.5049904E3,1.12441895E2,6.7782416E2,1.4496765E2,1.5034614E3,2.8628115E3,1.463583E3,2.2067585E3,2.224144E3,8.667272E2,2.468553E3,2.6622852E2,3.767021E2,1.46204E3,7.528003E1,7.9849E2,1.9324355E3,1.0647158E3,5.444789E2,0E0,4.6206863E2,0E0,6.4643555E0,3.2161697E2,2.3003435E3,9.9554364E2,2.9895068E2,2.777069E2,2.3575205E3,2.1595159E3,4.8471985E2,3.2150122E3,9.928663E2,1.5589216E3,7.7387485E3,1.3068643E3,9.6896014E2,2.2174421E3,9.903049E1,3.1576685E2,4.5073706E2,6.3031946E2,2.3056055E2,0E0,0E0,0E0,0E0,0E0,0E0,0E0,0E0,0E0,0E0,0E0,0E0,0E0,0E0,0E0,0E0,0E0,0E0,0E0,0E0,0E0,0E0,0E0,0E0,0E0,0E0,0E0,0E0,0E0,0E0,0E0,0E0,0E0,0E0,0E0,0E0,0E0,0E0,0E0,0E0,0E0,0E0,0E0,0E0,0E0,0E0,0E0,0E0,0E0,0E0,0E0,0E0,0E0,0E0,0E0,0E0,0E0,0E0,0E0],"parents":[2147483647,0,0,1,1,2,2,3,3,4,4,5,5,6,6,7,7,8,8,9,9,10,10,11,11,12,12,13,13,14,14,15,15,16,16,17,17,18,18,19,19,20,20,21,21,22,22,23,23,24,24,25,25,26,26,27,27,28,28,29,29,30,30,31,31,32,32,33,33,34,34,35,35,36,36,37,37,39,39,41,41,42,42,43,43,44,44,45,45,46,46,47,47,48,48,49,49,50,50,51,51,52,52,53,53,54,54,55,55,56,56,57,57,58,58,59,59,60,60,61,61],"right_children":[2,4,6,8,10,12,14,16,18,20,22,24,26,28,30,32,34,36,38,40,42,44,46,48,50,52,54,56,58,60,62,64,66,68,70,72,74,76,-1,78,-1,80,82,84,86,88,90,92,94,96,98,100,102,104,106,108,110,112,114,116,118,120,-1,-1,-1,-1,-1,-1,-1,-1,-1,-1,-1,-1,-1,-1,-1,-1,-1,-1,-1,-1,-1,-1,-1,-1,-1,-1,-1,-1,-1,-1,-1,-1,-1,-1,-1,-1,-1,-1,-1,-1,-1,-1,-1,-1,-1,-1,-1,-1,-1,-1,-1,-1,-1,-1,-1,-1,-1,-1,-1],"split_conditions":[4.3665013E-1,4.2681414E-1,5.9627074E-1,3.9675665E-1,2E0,5.0061053E-1,4E0,3.730415E-1,6E0,4E0,6E0,4.8835558E-1,5.027766E-1,9E0,5E0,3.3528268E-1,3.795177E-1,4.083147E-1,4.255337E-1,4.357043E-1,1E1,4.34143E-1,1E1,4.4222778E-1,1E0,5.012146E-1,5.0322586E-1,7E0,6.01523E-1,2E0,1E1,3E0,7E0,5E0,2E0,6E0,1E0,1E1,9.0941185E-1,2E0,1.2515818E0,5E0,4.3041015E-1,4.3283764E-1,1.1E1,4.3041015E-1,1.1E1,3E0,4.4360483E-1,4.951381E-1,9E0,1E1,2E0,2E0,5.947462E-1,6.822117E-1,2E0,1E0,6.20779E-1,6.492695E-1,5E0,6.0889846E-1,-5.219234E-1,-5.626742E-1,-1.3201119E-1,-1.8670143E-1,2.3986511E-1,-3.1245813E-1,-6.174923E-1,-5.706669E-1,-1.3415606E-1,4.728683E-1,4.433031E-2,-3.0525914E-1,4.9171722E-3,-3.8089254E-1,4.2379856E-2,2.2910796E-1,-4.4387656E-1,-2.8665385E-1,-5.979906E-1,-5.8441335E-1,-5.6167662E-2,-1.3625862E-1,5.6228787E-1,-4.983358E-1,3.253749E-1,-2.3727389E-1,-6.2377757E-1,2.7742952E-1,-4.0529653E-1,4.7697338E-1,-1.1028826E-2,-4.682431E-1,3.1878572E-2,-3.2447615E-1,-1.4332727E-3,1.482015E-1,5.119342E-1,2.1428485E-1,-4.7777495E-1,3.9045045E-1,-5.8610344E-1,2.040174E0,-9.955591E-2,6.2355096E-3,4.2270318E-1,3.56255E-2,-3.9752766E-1,5.901913E-1,-6.0469557E-2,-1.9459296E-2,5.3650427E-1,-2.3450927E-1,-5.991064E-1,-2.485374E-1,-6.227874E-1,4.454758E-1,3.4941114E-2,-2.3607199E-1,-3.9455864E-1],"split_indices":[5,5,5,5,1,5,1,5,1,2,1,5,5,2,2,5,5,5,5,5,2,5,2,5,1,5,5,2,5,2,2,1,2,2,2,2,1,2,0,2,0,2,5,5,2,5,2,1,5,5,2,2,2,1,5,5,1,1,5,5,1,5,0,0,0,0,0,0,0,0,0,0,0,0,0,0,0,0,0,0,0,0,0,0,0,0,0,0,0,0,0,0,0,0,0,0,0,0,0,0,0,0,0,0,0,0,0,0,0,0,0,0,0,0,0,0,0,0,0,0,0],"split_type":[0,0,0,0,0,0,0,0,0,0,0,0,0,0,0,0,0,0,0,0,0,0,0,0,0,0,0,0,0,0,0,0,0,0,0,0,0,0,0,0,0,0,0,0,0,0,0,0,0,0,0,0,0,0,0,0,0,0,0,0,0,0,0,0,0,0,0,0,0,0,0,0,0,0,0,0,0,0,0,0,0,0,0,0,0,0,0,0,0,0,0,0,0,0,0,0,0,0,0,0,0,0,0,0,0,0,0,0,0,0,0,0,0,0,0,0,0,0,0,0,0],"sum_hessian":[5.178E3,7.48E2,4.43E3,5.83E2,1.65E2,3.938E3,4.92E2,2.23E2,3.6E2,5.1E1,1.14E2,1.642E3,2.296E3,2.64E2,2.28E2,1E2,1.23E2,3.08E2,5.2E1,1.1E1,4E1,8.7E1,2.7E1,1.267E3,3.75E2,5.9E1,2.237E3,2.34E2,3E1,8.4E1,1.44E2,2.1E1,7.9E1,1.8E1,1.05E2,1.05E2,2.03E2,5.1E1,1E0,1E1,1E0,2.9E1,1.1E1,6.8E1,1.9E1,2.3E1,4E0,9.8E1,1.169E3,4.6E1,3.29E2,2.5E1,3.4E1,1.9E1,2.218E3,1.78E2,5.6E1,3E0,2.7E1,3.8E1,4.6E1,1.15E2,2.9E1,9E0,1.2E1,3.6E1,4.3E1,7E0,1.1E1,1.1E1,9.4E1,4.9E1,5.6E1,3.2E1,1.71E2,4.2E1,9E0,3E0,7E0,3E0,2.6E1,5E0,6E0,5.4E1,1.4E1,1.5E1,4E0,1.3E1,1E1,2E0,2E0,4.7E1,5.1E1,2.1E1,1.148E3,2.5E1,2.1E1,2.49E2,8E1,1.9E1,6E0,4E0,3E1,5E0,1.4E1,2.2E3,1.8E1,1.65E2,1.3E1,3.6E1,2E1,1E0,2E0,1.5E1,1.2E1,2.5E1,1.3E1,1.2E1,3.4E1,4.3E1,7.2E1],"tree_param":{"num_deleted":"0","num_feature":"6","num_nodes":"121","size_leaf_vector":"1"}},{"base_weights":[7.999747E-2,-1.323156E1,8.003124E0,-1.3495446E1,-5.962405E-1,3.0867815E1,-1.2200717E1,-6.98248E-1,-6.600972E-1,2.6573968E0,3.5761406E1,-2.362934E0,-1.3616776E1,7.0703757E-1,2.7644594E0,3.973617E1,7.9530185E-1,-1.1770346E0,-2.6014886E0,-5.611905E-1,-1.3735512E1,-1.4977677E-1,1.2612686E0,2.5992749E0,2.0044172E-1,1.1592761E0,4.414051E1,-3.8026088E-1,-1.5761466E0,-2.4162862E0,-1.7773083E-1,-6.7447084E-1,-7.243561E-1,-3.0511323E-2,5.381179E-2,9.12824E-2,-1.439565E-2,1.5765397E-1,1.1660247E-1,2.352062E0,1.7717694E0,-4.456403E-2,5.7206987E-3,-8.13896E-2,-8.416367E-3,-1.325333E-1,-1.05789736E-1],"categories":[],"categories_nodes":[],"categories_segments":[],"categories_sizes":[],"default_left":[0,0,0,0,0,0,0,0,0,0,0,0,0,0,0,0,0,0,0,0,0,0,0,0,0,0,0,0,0,0,0,0,0,0,0,0,0,0,0,0,0,0,0,0,0,0,0],"id":16,"left_children":[1,3,5,7,-1,9,11,-1,-1,13,15,17,19,21,23,25,-1,27,29,-1,31,33,35,37,-1,-1,39,41,43,45,-1,-1,-1,-1,-1,-1,-1,-1,-1,-1,-1,-1,-1,-1,-1,-1,-1],"loss_changes":[5.4074075E5,4.9875E2,1.4850985E6,3.390625E1,0E0,2.0808488E5,2.374786E4,0E0,0E0,4.481909E1,1.00780625E5,5.80448E1,2.6975E2,6.362259E0,3.315686E1,7.6973875E4,0E0,1.1484726E1,2.30083E1,0E0,6.665625E1,4.04385E0,7.520238E0,2.0765137E1,0E0,0E0,1.9645125E4,3.6410153E0,1.5436897E0,5.1674194E0,0E0,0E0,0E0,0E0,0E0,0E0,0E0,0E0,0E0,0E0,0E0,0E0,0E0,0E0,0E0,0E0,0E0],"parents":[2147483647,0,0,1,1,2,2,3,3,5,5,6,6,9,9,10,10,11,11,12,12,13,13,14,14,15,15,17,17,18,18,20,20,21,21,22,22,23,23,26,26,27,27,28,28,29,29],"right_children":[2,4,6,8,-1,10,12,-1,-1,14,16,18,20,22,24,26,-1,28,30,-1,32,34,36,38,-1,-1,40,42,44,46,-1,-1,-1,-1,-1,-1,-1,-1,-1,-1,-1,-1,-1,-1,-1,-1,-1],"split_conditions":[9E0,3.214165E1,1.6E1,3E0,-5.962405E-1,1E1,1.7E1,-6.98248E-1,-6.600972E-1,1.3222908E1,1.5E1,6.7623773E0,5.0918226E0,1.2387596E1,3.3457787E1,1.1E1,7.9530185E-1,5.327835E0,2.4902685E1,-5.611905E-1,2.3652086E1,5.3751665E-1,1.2791109E1,1.9434328E1,2.0044172E-1,1.1592761E0,1.4E1,3E0,6.6415133E0,1.729249E1,-1.7773083E-1,-6.7447084E-1,-7.243561E-1,-3.0511323E-2,5.381179E-2,9.12824E-2,-1.439565E-2,1.5765397E-1,1.1660247E-1,2.352062E0,1.7717694E0,-4.456403E-2,5.7206987E-3,-8.13896E-2,-8.416367E-3,-1.325333E-1,-1.05789736E-1],"split_indices":[0,4,0,0,0,0,0,0,0,4,0,4,4,4,4,0,0,4,4,0,4,5,4,4,0,0,0,1,4,4,0,0,0,0,0,0,0,0,0,0,0,0,0,0,0,0,0],"split_type":[0,0,0,0,0,0,0,0,0,0,0,0,0,0,0,0,0,0,0,0,0,0,0,0,0,0,0,0,0,0,0,0,0,0,0,0,0,0,0,0,0,0,0,0,0,0,0],"sum_hessian":[5.125E3,1.912E3,3.213E3,1.583E3,3.29E2,1.507E3,1.706E3,5.91E2,9.92E2,2.23E2,1.284E3,2.15E2,1.491E3,1.2E1,2.11E2,1.069E3,2.15E2,3.7E1,1.78E2,7.5E1,1.416E3,5E0,7E0,1.89E2,2.2E1,2.26E2,8.43E2,1.3E1,2.4E1,1.52E2,2.6E1,1.081E3,3.35E2,4E0,1E0,5E0,2E0,5.8E1,1.31E2,6.29E2,2.14E2,6E0,7E0,2.3E1,1E0,8.1E1,7.1E1],"tree_param":{"num_deleted":"0","num_feature":"6","num_nodes":"47","size_leaf_vector":"1"}},{"base_weights":[-1.0490611E-1,-1.2574567E1,7.3784738E0,-6.6080755E-1,-6.123759E-1,2.933108E1,-1.1660744E1,2.5970523E0,3.3896458E1,-2.2371154E0,-6.4765364E-1,2.1379855E0,2.772809E0,3.7838104E1,7.6079315E-1,-1.58971E0,-2.353813E0,2.2969398E0,1.4550081E0,2.8099031E0,1.0980076E0,1.1080621E0,4.188083E1,-1.0325267E-1,-1.1299497E0,-2.5373807E0,-1.8152616E0,9.991038E-2,1.826425E-1,1.0074177E-1,5.341339E-2,1.5245245E-1,1.2278575E-1,-1.1518733E-2,1.0301937E-1,2.235262E0,1.6884644E0,-1.16877794E-1,-3.896697E-2,-6.778654E-2,-1.3239665E-1,-7.4391596E-2,-1.2182093E-1],"categories":[],"categories_nodes":[],"categories_segments":[],"categories_sizes":[],"default_left":[0,0,0,0,0,0,0,0,0,0,0,0,0,0,0,0,0,0,0,0,0,0,0,0,0,0,0,0,0,0,0,0,0,0,0,0,0,0,0,0,0,0,0],"id":17,"left_children":[1,3,5,-1,-1,7,9,11,13,15,-1,17,19,21,-1,23,25,27,29,31,33,-1,35,-1,37,39,41,-1,-1,-1,-1,-1,-1,-1,-1,-1,-1,-1,-1,-1,-1,-1,-1],"loss_changes":[4.801995E5,2.43125E2,1.3445028E6,0E0,0E0,1.82256E5,2.0954453E4,1.1741455E1,9.337925E4,1.2048218E1,0E0,3.714447E0,6.5440674E0,6.5808125E4,0E0,5.3156433E0,1.269458E1,1.3358643E1,1.0952339E0,5.30249E0,6.8667016E0,0E0,1.764325E4,0E0,6.6462364E0,1.3131348E1,6.137512E0,0E0,0E0,0E0,0E0,0E0,0E0,0E0,0E0,0E0,0E0,0E0,0E0,0E0,0E0,0E0,0E0],"parents":[2147483647,0,0,1,1,2,2,5,5,6,6,7,7,8,8,9,9,11,11,12,12,13,13,15,15,16,16,17,17,18,18,19,19,20,20,22,22,24,24,25,25,26,26],"right_children":[2,4,6,-1,-1,8,10,12,14,16,-1,18,20,22,-1,24,26,28,30,32,34,-1,36,-1,38,40,42,-1,-1,-1,-1,-1,-1,-1,-1,-1,-1,-1,-1,-1,-1,-1,-1],"split_conditions":[9E0,3E0,1.6E1,-6.6080755E-1,-6.123759E-1,1E1,1.7E1,2E0,1.5E1,4.4852513E-1,-6.4765364E-1,5.4186803E-1,6.4432234E-1,1.1E1,7.6079315E-1,4.1314805E-1,9E0,5.2807564E-1,3E0,5E0,5E0,1.1080621E0,1.4E1,-1.0325267E-1,1E0,2E0,1.1E1,9.991038E-2,1.826425E-1,1.0074177E-1,5.341339E-2,1.5245245E-1,1.2278575E-1,-1.1518733E-2,1.0301937E-1,2.235262E0,1.6884644E0,-1.16877794E-1,-3.896697E-2,-6.778654E-2,-1.3239665E-1,-7.4391596E-2,-1.2182093E-1],"split_indices":[0,0,0,0,0,0,0,1,0,5,0,5,5,0,0,5,2,5,2,1,2,0,0,0,1,2,2,0,0,0,0,0,0,0,0,0,0,0,0,0,0,0,0],"split_type":[0,0,0,0,0,0,0,0,0,0,0,0,0,0,0,0,0,0,0,0,0,0,0,0,0,0,0,0,0,0,0,0,0,0,0,0,0,0,0,0,0,0,0],"sum_hessian":[5.144E3,1.929E3,3.215E3,6.38E2,1.291E3,1.493E3,1.722E3,2.18E2,1.275E3,2.08E2,1.514E3,6.4E1,1.54E2,1.052E3,2.23E2,3.4E1,1.74E2,5E1,1.4E1,1.5E2,4E0,2.17E2,8.35E2,1.5E1,1.9E1,1.27E2,4.7E1,4.3E1,7E0,4E0,1E1,8.5E1,6.5E1,2E0,2E0,6.16E2,2.19E2,3E0,1.6E1,1.2E1,1.15E2,3.3E1,1.4E1],"tree_param":{"num_deleted":"0","num_feature":"6","num_nodes":"43","size_leaf_vector":"1"}},{"base_weights":[-1.4004754E-1,-1.1934735E1,7.162531E0,-6.272247E-1,-5.8169734E-1,2.8000996E1,-1.10507765E1,2.5105298E0,3.225412E1,-2.1201243E0,-6.1420304E-1,2.534682E0,1.4376605E0,3.5835957E1,7.255732E-1,-1.6600243E0,-2.2104988E0,2.3431509E0,2.8036919E0,8.1547596E-2,6.947804E-3,1.0514834E0,3.9486416E1,-2.3912382E0,-1.3853259E0,-1.16102986E-1,-1.5880117E0,1.21206455E-1,4.1779246E-2,1.7022394E-1,1.228892E-1,2.1073177E0,1.5978843E0,-5.2421857E-2,-1.3125595E-1,-1.0986709E-1,-5.4538306E-2,-3.009121E-2,-8.6086445E-2],"categories":[],"categories_nodes":[],"categories_segments":[],"categories_sizes":[],"default_left":[0,0,0,0,0,0,0,0,0,0,0,0,0,0,0,0,0,0,0,0,0,0,0,0,0,0,0,0,0,0,0,0,0,0,0,0,0,0,0],"id":18,"left_children":[1,3,5,-1,-1,7,9,11,13,15,-1,17,19,21,-1,23,25,27,29,-1,-1,-1,31,33,35,-1,37,-1,-1,-1,-1,-1,-1,-1,-1,-1,-1,-1,-1],"loss_changes":[4.4306047E5,2.148125E2,1.2060996E6,0E0,0E0,1.6058875E5,1.8653781E4,1.8752441E0,8.019E4,4.937866E0,0E0,4.0959473E0,1.5305681E0,5.624625E4,0E0,4.32016E0,8.118225E0,1.3478577E1,8.465698E0,0E0,0E0,0E0,1.5595E4,7.422638E-2,4.7788277E0,0E0,2.7880478E0,0E0,0E0,0E0,0E0,0E0,0E0,0E0,0E0,0E0,0E0,0E0,0E0],"parents":[2147483647,0,0,1,1,2,2,5,5,6,6,7,7,8,8,9,9,11,11,12,12,13,13,15,15,16,16,17,17,18,18,22,22,23,23,24,24,26,26],"right_children":[2,4,6,-1,-1,8,10,12,14,16,-1,18,20,22,-1,24,26,28,30,-1,-1,-1,32,34,36,-1,38,-1,-1,-1,-1,-1,-1,-1,-1,-1,-1,-1,-1],"split_conditions":[9E0,3E0,1.6E1,-6.272247E-1,-5.8169734E-1,1E1,1.7E1,6.4432234E-1,1.5E1,4.4852513E-1,-6.1420304E-1,5.1596266E-1,5E0,1.1E1,7.255732E-1,4.0278852E-1,5.845927E-1,5.086091E-1,5.36496E-1,8.1547596E-2,6.947804E-3,1.0514834E0,1.4E1,2E0,1E0,-1.16102986E-1,5.917976E-1,1.21206455E-1,4.1779246E-2,1.7022394E-1,1.228892E-1,2.1073177E0,1.5978843E0,-5.2421857E-2,-1.3125595E-1,-1.0986709E-1,-5.4538306E-2,-3.009121E-2,-8.6086445E-2],"split_indices":[0,0,0,0,0,0,0,5,0,5,0,5,1,0,0,5,5,5,5,0,0,0,0,1,1,0,5,0,0,0,0,0,0,0,0,0,0,0,0],"split_type":[0,0,0,0,0,0,0,0,0,0,0,0,0,0,0,0,0,0,0,0,0,0,0,0,0,0,0,0,0,0,0,0,0,0,0,0,0,0,0],"sum_hessian":[5.142E3,1.966E3,3.176E3,6.36E2,1.33E3,1.481E3,1.695E3,2.12E2,1.269E3,2.06E2,1.489E3,2.06E2,6E0,1.055E3,2.14E2,3.7E1,1.69E2,1.26E2,8E1,5E0,1E0,2.1E2,8.45E2,8E0,2.9E1,1.41E2,2.8E1,1.19E2,7E0,2.6E1,5.4E1,6.21E2,2.24E2,2E0,6E0,6E0,2.3E1,4E0,2.4E1],"tree_param":{"num_deleted":"0","num_feature":"6","num_nodes":"39","size_leaf_vector":"1"}},{"base_weights":[1.19674E-1,-6.476422E-1,5.208542E-1,-3.6001956E-1,-2.8309886E0,7.560339E-1,-2.264079E0,-7.163559E-1,2.2399356E0,-1.203858E0,-6.4223747E0,2.1831944E0,5.274288E-1,-1.5048203E0,-8.872949E0,-2.6554341E0,-4.28369E-1,4.185485E0,-3.8991737E0,-1.7450111E0,4.849147E0,-2.429625E0,-7.8148665E0,6.8280923E-1,6.60926E0,2.2656329E0,8.148955E-2,-2.9065855E0,2.116201E0,-4.849805E-1,9.735403E-1,-5.568359E0,-8.0409586E-1,5.9945374E0,-6.036721E-1,7.723795E0,8.272553E-1,-4.475741E-1,1.105087E0,2.8126052E-2,-6.8566456E0,1.2780006E1,-2.6414678E0,-4.2726293E0,7.225362E-1,-8.49659E0,-3.8907623E-1,1.0824946E1,8.3981514E-2,1.3893072E1,3.401792E0,3.7658045E-1,4.581448E0,4.6655366E-1,-6.067308E-1,-9.75419E0,-1.6756718E0,5.93397E0,-3.4133334E0,3.2766992E-1,-2.5465438E-1,-3.154851E-1,1.6336812E-1,2.142962E-1,-1.8301937E-1,4.0966853E-1,-3.7589192E-1,-1.20324185E-2,-1.4896697E-1,-1.660989E-1,5.0332016E-1,-1.5052792E-1,3.509317E-1,3.6147043E-1,-2.8108427E-1,-7.2427385E-2,8.503179E-1,-5.027208E-1,-2.1991459E-1,7.606368E-1,2.638182E-1,1.5001526E-1,-3.811437E-1,-4.4091412E-1,-8.218752E-2,-3.0642623E-1,-4.8364526E-1,2.7861604E-1,-3.1103906E-1,-4.085705E-1,7.584489E-1,-2.8333107E-1,1.0211676E-1,7.3349833E-1,-2.7418837E-1,-2.9921028E-1,2.7912784E-1,-4.3401606E-2,3.2839277E-1,4.778784E-1,1.3944694E-1,-3.81073E-2,5.5239987E-2,-2.6726684E-1,-1.2450109E-2,-5.348317E-1,-3.1483072E-1,-1.0163455E-2,-3.7056333E-1,-3.4564134E-1,3.983368E-1,-2.7478215E-1,7.966401E-2],"categories":[],"categories_nodes":[],"categories_segments":[],"categories_sizes":[],"default_left":[0,0,0,0,0,0,0,0,0,0,0,0,0,0,0,0,0,0,0,0,0,0,0,0,0,0,0,0,0,0,0,0,0,0,0,0,0,0,0,0,0,0,0,0,0,0,0,0,0,0,0,0,0,0,0,0,0,0,0,0,0,0,0,0,0,0,0,0,0,0,0,0,0,0,0,0,0,0,0,0,0,0,0,0,0,0,0,0,0,0,0,0,0,0,0,0,0,0,0,0,0,0,0,0,0,0,0,0,0,0,0,0,0],"id":19,"left_children":[1,3,5,7,9,11,13,15,17,19,21,23,25,27,29,31,33,35,37,39,41,43,45,47,49,51,53,55,57,-1,59,61,63,65,67,69,71,-1,73,75,77,79,81,83,-1,85,87,89,91,93,95,97,99,101,103,105,107,109,111,-1,-1,-1,-1,-1,-1,-1,-1,-1,-1,-1,-1,-1,-1,-1,-1,-1,-1,-1,-1,-1,-1,-1,-1,-1,-1,-1,-1,-1,-1,-1,-1,-1,-1,-1,-1,-1,-1,-1,-1,-1,-1,-1,-1,-1,-1,-1,-1,-1,-1,-1,-1,-1,-1],"loss_changes":[1.5878271E3,1.111133E3,2.220061E3,1.4524387E3,1.196061E3,1.01807263E3,1.3113582E3,7.6837805E2,2.2737246E3,4.7687292E2,3.3684448E2,2.8576736E3,2.088025E3,1.2141964E3,2.2921484E2,9.554426E2,1.3558911E3,1.7046841E3,1.1729132E3,1.1965918E3,7.4664215E2,6.2173254E2,2.3462378E2,1.9607966E3,2.4992617E3,2.4043582E3,5.6872736E2,1.4334109E3,1.4346571E3,0E0,1.349298E2,4.725869E2,1.6149318E3,1.0123635E3,1.00831866E3,1.8447544E3,1.8032318E3,0E0,1.0293673E3,2.5066938E3,2.2306042E2,2.9258118E1,2.1959866E2,1.8865448E2,0E0,6.0499756E1,2.0848973E2,1.6093257E3,3.4576582E3,5.772207E2,1.6094932E3,2.3482454E3,2.1765205E3,1.0799187E3,1.3039229E3,1.7370117E1,1.2399241E3,1.099654E3,3.00665E2,0E0,0E0,0E0,0E0,0E0,0E0,0E0,0E0,0E0,0E0,0E0,0E0,0E0,0E0,0E0,0E0,0E0,0E0,0E0,0E0,0E0,0E0,0E0,0E0,0E0,0E0,0E0,0E0,0E0,0E0,0E0,0E0,0E0,0E0,0E0,0E0,0E0,0E0,0E0,0E0,0E0,0E0,0E0,0E0,0E0,0E0,0E0,0E0,0E0,0E0,0E0,0E0,0E0,0E0],"parents":[2147483647,0,0,1,1,2,2,3,3,4,4,5,5,6,6,7,7,8,8,9,9,10,10,11,11,12,12,13,13,14,14,15,15,16,16,17,17,18,18,19,19,20,20,21,21,22,22,23,23,24,24,25,25,26,26,27,27,28,28,30,30,31,31,32,32,33,33,34,34,35,35,36,36,38,38,39,39,40,40,41,41,42,42,43,43,45,45,46,46,47,47,48,48,49,49,50,50,51,51,52,52,53,53,54,54,55,55,56,56,57,57,58,58],"right_children":[2,4,6,8,10,12,14,16,18,20,22,24,26,28,30,32,34,36,38,40,42,44,46,48,50,52,54,56,58,-1,60,62,64,66,68,70,72,-1,74,76,78,80,82,84,-1,86,88,90,92,94,96,98,100,102,104,106,108,110,112,-1,-1,-1,-1,-1,-1,-1,-1,-1,-1,-1,-1,-1,-1,-1,-1,-1,-1,-1,-1,-1,-1,-1,-1,-1,-1,-1,-1,-1,-1,-1,-1,-1,-1,-1,-1,-1,-1,-1,-1,-1,-1,-1,-1,-1,-1,-1,-1,-1,-1,-1,-1,-1,-1],"split_conditions":[4.795402E-1,1.1E1,6.1546135E-1,1E1,5E0,1E0,1E1,3.9675665E-1,4.6029618E-1,4.7621638E-1,4.083147E-1,5.605771E-1,5.0061053E-1,7E0,1E0,4E0,4.0120563E-1,3E0,2E0,4.5636493E-1,2E0,4.0278852E-1,1E0,4.8401618E-1,4E0,4.9096E-1,5.5951816E-1,6.20779E-1,5E0,-4.849805E-1,3E0,3.9438972E-1,3.6725268E-1,6E0,9E0,4.063086E-1,4.4360483E-1,-4.475741E-1,4E0,4.5292553E-1,4.6451893E-1,4.7774106E-1,4.7687975E-1,3.6001876E-1,7.225362E-1,4.3984535E-1,4.5464307E-1,2E0,5.027766E-1,6.125894E-1,5E0,6E0,4E0,3E0,5.6246495E-1,5E0,6.6678196E-1,6.1804605E-1,6.4432234E-1,3.2766992E-1,-2.5465438E-1,-3.154851E-1,1.6336812E-1,2.142962E-1,-1.8301937E-1,4.0966853E-1,-3.7589192E-1,-1.20324185E-2,-1.4896697E-1,-1.660989E-1,5.0332016E-1,-1.5052792E-1,3.509317E-1,3.6147043E-1,-2.8108427E-1,-7.2427385E-2,8.503179E-1,-5.027208E-1,-2.1991459E-1,7.606368E-1,2.638182E-1,1.5001526E-1,-3.811437E-1,-4.4091412E-1,-8.218752E-2,-3.0642623E-1,-4.8364526E-1,2.7861604E-1,-3.1103906E-1,-4.085705E-1,7.584489E-1,-2.8333107E-1,1.0211676E-1,7.3349833E-1,-2.7418837E-1,-2.9921028E-1,2.7912784E-1,-4.3401606E-2,3.2839277E-1,4.778784E-1,1.3944694E-1,-3.81073E-2,5.5239987E-2,-2.6726684E-1,-1.2450109E-2,-5.348317E-1,-3.1483072E-1,-1.0163455E-2,-3.7056333E-1,-3.4564134E-1,3.983368E-1,-2.7478215E-1,7.966401E-2],"split_indices":[5,2,5,2,1,1,2,5,5,5,5,5,5,2,3,2,5,1,1,5,1,5,3,5,2,5,5,5,1,0,1,5,5,1,2,5,5,0,1,5,5,5,5,5,0,5,5,2,5,5,2,1,2,1,5,1,5,5,5,0,0,0,0,0,0,0,0,0,0,0,0,0,0,0,0,0,0,0,0,0,0,0,0,0,0,0,0,0,0,0,0,0,0,0,0,0,0,0,0,0,0,0,0,0,0,0,0,0,0,0,0,0,0],"split_type":[0,0,0,0,0,0,0,0,0,0,0,0,0,0,0,0,0,0,0,0,0,0,0,0,0,0,0,0,0,0,0,0,0,0,0,0,0,0,0,0,0,0,0,0,0,0,0,0,0,0,0,0,0,0,0,0,0,0,0,0,0,0,0,0,0,0,0,0,0,0,0,0,0,0,0,0,0,0,0,0,0,0,0,0,0,0,0,0,0,0,0,0,0,0,0,0,0,0,0,0,0,0,0,0,0,0,0,0,0,0,0,0,0],"sum_hessian":[5.156E3,1.77E3,3.386E3,1.565E3,2.05E2,3.123E3,2.63E2,1.377E3,1.88E2,1.42E2,6.3E1,4.3E2,2.693E3,2.37E2,2.6E1,1.77E2,1.2E3,1.43E2,4.5E1,1.31E2,1.1E1,1.7E1,4.6E1,3.22E2,1.08E2,5.49E2,2.144E3,1.71E2,6.6E1,2.4E1,2E0,6.8E1,1.09E2,3.1E1,1.169E3,6.9E1,7.4E1,2.2E1,2.3E1,9.8E1,3.3E1,5E0,6E0,1.6E1,1E0,4.2E1,4E0,1.7E1,3.05E2,3.2E1,7.6E1,3.03E2,2.46E2,1.375E3,7.69E2,2.5E1,1.46E2,3.9E1,2.7E1,1E0,1E0,6.3E1,5E0,3.9E1,7E1,2.7E1,4E0,1.015E3,1.54E2,1.2E1,5.7E1,4.6E1,2.8E1,1.2E1,1.1E1,9.1E1,7E0,1.3E1,2E1,3E0,2E0,3E0,3E0,5E0,1.1E1,1.6E1,2.6E1,2E0,2E0,3E0,1.4E1,7.7E1,2.28E2,3.1E1,1E0,1.4E1,6.2E1,2.53E2,5E1,6.4E1,1.82E2,4.7E2,9.05E2,5.3E1,7.16E2,1.8E1,7E0,1.17E2,2.9E1,5E0,3.4E1,1.9E1,8E0],"tree_param":{"num_deleted":"0","num_feature":"6","num_nodes":"113","size_leaf_vector":"1"}},{"base_weights":[8.036709E-2,4.985389E-1,-6.0074444E0,-2.5247064E0,7.076468E-1,-3.98371E0,-7.4593573E0,-5.922702E0,-1.8196157E0,3.340813E0,2.6871598E-1,-7.8212967E0,-3.316475E0,-6.5722036E0,-8.511182E0,4.311301E0,-6.846116E0,-1.841344E-1,-3.2974105E0,-1.6189853E0,4.131573E0,-4.3530306E-1,1.1921839E0,-5.157206E-1,1.7209322E0,-1.7153795E0,-6.515809E0,-4.3337016E0,-7.1942377E0,-4.755414E0,-4.3954283E-1,-4.6335797E0,1.0022706E0,-7.368886E0,8.77264E-1,-9.7199535E-1,1.5958462E0,-6.8074255E0,-9.029198E-1,1.7545112E0,-9.03105E0,6.7419443E0,1.4394351E0,-1.7104195E0,3.5960287E-1,2.0332932E0,-1.2941065E0,9.61612E0,-3.3739498E-1,-3.8069427E0,6.5057116E0,-8.755899E0,5.2954607E0,-5.579274E0,6.701404E-1,-8.334577E0,-4.043631E0,-3.5968322E-1,-5.187473E-1,-3.1240398E-1,5.2479743E-3,-1.9285952E-1,-4.0033427E-1,-2.8120843E-1,5.0953907E-1,2.3977531E-2,-2.719694E-1,-2.2996877E-1,-5.220772E-1,7.5976364E-2,-3.089471E-1,4.4968453E-1,-8.266757E-2,-1.0818758E-2,-5.245573E-1,2.648047E-1,8.2173246E-1,7.1959984E-1,4.978896E-2,-2.1408036E-1,-6.0816955E-2,9.3436934E-2,-1.0662443E-2,2.665004E-2,1.3775773E-1,5.9746194E-4,-2.2529082E-1,-2.8105703E-1,1.002266E0,-4.929381E-1,-4.806981E-2,8.2799953E-1,-1.0941412E-1,-3.609074E-1,-5.218553E-1,8.4748363E-1,-3.8413078E-1,-4.5839903E-1,-1.2878025E-1,-1.990995E-1,-4.372228E-1,-3.7487838E-1,-5.2049648E-2,1.2569329E-1,-2.4041466E-1],"categories":[],"categories_nodes":[],"categories_segments":[],"categories_sizes":[],"default_left":[0,0,0,0,0,0,0,0,0,0,0,0,0,0,0,0,0,0,0,0,0,0,0,0,0,0,0,0,0,0,0,0,0,0,0,0,0,0,0,0,0,0,0,0,0,0,0,0,0,0,0,0,0,0,0,0,0,0,0,0,0,0,0,0,0,0,0,0,0,0,0,0,0,0,0,0,0,0,0,0,0,0,0,0,0,0,0,0,0,0,0,0,0,0,0,0,0,0,0,0,0,0,0,0,0],"id":20,"left_children":[1,3,5,7,9,11,13,15,17,19,21,23,25,27,29,31,33,35,37,39,41,43,45,-1,47,49,51,53,55,57,-1,59,-1,61,63,65,-1,67,69,71,73,75,77,79,81,83,85,87,-1,89,91,93,95,97,-1,99,101,-1,103,-1,-1,-1,-1,-1,-1,-1,-1,-1,-1,-1,-1,-1,-1,-1,-1,-1,-1,-1,-1,-1,-1,-1,-1,-1,-1,-1,-1,-1,-1,-1,-1,-1,-1,-1,-1,-1,-1,-1,-1,-1,-1,-1,-1,-1,-1],"loss_changes":[1.3070336E4,3.0388003E3,9.3991797E2,7.343462E2,5.193167E3,3.3254102E2,1.22291016E2,5.3037756E2,6.253712E2,2.5246206E3,2.5055042E3,4.9354797E2,6.086382E2,1.1920459E2,4.642871E1,7.9658075E2,2.0430444E2,3.1671282E3,1.1368922E3,2.2412522E3,3.8835195E3,2.2173533E3,3.4887317E3,0E0,3.992037E2,1.4347512E3,1.104699E3,6.4917285E2,2.6449658E2,7.890872E1,0E0,3.1257278E1,0E0,7.214526E1,2.9951947E2,7.937328E2,0E0,3.9331274E2,1.0574215E3,1.5444176E3,3.580979E2,3.8509521E3,1.5602046E3,1.061906E3,1.1657594E3,1.3479531E3,1.7702056E3,5.894149E2,0E0,1.1270901E3,1.5222391E3,1.2562988E1,1.1889625E3,2.4586902E2,0E0,7.222217E1,2.4109723E2,0E0,6.412154E1,0E0,0E0,0E0,0E0,0E0,0E0,0E0,0E0,0E0,0E0,0E0,0E0,0E0,0E0,0E0,0E0,0E0,0E0,0E0,0E0,0E0,0E0,0E0,0E0,0E0,0E0,0E0,0E0,0E0,0E0,0E0,0E0,0E0,0E0,0E0,0E0,0E0,0E0,0E0,0E0,0E0,0E0,0E0,0E0,0E0,0E0],"parents":[2147483647,0,0,1,1,2,2,3,3,4,4,5,5,6,6,7,7,8,8,9,9,10,10,11,11,12,12,13,13,14,14,15,15,16,16,17,17,18,18,19,19,20,20,21,21,22,22,24,24,25,25,26,26,27,27,28,28,29,29,31,31,33,33,34,34,35,35,37,37,38,38,39,39,40,40,41,41,42,42,43,43,44,44,45,45,46,46,47,47,49,49,50,50,51,51,52,52,53,53,55,55,56,56,58,58],"right_children":[2,4,6,8,10,12,14,16,18,20,22,24,26,28,30,32,34,36,38,40,42,44,46,-1,48,50,52,54,56,58,-1,60,-1,62,64,66,-1,68,70,72,74,76,78,80,82,84,86,88,-1,90,92,94,96,98,-1,100,102,-1,104,-1,-1,-1,-1,-1,-1,-1,-1,-1,-1,-1,-1,-1,-1,-1,-1,-1,-1,-1,-1,-1,-1,-1,-1,-1,-1,-1,-1,-1,-1,-1,-1,-1,-1,-1,-1,-1,-1,-1,-1,-1,-1,-1,-1,-1,-1],"split_conditions":[3.2792336E1,7.2967734E0,3.3872932E1,4.28205E0,1.1558779E1,3.2915817E1,4E0,4.083147E-1,5.0322586E-1,4.3041015E-1,2.3652086E1,6E0,5E0,4.739258E-1,4.0278852E-1,4.063086E-1,6.031008E-1,5.018733E-1,5.4085374E-1,4.1546106E-1,5.098247E-1,4.854783E-1,2.9871277E1,-5.157206E-1,4.5945272E-1,4E0,5.7523924E-1,4.732181E-1,3.6324226E1,3.523122E1,-4.3954283E-1,3E0,1.0022706E0,4.3984535E-1,6E0,6.7623773E0,1.5958462E0,5.2765095E-1,5.8686286E-1,2E0,1E0,1.1128602E1,7.473834E0,4.0466338E-1,1.51952715E1,2.570511E1,5.482826E-1,4.5720667E-1,-3.3739498E-1,4.854783E-1,4.661227E-1,4.7687975E-1,5.9038097E-1,4.2681414E-1,6.701404E-1,4.9141404E-1,5.2554065E-1,-3.5968322E-1,6E0,-3.1240398E-1,5.2479743E-3,-1.9285952E-1,-4.0033427E-1,-2.8120843E-1,5.0953907E-1,2.3977531E-2,-2.719694E-1,-2.2996877E-1,-5.220772E-1,7.5976364E-2,-3.089471E-1,4.4968453E-1,-8.266757E-2,-1.0818758E-2,-5.245573E-1,2.648047E-1,8.2173246E-1,7.1959984E-1,4.978896E-2,-2.1408036E-1,-6.0816955E-2,9.3436934E-2,-1.0662443E-2,2.665004E-2,1.3775773E-1,5.9746194E-4,-2.2529082E-1,-2.8105703E-1,1.002266E0,-4.929381E-1,-4.806981E-2,8.2799953E-1,-1.0941412E-1,-3.609074E-1,-5.218553E-1,8.4748363E-1,-3.8413078E-1,-4.5839903E-1,-1.2878025E-1,-1.990995E-1,-4.372228E-1,-3.7487838E-1,-5.2049648E-2,1.2569329E-1,-2.4041466E-1],"split_indices":[4,4,4,4,4,4,1,5,5,5,4,1,1,5,5,5,5,5,5,5,5,5,4,0,5,1,5,5,4,4,0,1,0,5,1,4,0,5,5,1,1,4,4,5,4,4,5,5,0,5,5,5,5,5,0,5,5,0,1,0,0,0,0,0,0,0,0,0,0,0,0,0,0,0,0,0,0,0,0,0,0,0,0,0,0,0,0,0,0,0,0,0,0,0,0,0,0,0,0,0,0,0,0,0,0],"split_type":[0,0,0,0,0,0,0,0,0,0,0,0,0,0,0,0,0,0,0,0,0,0,0,0,0,0,0,0,0,0,0,0,0,0,0,0,0,0,0,0,0,0,0,0,0,0,0,0,0,0,0,0,0,0,0,0,0,0,0,0,0,0,0,0,0,0,0,0,0,0,0,0,0,0,0,0,0,0,0,0,0,0,0,0,0,0,0,0,0,0,0,0,0,0,0,0,0,0,0,0,0,0,0,0,0],"sum_hessian":[5.132E3,4.803E3,3.29E2,3.1E2,4.493E3,1.39E2,1.9E2,5.2E1,2.58E2,6.41E2,3.852E3,1.9E1,1.2E2,1.07E2,8.3E1,4E0,4.8E1,1.23E2,1.35E2,8.8E1,5.53E2,2.186E3,1.666E3,1.5E1,4E0,8.1E1,3.9E1,2.5E1,8.2E1,7E0,7.6E1,3E0,1E0,4.5E1,3E0,1.21E2,2E0,5.4E1,8.1E1,6.1E1,2.7E1,2.8E2,2.73E2,8.39E2,1.347E3,1.245E3,4.21E2,2E0,2E0,6.5E1,1.6E1,3.3E1,6E0,2.4E1,1E0,5.9E1,2.3E1,4E0,3E0,2E0,1E0,8E0,3.7E1,2E0,1E0,9.2E1,2.9E1,3.5E1,1.9E1,5.6E1,2.5E1,1.9E1,4.2E1,4E0,2.3E1,2.45E2,3.5E1,8E0,2.65E2,1.34E2,7.05E2,3.7E2,9.77E2,4.05E2,8.4E2,3E2,1.21E2,1E0,1E0,2E1,4.5E1,7E0,9E0,2E1,1.3E1,3E0,3E0,1E1,1.4E1,6E0,5.3E1,1E1,1.3E1,2E0,1E0],"tree_param":{"num_deleted":"0","num_feature":"6","num_nodes":"105","size_leaf_vector":"1"}},{"base_weights":[-2.9417023E-2,4.8243326E-1,-5.06936E0,-6.8938494E-1,1.079128E0,-3.363391E0,-6.8490715E0,-7.684223E-1,1.1812137E1,-5.4576726E0,1.211871E0,1.8605976E0,-4.3614306E0,-5.1520705E0,-7.464881E0,-5.2226067E-1,-3.8273034E0,1.4455858E1,-2.9953393E-1,-4.5442462E-1,-4.105528E0,1.4163274E0,-2.2541769E0,-8.737164E-1,1.2907068E1,-5.7308517E0,-1.6189709E0,-6.0222564E0,7.4195975E-1,-7.9932528E0,-5.8897815E0,-1.5112027E0,4.406237E-1,-5.72562E0,8.513669E0,1.7342598E1,2.901515E0,1.0215985E0,-5.1834407E0,2.7121515E0,9.0697116E-1,-7.3143272E0,-7.914709E-1,-2.0713077E0,9.3623E-1,-2.4082015E-1,1.612705E1,7.175905E0,-5.975218E0,6.3036714E0,-3.53648E0,-7.3967795E0,-4.155685E0,-4.143047E-1,-5.3323913E0,5.763798E-1,-7.9384713E0,-1.1554026E-1,6.044295E-2,1.5979673E-1,-1.8469939E-2,-4.69637E-2,-3.4407833E-1,2.2652178E-1,6.4938825E-1,9.9311143E-1,5.5620242E-2,-3.0489996E-1,5.2251357E-1,-2.707329E-1,7.849499E-1,3.4414712E-1,-2.841054E-1,3.55006E-1,9.435231E-2,1.5528549E-3,1.17404796E-1,-4.9318606E-1,-2.7080962E-1,3.0211005E-1,-1.1376293E-1,-2.2693291E-1,9.419737E-2,1.0185804E0,-2.3350738E-1,7.302829E-1,-1.9208997E-1,-3.163934E-1,2.0704193E-2,-2.8077644E-1,5.816452E-1,-2.629728E-1,3.118555E-1,-2.90604E-1,-4.366405E-1,5.1053166E-3,-2.7575392E-1,-4.1434866E-1,2.403221E-2,-4.361734E-1,3.1583688E-1,-4.2816067E-1,-2.7601478E-1],"categories":[],"categories_nodes":[],"categories_segments":[],"categories_sizes":[],"default_left":[0,0,0,0,0,0,0,0,0,0,0,0,0,0,0,0,0,0,0,0,0,0,0,0,0,0,0,0,0,0,0,0,0,0,0,0,0,0,0,0,0,0,0,0,0,0,0,0,0,0,0,0,0,0,0,0,0,0,0,0,0,0,0,0,0,0,0,0,0,0,0,0,0,0,0,0,0,0,0,0,0,0,0,0,0,0,0,0,0,0,0,0,0,0,0,0,0,0,0,0,0,0,0],"id":21,"left_children":[1,3,5,7,9,11,13,15,17,19,21,23,25,27,29,31,33,35,-1,-1,37,39,41,43,45,47,49,51,-1,53,55,57,59,61,63,65,67,69,71,73,75,77,79,81,-1,-1,83,85,87,89,91,93,95,-1,97,99,101,-1,-1,-1,-1,-1,-1,-1,-1,-1,-1,-1,-1,-1,-1,-1,-1,-1,-1,-1,-1,-1,-1,-1,-1,-1,-1,-1,-1,-1,-1,-1,-1,-1,-1,-1,-1,-1,-1,-1,-1,-1,-1,-1,-1,-1,-1],"loss_changes":[1.3318838E4,3.277978E3,1.4221641E3,1.5722317E3,2.7017354E3,1.2854829E3,2.039873E2,1.1824375E3,5.572573E2,2.6706934E2,2.1610479E3,1.219458E3,7.643718E2,1.2201133E3,9.2737305E1,1.3880751E3,2.7897134E3,2.498695E2,0E0,0E0,2.650453E2,1.8958042E3,1.252468E3,8.133198E2,5.342284E2,4.7497217E2,1.0857146E3,1.3089697E2,0E0,5.1658203E1,6.139448E2,1.5665951E3,1.6505278E3,5.578777E2,2.2630164E2,2.6416382E2,2.6753116E2,9.352123E2,2.737766E2,2.9228564E3,2.6078418E3,1.3046167E2,1.36233E3,3.2083862E2,0E0,0E0,7.1306274E2,3.0168848E2,3.068003E2,9.546076E2,9.926643E2,2.3346436E1,1.684155E2,0E0,2.6160944E2,6.957173E2,5.604248E0,0E0,0E0,0E0,0E0,0E0,0E0,0E0,0E0,0E0,0E0,0E0,0E0,0E0,0E0,0E0,0E0,0E0,0E0,0E0,0E0,0E0,0E0,0E0,0E0,0E0,0E0,0E0,0E0,0E0,0E0,0E0,0E0,0E0,0E0,0E0,0E0,0E0,0E0,0E0,0E0,0E0,0E0,0E0,0E0,0E0,0E0],"parents":[2147483647,0,0,1,1,2,2,3,3,4,4,5,5,6,6,7,7,8,8,9,9,10,10,11,11,12,12,13,13,14,14,15,15,16,16,17,17,20,20,21,21,22,22,23,23,24,24,25,25,26,26,27,27,29,29,30,30,31,31,32,32,33,33,34,34,35,35,36,36,37,37,38,38,39,39,40,40,41,41,42,42,43,43,46,46,47,47,48,48,49,49,50,50,51,51,52,52,54,54,55,55,56,56],"right_children":[2,4,6,8,10,12,14,16,18,20,22,24,26,28,30,32,34,36,-1,-1,38,40,42,44,46,48,50,52,-1,54,56,58,60,62,64,66,68,70,72,74,76,78,80,82,-1,-1,84,86,88,90,92,94,96,-1,98,100,102,-1,-1,-1,-1,-1,-1,-1,-1,-1,-1,-1,-1,-1,-1,-1,-1,-1,-1,-1,-1,-1,-1,-1,-1,-1,-1,-1,-1,-1,-1,-1,-1,-1,-1,-1,-1,-1,-1,-1,-1,-1,-1,-1,-1,-1,-1],"split_conditions":[3.1851648E1,4.788316E-1,3.367473E1,3.1548788E1,5.0918226E0,1E0,4.739258E-1,4.739258E-1,4.622101E-1,5.086091E-1,6.2688196E-1,3.3315002E1,5.269738E-1,4.732181E-1,5.6551474E-1,4.4097343E-1,2.739376E1,3.165797E1,-2.9953393E-1,-4.5442462E-1,1E0,1.425564E1,1.557831E1,1E0,4.7110236E-1,3.3528268E-1,5.424598E-1,4.2908618E-1,7.4195975E-1,3.6966507E1,3E0,2.5476292E1,1.1792728E1,9.930591E0,5E0,6E0,2E0,5.6851923E-1,5.090946E-1,4.932666E-1,2.5200344E1,1.07302E1,1.8538757E1,5.1596266E-1,9.3623E-1,-2.4082015E-1,5.1103634E-1,4E0,1E0,3.214165E1,3.3457787E1,4.0278852E-1,4.375569E-1,-4.143047E-1,5.285928E-1,1E0,1E0,-1.1554026E-1,6.044295E-2,1.5979673E-1,-1.8469939E-2,-4.69637E-2,-3.4407833E-1,2.2652178E-1,6.4938825E-1,9.9311143E-1,5.5620242E-2,-3.0489996E-1,5.2251357E-1,-2.707329E-1,7.849499E-1,3.4414712E-1,-2.841054E-1,3.55006E-1,9.435231E-2,1.5528549E-3,1.17404796E-1,-4.9318606E-1,-2.7080962E-1,3.0211005E-1,-1.1376293E-1,-2.2693291E-1,9.419737E-2,1.0185804E0,-2.3350738E-1,7.302829E-1,-1.9208997E-1,-3.163934E-1,2.0704193E-2,-2.8077644E-1,5.816452E-1,-2.629728E-1,3.118555E-1,-2.90604E-1,-4.366405E-1,5.1053166E-3,-2.7575392E-1,-4.1434866E-1,2.403221E-2,-4.361734E-1,3.1583688E-1,-4.2816067E-1,-2.7601478E-1],"split_indices":[4,5,4,4,4,1,5,5,5,5,5,4,5,5,5,5,4,4,0,0,1,4,4,3,5,5,5,5,0,4,1,4,4,4,1,1,1,5,5,5,4,4,4,5,0,0,5,1,3,4,4,5,5,0,5,1,3,0,0,0,0,0,0,0,0,0,0,0,0,0,0,0,0,0,0,0,0,0,0,0,0,0,0,0,0,0,0,0,0,0,0,0,0,0,0,0,0,0,0,0,0,0,0],"split_type":[0,0,0,0,0,0,0,0,0,0,0,0,0,0,0,0,0,0,0,0,0,0,0,0,0,0,0,0,0,0,0,0,0,0,0,0,0,0,0,0,0,0,0,0,0,0,0,0,0,0,0,0,0,0,0,0,0,0,0,0,0,0,0,0,0,0,0,0,0,0,0,0,0,0,0,0,0,0,0,0,0,0,0,0,0,0,0,0,0,0,0,0,0,0,0,0,0,0,0,0,0,0,0],"sum_hessian":[5.161E3,4.686E3,4.75E2,1.581E3,3.105E3,2.44E2,2.31E2,1.572E3,9E0,6.1E1,3.044E3,3.9E1,2.05E2,6.4E1,1.67E2,1.456E3,1.16E2,8E0,1E0,1.5E1,4.6E1,2.875E3,1.69E2,3.2E1,7E0,1.36E2,6.9E1,6.2E1,2E0,1.22E2,4.5E1,7.18E2,7.38E2,1.01E2,1.5E1,6E0,2E0,8E0,3.8E1,8.1E2,2.065E3,3.7E1,1.32E2,3.1E1,1E0,1E0,6E0,2E0,1.34E2,1.3E1,5.6E1,3.4E1,2.8E1,1.08E2,1.4E1,1.1E1,3.4E1,5.55E2,1.63E2,1.67E2,5.71E2,2E1,8.1E1,9E0,6E0,5E0,1E0,1E0,1E0,6E0,2E0,1E0,3.7E1,1.27E2,6.83E2,1.285E3,7.8E2,1.4E1,2.3E1,2.3E1,1.09E2,1.9E1,1.2E1,5E0,1E0,1E0,1E0,1.27E2,7E0,4E0,9E0,4.8E1,8E0,1.8E1,1.6E1,7E0,2.1E1,9E0,5E0,4E0,7E0,2.5E1,9E0],"tree_param":{"num_deleted":"0","num_feature":"6","num_nodes":"103","size_leaf_vector":"1"}},{"base_weights":[5.4708138E-2,-4.282505E0,1.5456425E-1,-5.295731E0,2.254487E0,3.9311227E-1,-7.3422015E-1,-2.2481959E-1,-6.57666E0,-4.3305364E-1,5.4396987E0,-2.33214E-1,9.925559E-1,-8.1801385E-2,-3.14751E0,-4.648671E-1,2.4567938E0,-3.7362783E0,-5.0203377E-1,1.0130554E1,-3.8236824E-1,3.784719E-1,-7.1376973E-1,5.7818007E0,7.946723E-1,-5.487092E0,3.7169847E-1,-9.402032E-1,-6.111669E0,7.602949E0,-5.980992E0,-1.4890091E0,-4.0657744E-1,1.50735035E1,-3.2137483E-1,7.399347E-1,-2.7627106E0,1.342172E0,-1.0120524E0,-7.250841E0,9.472216E0,5.5897427E-1,3.1674955E0,-6.2638807E0,7.730711E0,3.0700624E0,-5.600815E-1,-1.9152905E0,2.8143964E0,-8.947189E0,-2.7622645E0,1.464939E-1,5.504431E-1,-4.282824E-3,-4.1609976E-1,-3.126405E-1,5.3861003E-2,9.320757E-1,-2.4756418E-1,-4.647931E-2,8.7714076E-2,-1.8546046E-1,2.4481253E-1,2.9720202E-1,-1.5408234E-1,-1.5283926E-1,-2.6193632E-2,-1.8428624E-1,-4.5922428E-1,2.2299998E-1,7.699596E-1,-9.6074246E-2,3.7166454E-2,8.362359E-2,1.0719569E0,-3.481358E-1,6.51282E-2,-3.1977364E-1,7.285632E-1,-7.876632E-2,2.2936594E-1,3.42947E-2,-1.368164E-1,5.9443302E-2,-1.9525272E-1,-3.061279E-1,5.1860654E-1,-5.0885797E-1,-1.7746864E-1,5.154833E-1,-2.144515E-1],"categories":[],"categories_nodes":[],"categories_segments":[],"categories_sizes":[],"default_left":[0,0,0,0,0,0,0,0,0,0,0,0,0,0,0,0,0,0,0,0,0,0,0,0,0,0,0,0,0,0,0,0,0,0,0,0,0,0,0,0,0,0,0,0,0,0,0,0,0,0,0,0,0,0,0,0,0,0,0,0,0,0,0,0,0,0,0,0,0,0,0,0,0,0,0,0,0,0,0,0,0,0,0,0,0,0,0,0,0,0,0],"id":22,"left_children":[1,3,5,7,9,11,13,15,17,-1,19,21,23,25,27,-1,29,31,-1,33,-1,35,37,39,41,43,45,47,49,51,53,55,-1,57,-1,59,61,63,65,67,69,71,73,75,77,79,81,83,85,87,89,-1,-1,-1,-1,-1,-1,-1,-1,-1,-1,-1,-1,-1,-1,-1,-1,-1,-1,-1,-1,-1,-1,-1,-1,-1,-1,-1,-1,-1,-1,-1,-1,-1,-1,-1,-1,-1,-1,-1,-1],"loss_changes":[2.1938662E3,7.670127E2,1.0499885E3,6.41574E2,6.034076E2,1.4659778E3,1.649793E3,5.337506E2,7.397759E2,0E0,8.7553577E2,5.61713E2,1.8860928E3,2.0268121E3,1.4532998E3,0E0,7.8364984E2,4.323731E2,0E0,9.1534106E2,0E0,9.5693286E2,6.5753796E2,3.8682544E3,1.0703496E3,7.055405E2,1.9201161E3,4.7766742E2,8.7752954E2,1.428222E2,9.589415E1,3.857108E2,0E0,6.638888E2,0E0,1.2802031E3,6.488413E2,2.7869824E3,9.3171295E2,9.02345E1,1.7731724E3,7.9938983E2,4.689904E3,3.3161914E2,4.7971368E2,1.388683E3,1.5420371E3,6.4082605E2,1.8871682E3,3.0247437E2,9.4231824E2,0E0,0E0,0E0,0E0,0E0,0E0,0E0,0E0,0E0,0E0,0E0,0E0,0E0,0E0,0E0,0E0,0E0,0E0,0E0,0E0,0E0,0E0,0E0,0E0,0E0,0E0,0E0,0E0,0E0,0E0,0E0,0E0,0E0,0E0,0E0,0E0,0E0,0E0,0E0,0E0],"parents":[2147483647,0,0,1,1,2,2,3,3,4,4,5,5,6,6,7,7,8,8,10,10,11,11,12,12,13,13,14,14,16,16,17,17,19,19,21,21,22,22,23,23,24,24,25,25,26,26,27,27,28,28,29,29,30,30,31,31,33,33,35,35,36,36,37,37,38,38,39,39,40,40,41,41,42,42,43,43,44,44,45,45,46,46,47,47,48,48,49,49,50,50],"right_children":[2,4,6,8,10,12,14,16,18,-1,20,22,24,26,28,-1,30,32,-1,34,-1,36,38,40,42,44,46,48,50,52,54,56,-1,58,-1,60,62,64,66,68,70,72,74,76,78,80,82,84,86,88,90,-1,-1,-1,-1,-1,-1,-1,-1,-1,-1,-1,-1,-1,-1,-1,-1,-1,-1,-1,-1,-1,-1,-1,-1,-1,-1,-1,-1,-1,-1,-1,-1,-1,-1,-1,-1,-1,-1,-1,-1],"split_conditions":[3.795177E-1,6E0,5.6451064E-1,1E0,3.5022628E-1,4.9096E-1,9E0,3.3528268E-1,3.6001876E-1,-4.3305364E-1,3.730415E-1,3E0,4.932666E-1,5.693497E-1,5.932042E-1,-4.648671E-1,3.6725268E-1,1E1,-5.0203377E-1,1E0,-3.8236824E-1,4.8401618E-1,4.1175243E-1,2E0,1.1E1,1E0,2E0,5.8686286E-1,6.125894E-1,5E0,5E0,3.3528268E-1,-4.0657744E-1,8E0,-3.2137483E-1,4.3984535E-1,1.1E1,7E0,4.3283764E-1,4.9141404E-1,7E0,4.976415E-1,5.5649024E-1,6E0,6E0,5.80818E-1,6.0889846E-1,1E1,1E1,6E0,6.1546135E-1,1.464939E-1,5.504431E-1,-4.282824E-3,-4.1609976E-1,-3.126405E-1,5.3861003E-2,9.320757E-1,-2.4756418E-1,-4.647931E-2,8.7714076E-2,-1.8546046E-1,2.4481253E-1,2.9720202E-1,-1.5408234E-1,-1.5283926E-1,-2.6193632E-2,-1.8428624E-1,-4.5922428E-1,2.2299998E-1,7.699596E-1,-9.6074246E-2,3.7166454E-2,8.362359E-2,1.0719569E0,-3.481358E-1,6.51282E-2,-3.1977364E-1,7.285632E-1,-7.876632E-2,2.2936594E-1,3.42947E-2,-1.368164E-1,5.9443302E-2,-1.9525272E-1,-3.061279E-1,5.1860654E-1,-5.0885797E-1,-1.7746864E-1,5.154833E-1,-2.144515E-1],"split_indices":[5,1,5,1,5,5,2,5,5,0,5,1,5,5,5,0,5,2,0,3,0,5,5,1,2,3,1,5,5,2,2,5,0,2,0,5,2,2,5,5,2,5,5,1,2,5,5,2,2,1,5,0,0,0,0,0,0,0,0,0,0,0,0,0,0,0,0,0,0,0,0,0,0,0,0,0,0,0,0,0,0,0,0,0,0,0,0,0,0,0,0],"split_type":[0,0,0,0,0,0,0,0,0,0,0,0,0,0,0,0,0,0,0,0,0,0,0,0,0,0,0,0,0,0,0,0,0,0,0,0,0,0,0,0,0,0,0,0,0,0,0,0,0,0,0,0,0,0,0,0,0,0,0,0,0,0,0,0,0,0,0,0,0,0,0,0,0,0,0,0,0,0,0,0,0,0,0,0,0,0,0,0,0,0,0],"sum_hessian":[5.063E3,1.13E2,4.95E3,9.8E1,1.5E1,3.903E3,1.047E3,2E1,7.8E1,3E0,1.2E1,1.909E3,1.994E3,8.25E2,2.22E2,4E0,1.6E1,4.4E1,3.4E1,9E0,3E0,8.4E2,1.069E3,7.8E1,1.916E3,6.3E1,7.62E2,1.28E2,9.4E1,1E1,6E0,3E1,1.4E1,7E0,2E0,7.54E2,8.6E1,1.35E2,9.34E2,1.7E1,6.1E1,1.744E3,1.72E2,6E1,3E0,1.95E2,5.67E2,1.02E2,2.6E1,5E1,4.4E1,5E0,5E0,2E0,4E0,1E1,2E1,6E0,1E0,2.85E2,4.69E2,7.7E1,9E0,6.6E1,6.9E1,1.79E2,7.55E2,7E0,1E1,3.4E1,2.7E1,1.2E2,1.624E3,1.6E2,1.2E1,5.5E1,5E0,1E0,2E0,4.8E1,1.47E2,3.61E2,2.06E2,4E1,6.2E1,1.2E1,1.4E1,4E1,1E1,4E0,4E1],"tree_param":{"num_deleted":"0","num_feature":"6","num_nodes":"91","size_leaf_vector":"1"}},{"base_weights":[-9.898776E-2,2.98744E-1,-5.736985E0,-2.509179E0,5.083177E-1,-3.8051884E0,-6.542834E0,-1.7509649E0,-8.121727E0,3.1627128E0,-3.84844E-2,-4.6175604E0,9.826965E0,-7.6435924E0,-5.4783745E0,-4.808285E0,-2.289698E-1,-4.7132754E-1,5.6521187E0,-6.379503E0,4.0406594E0,4.7982356E-1,-2.802727E0,2.8645604E0,-5.148197E0,1.3516447E1,-2.1551111E-1,-6.486748E0,-8.369122E0,-2.2020891E-1,-6.097792E0,4.230685E0,-5.6683125E0,-4.3318915E0,1.0943135E0,8.857194E-1,-4.2734337E0,-7.4362864E0,7.5778003E0,-1.8430574E0,4.945901E0,7.499222E-1,-1.321578E0,-1.4261068E0,-6.526344E0,8.135279E0,-3.4374118E-1,-7.2852755E0,-4.0655603E0,8.538437E-1,5.4505386E0,-3.3913271E0,-4.03742E-1,-4.3253666E-1,-4.7597184E0,1.1801843E1,-4.571845E0,-7.861507E0,-5.0577545E0,-2.2827947E-1,6.0904115E-1,-1.658486E-1,-3.1295744E-1,-3.061102E-1,4.6103302E-1,1.938075E-1,-8.143578E-2,-5.2890923E-2,-2.676166E-1,-7.3237303E-3,-4.198164E-1,1.0283039E0,-3.9682052E-1,2.2440687E-2,-5.115414E-1,1.191036E-1,3.4766242E-1,1.51581215E-2,1.01591386E-1,-2.2592485E-1,-9.724715E-3,-1.7860381E-1,1.299986E-1,-4.6800348E-1,-2.3041336E-1,1.5567851E-2,9.8577416E-1,-4.2159724E-1,-2.321184E-1,1.139382E0,-2.4396725E-1,-2.2385465E-1,6.326451E-1,-3.5721442E-1,8.8774556E-1,3.3886337E-1,-3.906047E-1,6.072388E-2,7.4630696E-1,-7.087519E-2,-3.482106E-1,-2.5345984E-1,-4.3887216E-1,9.467562E-1,-2.8311872E-1],"categories":[],"categories_nodes":[],"categories_segments":[],"categories_sizes":[],"default_left":[0,0,0,0,0,0,0,0,0,0,0,0,0,0,0,0,0,0,0,0,0,0,0,0,0,0,0,0,0,0,0,0,0,0,0,0,0,0,0,0,0,0,0,0,0,0,0,0,0,0,0,0,0,0,0,0,0,0,0,0,0,0,0,0,0,0,0,0,0,0,0,0,0,0,0,0,0,0,0,0,0,0,0,0,0,0,0,0,0,0,0,0,0,0,0,0,0,0,0,0,0,0,0,0,0],"id":23,"left_children":[1,3,5,7,9,11,13,15,17,19,21,23,25,27,29,31,33,-1,35,37,39,41,43,45,47,49,-1,51,53,55,57,59,61,63,65,-1,67,69,71,73,75,77,79,81,83,85,-1,87,89,-1,91,93,-1,-1,95,97,99,101,103,-1,-1,-1,-1,-1,-1,-1,-1,-1,-1,-1,-1,-1,-1,-1,-1,-1,-1,-1,-1,-1,-1,-1,-1,-1,-1,-1,-1,-1,-1,-1,-1,-1,-1,-1,-1,-1,-1,-1,-1,-1,-1,-1,-1,-1,-1],"loss_changes":[1.1399886E4,2.795905E3,4.9660938E2,1.3900986E3,6.415437E3,1.1638892E3,2.3347949E2,1.3576411E3,7.5420557E2,6.3508325E3,5.253729E3,3.958949E2,3.7121234E2,4.0554688E1,3.9926807E2,7.780359E2,1.0688887E3,0E0,5.546E2,1.00034106E3,3.694836E3,1.5034766E3,2.9586504E3,4.1526343E2,1.786123E2,5.0512207E1,0E0,2.085747E2,2.5910645E1,7.863745E2,1.6201465E2,6.8499695E2,1.0288257E2,1.2210889E3,1.1349913E3,0E0,4.74617E0,4.1868115E2,1.1707351E3,1.7923949E3,3.071334E3,1.5376666E3,1.4512089E3,3.6725798E3,8.0477295E2,4.4687448E2,0E0,4.8741455E1,1.4660569E3,0E0,2.711554E2,1.5553445E3,0E0,0E0,2.9945114E2,1.1418475E2,7.313797E1,5.5250977E1,1.1516906E3,0E0,0E0,0E0,0E0,0E0,0E0,0E0,0E0,0E0,0E0,0E0,0E0,0E0,0E0,0E0,0E0,0E0,0E0,0E0,0E0,0E0,0E0,0E0,0E0,0E0,0E0,0E0,0E0,0E0,0E0,0E0,0E0,0E0,0E0,0E0,0E0,0E0,0E0,0E0,0E0,0E0,0E0,0E0,0E0,0E0,0E0],"parents":[2147483647,0,0,1,1,2,2,3,3,4,4,5,5,6,6,7,7,8,8,9,9,10,10,11,11,12,12,13,13,14,14,15,15,16,16,18,18,19,19,20,20,21,21,22,22,23,23,24,24,25,25,27,27,28,28,29,29,30,30,31,31,32,32,33,33,34,34,36,36,37,37,38,38,39,39,40,40,41,41,42,42,43,43,44,44,45,45,47,47,48,48,50,50,51,51,54,54,55,55,56,56,57,57,58,58],"right_children":[2,4,6,8,10,12,14,16,18,20,22,24,26,28,30,32,34,-1,36,38,40,42,44,46,48,50,-1,52,54,56,58,60,62,64,66,-1,68,70,72,74,76,78,80,82,84,86,-1,88,90,-1,92,94,-1,-1,96,98,100,102,104,-1,-1,-1,-1,-1,-1,-1,-1,-1,-1,-1,-1,-1,-1,-1,-1,-1,-1,-1,-1,-1,-1,-1,-1,-1,-1,-1,-1,-1,-1,-1,-1,-1,-1,-1,-1,-1,-1,-1,-1,-1,-1,-1,-1,-1,-1],"split_conditions":[3.2792336E1,7.473834E0,4.739258E-1,1.1E1,1.2387596E1,4.7163895E-1,5.269738E-1,5.0918226E0,5.701384E-1,8E0,9E0,3.2915817E1,5E0,4.9851045E-1,5.305458E-1,4.2409298E-1,9E0,-4.7132754E-1,4.6827736E0,1.214982E1,4.3041015E-1,2.9871277E1,1.6782984E1,4.5945272E-1,4.0991402E-1,3.4110287E1,-2.1551111E-1,3.367473E1,1E0,3.3457787E1,5.5649024E-1,1E1,4.7031718E-1,5.6851923E-1,5.0322586E-1,8.857194E-1,6.1042128E0,9.372421E0,4.7031718E-1,4.2101318E-1,9.673136E0,2.625476E1,3E0,1.1E1,1.1E1,4.5720667E-1,-3.4374118E-1,3.494934E1,4.1175243E-1,8.538437E-1,4E0,3.3315002E1,-4.03742E-1,-4.3253666E-1,3.3457787E1,3.2915817E1,3.523122E1,5.367756E-1,5.5728877E-1,-2.2827947E-1,6.0904115E-1,-1.658486E-1,-3.1295744E-1,-3.061102E-1,4.6103302E-1,1.938075E-1,-8.143578E-2,-5.2890923E-2,-2.676166E-1,-7.3237303E-3,-4.198164E-1,1.0283039E0,-3.9682052E-1,2.2440687E-2,-5.115414E-1,1.191036E-1,3.4766242E-1,1.51581215E-2,1.01591386E-1,-2.2592485E-1,-9.724715E-3,-1.7860381E-1,1.299986E-1,-4.6800348E-1,-2.3041336E-1,1.5567851E-2,9.8577416E-1,-4.2159724E-1,-2.321184E-1,1.139382E0,-2.4396725E-1,-2.2385465E-1,6.326451E-1,-3.5721442E-1,8.8774556E-1,3.3886337E-1,-3.906047E-1,6.072388E-2,7.4630696E-1,-7.087519E-2,-3.482106E-1,-2.5345984E-1,-4.3887216E-1,9.467562E-1,-2.8311872E-1],"split_indices":[4,4,5,2,4,5,5,4,5,2,2,4,2,5,5,5,2,0,4,4,5,4,4,5,5,4,0,4,3,4,5,2,5,5,5,0,4,4,5,5,4,4,2,2,2,5,0,4,5,0,2,4,0,0,4,4,4,5,5,0,0,0,0,0,0,0,0,0,0,0,0,0,0,0,0,0,0,0,0,0,0,0,0,0,0,0,0,0,0,0,0,0,0,0,0,0,0,0,0,0,0,0,0,0,0],"split_type":[0,0,0,0,0,0,0,0,0,0,0,0,0,0,0,0,0,0,0,0,0,0,0,0,0,0,0,0,0,0,0,0,0,0,0,0,0,0,0,0,0,0,0,0,0,0,0,0,0,0,0,0,0,0,0,0,0,0,0,0,0,0,0,0,0,0,0,0,0,0,0,0,0,0,0,0,0,0,0,0,0,0,0,0,0,0,0,0,0,0,0,0,0,0,0,0,0,0,0,0,0,0,0,0,0],"sum_hessian":[5.082E3,4.748E3,3.34E2,3.29E2,4.419E3,1E2,2.34E2,2.91E2,3.8E1,7.54E2,3.665E3,9.5E1,5E0,1.12E2,1.22E2,9.6E1,1.95E2,3.5E1,3E0,6.3E1,6.91E2,3.087E3,5.78E2,6E0,8.9E1,4E0,1E0,4.7E1,6.5E1,1.3E1,1.09E2,8E0,8.8E1,4.7E1,1.48E2,1E0,2E0,5.9E1,4E0,9.2E1,5.99E2,2.685E3,4.02E2,4.23E2,1.55E2,4E0,2E0,2.8E1,6.1E1,2E0,2E0,1.7E1,3E1,5.9E1,6E0,3E0,1E1,3.8E1,7.1E1,4E0,4E0,1.9E1,6.9E1,4.2E1,5E0,7.3E1,7.5E1,1E0,1E0,7E0,5.2E1,2E0,2E0,7.3E1,1.9E1,2.64E2,3.35E2,1.992E3,6.93E2,1.04E2,2.98E2,2.76E2,1.47E2,6.1E1,9.4E1,3E0,1E0,1.8E1,1E1,1E0,6E1,1E0,1E0,1.5E1,2E0,1E0,5E0,1E0,2E0,5E0,5E0,1.1E1,2.7E1,1E0,7E1],"tree_param":{"num_deleted":"0","num_feature":"6","num_nodes":"105","size_leaf_vector":"1"}},{"base_weights":[3.7015226E-2,-1.1175062E1,6.889221E0,-5.9744227E-1,-1.0786125E1,2.6445276E1,-1.0496744E1,-1.0335742E1,-1.1031471E1,2.408483E0,3.0415184E1,-2.0897713E0,-5.8310866E-1,-5.4403996E-1,-4.8663935E-1,-5.2689147E-1,-5.689842E-1,1.5688193E-1,2.2765093E0,3.3790665E1,6.6978264E-1,-1.3644462E0,-2.1477928E0,1.6634353E0,2.435256E0,9.8872656E-1,3.745752E1,-7.241339E-1,-8.12129E-2,-2.5265174E0,-1.9608269E0,9.205292E-2,1.6022889E-2,1.6140066E-1,1.13683164E-1,2.0001724E0,1.5032481E0,-4.2270694E-2,8.864403E-5,-1.3414353E-1,-8.452811E-2,-5.5080485E-2,-1.0439723E-1],"categories":[],"categories_nodes":[],"categories_segments":[],"categories_sizes":[],"default_left":[0,0,0,0,0,0,0,0,0,0,0,0,0,0,0,0,0,0,0,0,0,0,0,0,0,0,0,0,0,0,0,0,0,0,0,0,0,0,0,0,0,0,0],"id":24,"left_children":[1,3,5,-1,7,9,11,13,15,17,19,21,-1,-1,-1,-1,-1,-1,23,25,-1,27,29,31,33,-1,35,37,-1,39,41,-1,-1,-1,-1,-1,-1,-1,-1,-1,-1,-1,-1],"loss_changes":[3.931263E5,4.5525E2,1.0801205E6,0E0,2.9859375E1,1.425855E5,1.6455422E4,5.020703E1,2.240625E1,1.3354004E1,7.32545E4,5.7388916E0,0E0,0E0,0E0,0E0,0E0,0E0,1.3856689E1,5.4252E4,0E0,1.8183098E0,8.428772E0,9.190315E0,1.1107483E1,0E0,1.4738625E4,6.177645E-1,0E0,3.1759949E0,1.2007935E1,0E0,0E0,0E0,0E0,0E0,0E0,0E0,0E0,0E0,0E0,0E0,0E0],"parents":[2147483647,0,0,1,1,2,2,4,4,5,5,6,6,7,7,8,8,9,9,10,10,11,11,18,18,19,19,21,21,22,22,23,23,24,24,26,26,27,27,29,29,30,30],"right_children":[2,4,6,-1,8,10,12,14,16,18,20,22,-1,-1,-1,-1,-1,-1,24,26,-1,28,30,32,34,-1,36,38,-1,40,42,-1,-1,-1,-1,-1,-1,-1,-1,-1,-1,-1,-1],"split_conditions":[9E0,3E0,1.6E1,-5.9744227E-1,5E0,1E1,1.7E1,3E0,4.809927E-1,4.3041015E-1,1.5E1,2E0,-5.8310866E-1,-5.4403996E-1,-4.8663935E-1,-5.2689147E-1,-5.689842E-1,1.5688193E-1,4.697519E-1,1.1E1,6.6978264E-1,4.7554588E-1,5E0,4.6451893E-1,4.9141404E-1,9.8872656E-1,1.4E1,4.7110236E-1,-8.12129E-2,5.6323344E-1,4.3876562E-1,9.205292E-2,1.6022889E-2,1.6140066E-1,1.13683164E-1,2.0001724E0,1.5032481E0,-4.2270694E-2,8.864403E-5,-1.3414353E-1,-8.452811E-2,-5.5080485E-2,-1.0439723E-1],"split_indices":[0,0,0,0,2,0,0,2,5,5,0,2,0,0,0,0,0,0,5,0,0,5,2,5,5,0,0,5,0,5,5,0,0,0,0,0,0,0,0,0,0,0,0],"split_type":[0,0,0,0,0,0,0,0,0,0,0,0,0,0,0,0,0,0,0,0,0,0,0,0,0,0,0,0,0,0,0,0,0,0,0,0,0,0,0,0,0,0,0],"sum_hessian":[5.115E3,1.94E3,3.175E3,6.39E2,1.301E3,1.494E3,1.681E3,4.74E2,8.27E2,2.12E2,1.282E3,2.05E2,1.476E3,2.4E2,2.34E2,3.55E2,4.72E2,2.9E1,1.83E2,1.069E3,2.13E2,1.7E1,1.88E2,4E1,1.43E2,2.23E2,8.46E2,6E0,1.1E1,5.8E1,1.3E2,3.5E1,5E0,2.1E1,1.22E2,6.26E2,2.2E2,5E0,1E0,4.7E1,1.1E1,1.8E1,1.12E2],"tree_param":{"num_deleted":"0","num_feature":"6","num_nodes":"43","size_leaf_vector":"1"}},{"base_weights":[6.687159E-2,-1.0591721E1,6.4487243E0,-1.1000216E1,-8.609439E0,2.5008184E1,-9.907384E0,-6.235785E-1,-1.0855127E1,-9.351476E0,-3.9633775E-1,2.2618985E0,2.8718319E1,-1.8892448E0,-1.1092388E1,-1.0287817E1,-5.696177E-1,-2.6824805E-1,-4.7246224E-1,1.980273E0,3.6295404E0,3.2023327E1,6.4441097E-1,7.639525E-1,-2.0723786E0,-9.431474E0,-1.1377953E1,-5.495127E-1,-4.9928465E-1,-1.0552364E-1,2.0790489E0,2.3316622E0,2.102659E-1,2.3492327E1,3.7682884E1,1.0106679E0,-1.6718197E-1,-1.8138726E0,-3.016126E0,-3.8158876E-1,-4.9589536E-1,-5.559879E-1,-6.0493785E-1,-3.4893658E-2,4.0469076E-2,1.23695076E-1,7.850101E-2,4.0673255E-3,1.2562048E-1,9.3633205E-1,1.437756E0,2.1185534E0,1.4131144E0,6.999456E-2,1.9406479E-2,-2.7639437E-2,7.2808266E-3,-4.9366973E-2,-9.637761E-2,-1.5621248E-1,-7.847687E-2],"categories":[],"categories_nodes":[],"categories_segments":[],"categories_sizes":[],"default_left":[0,0,0,0,0,0,0,0,0,0,0,0,0,0,0,0,0,0,0,0,0,0,0,0,0,0,0,0,0,0,0,0,0,0,0,0,0,0,0,0,0,0,0,0,0,0,0,0,0,0,0,0,0,0,0,0,0,0,0,0,0],"id":25,"left_children":[1,3,5,7,9,11,13,-1,15,17,-1,19,21,23,25,27,-1,-1,-1,29,31,33,-1,35,37,39,41,-1,-1,43,45,47,-1,49,51,53,55,57,59,-1,-1,-1,-1,-1,-1,-1,-1,-1,-1,-1,-1,-1,-1,-1,-1,-1,-1,-1,-1,-1,-1],"loss_changes":[3.4908694E5,1.461625E3,9.7467706E5,2.040625E2,9.456445E1,1.2686031E5,1.6198156E4,0E0,3.2625E2,9.328125E0,0E0,7.446704E1,6.723525E4,1.08964905E2,5.979531E2,4.2632812E1,0E0,0E0,0E0,3.689209E1,1.6349762E1,5.072775E4,0E0,3.6148443E0,4.5029846E1,1.2040625E2,1.00703125E2,0E0,0E0,5.4423375E0,3.0284485E1,5.083229E0,0E0,1.0221203E4,2.7112625E4,2.364338E0,5.62964E-1,1.360022E1,1.8220215E0,0E0,0E0,0E0,0E0,0E0,0E0,0E0,0E0,0E0,0E0,0E0,0E0,0E0,0E0,0E0,0E0,0E0,0E0,0E0,0E0,0E0,0E0],"parents":[2147483647,0,0,1,1,2,2,3,3,4,4,5,5,6,6,8,8,9,9,11,11,12,12,13,13,14,14,15,15,19,19,20,20,21,21,23,23,24,24,25,25,26,26,29,29,30,30,31,31,33,33,34,34,35,35,36,36,37,37,38,38],"right_children":[2,4,6,8,10,12,14,-1,16,18,-1,20,22,24,26,28,-1,-1,-1,30,32,34,-1,36,38,40,42,-1,-1,44,46,48,-1,50,52,54,56,58,60,-1,-1,-1,-1,-1,-1,-1,-1,-1,-1,-1,-1,-1,-1,-1,-1,-1,-1,-1,-1,-1,-1],"split_conditions":[9E0,3.2292625E1,1.6E1,1.2387596E1,3.3872932E1,1E1,1.7E1,-6.235785E-1,2.2421858E1,3.730415E-1,-3.9633775E-1,3.2292625E1,1.5E1,5.327835E0,7.2967734E0,1.51952715E1,-5.696177E-1,-2.6824805E-1,-4.7246224E-1,1.2387596E1,4.6291977E-1,1.2E1,6.4441097E-1,5.52769E-1,2.3652086E1,4.28205E0,2.3970482E1,-5.495127E-1,-4.9928465E-1,4.932666E-1,2.4902685E1,3.2432625E1,2.102659E-1,1.1E1,1.4E1,3.6921978E0,5.5833644E-1,4.375569E-1,5.5951816E-1,-3.8158876E-1,-4.9589536E-1,-5.559879E-1,-6.0493785E-1,-3.4893658E-2,4.0469076E-2,1.23695076E-1,7.850101E-2,4.0673255E-3,1.2562048E-1,9.3633205E-1,1.437756E0,2.1185534E0,1.4131144E0,6.999456E-2,1.9406479E-2,-2.7639437E-2,7.2808266E-3,-4.9366973E-2,-9.637761E-2,-1.5621248E-1,-7.847687E-2],"split_indices":[0,4,0,4,4,0,0,0,4,5,0,4,0,4,4,4,0,0,0,4,5,0,0,5,4,4,4,0,0,5,4,4,0,0,0,4,5,5,5,0,0,0,0,0,0,0,0,0,0,0,0,0,0,0,0,0,0,0,0,0,0],"split_type":[0,0,0,0,0,0,0,0,0,0,0,0,0,0,0,0,0,0,0,0,0,0,0,0,0,0,0,0,0,0,0,0,0,0,0,0,0,0,0,0,0,0,0,0,0,0,0,0,0,0,0,0,0,0,0,0,0,0,0,0,0],"sum_hessian":[5.13E3,1.921E3,3.209E3,1.589E3,3.32E2,1.503E3,1.706E3,1.35E2,1.454E3,1.53E2,1.79E2,2.11E2,1.292E3,2.2E2,1.486E3,7.17E2,7.37E2,5E0,1.48E2,1.77E2,3.4E1,1.068E3,2.24E2,1.4E1,2.06E2,2.23E2,1.263E3,2.05E2,5.12E2,8E0,1.69E2,1.2E1,2.2E1,4.28E2,6.4E2,1.1E1,3E0,1.64E2,