{"learner":{"attributes":{"scikit_learn":"{\"_estimator_type\": \"regressor\"}"},"feature_names":["hour","day_of_week","month","demand_prev_hour","demand_prev_day","demand_rolling_7d","demand_rolling_24h","hour_demand"],"feature_types":["int","int","int","float","float","float","float","float"],"gradient_booster":{"model":{"gbtree_model_param":{"num_parallel_tree":"1","num_trees":"200"},"iteration_indptr":[0,1,2,3,4,5,6,7,8,9,10,11,12,13,14,15,16,17,18,19,20,21,22,23,24,25,26,27,28,29,30,31,32,33,34,35,36,37,38,39,40,41,42,43,44,45,46,47,48,49,50,51,52,53,54,55,56,57,58,59,60,61,62,63,64,65,66,67,68,69,70,71,72,73,74,75,76,77,78,79,80,81,82,83,84,85,86,87,88,89,90,91,92,93,94,95,96,97,98,99,100,101,102,103,104,105,106,107,108,109,110,111,112,113,114,115,116,117,118,119,120,121,122,123,124,125,126,127,128,129,130,131,132,133,134,135,136,137,138,139,140,141,142,143,144,145,146,147,148,149,150,151,152,153,154,155,156,157,158,159,160,161,162,163,164,165,166,167,168,169,170,171,172,173,174,175,176,177,178,179,180,181,182,183,184,185,186,187,188,189,190,191,192,193,194,195,196,197,198,199,200],"tree_info":[0,0,0,0,0,0,0,0,0,0,0,0,0,0,0,0,0,0,0,0,0,0,0,0,0,0,0,0,0,0,0,0,0,0,0,0,0,0,0,0,0,0,0,0,0,0,0,0,0,0,0,0,0,0,0,0,0,0,0,0,0,0,0,0,0,0,0,0,0,0,0,0,0,0,0,0,0,0,0,0,0,0,0,0,0,0,0,0,0,0,0,0,0,0,0,0,0,0,0,0,0,0,0,0,0,0,0,0,0,0,0,0,0,0,0,0,0,0,0,0,0,0,0,0,0,0,0,0,0,0,0,0,0,0,0,0,0,0,0,0,0,0,0,0,0,0,0,0,0,0,0,0,0,0,0,0,0,0,0,0,0,0,0,0,0,0,0,0,0,0,0,0,0,0,0,0,0,0,0,0,0,0,0,0,0,0,0,0,0,0,0,0,0,0,0,0,0,0,0,0],"trees":[{"base_weights":[-1.2295605E-1,-2.9093119E1,2.6897234E1,-2.9878637E1,-8.826458E0,3.2029972E1,1.2762611E1,-2.566393E1,-3.1852123E1,1.790366E1,-1.5744562E1,3.0004854E0,3.2507263E1,1.0637901E1,1.3054016E1,-3.0523314E1,-1.7107964E1,-1.3484604E0,-3.4763165E1,1.5715728E0,-1.889977E1,-1.8122803E1,3.973769E0,1.5058405E0,-6.8814106E0,2.4898203E1,3.2662525E1,5.4661363E-1,7.130834E0,6.5563016E-2,1.307068E1,-1.3466591E0,-1.6952595E0,3.0026337E1,-2.6863167E1,-1.5990039E0,-3.6093803E1,-1.4347203E0,7.5183505E-1,-1.3675875E1,-1.5860289E0,1.2444164E0,-1.0631564E1,-2.1529028E1,6.165219E0,1.5117075E0,1.894372E1,3.274743E1,2.1975285E1,1.04848675E-1,3.7285778E-1,5.976924E-1,6.6532856E-1,7.631573E-1,1.6267344E0,-1.8417692E0,-9.666566E-1,-1.8143157E0,-8.8011324E-1,-8.224148E-1,-1.940049E-1,-1.1865993E0,9.258213E-2,-1.3139049E0,7.677681E-1,-1.0456623E-1,1.3664705E0,-2.2464107E-1,1.3739862E0,1.6075096E0,1.7276915E0,-5.222068E-1,1.4577721E0],"categories":[],"categories_nodes":[],"categories_segments":[],"categories_sizes":[],"default_left":[0,0,0,0,0,0,0,0,0,0,0,0,0,0,0,0,0,0,0,0,0,0,0,0,0,0,0,0,0,0,0,0,0,0,0,0,0,0,0,0,0,0,0,0,0,0,0,0,0,0,0,0,0,0,0,0,0,0,0,0,0,0,0,0,0,0,0,0,0,0,0,0,0],"id":0,"left_children":[1,3,5,7,9,11,13,15,17,19,21,23,25,27,29,31,33,-1,35,-1,37,39,41,-1,43,45,47,-1,49,-1,51,-1,-1,53,55,-1,57,-1,-1,59,-1,-1,61,63,65,-1,67,69,71,-1,-1,-1,-1,-1,-1,-1,-1,-1,-1,-1,-1,-1,-1,-1,-1,-1,-1,-1,-1,-1,-1,-1,-1],"loss_changes":[4.068104E6,3.966325E4,1.9467662E5,1.926125E4,1.7849451E4,2.72255E4,3.056797E2,3.1699781E4,2.2374E4,1.0551433E4,3.6360293E3,9.04995E3,1.478625E3,1.7023438E1,1.05546875E2,5.0725E3,1.3093134E5,0E0,2.637875E3,0E0,2.425841E3,3.678041E3,3.0137788E3,0E0,4.910282E3,7.934844E2,1.0025E3,0E0,7.890625E-1,0E0,5.859375E0,0E0,0E0,1.3179492E3,1.6934266E4,0E0,1.79975E3,0E0,0E0,1.3755527E3,0E0,0E0,1.0251548E3,2.5055078E3,2.5035576E3,0E0,4.724713E3,9.185E2,4.4944834E3,0E0,0E0,0E0,0E0,0E0,0E0,0E0,0E0,0E0,0E0,0E0,0E0,0E0,0E0,0E0,0E0,0E0,0E0,0E0,0E0,0E0,0E0,0E0,0E0],"parents":[2147483647,0,0,1,1,2,2,3,3,4,4,5,5,6,6,7,7,8,8,9,9,10,10,11,11,12,12,13,13,14,14,15,15,16,16,18,18,20,20,21,21,22,22,24,24,25,25,26,26,28,28,30,30,33,33,34,34,36,36,39,39,42,42,43,43,44,44,46,46,47,47,48,48],"right_children":[2,4,6,8,10,12,14,16,18,20,22,24,26,28,30,32,34,-1,36,-1,38,40,42,-1,44,46,48,-1,50,-1,52,-1,-1,54,56,-1,58,-1,-1,60,-1,-1,62,64,66,-1,68,70,72,-1,-1,-1,-1,-1,-1,-1,-1,-1,-1,-1,-1,-1,-1,-1,-1,-1,-1,-1,-1,-1,-1,-1,-1],"split_conditions":[7.635137E2,7.272857E2,5E0,6.552105E1,1E0,7.8159546E2,5.9330025E1,2.472987E2,1.397504E2,6.3107716E1,7.211623E1,6.3107716E1,8.069458E2,6.754731E1,6.6579834E1,1.397504E2,1E0,-1.3484604E0,1.7949739E2,1.5715728E0,6.916697E1,6.821667E1,6.8451675E1,1.5058405E0,6E0,7.012347E1,7.0241264E1,5.4661363E-1,8.935409E2,6.5563016E-2,6.723464E1,-1.3466591E0,-1.6952595E0,5.812445E2,6E0,-1.5990039E0,7.233713E2,-1.4347203E0,7.5183505E-1,6E0,-1.5860289E0,1.2444164E0,6.854067E1,7.1999146E1,7.0832695E1,1.5117075E0,7.0851105E1,7.148087E1,1E0,1.04848675E-1,3.7285778E-1,5.976924E-1,6.6532856E-1,7.631573E-1,1.6267344E0,-1.8417692E0,-9.666566E-1,-1.8143157E0,-8.8011324E-1,-8.224148E-1,-1.940049E-1,-1.1865993E0,9.258213E-2,-1.3139049E0,7.677681E-1,-1.0456623E-1,1.3664705E0,-2.2464107E-1,1.3739862E0,1.6075096E0,1.7276915E0,-5.222068E-1,1.4577721E0],"split_indices":[7,7,1,6,1,7,6,7,7,6,6,6,7,5,5,7,1,0,7,0,5,5,5,0,2,6,5,0,7,0,5,0,0,7,1,0,7,0,0,1,0,0,5,6,6,0,6,6,1,0,0,0,0,0,0,0,0,0,0,0,0,0,0,0,0,0,0,0,0,0,0,0,0],"split_type":[0,0,0,0,0,0,0,0,0,0,0,0,0,0,0,0,0,0,0,0,0,0,0,0,0,0,0,0,0,0,0,0,0,0,0,0,0,0,0,0,0,0,0,0,0,0,0,0,0,0,0,0,0,0,0,0,0,0,0,0,0,0,0,0,0,0,0,0,0,0,0,0,0],"sum_hessian":[5.195E3,2.507E3,2.688E3,2.413E3,9.4E1,1.971E3,7.17E2,7.74E2,1.639E3,1.9E1,7.5E1,3.2E1,1.939E3,9.1E1,6.26E2,4.92E2,2.82E2,6.16E2,1.023E3,1.4E1,5E0,6.7E1,8E0,8E0,2.4E1,4.2E1,1.897E3,8.2E1,9E0,1E0,6.25E2,2.43E2,2.49E2,4.8E1,2.34E2,3.39E2,6.84E2,4E0,1E0,5.2E1,1.5E1,3E0,5E0,1.1E1,1.3E1,2E1,2.2E1,1.88E3,1.7E1,1E0,8E0,1.18E2,5.07E2,8E0,4E1,9.9E1,1.35E2,6.76E2,8E0,4E1,1.2E1,2E0,3E0,1E1,1E0,1E1,3E0,6E0,1.6E1,1.427E3,4.53E2,3E0,1.4E1],"tree_param":{"num_deleted":"0","num_feature":"8","num_nodes":"73","size_leaf_vector":"1"}},{"base_weights":[-1.2532838E-2,-3.0296053E1,2.6009605E1,-1.7538671E0,-2.4826536E1,3.122683E1,1.22790785E1,-1.2716931E0,2.0798899E1,1.5387394E0,1.6357317E0,5.648459E-1,1.2636797E1,1.1694515E1,1.3651711E0,6.4451283E-1,1.0601987E1,9.188946E-1,-8.772279E-1,1.4003582E-1,1.0678918E1,5.467048E-1,3.173659E-1],"categories":[],"categories_nodes":[],"categories_segments":[],"categories_sizes":[],"default_left":[0,0,0,0,0,0,0,0,0,0,0,0,0,0,0,0,0,0,0,0,0,0,0],"id":1,"left_children":[1,3,5,-1,7,9,11,-1,13,-1,-1,-1,15,17,-1,-1,19,-1,-1,-1,21,-1,-1],"loss_changes":[4.0087692E6,6.0611E4,1.9561038E5,0E0,3.1009438E4,3.26375E2,1.2250781E2,0E0,5.689946E2,0E0,0E0,0E0,1.4441406E2,1.8857577E3,0E0,0E0,9.702148E0,0E0,0E0,0E0,2.4438477E0,0E0,0E0],"parents":[2147483647,0,0,1,1,2,2,4,4,5,5,6,6,8,8,12,12,13,13,16,16,20,20],"right_children":[2,4,6,-1,8,10,12,-1,14,-1,-1,-1,16,18,-1,-1,20,-1,-1,-1,22,-1,-1],"split_conditions":[7.044495E1,3.5787937E1,5E0,-1.7538671E0,7.188206E1,7.148087E1,5.991436E1,-1.2716931E0,9.834862E1,1.5387394E0,1.6357317E0,5.648459E-1,1E1,9.81781E1,1.3651711E0,6.4451283E-1,2.7341047E1,9.188946E-1,-8.772279E-1,1.4003582E-1,1.0630155E2,5.467048E-1,3.173659E-1],"split_indices":[4,4,1,0,3,6,6,0,3,0,0,0,2,3,0,0,3,0,0,0,4,0,0],"split_type":[0,0,0,0,0,0,0,0,0,0,0,0,0,0,0,0,0,0,0,0,0,0,0],"sum_hessian":[5.085E3,2.35E3,2.735E3,1.251E3,1.099E3,1.981E3,7.54E2,1.085E3,1.4E1,1.536E3,4.45E2,2.1E2,5.44E2,7E0,7E0,4.79E2,6.5E1,6E0,1E0,1E0,6.4E1,5.9E1,5E0],"tree_param":{"num_deleted":"0","num_feature":"8","num_nodes":"23","size_leaf_vector":"1"}},{"base_weights":[6.909582E-2,-2.6349686E1,2.4130785E1,-2.6854507E1,-1.022732E1,2.8849424E1,1.1155423E1,-2.1769033E1,-2.7794136E1,-1.8438114E1,1.3684808E1,8.415282E0,2.9442272E1,-1.5146312E1,1.1547756E1,-2.775126E1,-9.582572E0,-1.2165246E0,-2.98424E1,-8.650155E0,-2.6368332E1,1.9683643E1,-8.24843E0,-2.6702156E0,1.5363408E0,1.0019465E1,1.4779711E0,-1.4514416E0,3.6592385E-1,4.5640332E-1,1.1626502E1,-1.2246579E0,-1.5419742E0,1.4730871E1,-1.3031959E1,-3.155675E1,-2.2623814E1,-1.6909151E1,9.746633E0,-1.8443485E1,-1.5904883E0,1.3106416E0,1.3144848E1,3.909605E-1,-1.4220143E1,4.5210886E0,-2.3977106E1,-1.3659483E0,1.1976446E0,1.3653488E-1,5.817771E-1,9.02173E-1,-8.739489E-1,-1.0659102E0,-4.2700252E-1,-1.4382604E0,-1.6480868E0,-1.5006456E0,-7.6746434E-1,-3.109947E-1,-1.5414697E0,-3.0874127E-1,1.1859382E0,-1.5187019E0,5.7462144E-1,1.6496697E-1,6.9361E-1,2.724045E-1,-1.1296126E0,5.308285E-1,-6.784278E-1,-1.4788069E0,-5.2699663E-2],"categories":[],"categories_nodes":[],"categories_segments":[],"categories_sizes":[],"default_left":[0,0,0,0,0,0,0,0,0,0,0,0,0,0,0,0,0,0,0,0,0,0,0,0,0,0,0,0,0,0,0,0,0,0,0,0,0,0,0,0,0,0,0,0,0,0,0,0,0,0,0,0,0,0,0,0,0,0,0,0,0,0,0,0,0,0,0,0,0,0,0,0,0],"id":2,"left_children":[1,3,5,7,9,11,13,15,17,19,21,23,25,27,29,31,33,-1,35,37,39,41,43,45,-1,47,-1,-1,-1,-1,49,-1,-1,51,53,55,57,59,61,63,-1,-1,65,-1,67,69,71,-1,-1,-1,-1,-1,-1,-1,-1,-1,-1,-1,-1,-1,-1,-1,-1,-1,-1,-1,-1,-1,-1,-1,-1,-1,-1],"loss_changes":[3.267398E6,1.9665625E4,1.6437625E5,1.074375E4,1.5173974E4,2.364175E4,7.5942812E3,2.7072406E4,1.347E4,4.196287E3,2.7938376E3,1.4180112E4,4.0635E3,3.6429927E3,2.8960938E1,1.7701406E3,1.0675281E4,0E0,1.4792125E4,4.2671606E3,7.5011523E2,3.385254E2,5.9094696E2,6.0841514E3,0E0,7.417647E3,0E0,0E0,0E0,0E0,2.3148438E1,0E0,0E0,2.0225491E3,3.9122578E3,3.013125E3,1.2654859E4,2.6353887E3,2.1485696E3,5.7063516E3,0E0,0E0,2.5842285E1,0E0,7.8174286E2,3.4520037E3,1.2522983E3,0E0,0E0,0E0,0E0,0E0,0E0,0E0,0E0,0E0,0E0,0E0,0E0,0E0,0E0,0E0,0E0,0E0,0E0,0E0,0E0,0E0,0E0,0E0,0E0,0E0,0E0],"parents":[2147483647,0,0,1,1,2,2,3,3,4,4,5,5,6,6,7,7,8,8,9,9,10,10,11,11,12,12,13,13,14,14,15,15,16,16,18,18,19,19,20,20,21,21,22,22,23,23,25,25,30,30,33,33,34,34,35,35,36,36,37,37,38,38,39,39,42,42,44,44,45,45,46,46],"right_children":[2,4,6,8,10,12,14,16,18,20,22,24,26,28,30,32,34,-1,36,38,40,42,44,46,-1,48,-1,-1,-1,-1,50,-1,-1,52,54,56,58,60,62,64,-1,-1,66,-1,68,70,72,-1,-1,-1,-1,-1,-1,-1,-1,-1,-1,-1,-1,-1,-1,-1,-1,-1,-1,-1,-1,-1,-1,-1,-1,-1,-1],"split_conditions":[7.4771686E2,7.233713E2,5E0,1E0,3.3721558E1,7.8159546E2,7.635137E2,2.472987E2,1.397504E2,6.791453E1,6.847346E1,3.4013344E1,2.8853064E1,3.1766567E1,6.678999E1,1.397504E2,6.1784357E2,-1.2165246E0,6E0,3.1056713E1,3.0744457E1,1E0,7.272857E2,6.846304E1,1.5363408E0,6E0,1.4779711E0,-1.4514416E0,3.6592385E-1,4.5640332E-1,2.7341047E1,-1.2246579E0,-1.5419742E0,1.1E1,3.0744457E1,1.8147116E2,5.812445E2,8E0,6.710981E1,3.0178055E1,-1.5904883E0,1.3106416E0,6.694415E1,3.909605E-1,3.494315E1,7.73977E2,6.8614944E1,-1.3659483E0,1.1976446E0,1.3653488E-1,5.817771E-1,9.02173E-1,-8.739489E-1,-1.0659102E0,-4.2700252E-1,-1.4382604E0,-1.6480868E0,-1.5006456E0,-7.6746434E-1,-3.109947E-1,-1.5414697E0,-3.0874127E-1,1.1859382E0,-1.5187019E0,5.7462144E-1,1.6496697E-1,6.9361E-1,2.724045E-1,-1.1296126E0,5.308285E-1,-6.784278E-1,-1.4788069E0,-5.2699663E-2],"split_indices":[7,7,1,1,3,7,7,7,7,5,5,3,3,3,5,7,7,0,1,3,3,1,7,5,0,2,0,0,0,0,3,0,0,2,3,7,7,2,5,3,0,0,5,0,3,7,5,0,0,0,0,0,0,0,0,0,0,0,0,0,0,0,0,0,0,0,0,0,0,0,0,0,0],"split_type":[0,0,0,0,0,0,0,0,0,0,0,0,0,0,0,0,0,0,0,0,0,0,0,0,0,0,0,0,0,0,0,0,0,0,0,0,0,0,0,0,0,0,0,0,0,0,0,0,0,0,0,0,0,0,0,0,0,0,0,0,0,0,0,0,0,0,0,0,0,0,0,0,0],"sum_hessian":[5.138E3,2.449E3,2.689E3,2.374E3,7.5E1,1.971E3,7.18E2,3.74E2,2E3,5.6E1,1.9E1,5.6E1,1.915E3,1E1,7.08E2,2.5E2,1.24E2,7.48E2,1.252E3,2.6E1,3E1,1.5E1,4E0,3.8E1,1.8E1,1.2E1,1.903E3,6E0,4E0,2.6E1,6.82E2,1.26E2,1.24E2,1.5E1,1.09E2,1.009E3,2.43E2,1.8E1,8E0,1.4E1,1.6E1,6E0,9E0,1E0,3E0,2.9E1,9E0,3E0,9E0,1E0,6.81E2,1.4E1,1E0,3.7E1,7.2E1,3.45E2,6.64E2,1.19E2,1.24E2,1.1E1,7E0,4E0,4E0,1E1,4E0,1E0,8E0,1E0,2E0,2.2E1,7E0,7E0,2E0],"tree_param":{"num_deleted":"0","num_feature":"8","num_nodes":"73","size_leaf_vector":"1"}},{"base_weights":[6.835135E-2,-2.5061438E1,2.278841E1,-2.2711323E1,-1.6175451E0,1.1715745E1,2.7910519E1,-2.6028566E1,2.2883572E1,1.3655319E1,-1.6421379E0,2.80564E1,5.7683235E-1,-1.1435732E0,-1.5753511E0,1.5062913E0,1.4414997E1,1.4160545E0,1.0753523E1,1.4045637E0,-8.9224654E-1,7.442449E-1,7.7050767E0,5.4475695E-1,9.204747E0,4.2091128E-1,1.03483394E-1,3.333781E-1,4.8310146E-1],"categories":[],"categories_nodes":[],"categories_segments":[],"categories_sizes":[],"default_left":[0,0,0,0,0,0,0,0,0,0,0,0,0,0,0,0,0,0,0,0,0,0,0,0,0,0,0,0,0],"id":3,"left_children":[1,3,5,7,-1,9,11,13,15,17,-1,19,-1,-1,-1,-1,21,-1,23,-1,-1,-1,25,-1,27,-1,-1,-1,-1],"loss_changes":[2.9363975E6,4.1099375E4,1.5286138E5,2.8040706E5,0E0,7.4427875E4,4.085875E3,2.9115E4,7.2935156E3,3.4634812E4,0E0,3.429E3,0E0,0E0,0E0,0E0,7.4490234E1,0E0,5.0390625E1,0E0,0E0,0E0,6.6903687E0,0E0,9.831055E0,0E0,0E0,0E0,0E0],"parents":[2147483647,0,0,1,1,2,2,3,3,5,5,6,6,7,7,8,8,9,9,11,11,16,16,18,18,22,22,24,24],"right_children":[2,4,6,8,-1,10,12,14,16,18,-1,20,-1,-1,-1,-1,22,-1,24,-1,-1,-1,26,-1,28,-1,-1,-1,-1],"split_conditions":[7.4771686E2,1.9E1,8.885357E1,8E0,-1.6175451E0,2.1E1,5E0,5E0,5E0,5E0,-1.6421379E0,2.1E1,5.7683235E-1,-1.1435732E0,-1.5753511E0,1.5062913E0,1.1E1,1.4160545E0,1.1E1,1.4045637E0,-8.9224654E-1,7.442449E-1,7.946714E1,5.4475695E-1,1.2E1,4.2091128E-1,1.03483394E-1,3.333781E-1,4.8310146E-1],"split_indices":[7,0,3,0,0,0,1,0,1,1,0,0,0,0,0,0,2,0,2,0,0,0,3,0,0,0,0,0,0],"split_type":[0,0,0,0,0,0,0,0,0,0,0,0,0,0,0,0,0,0,0,0,0,0,0,0,0,0,0,0,0],"sum_hessian":[5.141E3,2.441E3,2.7E3,1.849E3,5.92E2,8.55E2,1.845E3,1.724E3,1.25E2,8.2E2,3.5E1,1.828E3,1.7E1,1.097E3,6.27E2,6.6E1,5.9E1,1.34E2,6.86E2,1.827E3,1E0,5.4E1,5E0,6.23E2,6.3E1,4E0,1E0,1.2E1,5.1E1],"tree_param":{"num_deleted":"0","num_feature":"8","num_nodes":"29","size_leaf_vector":"1"}},{"base_weights":[-2.6156917E-1,-2.3957153E1,2.1660913E1,-2.1744217E1,-1.5361782E0,1.1206232E1,2.6603966E1,-2.4824656E1,2.2360123E1,1.277163E1,-1.5634764E0,2.6637665E1,-8.699403E-1,-2.1774343E1,-1.4973425E0,1.7769045E1,1.3157442E0,1.0507591E1,2.4520283E1,1.3625998E1,2.6716402E1,-1.051169E0,-1.1183312E0,9.464741E-1,5.4394835E-1,1.7197226E1,1.0316187E1,1.29143E0,1.7447636E1,8.936931E-1,4.368425E-1,1.3109766E0,1.4111046E0,8.857592E-1,2.0979881E-1,4.2841178E-1,5.283302E-1,6.382637E-1,1.1916605E0],"categories":[],"categories_nodes":[],"categories_segments":[],"categories_sizes":[],"default_left":[0,0,0,0,0,0,0,0,0,0,0,0,0,0,0,0,0,0,0,0,0,0,0,0,0,0,0,0,0,0,0,0,0,0,0,0,0,0,0],"id":4,"left_children":[1,3,5,7,-1,9,11,13,15,17,-1,19,-1,21,-1,23,-1,25,27,29,31,-1,-1,-1,-1,33,35,-1,37,-1,-1,-1,-1,-1,-1,-1,-1,-1,-1],"loss_changes":[2.6861582E6,3.65415E4,1.38509E5,2.5542988E5,0E0,5.7848008E4,3.16675E3,2.6753E4,1.7656719E3,2.192625E4,0E0,1.5025E3,0E0,2.040625E1,0E0,2.7379688E2,0E0,7.201797E2,7.8928906E2,1.1382837E2,6.14125E2,0E0,0E0,0E0,0E0,4.688086E1,2.0885938E2,0E0,4.1335254E2,0E0,0E0,0E0,0E0,0E0,0E0,0E0,0E0,0E0,0E0],"parents":[2147483647,0,0,1,1,2,2,3,3,5,5,6,6,7,7,8,8,9,9,11,11,13,13,15,15,17,17,18,18,19,19,20,20,25,25,26,26,28,28],"right_children":[2,4,6,8,-1,10,12,14,16,18,-1,20,-1,22,-1,24,-1,26,28,30,32,-1,-1,-1,-1,34,36,-1,38,-1,-1,-1,-1,-1,-1,-1,-1,-1,-1],"split_conditions":[7.4771686E2,1.9E1,8.885357E1,8E0,-1.5361782E0,2.1E1,2.1E1,5E0,6.0768993E1,6.979506E1,-1.5634764E0,6.0988625E1,-8.699403E-1,6E0,-1.4973425E0,7.055668E2,1.3157442E0,3.248341E1,3.570613E1,1E1,7.1456924E1,-1.051169E0,-1.1183312E0,9.464741E-1,5.4394835E-1,6.9745995E1,5.9330025E1,1.29143E0,1.0021019E3,8.936931E-1,4.368425E-1,1.3109766E0,1.4111046E0,8.857592E-1,2.0979881E-1,4.2841178E-1,5.283302E-1,6.382637E-1,1.1916605E0],"split_indices":[7,0,3,0,0,0,0,0,6,6,0,6,0,2,0,7,0,3,3,0,6,0,0,0,0,6,6,0,7,0,0,0,0,0,0,0,0,0,0],"split_type":[0,0,0,0,0,0,0,0,0,0,0,0,0,0,0,0,0,0,0,0,0,0,0,0,0,0,0,0,0,0,0,0,0,0,0,0,0,0,0],"sum_hessian":[5.169E3,2.484E3,2.685E3,1.875E3,6.09E2,8.63E2,1.822E3,1.753E3,1.22E2,8.33E2,3E1,1.821E3,1E0,1.102E3,6.51E2,5.9E1,6.3E1,7E2,1.33E2,1.2E1,1.809E3,5.02E2,6E2,4.9E1,1E1,1.7E1,6.83E2,1.1E2,2.3E1,5E0,7E0,1.374E3,4.35E2,1.6E1,1E0,9E1,5.93E2,1.5E1,8E0],"tree_param":{"num_deleted":"0","num_feature":"8","num_nodes":"39","size_leaf_vector":"1"}},{"base_weights":[-3.6514795E-1,-2.252578E1,2.0635908E1,-2.3082378E1,-7.8778467E0,1.0616286E1,2.5096071E1,-1.95669E1,-2.4671005E1,-1.871195E1,1.6677141E1,-4.0014772E0,1.149704E1,1.0708922E1,2.516948E1,-2.0397661E1,1.2900862E0,-2.0955528E1,-2.7013334E1,8.563785E-1,-2.012158E1,2.0585838E1,-1.7371765E0,-8.797341E0,4.979303E0,9.69718E0,2.1329342E1,2.6902506E-1,1.2034517E1,2.4155281E1,2.5916288E1,-2.3477947E1,-1.4434925E1,-1.0823184E0,-9.981042E-1,-2.4756224E1,-2.821286E1,-1.4304153E0,-1.6623795E1,1.0744702E1,1.2887105E0,-1.1312702E1,5.804625E-1,-2.266251E1,-1.115712E0,1.0138428E1,-6.1688304E0,8.887026E0,1.0154809E1,2.2777487E1,1.35556555E1,6.4594764E-1,1.460867E-1,1.7891184E1,1.2127101E0,1.2987549E0,-2.894151E0,-1.0446279E0,-1.308073E0,-8.889033E-1,-1.513787E-1,-1.4374026E0,-1.2061028E0,-1.4182938E0,-6.165115E-1,2.163559E-1,-9.3366736E-1,1.5529379E-1,6.133087E-1,3.4898168E-1,-9.8683465E-1,7.1297646E-1,-1.3890334E0,5.0483066E-1,-1.2491368E0,-7.7375364E-1,6.936876E-1,8.5729903E-1,-1.1056366E0,1.0117149E-1,4.4677946E-1,5.1725173E-1,3.836949E-1,-2.5965342E-2,1.1634123E0,5.216186E-1,9.812568E-1,4.6461877E-1,9.991545E-1,-8.4819174E-1,6.311304E-1],"categories":[],"categories_nodes":[],"categories_segments":[],"categories_sizes":[],"default_left":[0,0,0,0,0,0,0,0,0,0,0,0,0,0,0,0,0,0,0,0,0,0,0,0,0,0,0,0,0,0,0,0,0,0,0,0,0,0,0,0,0,0,0,0,0,0,0,0,0,0,0,0,0,0,0,0,0,0,0,0,0,0,0,0,0,0,0,0,0,0,0,0,0,0,0,0,0,0,0,0,0,0,0,0,0,0,0,0,0,0,0],"id":5,"left_children":[1,3,5,7,9,11,13,15,17,19,21,23,25,27,29,31,-1,33,35,-1,37,39,41,43,45,47,49,-1,51,53,55,57,59,-1,-1,61,63,-1,65,67,-1,69,-1,71,73,75,77,79,81,83,85,-1,-1,87,-1,-1,89,-1,-1,-1,-1,-1,-1,-1,-1,-1,-1,-1,-1,-1,-1,-1,-1,-1,-1,-1,-1,-1,-1,-1,-1,-1,-1,-1,-1,-1,-1,-1,-1,-1,-1],"loss_changes":[2.3902768E6,2.0192625E4,1.17578875E5,1.295975E4,2.5052973E4,1.0525961E4,1.656875E3,2.8944906E4,1.38284375E4,3.628459E3,2.1230654E3,2.0681228E3,1.3384281E4,1.2944946E1,7.47875E2,1.3271E4,0E0,9.875E0,2.0388125E3,0E0,1.3945605E3,9.4849023E2,8.9812634E2,3.276435E3,1.0402905E3,1.5111328E2,1.0196133E3,0E0,2.6731567E1,5.1875E1,1.822E3,2.8322188E3,9.670949E3,0E0,0E0,2.1532812E2,1.2372188E3,0E0,2.0989824E3,7.812537E1,0E0,7.541327E2,0E0,2.4748398E3,5.871943E3,1.3627943E3,2.6095186E3,6.2916016E1,1.1363672E2,1.1325273E3,1.9335449E2,0E0,0E0,1.0211572E2,0E0,0E0,8.690755E2,0E0,0E0,0E0,0E0,0E0,0E0,0E0,0E0,0E0,0E0,0E0,0E0,0E0,0E0,0E0,0E0,0E0,0E0,0E0,0E0,0E0,0E0,0E0,0E0,0E0,0E0,0E0,0E0,0E0,0E0,0E0,0E0,0E0,0E0],"parents":[2147483647,0,0,1,1,2,2,3,3,4,4,5,5,6,6,7,7,8,8,9,9,10,10,11,11,12,12,13,13,14,14,15,15,17,17,18,18,20,20,21,21,22,22,23,23,24,24,25,25,26,26,28,28,29,29,30,30,31,31,32,32,35,35,36,36,38,38,39,39,41,41,43,43,44,44,45,45,46,46,47,47,48,48,49,49,50,50,53,53,56,56],"right_children":[2,4,6,8,10,12,14,16,18,20,22,24,26,28,30,32,-1,34,36,-1,38,40,42,44,46,48,50,-1,52,54,56,58,60,-1,-1,62,64,-1,66,68,-1,70,-1,72,74,76,78,80,82,84,86,-1,-1,88,-1,-1,90,-1,-1,-1,-1,-1,-1,-1,-1,-1,-1,-1,-1,-1,-1,-1,-1,-1,-1,-1,-1,-1,-1,-1,-1,-1,-1,-1,-1,-1,-1,-1,-1,-1,-1],"split_conditions":[7.545196E2,7.233713E2,8.789911E1,6.552105E1,3.3721558E1,7.8159546E2,6.04256E1,9.157971E1,1.397504E2,6.6781746E1,6.848079E1,3.1766567E1,6.931262E1,8.885357E1,7.035332E1,2.472987E2,1.2900862E0,6.794866E1,1.8147116E2,8.563785E-1,6.197762E1,8.789911E1,7.1168846E1,7.019103E1,7.006416E1,6.045426E1,3.570613E1,2.6902506E-1,1.5724855E3,8.885357E1,7.0241264E1,1.397504E2,6.0720142E1,-1.0823184E0,-9.981042E-1,3.3721558E1,7.0241264E1,-1.4304153E0,6.939998E1,6.708824E1,1.2887105E0,6.0179356E1,5.804625E-1,2.8321993E1,6.833171E1,2E0,3.248341E1,7.981732E2,1.1E1,2.7341047E1,8.380005E1,6.4594764E-1,1.460867E-1,6.2591362E1,1.2127101E0,1.2987549E0,9.834862E1,-1.0446279E0,-1.308073E0,-8.889033E-1,-1.513787E-1,-1.4374026E0,-1.2061028E0,-1.4182938E0,-6.165115E-1,2.163559E-1,-9.3366736E-1,1.5529379E-1,6.133087E-1,3.4898168E-1,-9.8683465E-1,7.1297646E-1,-1.3890334E0,5.0483066E-1,-1.2491368E0,-7.7375364E-1,6.936876E-1,8.5729903E-1,-1.1056366E0,1.0117149E-1,4.4677946E-1,5.1725173E-1,3.836949E-1,-2.5965342E-2,1.1634123E0,5.216186E-1,9.812568E-1,4.6461877E-1,9.991545E-1,-8.4819174E-1,6.311304E-1],"split_indices":[7,7,3,6,3,7,6,3,7,5,5,3,6,3,6,7,0,5,7,0,6,3,6,6,6,6,3,0,7,3,5,7,6,0,0,3,5,0,6,5,0,6,0,3,5,2,3,7,2,3,3,0,0,6,0,0,3,0,0,0,0,0,0,0,0,0,0,0,0,0,0,0,0,0,0,0,0,0,0,0,0,0,0,0,0,0,0,0,0,0,0],"split_type":[0,0,0,0,0,0,0,0,0,0,0,0,0,0,0,0,0,0,0,0,0,0,0,0,0,0,0,0,0,0,0,0,0,0,0,0,0,0,0,0,0,0,0,0,0,0,0,0,0,0,0,0,0,0,0,0,0,0,0,0,0,0,0,0,0,0,0,0,0,0,0,0,0,0,0,0,0,0,0,0,0,0,0,0,0,0,0,0,0,0,0],"sum_hessian":[5.134E3,2.498E3,2.636E3,2.406E3,9.2E1,8.13E2,1.823E3,7.53E2,1.653E3,6.4E1,2.8E1,4.6E1,7.67E2,1E1,1.813E3,7.4E2,1.3E1,6.43E2,1.01E3,2E0,6.2E1,2.3E1,5E0,3E1,1.6E1,6.5E2,1.17E2,3E0,7E0,7.83E2,1.03E3,4.86E2,2.54E2,3.67E2,2.76E2,3.58E2,6.52E2,1.6E1,4.6E1,9E0,1.4E1,3E0,2E0,1E1,2E1,1.1E1,5E0,2.42E2,4.08E2,9.7E1,2E1,6E0,1E0,1.5E1,7.68E2,1.028E3,2E0,2.52E2,2.34E2,1.96E2,5.8E1,4.3E1,3.15E2,6.45E2,7E0,4E0,4.2E1,2E0,7E0,1E0,2E0,1E0,9E0,1.4E1,6E0,1E0,1E1,2E0,3E0,2E0,2.4E2,3.76E2,3.2E1,2E0,9.5E1,1.5E1,5E0,4E0,1.1E1,1E0,1E0],"tree_param":{"num_deleted":"0","num_feature":"8","num_nodes":"91","size_leaf_vector":"1"}},{"base_weights":[9.5446214E-2,-2.1367485E1,1.9602848E1,-1.9212412E1,-1.4000632E0,2.3512869E1,8.940059E0,-2.2335506E1,2.0928648E1,1.2128295E0,-1.4640454E0,9.261985E0,-1.2793714E0,-9.780909E-1,-1.3553537E0,1.3992237E0,6.449768E-1,9.751497E0,8.821398E0,8.148315E0,4.9621835E-1,6.103401E0,4.4383582E-1,1.12849236E-1,4.1232705E-1,3.650342E-1,1.0914927E-1],"categories":[],"categories_nodes":[],"categories_segments":[],"categories_sizes":[],"default_left":[0,0,0,0,0,0,0,0,0,0,0,0,0,0,0,0,0,0,0,0,0,0,0,0,0,0,0],"id":6,"left_children":[1,3,5,7,-1,9,11,13,15,-1,-1,17,-1,-1,-1,-1,-1,19,21,23,-1,25,-1,-1,-1,-1,-1],"loss_changes":[2.1667002E6,3.4688E4,1.12816125E5,2.3402125E5,0E0,7.8570125E4,8.340027E3,2.235275E4,7.287039E3,0E0,0E0,6.991406E1,0E0,0E0,0E0,0E0,0E0,1.1421875E1,4.609375E0,3.3776855E0,0E0,3.5695038E1,0E0,0E0,0E0,0E0,0E0],"parents":[2147483647,0,0,1,1,2,2,3,3,5,5,6,6,7,7,8,8,11,11,17,17,18,18,19,19,21,21],"right_children":[2,4,6,8,-1,10,12,14,16,-1,-1,18,-1,-1,-1,-1,-1,20,22,24,-1,26,-1,-1,-1,-1,-1],"split_conditions":[7.4771686E2,1.9E1,5E0,8E0,-1.4000632E0,2.1E1,2.1E1,5E0,5E0,1.2128295E0,-1.4640454E0,6E0,-1.2793714E0,-9.780909E-1,-1.3553537E0,1.3992237E0,6.449768E-1,7.571309E1,7.981732E2,7.8159546E2,4.9621835E-1,7.9029095E2,4.4383582E-1,1.12849236E-1,4.1232705E-1,3.650342E-1,1.0914927E-1],"split_indices":[7,0,1,0,0,0,0,0,1,0,0,2,0,0,0,0,0,3,7,7,0,7,0,0,0,0,0],"split_type":[0,0,0,0,0,0,0,0,0,0,0,0,0,0,0,0,0,0,0,0,0,0,0,0,0,0,0],"sum_hessian":[5.173E3,2.463E3,2.71E3,1.862E3,6.01E2,1.982E3,7.28E2,1.728E3,1.34E2,1.955E3,2.7E1,7.22E2,6E0,1.096E3,6.32E2,7E1,6.4E1,3.32E2,3.9E2,3.7E1,2.95E2,1E1,3.8E2,1E0,3.6E1,7E0,3E0],"tree_param":{"num_deleted":"0","num_feature":"8","num_nodes":"27","size_leaf_vector":"1"}},{"base_weights":[1.4727325E-2,-1.7926777E1,1.5606667E1,-1.6486284E1,-1.9666279E1,1.9341116E1,5.5537925E0,-1.9948168E1,-1.5391878E1,-1.9954117E1,-5.6082177E0,2.3277632E1,1.877703E1,2.3670957E0,8.319247E0,-1.692555E1,-2.1233137E1,-5.585895E0,-1.6271433E1,-1.0253558E0,-9.450471E-1,2.153667E0,-8.960778E-1,3.0144292E-1,1.1661621E0,1.3223993E1,1.9249344E1,-6.857774E0,4.714573E0,6.278159E0,8.712244E0,-8.030106E0,-2.0026266E1,-1.3059386E0,-1.9432247E1,6.4015765E0,-1.4709866E1,-1.3081448E0,-1.5696285E1,3.9092955E-1,-7.6468167E0,2.0074762E1,5.357849E0,1.8761858E1,2.2109642E1,-1.441292E1,-1.6029592E0,2.2248106E0,5.7629085E0,7.7571063E0,-1.2700201E0,7.2778525E0,9.034183E0,5.611927E-1,-7.6650923E-1,-1.0385022E0,8.195513E-1,-1.0939139E0,-8.839699E-1,1.303852E0,3.732714E-3,-1.8939032E-1,-9.329204E-1,-8.5636395E-1,-6.9311816E-1,3.5756963E-1,-8.416886E-1,1.0646523E0,4.387389E-1,-7.665597E-2,7.22013E-1,9.921862E-1,8.3055633E-1,9.351927E-1,1.1396385E0,-9.1055834E-1,-1.0830648E-1,4.0308234E-1,-3.2733092E-1,1.7218928E-1,-2.6880106E-1,1.09533064E-1,3.611264E-1,4.796346E-1,7.170211E-2,3.3476672E-1,-6.8802917E-1,3.6888131E-1,1.9813348E-2,4.5684463E-1,3.26272E-1],"categories":[],"categories_nodes":[],"categories_segments":[],"categories_sizes":[],"default_left":[0,0,0,0,0,0,0,0,0,0,0,0,0,0,0,0,0,0,0,0,0,0,0,0,0,0,0,0,0,0,0,0,0,0,0,0,0,0,0,0,0,0,0,0,0,0,0,0,0,0,0,0,0,0,0,0,0,0,0,0,0,0,0,0,0,0,0,0,0,0,0,0,0,0,0,0,0,0,0,0,0,0,0,0,0,0,0,0,0,0,0],"id":7,"left_children":[1,3,5,7,9,11,13,15,17,19,21,23,25,27,29,31,33,35,37,-1,-1,39,-1,-1,-1,41,43,45,47,49,51,53,55,-1,57,59,61,-1,63,-1,65,67,69,71,73,75,77,79,81,83,85,87,89,-1,-1,-1,-1,-1,-1,-1,-1,-1,-1,-1,-1,-1,-1,-1,-1,-1,-1,-1,-1,-1,-1,-1,-1,-1,-1,-1,-1,-1,-1,-1,-1,-1,-1,-1,-1,-1,-1],"loss_changes":[1.4373189E6,5.662E3,1.0309544E5,4.6675625E3,4.246125E3,4.0128125E3,6.5545586E3,8.5241406E2,8.551234E3,2.2684375E2,2.2368154E3,5.36875E1,4.35625E3,7.568331E3,2.6535547E2,2.5422441E3,1.3841328E3,9.281525E3,4.817578E3,0E0,0E0,8.9257227E2,0E0,0E0,0E0,7.4908105E3,1.84125E3,2.79566E3,7.127881E2,7.689602E2,8.756641E1,3.967059E3,2.290664E3,0E0,3.034922E2,4.604003E3,1.9993838E3,0E0,2.048375E3,0E0,9.360875E2,8.456543E2,4.2154414E3,2.9023438E3,1.088125E2,1.3095264E3,2.1072527E3,7.9679266E2,1.00093164E3,6.478157E2,1.2860327E3,4.239209E1,9.175781E0,0E0,0E0,0E0,0E0,0E0,0E0,0E0,0E0,0E0,0E0,0E0,0E0,0E0,0E0,0E0,0E0,0E0,0E0,0E0,0E0,0E0,0E0,0E0,0E0,0E0,0E0,0E0,0E0,0E0,0E0,0E0,0E0,0E0,0E0,0E0,0E0,0E0,0E0],"parents":[2147483647,0,0,1,1,2,2,3,3,4,4,5,5,6,6,7,7,8,8,9,9,10,10,11,11,12,12,13,13,14,14,15,15,16,16,17,17,18,18,21,21,25,25,26,26,27,27,28,28,29,29,30,30,31,31,32,32,34,34,35,35,36,36,38,38,40,40,41,41,42,42,43,43,44,44,45,45,46,46,47,47,48,48,49,49,50,50,51,51,52,52],"right_children":[2,4,6,8,10,12,14,16,18,20,22,24,26,28,30,32,34,36,38,-1,-1,40,-1,-1,-1,42,44,46,48,50,52,54,56,-1,58,60,62,-1,64,-1,66,68,70,72,74,76,78,80,82,84,86,88,90,-1,-1,-1,-1,-1,-1,-1,-1,-1,-1,-1,-1,-1,-1,-1,-1,-1,-1,-1,-1,-1,-1,-1,-1,-1,-1,-1,-1,-1,-1,-1,-1,-1,-1,-1,-1,-1,-1],"split_conditions":[7.188206E1,3.570613E1,5E0,6.0720142E1,4.6495766E1,6.827475E1,6.06667E1,1E0,6.812044E1,6.809626E1,6.4768265E1,8.682626E1,1E0,6E0,6.11441E1,2.9759222E1,6E0,1E0,1E0,-1.0253558E0,-9.450471E-1,6.81985E1,-8.960778E-1,3.0144292E-1,1.1661621E0,7.0264984E1,7.1883934E1,5.9622726E1,7.769202E1,6.1063896E1,6.723464E1,6.689887E1,3.494315E1,-1.3059386E0,3.0465633E1,6.767243E1,6.811715E1,-1.3081448E0,3.1214073E1,3.9092955E-1,6E0,1E1,1.0138462E2,1.0240026E2,6.817816E1,8.127774E1,6.7327484E1,6.0270786E1,5.9330025E1,8E0,8.111223E1,8.682626E1,6.892512E1,5.611927E-1,-7.6650923E-1,-1.0385022E0,8.195513E-1,-1.0939139E0,-8.839699E-1,1.303852E0,3.732714E-3,-1.8939032E-1,-9.329204E-1,-8.5636395E-1,-6.9311816E-1,3.5756963E-1,-8.416886E-1,1.0646523E0,4.387389E-1,-7.665597E-2,7.22013E-1,9.921862E-1,8.3055633E-1,9.351927E-1,1.1396385E0,-9.1055834E-1,-1.0830648E-1,4.0308234E-1,-3.2733092E-1,1.7218928E-1,-2.6880106E-1,1.09533064E-1,3.611264E-1,4.796346E-1,7.170211E-2,3.3476672E-1,-6.8802917E-1,3.6888131E-1,1.9813348E-2,4.5684463E-1,3.26272E-1],"split_indices":[3,3,1,6,3,6,6,1,6,5,6,3,1,1,6,3,1,1,1,0,0,5,0,0,0,6,6,6,3,6,5,5,3,0,3,5,5,0,3,0,1,2,3,3,5,3,5,6,6,2,3,3,5,0,0,0,0,0,0,0,0,0,0,0,0,0,0,0,0,0,0,0,0,0,0,0,0,0,0,0,0,0,0,0,0,0,0,0,0,0,0],"split_type":[0,0,0,0,0,0,0,0,0,0,0,0,0,0,0,0,0,0,0,0,0,0,0,0,0,0,0,0,0,0,0,0,0,0,0,0,0,0,0,0,0,0,0,0,0,0,0,0,0,0,0,0,0,0,0,0,0,0,0,0,0,0,0,0,0,0,0,0,0,0,0,0,0,0,0,0,0,0,0,0,0,0,0,0,0,0,0,0,0,0,0],"sum_hessian":[5.136E3,2.388E3,2.748E3,1.312E3,1.076E3,2.003E3,7.45E2,3.11E2,1.001E3,1.054E3,2.2E1,2.46E2,1.757E3,3.47E2,3.98E2,9.7E1,2.14E2,8.3E1,9.18E2,6.79E2,3.75E2,1.4E1,8E0,1E0,2.45E2,1.4E2,1.617E3,7E1,2.77E2,6.7E1,3.31E2,2.6E1,7.1E1,5.4E1,1.6E2,3.6E1,4.7E1,4.8E1,8.7E2,9E0,5E0,7.4E1,6.6E1,1.388E3,2.29E2,2.8E1,4.2E1,8.3E1,1.94E2,5.6E1,1.1E1,6.5E1,2.66E2,7E0,1.9E1,7E1,1E0,6.2E1,9.8E1,8E0,2.8E1,1.3E1,3.4E1,4.84E2,3.86E2,2E0,3E0,6.6E1,8E0,3.8E1,2.8E1,9.18E2,4.7E2,4.3E1,1.86E2,2.1E1,7E0,1.4E1,2.8E1,7.2E1,1.1E1,5.7E1,1.37E2,4.3E1,1.3E1,7E0,4E0,6.4E1,1E0,2.53E2,1.3E1],"tree_param":{"num_deleted":"0","num_feature":"8","num_nodes":"91","size_leaf_vector":"1"}},{"base_weights":[-2.8566864E-1,-2.1570606E1,1.825567E1,-2.5522482E1,-1.7154459E1,1.5693122E1,1.914487E1,-7.8843516E-1,-1.2786026E0,-1.7681562E1,2.084782E1,2.0804459E1,1.524408E1,1.0912569E0,1.8880089E1,-9.112493E-1,-8.465686E-1,1.149792E0,4.327403E-1,1.0535824E0,1.5940571E-1,3.0445758E-1,1.5389642E1,1.664244E1,1.913604E1,1.3990135E-1,1.5404732E1,1.4654249E1,1.8502691E1,1.5930766E1,9.6005344E-1,7.7646196E-1,6.044366E-1,8.550745E-1,6.348472E-1,9.3191206E-1,1.3046856E-1,2.2886021E-1,8.210382E-1],"categories":[],"categories_nodes":[],"categories_segments":[],"categories_sizes":[],"default_left":[0,0,0,0,0,0,0,0,0,0,0,0,0,0,0,0,0,0,0,0,0,0,0,0,0,0,0,0,0,0,0,0,0,0,0,0,0,0,0],"id":8,"left_children":[1,3,5,7,9,11,13,-1,-1,15,17,19,21,-1,23,-1,-1,-1,-1,-1,-1,-1,25,27,29,-1,31,33,35,37,-1,-1,-1,-1,-1,-1,-1,-1,-1],"loss_changes":[2.0336371E6,4.1429625E4,5.974875E3,2.07875E2,2.3123938E4,1.3239219E3,1.0356875E3,0E0,0E0,1.484375E2,2.2002881E2,1.9170117E2,7.8715625E2,0E0,7.490625E2,0E0,0E0,0E0,0E0,0E0,0E0,0E0,8.0390625E1,4.6486328E2,4.14375E1,0E0,8.021875E1,2.6665234E2,1.6464844E2,1.4180371E2,0E0,0E0,0E0,0E0,0E0,0E0,0E0,0E0,0E0],"parents":[2147483647,0,0,1,1,2,2,3,3,4,4,5,5,6,6,9,9,10,10,11,11,12,12,14,14,22,22,23,23,24,24,26,26,27,27,28,28,29,29],"right_children":[2,4,6,8,10,12,14,-1,-1,16,18,20,22,-1,24,-1,-1,-1,-1,-1,-1,-1,26,28,30,-1,32,34,36,38,-1,-1,-1,-1,-1,-1,-1,-1,-1],"split_conditions":[7.044495E1,3.5787937E1,8.615225E1,5E0,8E0,9E0,8.6607825E2,-7.8843516E-1,-1.2786026E0,6.795591E1,6E0,6.8510034E2,6.67196E1,1.0912569E0,6.696877E1,-9.112493E-1,-8.465686E-1,1.149792E0,4.327403E-1,1.0535824E0,1.5940571E-1,3.0445758E-1,6.591905E2,1.0003107E2,8.911849E1,1.3990135E-1,1.6117272E3,9.544056E1,2.1279448E3,1.1E1,9.6005344E-1,7.7646196E-1,6.044366E-1,8.550745E-1,6.348472E-1,9.3191206E-1,1.3046856E-1,2.2886021E-1,8.210382E-1],"split_indices":[4,4,4,0,0,0,7,0,0,5,2,7,5,0,5,0,0,0,0,0,0,0,7,4,4,0,7,4,7,0,0,0,0,0,0,0,0,0,0],"split_type":[0,0,0,0,0,0,0,0,0,0,0,0,0,0,0,0,0,0,0,0,0,0,0,0,0,0,0,0,0,0,0,0,0,0,0,0,0,0,0],"sum_hessian":[5.151E3,2.398E3,2.753E3,1.263E3,1.135E3,7.14E2,2.039E3,8E0,1.255E3,1.12E3,1.5E1,5.4E1,6.6E2,1.76E2,1.863E3,6.36E2,4.84E2,1.2E1,3E0,5.3E1,1E0,1.1E1,6.49E2,1.98E2,1.665E3,1E0,6.48E2,1E2,9.8E1,3.8E1,1.627E3,6.21E2,2.7E1,4.1E1,5.9E1,9.7E1,1E0,2E0,3.6E1],"tree_param":{"num_deleted":"0","num_feature":"8","num_nodes":"39","size_leaf_vector":"1"}},{"base_weights":[2.9818224E-2,-2.0593029E1,1.7626118E1,-2.4267397E1,-1.6481205E1,2.1302822E1,8.079812E0,-1.1782181E0,-1.2479281E0,-8.4072465E-1,1.922459E1,2.4464647E1,2.1025616E1,6.239398E-1,7.7122025E0,1.0495204E0,3.7594733E-1,1.3552412E0,2.2571632E1,1.0218338E0,1.0763062E0,5.889154E0,7.784836E0,3.2497406E-1,1.1335161E0,7.537776E0,4.797154E0,7.8052334E-2,7.791535E0,1.0062523E-1,4.2710015E-1,-3.8066865E-3,2.5164205E-1,3.1764212E-1,3.9279148E-1],"categories":[],"categories_nodes":[],"categories_segments":[],"categories_sizes":[],"default_left":[0,0,0,0,0,0,0,0,0,0,0,0,0,0,0,0,0,0,0,0,0,0,0,0,0,0,0,0,0,0,0,0,0,0,0],"id":9,"left_children":[1,3,5,7,9,11,13,-1,-1,-1,15,17,19,-1,21,-1,-1,-1,23,-1,-1,25,27,-1,-1,29,31,-1,33,-1,-1,-1,-1,-1,-1],"loss_changes":[1.897167E6,3.5965875E4,9.8842E4,2.85E1,1.38776875E4,1.270125E3,1.1748086E3,0E0,0E0,0E0,6.954443E1,1.7786719E2,1.14E2,0E0,5.055078E1,0E0,0E0,0E0,8.097656E0,0E0,0E0,2.1449585E1,1.6898438E1,0E0,0E0,4.3843994E1,2.5651733E1,0E0,1.4472656E1,0E0,0E0,0E0,0E0,0E0,0E0],"parents":[2147483647,0,0,1,1,2,2,3,3,4,4,5,5,6,6,10,10,11,11,12,12,14,14,18,18,21,21,22,22,25,25,26,26,28,28],"right_children":[2,4,6,8,10,12,14,-1,-1,-1,16,18,20,-1,22,-1,-1,-1,24,-1,-1,26,28,-1,-1,30,32,-1,34,-1,-1,-1,-1,-1,-1],"split_conditions":[7.044495E1,3.4987244E1,5E0,2.472987E2,7.188206E1,3.570613E1,7.4045056E2,-1.1782181E0,-1.2479281E0,-8.4072465E-1,1E0,9.7195694E1,6.761352E1,6.239398E-1,6.678999E1,1.0495204E0,3.7594733E-1,1.3552412E0,9.77966E1,1.0218338E0,1.0763062E0,7.671926E1,2.7341047E1,3.2497406E-1,1.1335161E0,9.562211E2,7.724938E1,7.8052334E-2,7.606602E1,1.0062523E-1,4.2710015E-1,-3.8066865E-3,2.5164205E-1,3.1764212E-1,3.9279148E-1],"split_indices":[4,4,1,7,3,3,7,0,0,0,1,4,5,0,5,0,0,0,4,0,0,3,3,0,0,7,3,0,4,0,0,0,0,0,0],"split_type":[0,0,0,0,0,0,0,0,0,0,0,0,0,0,0,0,0,0,0,0,0,0,0,0,0,0,0,0,0,0,0,0,0,0,0],"sum_hessian":[5.226E3,2.406E3,2.82E3,1.268E3,1.138E3,2.035E3,7.85E2,6.46E2,6.22E2,1.128E3,1E1,1.57E2,1.878E3,5.8E1,7.27E2,8E0,2E0,6E1,9.7E1,8.82E2,9.96E2,3.1E1,6.96E2,1E0,9.6E1,1E1,2.1E1,1E0,6.95E2,2E0,8E0,1E0,2E1,3.4E1,6.61E2],"tree_param":{"num_deleted":"0","num_feature":"8","num_nodes":"35","size_leaf_vector":"1"}},{"base_weights":[-9.0242915E-2,-1.9478035E1,1.6701698E1,-2.3030615E1,-1.5605808E1,2.0246344E1,7.6020303E0,-1.1176182E0,-1.184065E0,-8.0130464E-1,1.931174E1,2.2958406E1,1.9990923E1,1.2085869E1,7.280541E0,1.0825964E0,4.0241462E-1,1.2727334E0,1.068797E0,9.738513E-1,1.0240539E0,1.2080536E-1,6.116952E-1,6.9087305E0,7.9055495E0,5.570494E0,3.491287E-1,7.979746E0,3.4098728E0,3.3295625E-1,1.9642264E-1,4.221734E-1,3.636321E-1,1.9078636E-1,3.4515E-2],"categories":[],"categories_nodes":[],"categories_segments":[],"categories_sizes":[],"default_left":[0,0,0,0,0,0,0,0,0,0,0,0,0,0,0,0,0,0,0,0,0,0,0,0,0,0,0,0,0,0,0,0,0,0,0],"id":10,"left_children":[1,3,5,7,9,11,13,-1,-1,-1,15,17,19,21,23,-1,-1,-1,-1,-1,-1,-1,-1,25,27,29,-1,31,33,-1,-1,-1,-1,-1,-1],"loss_changes":[1.6652324E6,3.229825E4,8.825731E4,1.61875E1,1.7024688E4,9.070625E2,1.02197266E3,0E0,0E0,0E0,1.9475928E2,9.977344E1,5.70625E1,4.201465E1,1.1292969E2,0E0,0E0,0E0,0E0,0E0,0E0,0E0,0E0,6.560547E0,6.0183594E1,2.5679688E1,0E0,2.2862305E1,3.9885101E0,0E0,0E0,0E0,0E0,0E0,0E0],"parents":[2147483647,0,0,1,1,2,2,3,3,4,4,5,5,6,6,10,10,11,11,12,12,13,13,14,14,23,23,24,24,25,25,27,27,28,28],"right_children":[2,4,6,8,10,12,14,-1,-1,-1,16,18,20,22,24,-1,-1,-1,-1,-1,-1,-1,-1,26,28,30,-1,32,34,-1,-1,-1,-1,-1,-1],"split_conditions":[7.044495E1,3.4987244E1,5E0,2.472987E2,7.188206E1,3.570613E1,7.272857E2,-1.1176182E0,-1.184065E0,-8.0130464E-1,1E0,9.7195694E1,6.767243E1,7.3321465E1,6.807381E1,1.0825964E0,4.0241462E-1,1.2727334E0,1.068797E0,9.738513E-1,1.0240539E0,1.2080536E-1,6.116952E-1,6.678999E1,1.11183784E2,7.848299E1,3.491287E-1,9.7549614E1,8.398494E1,3.3295625E-1,1.9642264E-1,4.221734E-1,3.636321E-1,1.9078636E-1,3.4515E-2],"split_indices":[4,4,1,7,3,3,7,0,0,0,1,4,5,4,5,0,0,0,0,0,0,0,0,5,4,3,0,4,3,0,0,0,0,0,0],"split_type":[0,0,0,0,0,0,0,0,0,0,0,0,0,0,0,0,0,0,0,0,0,0,0,0,0,0,0,0,0,0,0,0,0,0,0],"sum_hessian":[5.113E3,2.373E3,2.74E3,1.235E3,1.138E3,1.971E3,7.69E2,6.22E2,6.13E2,1.125E3,1.3E1,1.62E2,1.809E3,4.9E1,7.2E2,1E1,3E0,5.7E1,1.05E2,9.03E2,9.06E2,1E0,4.8E1,4.59E2,2.61E2,2.8E1,4.31E2,2.56E2,5E0,1.5E1,1.3E1,1.48E2,1.08E2,4E0,1E0],"tree_param":{"num_deleted":"0","num_feature":"8","num_nodes":"35","size_leaf_vector":"1"}},{"base_weights":[-1.0647664E-1,-1.6717884E1,1.5450772E1,-1.4795597E1,-1.1245935E0,8.012261E0,1.8885817E1,-1.7405058E1,1.7900944E1,8.946294E0,-1.1453574E0,1.8915325E1,-8.7051725E-1,-1.5138935E1,-1.0664926E0,1.4967311E1,1.0505252E0,6.9294553E0,1.8195631E1,1.8183805E1,9.907543E-1,-7.695213E-1,-7.032236E-1,1.8056393E1,1.3159578E1,5.825367E0,7.0810304E0,1.9490074E1,1.2764948E1,7.329228E0,9.120516E-1,5.4745793E-1,9.8622555E-1,5.8686227E-1,9.246497E-1,3.284447E-1,2.5421998E-1,3.4624353E-1,4.328733E-1,6.089331E-1,1.0032469E0,4.404385E-1,1.0096022E0,3.9903304E-1,8.551579E-2],"categories":[],"categories_nodes":[],"categories_segments":[],"categories_sizes":[],"default_left":[0,0,0,0,0,0,0,0,0,0,0,0,0,0,0,0,0,0,0,0,0,0,0,0,0,0,0,0,0,0,0,0,0,0,0,0,0,0,0,0,0,0,0,0,0],"id":11,"left_children":[1,3,5,7,-1,9,11,13,15,17,-1,19,-1,21,-1,23,-1,25,27,29,-1,-1,-1,31,33,35,37,39,41,43,-1,-1,-1,-1,-1,-1,-1,-1,-1,-1,-1,-1,-1,-1,-1],"loss_changes":[1.332712E6,2.734875E4,6.7892625E4,1.6020184E5,0E0,2.4550555E4,2.27975E3,1.51171875E4,9.5352734E2,1.5151883E4,0E0,8.375625E2,0E0,8.1859375E1,0E0,1.8120508E2,0E0,7.154492E1,7.775547E2,4.9740625E2,0E0,0E0,0E0,8.042676E1,1.6982324E2,1.4531982E1,8.480078E1,2.431836E2,7.330029E2,1.1972931E1,0E0,0E0,0E0,0E0,0E0,0E0,0E0,0E0,0E0,0E0,0E0,0E0,0E0,0E0,0E0],"parents":[2147483647,0,0,1,1,2,2,3,3,5,5,6,6,7,7,8,8,9,9,11,11,13,13,15,15,17,17,18,18,19,19,23,23,24,24,25,25,26,26,27,27,28,28,29,29],"right_children":[2,4,6,8,-1,10,12,14,16,18,-1,20,-1,22,-1,24,-1,26,28,30,-1,-1,-1,32,34,36,38,40,42,44,-1,-1,-1,-1,-1,-1,-1,-1,-1,-1,-1,-1,-1,-1,-1],"split_conditions":[7.545196E2,1.9E1,8.885357E1,8E0,-1.1245935E0,2.1E1,2.1E1,5E0,6.0988625E1,6.943166E1,-1.1453574E0,7.071617E1,-8.7051725E-1,7.141463E1,-1.0664926E0,3.1214073E1,1.0505252E0,5.9330025E1,3.570613E1,6.04256E1,9.907543E-1,-7.695213E-1,-7.032236E-1,5.9250313E1,9.258629E1,5.88458E1,8.611459E1,6.9631836E1,1.2E1,2E1,9.120516E-1,5.4745793E-1,9.8622555E-1,5.8686227E-1,9.246497E-1,3.284447E-1,2.5421998E-1,3.4624353E-1,4.328733E-1,6.089331E-1,1.0032469E0,4.404385E-1,1.0096022E0,3.9903304E-1,8.551579E-2],"split_indices":[7,0,3,0,0,0,0,0,6,6,0,6,0,6,0,3,0,6,3,6,0,0,0,6,3,6,3,6,0,0,0,0,0,0,0,0,0,0,0,0,0,0,0,0,0],"split_type":[0,0,0,0,0,0,0,0,0,0,0,0,0,0,0,0,0,0,0,0,0,0,0,0,0,0,0,0,0,0,0,0,0,0,0,0,0,0,0,0,0,0,0,0,0],"sum_hessian":[5.155E3,2.493E3,2.662E3,1.873E3,6.2E2,8.42E2,1.82E3,1.735E3,1.38E2,8.18E2,2.4E1,1.819E3,1E0,1.103E3,6.32E2,7.4E1,6.4E1,6.73E2,1.45E2,1.015E3,8.04E2,8.83E2,2.2E2,2.4E1,5E1,8.6E1,5.87E2,1.15E2,3E1,6E0,1.009E3,6E0,1.8E1,4.2E1,8E0,3.9E1,4.7E1,5.39E2,4.8E1,1E1,1.05E2,2.1E1,9E0,5E0,1E0],"tree_param":{"num_deleted":"0","num_feature":"8","num_nodes":"45","size_leaf_vector":"1"}},{"base_weights":[1.0793135E-1,-1.5875668E1,1.4628824E1,-1.4119128E1,-1.0666269E0,1.7629513E1,6.2649274E0,-1.6511976E1,1.6563877E1,1.8148981E1,-1.1274118E0,6.5413647E0,-9.5778143E-1,-1.435689E1,-1.0149132E0,2.1755367E1,5.1917607E-1,9.747348E-1,1.7953596E1,5.9887524E0,6.882816E0,-7.41239E-1,-6.8577737E-1,1.1519567E0,7.8710026E-1,1.7279238E1,9.171096E-1,4.483823E0,6.0811276E0,7.378334E0,6.5260997E0,5.313937E-1,8.662247E-1,2.4226247E-1,9.1340356E-2,6.730795E-2,3.065484E-1,3.719941E-1,1.4512873E-1,3.650696E-1,3.1047258E-1],"categories":[],"categories_nodes":[],"categories_segments":[],"categories_sizes":[],"default_left":[0,0,0,0,0,0,0,0,0,0,0,0,0,0,0,0,0,0,0,0,0,0,0,0,0,0,0,0,0,0,0,0,0,0,0,0,0,0,0,0,0],"id":12,"left_children":[1,3,5,7,-1,9,11,13,15,17,-1,19,-1,21,-1,23,-1,-1,25,27,29,-1,-1,-1,-1,31,-1,33,35,37,39,-1,-1,-1,-1,-1,-1,-1,-1,-1,-1],"loss_changes":[1.2052752E6,2.33935E4,6.817969E4,1.3778869E5,0E0,4.2193188E4,5.184875E3,1.389025E4,4.137699E3,1.698125E2,0E0,9.331445E1,0E0,1.300625E2,0E0,2.0085938E2,0E0,0E0,1.388125E2,1.1658203E1,2.85625E1,0E0,0E0,0E0,0E0,1.2421875E1,0E0,1.035495E1,5.3341797E1,2.633789E1,1.8736328E1,0E0,0E0,0E0,0E0,0E0,0E0,0E0,0E0,0E0,0E0],"parents":[2147483647,0,0,1,1,2,2,3,3,5,5,6,6,7,7,8,8,9,9,11,11,13,13,15,15,18,18,19,19,20,20,25,25,27,27,28,28,29,29,30,30],"right_children":[2,4,6,8,-1,10,12,14,16,18,-1,20,-1,22,-1,24,-1,-1,26,28,30,-1,-1,-1,-1,32,-1,34,36,38,40,-1,-1,-1,-1,-1,-1,-1,-1,-1,-1],"split_conditions":[7.4771686E2,1.9E1,5E0,8E0,-1.0666269E0,2.1E1,2.1E1,5E0,5E0,9.258629E1,-1.1274118E0,6.7480804E1,-9.5778143E-1,6.794866E1,-1.0149132E0,1.0054863E2,5.1917607E-1,9.747348E-1,6.740744E1,1E1,8.0042E1,-7.41239E-1,-6.8577737E-1,1.1519567E0,7.8710026E-1,9.314267E1,9.171096E-1,8.127774E1,7.981732E2,2.0157803E3,1.050033E3,5.313937E-1,8.662247E-1,2.4226247E-1,9.1340356E-2,6.730795E-2,3.065484E-1,3.719941E-1,1.4512873E-1,3.650696E-1,3.1047258E-1],"split_indices":[7,0,1,0,0,0,0,0,1,3,0,5,0,5,0,3,0,0,5,0,3,0,0,0,0,3,0,3,7,7,7,0,0,0,0,0,0,0,0,0,0],"split_type":[0,0,0,0,0,0,0,0,0,0,0,0,0,0,0,0,0,0,0,0,0,0,0,0,0,0,0,0,0,0,0,0,0,0,0,0,0,0,0,0,0],"sum_hessian":[5.191E3,2.471E3,2.72E3,1.872E3,5.99E2,2.001E3,7.19E2,1.737E3,1.35E2,1.976E3,2.5E1,7.12E2,7E0,1.11E3,6.27E2,7.2E1,6.3E1,2.38E2,1.738E3,2.79E2,4.33E2,6.29E2,4.81E2,5.7E1,1.5E1,6.52E2,1.086E3,1.9E1,2.6E2,1.73E2,2.6E2,6E0,6.46E2,1.6E1,3E0,3E0,2.57E2,1.7E2,3E0,6.9E1,1.91E2],"tree_param":{"num_deleted":"0","num_feature":"8","num_nodes":"41","size_leaf_vector":"1"}},{"base_weights":[-3.2044753E-2,-1.6835022E1,1.4330154E1,-1.9809504E1,-1.3542272E1,1.7444317E1,6.528762E0,-9.7501737E-1,-1.0590063E0,-6.8748105E-1,1.1200964E1,1.0169076E0,8.595738E-1,1.0422812E1,6.226886E0,9.115526E-1,5.2466506E-1,5.5180764E-1,4.552831E0,6.6024837E0,5.8979335E0,-8.2056916E-1,4.4307613E-1,2.6470146E-1,2.6411058E-3,6.999109E0,5.72474E0,4.2593246E0,5.9988403E0,3.230952E-1,3.7913272E-1,6.778763E-2,2.937698E-1,7.278428E-2,2.583907E-1,2.7107447E-1,3.1799814E-1],"categories":[],"categories_nodes":[],"categories_segments":[],"categories_sizes":[],"default_left":[0,0,0,0,0,0,0,0,0,0,0,0,0,0,0,0,0,0,0,0,0,0,0,0,0,0,0,0,0,0,0,0,0,0,0,0,0],"id":13,"left_children":[1,3,5,7,9,11,13,-1,-1,-1,15,-1,-1,17,19,-1,21,-1,23,25,27,-1,-1,-1,-1,29,31,33,35,-1,-1,-1,-1,-1,-1,-1,-1],"loss_changes":[1.2510429E6,2.3130125E4,6.7790125E4,1.1790625E2,5.9873594E3,1.1115E3,8.7433594E2,0E0,0E0,0E0,7.4098804E2,0E0,0E0,1.513711E2,5.298242E1,0E0,8.51397E2,0E0,2.3068146E1,7.794922E1,4.158008E1,0E0,0E0,0E0,0E0,2.279004E1,6.509619E1,6.1248352E1,4.474707E1,0E0,0E0,0E0,0E0,0E0,0E0,0E0,0E0],"parents":[2147483647,0,0,1,1,2,2,3,3,4,4,5,5,6,6,10,10,13,13,14,14,16,16,18,18,19,19,20,20,25,25,26,26,27,27,28,28],"right_children":[2,4,6,8,10,12,14,-1,-1,-1,16,-1,-1,18,20,-1,22,-1,24,26,28,-1,-1,-1,-1,30,32,34,36,-1,-1,-1,-1,-1,-1,-1,-1],"split_conditions":[7.044495E1,3.4987244E1,5E0,7.3631966E1,7.188206E1,8.130344E2,7.336539E2,-9.7501737E-1,-1.0590063E0,-6.8748105E-1,7.01787E2,1.0169076E0,8.595738E-1,1.1E1,6E0,9.115526E-1,2E0,5.5180764E-1,7.946714E1,9.927706E1,7.606602E1,-8.2056916E-1,4.4307613E-1,2.6470146E-1,2.6411058E-3,8.513307E1,9.938298E1,7E0,7.878543E1,3.230952E-1,3.7913272E-1,6.778763E-2,2.937698E-1,7.278428E-2,2.583907E-1,2.7107447E-1,3.1799814E-1],"split_indices":[4,4,1,3,3,7,7,0,0,0,7,0,0,2,2,0,2,0,3,4,4,0,0,0,0,4,4,2,3,0,0,0,0,0,0,0,0],"split_type":[0,0,0,0,0,0,0,0,0,0,0,0,0,0,0,0,0,0,0,0,0,0,0,0,0,0,0,0,0,0,0,0,0,0,0,0,0],"sum_hessian":[5.182E3,2.388E3,2.794E3,1.252E3,1.136E3,1.996E3,7.98E2,1.034E3,2.18E2,1.127E3,9E0,1.54E2,1.842E3,5.5E1,7.43E2,5E0,4E0,4.9E1,6E0,3.38E2,4.05E2,1E0,3E0,5E0,1E0,2.28E2,1.1E2,2.6E1,3.79E2,1.25E2,1.03E2,4E0,1.06E2,7E0,1.9E1,1.52E2,2.27E2],"tree_param":{"num_deleted":"0","num_feature":"8","num_nodes":"37","size_leaf_vector":"1"}},{"base_weights":[3.7848912E-2,-1.265488E1,1.0869873E1,-1.1799199E1,-1.364904E1,1.3485746E1,3.9652112E0,-1.2577285E1,-9.408619E0,-1.3833746E1,-3.5439186E0,1.6592571E1,1.3038313E1,1.6840283E0,5.6260653E0,-1.179133E1,-1.4347687E1,5.39695E0,-9.56576E0,-7.176741E-1,-6.565792E-1,-9.310628E0,5.1795416E0,1.6792355E-1,8.3160365E-1,9.621878E0,1.3323051E1,-5.2401853E0,3.1139243E0,4.9113245E0,6.031158E0,-8.133994E0,-1.2353558E1,-1.5544587E1,-1.138281E1,5.868833E-1,-3.4062997E-1,-1.2300667E1,-8.47777E0,-1.1046517E1,-2.6432476E0,5.542574E0,5.6882095E-2,1.5325719E1,2.8047428E0,1.2719636E1,1.4853982E1,-1.049321E1,-2.475773E0,1.2854489E0,4.2164187E0,-4.3783333E-2,5.2977214E0,4.428222E0,6.328612E0,-5.354885E-1,2.0056117E-1,-8.9214164E-1,-5.9476346E-1,-9.210688E-1,-7.059139E-1,-6.1409134E-2,-6.643679E-1,-4.1597196E-1,-7.512942E-1,-3.7163097E-1,-6.142894E-1,-2.2164963E-1,-6.072888E-1,-3.8745716E-1,3.1686097E-1,6.1965942E-2,2.9901394E-1,1.5984307E-1,7.8901863E-1,6.3409853E-1,4.954338E-2,7.9251957E-1,6.232497E-1,8.5234016E-1,7.0580226E-1,-8.926535E-3,-6.2080276E-1,2.4555114E-1,-2.8335494E-1,9.5395945E-2,-4.547901E-1,-2.1842752E-1,2.3649178E-1,1.8785462E-1,-4.7675133E-1,1.8175115E-1,3.2850727E-1,2.2799109E-1,9.3678765E-2,3.478777E-1,2.9636726E-1],"categories":[],"categories_nodes":[],"categories_segments":[],"categories_sizes":[],"default_left":[0,0,0,0,0,0,0,0,0,0,0,0,0,0,0,0,0,0,0,0,0,0,0,0,0,0,0,0,0,0,0,0,0,0,0,0,0,0,0,0,0,0,0,0,0,0,0,0,0,0,0,0,0,0,0,0,0,0,0,0,0,0,0,0,0,0,0,0,0,0,0,0,0,0,0,0,0,0,0,0,0,0,0,0,0,0,0,0,0,0,0,0,0,0,0,0,0],"id":14,"left_children":[1,3,5,7,9,11,13,15,17,19,21,23,25,27,29,31,33,35,37,-1,-1,39,41,-1,-1,43,45,47,49,51,53,55,57,59,61,-1,-1,63,65,67,69,71,-1,73,75,77,79,81,83,85,87,89,91,93,95,-1,-1,-1,-1,-1,-1,-1,-1,-1,-1,-1,-1,-1,-1,-1,-1,-1,-1,-1,-1,-1,-1,-1,-1,-1,-1,-1,-1,-1,-1,-1,-1,-1,-1,-1,-1,-1,-1,-1,-1,-1,-1],"loss_changes":[7.1095025E5,1.8644375E3,5.033872E4,2.2755781E3,1.9947656E3,2.5958438E3,2.9002559E3,1.17775E3,7.96125E2,2.0382812E2,1.1046436E3,7.536719E1,1.5965625E3,3.2341118E3,9.893359E1,1.2895547E3,8.628125E2,3.8963315E2,8.3896875E2,0E0,0E0,1.2126123E2,6.900589E0,0E0,0E0,5.400756E3,1.3205312E3,7.8722656E2,5.3886865E2,3.1806177E2,1.0500195E2,2.95231E3,1.2569062E3,5.851797E2,1.6855996E3,0E0,0E0,8.297676E2,8.2407227E2,1.8857422E1,2.3252129E2,7.6569977E0,0E0,3.6864648E2,1.1519777E3,7.423594E2,4.9725E2,3.7462012E2,9.236306E2,6.829417E2,7.611504E2,5.047994E2,3.0192822E2,7.2577515E0,1.75625E1,0E0,0E0,0E0,0E0,0E0,0E0,0E0,0E0,0E0,0E0,0E0,0E0,0E0,0E0,0E0,0E0,0E0,0E0,0E0,0E0,0E0,0E0,0E0,0E0,0E0,0E0,0E0,0E0,0E0,0E0,0E0,0E0,0E0,0E0,0E0,0E0,0E0,0E0,0E0,0E0,0E0,0E0],"parents":[2147483647,0,0,1,1,2,2,3,3,4,4,5,5,6,6,7,7,8,8,9,9,10,10,11,11,12,12,13,13,14,14,15,15,16,16,17,17,18,18,21,21,22,22,25,25,26,26,27,27,28,28,29,29,30,30,31,31,32,32,33,33,34,34,37,37,38,38,39,39,40,40,41,41,43,43,44,44,45,45,46,46,47,47,48,48,49,49,50,50,51,51,52,52,53,53,54,54],"right_children":[2,4,6,8,10,12,14,16,18,20,22,24,26,28,30,32,34,36,38,-1,-1,40,42,-1,-1,44,46,48,50,52,54,56,58,60,62,-1,-1,64,66,68,70,72,-1,74,76,78,80,82,84,86,88,90,92,94,96,-1,-1,-1,-1,-1,-1,-1,-1,-1,-1,-1,-1,-1,-1,-1,-1,-1,-1,-1,-1,-1,-1,-1,-1,-1,-1,-1,-1,-1,-1,-1,-1,-1,-1,-1,-1,-1,-1,-1,-1,-1,-1],"split_conditions":[7.188206E1,3.570613E1,5E0,3.218179E1,4.6495766E1,6.827475E1,6.055289E1,5E0,6.67196E1,6.791453E1,7E0,8.682626E1,1E0,6E0,6.23514E1,6.3107716E1,6.197762E1,2E0,6.760821E1,-7.176741E-1,-6.565792E-1,5E0,5.9393005E1,1.6792355E-1,8.3160365E-1,7.0245514E1,7.143578E1,5.9622726E1,7.898621E1,7.6192024E1,6.7163956E1,6.0768993E1,1E0,6E0,6.931262E1,5.868833E-1,-3.4062997E-1,6.981752E1,7.1970024E1,6.81027E1,4E0,5.852953E1,5.6882095E-2,6.678999E1,9.556722E1,9.258629E1,6.80887E1,6.681324E1,6.724531E1,6.04256E1,6.677468E1,7.571309E1,6E0,8.307358E1,8.0042E1,-5.354885E-1,2.0056117E-1,-8.9214164E-1,-5.9476346E-1,-9.210688E-1,-7.059139E-1,-6.1409134E-2,-6.643679E-1,-4.1597196E-1,-7.512942E-1,-3.7163097E-1,-6.142894E-1,-2.2164963E-1,-6.072888E-1,-3.8745716E-1,3.1686097E-1,6.1965942E-2,2.9901394E-1,1.5984307E-1,7.8901863E-1,6.3409853E-1,4.954338E-2,7.9251957E-1,6.232497E-1,8.5234016E-1,7.0580226E-1,-8.926535E-3,-6.2080276E-1,2.4555114E-1,-2.8335494E-1,9.5395945E-2,-4.547901E-1,-2.1842752E-1,2.3649178E-1,1.8785462E-1,-4.7675133E-1,1.8175115E-1,3.2850727E-1,2.2799109E-1,9.3678765E-2,3.478777E-1,2.9636726E-1],"split_indices":[3,3,1,3,3,6,6,1,5,5,2,3,1,1,6,6,6,1,5,0,0,2,6,0,0,6,6,6,3,3,5,6,1,1,6,0,0,6,6,5,1,6,0,5,3,3,5,5,5,6,5,3,1,3,3,0,0,0,0,0,0,0,0,0,0,0,0,0,0,0,0,0,0,0,0,0,0,0,0,0,0,0,0,0,0,0,0,0,0,0,0,0,0,0,0,0,0],"split_type":[0,0,0,0,0,0,0,0,0,0,0,0,0,0,0,0,0,0,0,0,0,0,0,0,0,0,0,0,0,0,0,0,0,0,0,0,0,0,0,0,0,0,0,0,0,0,0,0,0,0,0,0,0,0,0,0,0,0,0,0,0,0,0,0,0,0,0,0,0,0,0,0,0,0,0,0,0,0,0,0,0,0,0,0,0,0,0,0,0,0,0,0,0,0,0,0,0],"sum_hessian":[5.169E3,2.38E3,2.789E3,1.286E3,1.094E3,2.022E3,7.67E2,9.67E2,3.19E2,1.074E3,2E1,2.5E2,1.772E3,3.24E2,4.43E2,6.75E2,2.92E2,3E0,3.16E2,6.06E2,4.68E2,1.2E1,8E0,1E0,2.49E2,1.39E2,1.633E3,5.5E1,2.69E2,1.65E2,2.78E2,9.2E1,5.83E2,2.05E2,8.7E1,2E0,1E0,8.7E1,2.29E2,9E0,3E0,7E0,1E0,7.5E1,6.4E1,1.178E3,4.55E2,1.8E1,3.7E1,1.02E2,1.67E2,1.2E1,1.53E2,4.6E1,2.32E2,7.6E1,1.6E1,4.2E1,5.41E2,6.4E1,1.41E2,1.4E1,7.3E1,3.7E1,5E1,1.82E2,4.7E1,2E0,7E0,2E0,1E0,1E0,6E0,3E0,7.2E1,9E0,5.5E1,8.4E1,1.094E3,1.09E2,3.46E2,3E0,1.5E1,1.1E1,2.6E1,9.7E1,5E0,9E0,1.58E2,9E0,3E0,6.8E1,8.5E1,4.3E1,3E0,8.4E1,1.48E2],"tree_param":{"num_deleted":"0","num_feature":"8","num_nodes":"97","size_leaf_vector":"1"}},{"base_weights":[5.2567557E-2,-1.3864007E1,1.2658363E1,-1.2204389E1,-1.9005348E1,1.3018767E1,-1.0033886E0,-1.4275118E1,1.4853561E1,-1.0228088E0,-9.048377E-1,8.50672E0,1.5663974E1,-1.2298012E1,-8.865606E-1,1.2352438E1,1.7280083E1,5.5776024E0,1.0266528E1,1.4382188E1,1.6466211E1,-6.3605016E-1,-1.1677248E1,1.3174912E1,5.405392E0,1.747523E1,1.1976757E-1,9.784185E0,5.4359355E0,1.14407215E1,7.2564583E0,9.827043E-1,7.131275E-1,9.5592254E-1,1.6227043E1,-6.002986E-1,-5.355293E-1,9.8801035E-1,6.11704E-1,3.4099618E-1,1.5151088E-2,1.0112816E0,7.659674E-1,1.0818392E-1,5.6186116E-1,2.3865223E-1,2.944844E-1,5.211261E-1,7.260689E-1,2.8046423E-1,6.776037E-1,7.9732823E-1,9.0418845E-1],"categories":[],"categories_nodes":[],"categories_segments":[],"categories_sizes":[],"default_left":[0,0,0,0,0,0,0,0,0,0,0,0,0,0,0,0,0,0,0,0,0,0,0,0,0,0,0,0,0,0,0,0,0,0,0,0,0,0,0,0,0,0,0,0,0,0,0,0,0,0,0,0,0],"id":15,"left_children":[1,3,5,7,9,11,-1,13,15,-1,-1,17,19,21,-1,23,25,27,29,31,33,-1,35,37,39,41,-1,43,45,47,49,-1,-1,-1,51,-1,-1,-1,-1,-1,-1,-1,-1,-1,-1,-1,-1,-1,-1,-1,-1,-1,-1],"loss_changes":[9.087249E5,2.0775406E4,3.2319031E4,1.04651375E5,4.1942188E2,3.1960781E4,0E0,1.1616844E4,5.937285E2,0E0,0E0,5.0768047E3,1.505125E3,1.4159375E2,0E0,3.2303516E2,1.4694727E2,1.7088477E2,2.1118398E3,1.3595312E2,3.463125E2,0E0,1.7585938E1,1.361875E2,6.2890564E1,6.9646484E1,0E0,9.748804E1,8.197656E1,1.2444922E3,1.7594678E3,0E0,0E0,0E0,2.0946875E2,0E0,0E0,0E0,0E0,0E0,0E0,0E0,0E0,0E0,0E0,0E0,0E0,0E0,0E0,0E0,0E0,0E0,0E0],"parents":[2147483647,0,0,1,1,2,2,3,3,4,4,5,5,7,7,8,8,11,11,12,12,13,13,15,15,16,16,17,17,18,18,19,19,20,20,22,22,23,23,24,24,25,25,27,27,28,28,29,29,30,30,34,34],"right_children":[2,4,6,8,10,12,-1,14,16,-1,-1,18,20,22,-1,24,26,28,30,32,34,-1,36,38,40,42,-1,44,46,48,50,-1,-1,-1,52,-1,-1,-1,-1,-1,-1,-1,-1,-1,-1,-1,-1,-1,-1,-1,-1,-1,-1],"split_conditions":[7.4771686E2,1.7E1,2.1E1,8E0,2.2E1,6.902816E1,-1.0033886E0,5E0,6.0768993E1,-1.0228088E0,-9.048377E-1,6.1313168E1,7.0491066E1,6.795591E1,-8.865606E-1,7.055668E2,7.220333E1,1E1,1.4453892E3,7.8159546E2,8.6607825E2,-6.3605016E-1,1.3092784E2,5.812445E2,7.336539E2,6.787315E2,1.1976757E-1,6.0038597E1,5.966926E1,1.5E1,6.8422005E1,9.827043E-1,7.131275E-1,9.5592254E-1,7.223223E1,-6.002986E-1,-5.355293E-1,9.8801035E-1,6.11704E-1,3.4099618E-1,1.5151088E-2,1.0112816E0,7.659674E-1,1.0818392E-1,5.6186116E-1,2.3865223E-1,2.944844E-1,5.211261E-1,7.260689E-1,2.8046423E-1,6.776037E-1,7.9732823E-1,9.0418845E-1],"split_indices":[7,0,0,0,0,6,0,0,6,0,0,6,6,5,0,7,6,0,7,7,7,0,7,7,7,7,0,6,6,0,6,0,0,0,6,0,0,0,0,0,0,0,0,0,0,0,0,0,0,0,0,0,0],"split_type":[0,0,0,0,0,0,0,0,0,0,0,0,0,0,0,0,0,0,0,0,0,0,0,0,0,0,0,0,0,0,0,0,0,0,0,0,0,0,0,0,0,0,0,0,0,0,0,0,0,0,0,0,0],"sum_hessian":[5.178E3,2.461E3,2.717E3,1.863E3,5.98E2,2.688E3,2.9E1,1.731E3,1.32E2,2.22E2,3.76E2,9.95E2,1.693E3,1.104E3,6.27E2,6.8E1,6.4E1,3.75E2,6.2E2,6.59E2,1.034E3,6.45E2,4.59E2,6E1,8E0,6.3E1,1E0,1E1,3.65E2,4.44E2,1.76E2,1.1E1,6.48E2,7.9E1,9.55E2,3.34E2,1.25E2,5E0,5.5E1,6E0,2E0,2.4E1,3.9E1,2E0,8E0,1.53E2,2.12E2,3.37E2,1.07E2,1.41E2,3.5E1,8.38E2,1.17E2],"tree_param":{"num_deleted":"0","num_feature":"8","num_nodes":"53","size_leaf_vector":"1"}},{"base_weights":[1.3135192E-1,-1.46707E1,1.2491071E1,-1.742185E1,-1.1457202E1,1.5214299E1,5.563774E0,-1.6698893E1,-1.8121595E1,-1.1734452E1,1.2179926E1,1.863166E1,1.492192E1,7.7818265E0,5.3608594E0,-5.008216E-1,-1.6768738E1,-9.732567E-1,-8.680586E-1,-1.1680749E1,-9.0989894E-1,1.5782282E1,-7.762088E-1,9.341012E-1,2.7314815E-1,1.4368207E1,7.626795E-1,5.7209E0,4.772244E-1,5.608449E0,4.8600373E0,-7.9899585E-1,-8.786379E-1,-6.035036E-1,-5.5637044E-1,9.134056E-1,3.1217965E-1,7.277436E-1,1.2537418E1,6.107311E0,2.412819E0,7.560303E0,5.4040236E0,3.4742386E0,5.1501193E0,2.349944E-1,6.345999E-1,1.2838736E-1,3.2146746E-1,3.439045E-2,1.3360596E-1,4.091985E-1,1.9043823E-1,2.149943E-1,2.7520946E-1,-4.9124654E-2,1.8495733E-1,2.093468E-1,2.695164E-1],"categories":[],"categories_nodes":[],"categories_segments":[],"categories_sizes":[],"default_left":[0,0,0,0,0,0,0,0,0,0,0,0,0,0,0,0,0,0,0,0,0,0,0,0,0,0,0,0,0,0,0,0,0,0,0,0,0,0,0,0,0,0,0,0,0,0,0,0,0,0,0,0,0,0,0,0,0,0,0],"id":16,"left_children":[1,3,5,7,9,11,13,15,17,19,21,23,25,27,29,-1,31,-1,-1,33,-1,35,-1,-1,-1,37,-1,39,-1,41,43,-1,-1,-1,-1,-1,-1,-1,45,47,49,51,53,55,57,-1,-1,-1,-1,-1,-1,-1,-1,-1,-1,-1,-1,-1,-1],"loss_changes":[9.379809E5,2.0426E4,5.2623062E4,3.3228125E2,7.2140312E3,1.7253438E3,3.138418E2,1.26078125E2,3.01625E2,1.5779688E2,1.5424076E3,7.8125E-2,1.209375E2,1.7789087E2,6.288867E1,0E0,1.13671875E2,0E0,0E0,9.428125E1,0E0,1.7048022E2,0E0,0E0,0E0,6.0515625E1,0E0,2.6169067E1,0E0,1.5066797E2,8.1802246E1,0E0,0E0,0E0,0E0,0E0,0E0,0E0,2.879004E1,1.5407471E1,3.98571E-1,6.943677E1,2.4773438E1,4.9742676E1,2.439795E1,0E0,0E0,0E0,0E0,0E0,0E0,0E0,0E0,0E0,0E0,0E0,0E0,0E0,0E0],"parents":[2147483647,0,0,1,1,2,2,3,3,4,4,5,5,6,6,7,7,8,8,9,9,10,10,11,11,12,12,13,13,14,14,16,16,19,19,21,21,25,25,27,27,29,29,30,30,38,38,39,39,40,40,41,41,42,42,43,43,44,44],"right_children":[2,4,6,8,10,12,14,16,18,20,22,24,26,28,30,-1,32,-1,-1,34,-1,36,-1,-1,-1,38,-1,40,-1,42,44,-1,-1,-1,-1,-1,-1,-1,46,48,50,52,54,56,58,-1,-1,-1,-1,-1,-1,-1,-1,-1,-1,-1,-1,-1,-1],"split_conditions":[7.044495E1,3.5787937E1,5E0,8E0,8E0,9E0,9E0,5E0,2.2E1,5E0,2.1E1,1.11183784E2,6.741436E1,6E0,9.830003E1,-5.008216E-1,7E0,-9.732567E-1,-8.680586E-1,6.795591E1,-9.0989894E-1,1E0,-7.762088E-1,9.341012E-1,2.7314815E-1,1.0630155E2,7.626795E-1,1.1E1,4.772244E-1,1E1,1.1E1,-7.9899585E-1,-8.786379E-1,-6.035036E-1,-5.5637044E-1,9.134056E-1,3.1217965E-1,7.277436E-1,6.67196E1,2E0,6.687766E1,1E1,6.687766E1,6.68409E1,6.723464E1,2.349944E-1,6.345999E-1,1.2838736E-1,3.2146746E-1,3.439045E-2,1.3360596E-1,4.091985E-1,1.9043823E-1,2.149943E-1,2.7520946E-1,-4.9124654E-2,1.8495733E-1,2.093468E-1,2.695164E-1],"split_indices":[4,4,1,0,0,0,0,0,0,0,0,4,5,1,4,0,2,0,0,5,0,1,0,0,0,4,0,2,0,0,0,0,0,0,0,0,0,0,5,2,5,2,5,5,5,0,0,0,0,0,0,0,0,0,0,0,0,0,0],"split_type":[0,0,0,0,0,0,0,0,0,0,0,0,0,0,0,0,0,0,0,0,0,0,0,0,0,0,0,0,0,0,0,0,0,0,0,0,0,0,0,0,0,0,0,0,0,0,0,0,0,0,0,0,0,0,0,0,0,0,0],"sum_hessian":[5.125E3,2.332E3,2.793E3,1.254E3,1.078E3,2.004E3,7.89E2,6.29E2,6.25E2,1.066E3,1.2E1,1.53E2,1.851E3,6.3E1,7.26E2,8E0,6.21E2,2.17E2,4.08E2,1.06E3,6E0,1.1E1,1E0,1.52E2,1E0,7.1E2,1.141E3,3.1E1,3.2E1,4.79E2,2.47E2,3.24E2,2.97E2,6.1E2,4.5E2,8E0,3E0,6.38E2,7.2E1,2.7E1,4E0,4.2E1,4.37E2,4.5E1,2.02E2,2E0,7E1,3E0,2.4E1,1E0,3E0,3.5E1,7E0,4E1,3.97E2,2E0,4.3E1,4.4E1,1.58E2],"tree_param":{"num_deleted":"0","num_feature":"8","num_nodes":"59","size_leaf_vector":"1"}},{"base_weights":[-2.7976295E-2,-1.3942716E1,1.1916901E1,-1.659822E1,-1.0876039E1,7.549869E0,1.4071596E1,-1.6189526E1,-9.255294E-1,-1.1148075E1,1.4853685E1,7.4600464E-1,5.3395905E0,1.3582848E1,1.4353866E1,-3.6954662E-1,-1.6207575E1,-1.10690155E1,-7.63177E-1,3.287595E-1,8.4413034E-1,5.1300154E0,8.706002E0,1.3741904E1,1.1732156E1,1.2041623E1,1.4445253E1,-8.3559287E-1,-7.821044E-1,-1.1345082E1,-1.0109303E1,7.208497E0,5.054741E0,6.712239E0,1.3352082E1,1.6441841E-1,6.8765944E-1,1.8855311E0,6.014476E-1,5.1688714E0,1.2861341E1,7.2432595E-1,9.012992E0,-5.827984E-1,-5.422291E-1,-5.27768E-1,-4.5918965E-1,1.787645E-1,3.9265293E-1,2.430878E-1,2.780275E-1,4.4131383E-1,2.6929617E-1,6.9695306E-1,1.870575E-1,2.1611576E-1,-7.470093E-2,3.1415388E-1,-3.7909128E-2,1.8958804E-1,6.6014737E-1,5.5741787E-1,1.2445059E-1],"categories":[],"categories_nodes":[],"categories_segments":[],"categories_sizes":[],"default_left":[0,0,0,0,0,0,0,0,0,0,0,0,0,0,0,0,0,0,0,0,0,0,0,0,0,0,0,0,0,0,0,0,0,0,0,0,0,0,0,0,0,0,0,0,0,0,0,0,0,0,0,0,0,0,0,0,0,0,0,0,0,0,0],"id":17,"left_children":[1,3,5,7,9,11,13,15,-1,17,19,-1,21,23,25,-1,27,29,-1,-1,-1,31,33,35,37,39,41,-1,-1,43,45,47,49,51,53,-1,-1,55,-1,57,59,-1,61,-1,-1,-1,-1,-1,-1,-1,-1,-1,-1,-1,-1,-1,-1,-1,-1,-1,-1,-1,-1],"loss_changes":[8.553158E5,1.9176781E4,2.5949031E4,6.945E2,7.9069688E3,1.4858484E4,6.065625E1,4.7875E1,0E0,1.873125E2,9.055054E1,0E0,4.5413867E2,4.3953125E1,7.05625E1,0E0,3.8875E1,1.7092188E2,0E0,0E0,0E0,6.807617E1,2.8090503E2,2.9796875E1,1.5850977E2,2.1520752E2,1.17796875E2,0E0,0E0,2.59375E0,6.2714844E0,2.1101318E1,3.621875E1,3.6578735E1,9.907349E0,0E0,0E0,3.1163319E1,0E0,5.099144E1,8.625928E1,0E0,1.2549353E2,0E0,0E0,0E0,0E0,0E0,0E0,0E0,0E0,0E0,0E0,0E0,0E0,0E0,0E0,0E0,0E0,0E0,0E0,0E0,0E0],"parents":[2147483647,0,0,1,1,2,2,3,3,4,4,5,5,6,6,7,7,9,9,10,10,12,12,13,13,14,14,16,16,17,17,21,21,22,22,23,23,24,24,25,25,26,26,29,29,30,30,31,31,32,32,33,33,34,34,37,37,39,39,40,40,42,42],"right_children":[2,4,6,8,10,12,14,16,-1,18,20,-1,22,24,26,-1,28,30,-1,-1,-1,32,34,36,38,40,42,-1,-1,44,46,48,50,52,54,-1,-1,56,-1,58,60,-1,62,-1,-1,-1,-1,-1,-1,-1,-1,-1,-1,-1,-1,-1,-1,-1,-1,-1,-1,-1,-1],"split_conditions":[7.044495E1,3.4987244E1,8.885357E1,7.3631966E1,7.188206E1,3.570613E1,6.741436E1,5E0,-9.255294E-1,5E0,8.49035E1,7.4600464E-1,8.682626E1,1.0646603E2,9.157971E1,-3.6954662E-1,6.765794E1,1.3092784E2,-7.63177E-1,3.287595E-1,8.4413034E-1,7.4771686E2,1.5860015E3,6.3734625E2,9.637709E2,7.915283E1,7.0241264E1,-8.3559287E-1,-7.821044E-1,6.795591E1,6.813245E1,7.556967E1,1.8E1,6.7495995E1,1.9767272E3,1.6441841E-1,6.8765944E-1,1.0448061E2,6.014476E-1,6.848763E1,6.7437416E1,7.2432595E-1,9.9882904E1,-5.827984E-1,-5.422291E-1,-5.27768E-1,-4.5918965E-1,1.787645E-1,3.9265293E-1,2.430878E-1,2.780275E-1,4.4131383E-1,2.6929617E-1,6.9695306E-1,1.870575E-1,2.1611576E-1,-7.470093E-2,3.1415388E-1,-3.7909128E-2,1.8958804E-1,6.6014737E-1,5.5741787E-1,1.2445059E-1],"split_indices":[4,4,3,3,3,3,5,0,0,0,3,0,3,4,3,0,5,7,0,0,0,7,7,7,7,4,5,0,0,5,5,4,0,5,7,0,0,3,0,5,5,0,4,0,0,0,0,0,0,0,0,0,0,0,0,0,0,0,0,0,0,0,0],"split_type":[0,0,0,0,0,0,0,0,0,0,0,0,0,0,0,0,0,0,0,0,0,0,0,0,0,0,0,0,0,0,0,0,0,0,0,0,0,0,0,0,0,0,0,0,0,0,0,0,0,0,0,0,0,0,0,0,0,0,0,0,0,0,0],"sum_hessian":[5.144E3,2.376E3,2.768E3,1.271E3,1.105E3,9.16E2,1.852E3,1.055E3,2.16E2,1.094E3,1.1E1,2.1E2,7.06E2,6.96E2,1.156E3,3E0,1.052E3,1.077E3,1.7E1,3E0,8E0,6.67E2,3.9E1,6.35E2,6.1E1,4.9E1,1.107E3,5.41E2,5.11E2,8.28E2,2.49E2,2E1,6.47E2,2.9E1,1E1,1E0,6.34E2,2E0,5.9E1,6E0,4.3E1,1.097E3,1E1,4.97E2,3.31E2,1.61E2,8.8E1,4E0,1.6E1,4.76E2,1.71E2,9E0,2E1,9E0,1E0,1E0,1E0,5E0,1E0,2E0,4.1E1,7E0,3E0],"tree_param":{"num_deleted":"0","num_feature":"8","num_nodes":"63","size_leaf_vector":"1"}},{"base_weights":[-2.6076555E-2,-1.31816435E1,1.1355073E1,-1.5711025E1,-1.0313331E1,7.307307E0,1.3410387E1,-1.5322188E1,-8.8131374E-1,-1.0607054E1,9.385376E0,1.4277617E1,5.078697E0,1.2922318E1,1.4415131E1,-4.1231576E-1,-1.5368158E1,-1.1152165E1,-1.0190567E1,1.436499E1,-9.320577E-1,1.2022349E1,7.846038E-1,4.898254E0,8.506341E0,7.276017E0,1.2999535E1,7.3658764E-1,6.434294E-1,-7.939679E-1,-7.4021447E-1,-5.527983E-1,-7.9541E-1,-5.345172E-1,-4.7977492E-1,1.6432827E1,4.2622152E-1,1.3636641E1,6.947591E0,4.207112E0,5.0667443E0,6.5989814E0,1.3071341E1,4.9061123E-1,2.5622044E0,7.0736194E-1,1.2755646E1,8.929483E-1,3.576089E-1,5.2441347E-1,8.7544966E-1,1.7215784E-1,4.2423055E-1,5.4549456E-2,2.182647E-1,1.0385227E-1,2.551156E-1,4.3991396E-1,2.6628235E-1,1.4519958E-1,6.9896305E-1,1.9473846E-1,1.2797356E-2,5.7270354E-1,6.624269E-1],"categories":[],"categories_nodes":[],"categories_segments":[],"categories_sizes":[],"default_left":[0,0,0,0,0,0,0,0,0,0,0,0,0,0,0,0,0,0,0,0,0,0,0,0,0,0,0,0,0,0,0,0,0,0,0,0,0,0,0,0,0,0,0,0,0,0,0,0,0,0,0,0,0,0,0,0,0,0,0,0,0,0,0,0,0],"id":18,"left_children":[1,3,5,7,9,11,13,15,-1,17,19,21,23,25,27,-1,29,31,33,35,-1,37,-1,39,41,43,45,-1,-1,-1,-1,-1,-1,-1,-1,47,-1,49,51,53,55,57,59,-1,61,-1,63,-1,-1,-1,-1,-1,-1,-1,-1,-1,-1,-1,-1,-1,-1,-1,-1,-1,-1],"loss_changes":[7.7018775E5,1.7148562E4,2.2847031E4,6.7275E2,6.585633E3,1.4389742E4,7.10125E2,2.180625E2,0E0,1.3721875E2,2.640322E3,5.2908984E2,3.9560742E2,4.4603125E2,9.884375E1,0E0,6.815625E1,3.8246094E1,8.716406E1,4.1079346E1,0E0,6.5074316E2,0E0,5.7171875E1,2.0978394E2,2.0200812E2,1.6159375E2,0E0,0E0,0E0,0E0,0E0,0E0,0E0,0E0,4.6242676E0,0E0,6.4538965E2,1.0005945E2,6.3259766E1,4.650586E1,2.5955078E1,4.2484497E1,0E0,2.3589046E1,0E0,5.0132812E2,0E0,0E0,0E0,0E0,0E0,0E0,0E0,0E0,0E0,0E0,0E0,0E0,0E0,0E0,0E0,0E0,0E0,0E0],"parents":[2147483647,0,0,1,1,2,2,3,3,4,4,5,5,6,6,7,7,9,9,10,10,11,11,12,12,13,13,14,14,16,16,17,17,18,18,19,19,21,21,23,23,24,24,25,25,26,26,35,35,37,37,38,38,39,39,40,40,41,41,42,42,44,44,46,46],"right_children":[2,4,6,8,10,12,14,16,-1,18,20,22,24,26,28,-1,30,32,34,36,-1,38,-1,40,42,44,46,-1,-1,-1,-1,-1,-1,-1,-1,48,-1,50,52,54,56,58,60,-1,62,-1,64,-1,-1,-1,-1,-1,-1,-1,-1,-1,-1,-1,-1,-1,-1,-1,-1,-1,-1],"split_conditions":[7.044495E1,3.5787937E1,8.885357E1,7.3631966E1,8E0,9E0,7.1077835E1,5E0,-8.8131374E-1,3.9501434E1,2.1E1,6.979506E1,6.917442E1,6.0988625E1,1.06847435E2,-4.1231576E-1,6.764721E1,5E0,6.795591E1,4.1550224E1,-9.320577E-1,9.4624115E1,7.846038E-1,7.697883E1,1.2E1,1.2E1,8.1837654E1,7.3658764E-1,6.434294E-1,-7.939679E-1,-7.4021447E-1,-5.527983E-1,-7.9541E-1,-5.345172E-1,-4.7977492E-1,1.6E1,4.2622152E-1,6.0825188E1,6.912439E1,5.852953E1,6.667527E1,6.78465E1,6.934563E1,4.9061123E-1,6.811715E1,7.0736194E-1,6.966347E1,8.929483E-1,3.576089E-1,5.2441347E-1,8.7544966E-1,1.7215784E-1,4.2423055E-1,5.4549456E-2,2.182647E-1,1.0385227E-1,2.551156E-1,4.3991396E-1,2.6628235E-1,1.4519958E-1,6.9896305E-1,1.9473846E-1,1.2797356E-2,5.7270354E-1,6.624269E-1],"split_indices":[4,4,3,3,0,0,6,0,0,3,0,6,6,6,3,0,5,0,5,4,0,4,0,3,0,0,4,0,0,0,0,0,0,0,0,0,0,6,6,6,5,5,6,0,5,0,6,0,0,0,0,0,0,0,0,0,0,0,0,0,0,0,0,0,0],"split_type":[0,0,0,0,0,0,0,0,0,0,0,0,0,0,0,0,0,0,0,0,0,0,0,0,0,0,0,0,0,0,0,0,0,0,0,0,0,0,0,0,0,0,0,0,0,0,0,0,0,0,0,0,0,0,0,0,0,0,0,0,0,0,0,0,0],"sum_hessian":[5.142E3,2.385E3,2.757E3,1.265E3,1.12E3,9.3E2,1.827E3,1.059E3,2.06E2,1.104E3,1.6E1,2.24E2,7.06E2,1.239E3,5.88E2,8E0,1.051E3,4.67E2,6.37E2,1.4E1,2E0,9E1,1.34E2,6.73E2,3.3E1,1.8E1,1.221E3,4.81E2,1.07E2,5.37E2,5.14E2,4.61E2,6E0,3.37E2,3E2,9E0,5E0,6.7E1,2.3E1,1.37E2,5.36E2,2.5E1,8E0,1.1E1,7E0,2.04E2,1.017E3,7E0,2E0,3.9E1,2.8E1,8E0,1.5E1,7E0,1.3E2,7E0,5.29E2,7E0,1.8E1,1E0,7E0,4E0,3E0,2.86E2,7.31E2],"tree_param":{"num_deleted":"0","num_feature":"8","num_nodes":"65","size_leaf_vector":"1"}},{"base_weights":[-1.5110153E-2,-1.2516814E1,1.0804634E1,-1.4929755E1,-9.829229E0,7.0556684E0,1.263093E1,-1.4557117E1,-8.3117247E-1,-1.01259575E1,1.3001471E1,1.4020944E1,4.8612747E0,1.2021654E1,1.3527046E1,-3.4022686E-1,-7.286492E-1,-1.002925E1,-7.603554E-1,2.95674E-1,7.520667E-1,8.680448E0,1.4489574E1,4.758288E0,8.258734E0,6.391927E0,1.2092612E1,1.3288664E1,7.5360066E-1,-1.0254811E1,-4.6311435E-1,1.0518284E-1,8.915875E0,1.5778498E1,1.3401434E1,3.5925047E0,4.902631E0,5.3429666E0,1.1600043E1,6.840198E-2,7.011908E0,1.31917E1,1.1626799E1,1.3504769E1,6.0365427E-1,-5.2205193E-1,-4.725164E-1,4.58299E-1,1.1034985E-1,3.6102867E-1,8.001768E-1,4.5553255E-1,7.412698E-1,1.9365641E-1,1.0778391E-1,3.2197532E-1,2.4035393E-1,3.2917652E-1,1.5025744E-1,6.2159306E-1,1.4443302E-1,1.2664309E-1,4.0016028E-1,6.7083067E-1,5.4145354E-1,6.672173E-2,5.839033E-1,3.885055E-1,6.771704E-1],"categories":[],"categories_nodes":[],"categories_segments":[],"categories_sizes":[],"default_left":[0,0,0,0,0,0,0,0,0,0,0,0,0,0,0,0,0,0,0,0,0,0,0,0,0,0,0,0,0,0,0,0,0,0,0,0,0,0,0,0,0,0,0,0,0,0,0,0,0,0,0,0,0,0,0,0,0,0,0,0,0,0,0,0,0,0,0,0,0],"id":19,"left_children":[1,3,5,7,9,11,13,15,-1,17,19,21,23,25,27,-1,-1,29,-1,-1,-1,31,33,35,37,39,41,43,-1,45,-1,-1,47,49,51,53,55,57,59,-1,61,63,65,67,-1,-1,-1,-1,-1,-1,-1,-1,-1,-1,-1,-1,-1,-1,-1,-1,-1,-1,-1,-1,-1,-1,-1,-1,-1],"loss_changes":[6.9769806E5,1.5371844E4,1.8842062E4,5.5259375E2,7.820703E3,1.3810211E4,8.518125E2,2.875E1,0E0,3.983203E2,1.2793115E2,4.173203E2,2.028291E2,3.6814062E2,7.371875E1,0E0,0E0,9.5828125E1,0E0,0E0,0E0,1.2211182E1,6.624609E1,9.5802734E1,1.2312842E2,4.024292E1,4.0978125E2,8.5E0,0E0,2.7632812E1,0E0,0E0,1.1651245E1,4.814453E1,5.6146094E2,2.3100891E1,5.6714844E1,1.5018097E1,2.2058838E1,0E0,4.1889954E1,2.475E1,3.9653125E2,1.575E1,0E0,0E0,0E0,0E0,0E0,0E0,0E0,0E0,0E0,0E0,0E0,0E0,0E0,0E0,0E0,0E0,0E0,0E0,0E0,0E0,0E0,0E0,0E0,0E0,0E0],"parents":[2147483647,0,0,1,1,2,2,3,3,4,4,5,5,6,6,7,7,9,9,10,10,11,11,12,12,13,13,14,14,17,17,21,21,22,22,23,23,24,24,25,25,26,26,27,27,29,29,32,32,33,33,34,34,35,35,36,36,37,37,38,38,40,40,41,41,42,42,43,43],"right_children":[2,4,6,8,10,12,14,16,-1,18,20,22,24,26,28,-1,-1,30,-1,-1,-1,32,34,36,38,40,42,44,-1,46,-1,-1,48,50,52,54,56,58,60,-1,62,64,66,68,-1,-1,-1,-1,-1,-1,-1,-1,-1,-1,-1,-1,-1,-1,-1,-1,-1,-1,-1,-1,-1,-1,-1,-1,-1],"split_conditions":[7.044495E1,3.4987244E1,8.885357E1,7.3631966E1,7.188206E1,3.570613E1,7.080067E1,5E0,-8.3117247E-1,5E0,8.49035E1,5.981202E1,6.981752E1,6.0895668E1,7.230203E1,-3.4022686E-1,-7.286492E-1,1.3092784E2,-7.603554E-1,2.95674E-1,7.520667E-1,5.852953E1,9.7195694E1,5.9250313E1,8.204917E1,5.947623E1,8.667947E1,1.0666704E2,7.5360066E-1,7.141463E1,-4.6311435E-1,1.0518284E-1,5.97218E1,7.556967E1,7.010768E1,5.914106E1,7.9029095E2,7.041044E1,7.0530266E1,6.840198E-2,8.971063E1,1.9E1,6.23514E1,8.497984E2,6.0365427E-1,-5.2205193E-1,-4.725164E-1,4.58299E-1,1.1034985E-1,3.6102867E-1,8.001768E-1,4.5553255E-1,7.412698E-1,1.9365641E-1,1.0778391E-1,3.2197532E-1,2.4035393E-1,3.2917652E-1,1.5025744E-1,6.2159306E-1,1.4443302E-1,1.2664309E-1,4.0016028E-1,6.7083067E-1,5.4145354E-1,6.672173E-2,5.839033E-1,3.885055E-1,6.771704E-1],"split_indices":[4,4,3,3,3,3,6,0,0,0,3,6,6,6,6,0,0,7,0,0,0,6,4,6,3,6,4,3,0,6,0,0,6,4,6,6,7,6,6,0,3,0,6,7,0,0,0,0,0,0,0,0,0,0,0,0,0,0,0,0,0,0,0,0,0,0,0,0,0],"split_type":[0,0,0,0,0,0,0,0,0,0,0,0,0,0,0,0,0,0,0,0,0,0,0,0,0,0,0,0,0,0,0,0,0,0,0,0,0,0,0,0,0,0,0,0,0,0,0,0,0,0,0,0,0,0,0,0,0,0,0,0,0,0,0,0,0,0,0,0,0],"sum_hessian":[5.156E3,2.392E3,2.764E3,1.258E3,1.134E3,9.07E2,1.857E3,1.039E3,2.19E2,1.12E3,1.4E1,2.16E2,6.91E2,1.114E3,7.43E2,3E0,1.036E3,1.102E3,1.8E1,4E0,1E1,1.9E1,1.97E2,6.73E2,1.8E1,1.5E1,1.099E3,6.52E2,9.1E1,8.42E2,2.6E2,1E0,1.8E1,8.4E1,1.13E2,7.7E1,5.96E2,1.1E1,7E0,2E0,1.3E1,3.19E2,7.8E2,5.45E2,1.07E2,6.74E2,1.68E2,1.7E1,1E0,3E0,8.1E1,3E1,8.3E1,6.3E1,1.4E1,3.1E1,5.65E2,6E0,5E0,6E0,1E0,3E0,1E1,2.87E2,3.2E1,4E0,7.76E2,5E0,5.4E2],"tree_param":{"num_deleted":"0","num_feature":"8","num_nodes":"69","size_leaf_vector":"1"}},{"base_weights":[5.0643757E-2,-1.18739805E1,1.0219477E1,-1.4146094E1,-9.270051E0,7.313779E0,1.2395506E1,-1.3514536E1,-1.4782362E1,-9.562204E0,1.1193991E1,8.555226E0,5.537673E0,1.1309125E1,1.2805125E1,-4.0951625E-1,-1.3594119E1,-7.9310536E-1,-7.0972335E-1,-9.507255E0,-7.549871E-1,1.3481242E1,-5.7786924E-1,5.3494554E0,1.1782535E1,4.215065E0,8.440608E0,1.529667E1,1.1142951E1,7.0760983E-1,1.2625641E1,-6.4927644E-1,-7.145839E-1,-9.732875E0,-4.37107E-1,7.287842E-1,2.1224569E-1,9.325904E0,4.2207017E0,1.4610053E1,1.1246003E1,3.819645E0,5.4322762E0,5.5019093E0,9.202901E0,1.1876335E-1,1.6049965E1,9.526041E0,1.1380692E1,6.2185377E-1,1.4010173E1,-4.9287364E-1,-4.4114208E-1,2.503417E-1,5.023121E-1,1.581176E-1,2.2724254E-1,1.3536072E-1,7.39518E-1,3.2991824E-1,6.1634135E-1,1.9776584E-1,4.688125E-2,2.8641924E-1,1.7213778E-1,1.1068463E-1,3.846488E-1,4.7081375E-1,2.5193134E-1,1.4176884E-1,8.424183E-1,9.487381E-2,4.9439535E-1,5.736349E-1,4.225311E-1,7.101811E-1,4.080412E-1],"categories":[],"categories_nodes":[],"categories_segments":[],"categories_sizes":[],"default_left":[0,0,0,0,0,0,0,0,0,0,0,0,0,0,0,0,0,0,0,0,0,0,0,0,0,0,0,0,0,0,0,0,0,0,0,0,0,0,0,0,0,0,0,0,0,0,0,0,0,0,0,0,0,0,0,0,0,0,0,0,0,0,0,0,0,0,0,0,0,0,0,0,0,0,0,0,0],"id":20,"left_children":[1,3,5,7,9,11,13,15,17,19,21,23,25,27,29,-1,31,-1,-1,33,-1,35,-1,37,39,41,43,45,47,-1,49,-1,-1,51,-1,-1,-1,53,55,57,59,61,63,65,67,-1,69,71,73,-1,75,-1,-1,-1,-1,-1,-1,-1,-1,-1,-1,-1,-1,-1,-1,-1,-1,-1,-1,-1,-1,-1,-1,-1,-1,-1,-1],"loss_changes":[6.225464E5,1.3849375E4,1.7430031E4,3.0653125E2,6.707453E3,2.574293E3,5.59625E2,1.6153906E2,1.665E2,1.878125E2,9.884177E2,7.158492E3,1.8534297E3,1.2242969E2,9.7453125E1,0E0,8.3140625E1,0E0,0E0,1.01515625E2,0E0,8.975659E1,0E0,1.5405654E3,3.6211328E2,1.42896E2,2.9210938E2,1.07881836E2,5.6109375E1,0E0,9.1265625E1,0E0,0E0,6.6875E0,0E0,0E0,0E0,1.892622E2,8.031299E1,7.155957E1,1.4055508E3,9.795337E1,2.7996582E1,2.2793005E2,5.9180664E1,0E0,9.993555E1,1.4962988E2,2.2539062E0,0E0,1.3083984E1,0E0,0E0,0E0,0E0,0E0,0E0,0E0,0E0,0E0,0E0,0E0,0E0,0E0,0E0,0E0,0E0,0E0,0E0,0E0,0E0,0E0,0E0,0E0,0E0,0E0,0E0],"parents":[2147483647,0,0,1,1,2,2,3,3,4,4,5,5,6,6,7,7,8,8,9,9,10,10,11,11,12,12,13,13,14,14,16,16,19,19,21,21,23,23,24,24,25,25,26,26,27,27,28,28,30,30,33,33,37,37,38,38,39,39,40,40,41,41,42,42,43,43,44,44,46,46,47,47,48,48,50,50],"right_children":[2,4,6,8,10,12,14,16,18,20,22,24,26,28,30,-1,32,-1,-1,34,-1,36,-1,38,40,42,44,46,48,-1,50,-1,-1,52,-1,-1,-1,54,56,58,60,62,64,66,68,-1,70,72,74,-1,76,-1,-1,-1,-1,-1,-1,-1,-1,-1,-1,-1,-1,-1,-1,-1,-1,-1,-1,-1,-1,-1,-1,-1,-1,-1,-1],"split_conditions":[7.044495E1,3.5787937E1,6.939998E1,8E0,8E0,9.048798E1,7.032119E1,5E0,2.2E1,5E0,2.1E1,6.0988625E1,6.8422005E1,7.8159546E2,8.935409E2,-4.0951625E-1,7E0,-7.9310536E-1,-7.0972335E-1,1.3092784E2,-7.549871E-1,6E0,-5.7786924E-1,1E1,7.8159546E2,1.7780206E3,1E1,6.880585E2,3E0,7.0760983E-1,7.223223E1,-6.4927644E-1,-7.145839E-1,7.172429E1,-4.37107E-1,7.287842E-1,2.1224569E-1,5.9274704E1,5.9250313E1,7.3321465E1,6.23514E1,1.7513427E3,1E1,6.902816E1,6.934563E1,1.1876335E-1,6.9491844E1,9E0,1.0840492E2,6.2185377E-1,1.11183784E2,-4.9287364E-1,-4.4114208E-1,2.503417E-1,5.023121E-1,1.581176E-1,2.2724254E-1,1.3536072E-1,7.39518E-1,3.2991824E-1,6.1634135E-1,1.9776584E-1,4.688125E-2,2.8641924E-1,1.7213778E-1,1.1068463E-1,3.846488E-1,4.7081375E-1,2.5193134E-1,1.4176884E-1,8.424183E-1,9.487381E-2,4.9439535E-1,5.736349E-1,4.225311E-1,7.101811E-1,4.080412E-1],"split_indices":[4,4,6,0,0,4,6,0,0,0,0,6,6,7,7,0,2,0,0,7,0,2,0,0,7,7,0,7,2,0,6,0,0,6,0,0,0,6,6,4,6,7,2,6,6,0,6,0,4,0,4,0,0,0,0,0,0,0,0,0,0,0,0,0,0,0,0,0,0,0,0,0,0,0,0,0,0],"split_type":[0,0,0,0,0,0,0,0,0,0,0,0,0,0,0,0,0,0,0,0,0,0,0,0,0,0,0,0,0,0,0,0,0,0,0,0,0,0,0,0,0,0,0,0,0,0,0,0,0,0,0,0,0,0,0,0,0,0,0,0,0,0,0,0,0,0,0,0,0,0,0,0,0,0,0,0,0],"sum_hessian":[5.132E3,2.362E3,2.77E3,1.259E3,1.103E3,1.188E3,1.582E3,6.43E2,6.16E2,1.088E3,1.5E1,6.97E2,4.91E2,4.41E2,1.141E3,1.1E1,6.32E2,2.08E2,4.08E2,1.08E3,8E0,1.4E1,1E0,3.51E2,3.46E2,3.39E2,1.52E2,1.4E1,4.27E2,1.25E2,1.016E3,3.48E2,2.84E2,8.25E2,2.55E2,1.2E1,2E0,7.6E1,2.75E2,5.1E1,2.95E2,2.59E2,8E1,3.3E1,1.19E2,1E0,1.3E1,6E1,3.67E2,9.03E2,1.13E2,7.17E2,1.08E2,1.2E1,6.4E1,6.7E1,2.08E2,1E0,5E1,5.7E1,2.38E2,2.47E2,1.2E1,6.8E1,1.2E1,1.4E1,1.9E1,1.12E2,7E0,1E0,1.2E1,3E0,5.7E1,3.53E2,1.4E1,1.08E2,5E0],"tree_param":{"num_deleted":"0","num_feature":"8","num_nodes":"77","size_leaf_vector":"1"}},{"base_weights":[-6.992942E-2,-1.135856E1,9.674738E0,-1.3414383E1,-8.95199E0,1.1750301E1,4.157236E0,-1.3099883E1,-7.496743E-1,-9.105934E0,6.647953E-1,1.5050934E1,1.1470706E1,6.9038854E0,3.9286213E0,-3.8960406E-1,-6.573562E-1,-9.133783E0,2.0517094E-1,8.7083703E-1,6.699155E-1,1.2340727E1,1.1340371E1,3.8219643E0,3.5633624E-1,4.375716E0,3.51904E0,-9.102131E0,-8.8158864E-1,1.24044895E1,-5.812168E-2,1.2294199E1,1.1230361E1,2.4873613E-1,-4.8545647E-2,3.8132064E0,4.7914953E0,3.582419E0,-3.20743E0,-4.5736766E-1,5.196514E-1,6.229301E-1,2.0785598E-1,6.516712E-1,5.0070506E-1,5.562307E-1,6.0788804E-1,1.12055026E-1,2.0296958E-1,2.9097325E-1,2.1111448E-1,1.6440938E-1,2.3104434E-1,-2.1692836E-1,4.6495437E-3],"categories":[],"categories_nodes":[],"categories_segments":[],"categories_sizes":[],"default_left":[0,0,0,0,0,0,0,0,0,0,0,0,0,0,0,0,0,0,0,0,0,0,0,0,0,0,0,0,0,0,0,0,0,0,0,0,0,0,0,0,0,0,0,0,0,0,0,0,0,0,0,0,0,0,0],"id":21,"left_children":[1,3,5,7,9,11,13,15,-1,17,-1,19,21,23,25,-1,-1,27,-1,-1,-1,29,31,33,-1,35,37,39,-1,41,-1,43,45,-1,-1,47,49,51,53,-1,-1,-1,-1,-1,-1,-1,-1,-1,-1,-1,-1,-1,-1,-1,-1],"loss_changes":[5.6795025E5,1.1714281E4,3.1684438E4,4.4326562E2,3.9056406E3,1.6850312E3,4.4947266E2,1.6884375E2,0E0,4.4139062E2,0E0,3.687539E2,7.0953125E1,1.1907959E1,1.1333496E2,0E0,0E0,1.3432031E2,0E0,0E0,0E0,2.133125E2,3.296875E1,3.7980186E1,0E0,5.937744E1,1.7008057E2,1.0595703E3,0E0,5.0851562E1,0E0,1.3579297E2,9.21875E0,0E0,0E0,4.740869E1,8.484717E1,9.755371E1,1.5336365E1,0E0,0E0,0E0,0E0,0E0,0E0,0E0,0E0,0E0,0E0,0E0,0E0,0E0,0E0,0E0,0E0],"parents":[2147483647,0,0,1,1,2,2,3,3,4,4,5,5,6,6,7,7,9,9,11,11,12,12,13,13,14,14,17,17,21,21,22,22,23,23,25,25,26,26,27,27,29,29,31,31,32,32,35,35,36,36,37,37,38,38],"right_children":[2,4,6,8,10,12,14,16,-1,18,-1,20,22,24,26,-1,-1,28,-1,-1,-1,30,32,34,-1,36,38,40,-1,42,-1,44,46,-1,-1,48,50,52,54,-1,-1,-1,-1,-1,-1,-1,-1,-1,-1,-1,-1,-1,-1,-1,-1],"split_conditions":[7.044495E1,3.5787937E1,5E0,7.3631966E1,9.834862E1,3.4380886E1,7.4771686E2,5E0,-7.496743E-1,9.16209E2,6.647953E-1,9.70605E1,9.482431E2,7.556967E1,9.099063E1,-3.8960406E-1,-6.573562E-1,1.4E1,2.0517094E-1,8.7083703E-1,6.699155E-1,1.3E1,8.1837654E1,7.811098E1,3.5633624E-1,8.0003494E1,6E0,8E0,-8.8158864E-1,1.0712217E2,-5.812168E-2,1.04754684E2,2E1,2.4873613E-1,-4.8545647E-2,9.16209E2,1.050033E3,1.7780206E3,8.032162E1,-4.5736766E-1,5.196514E-1,6.229301E-1,2.0785598E-1,6.516712E-1,5.0070506E-1,5.562307E-1,6.0788804E-1,1.12055026E-1,2.0296958E-1,2.9097325E-1,2.1111448E-1,1.6440938E-1,2.3104434E-1,-2.1692836E-1,4.6495437E-3],"split_indices":[4,4,1,3,3,3,7,0,0,7,0,4,7,4,4,0,0,0,0,0,0,0,4,3,0,4,1,0,0,4,0,3,0,0,0,7,7,7,3,0,0,0,0,0,0,0,0,0,0,0,0,0,0,0,0],"split_type":[0,0,0,0,0,0,0,0,0,0,0,0,0,0,0,0,0,0,0,0,0,0,0,0,0,0,0,0,0,0,0,0,0,0,0,0,0,0,0,0,0,0,0,0,0,0,0,0,0,0,0,0,0,0,0],"sum_hessian":[5.161E3,2.391E3,2.77E3,1.287E3,1.104E3,2.012E3,7.58E2,1.081E3,2.06E2,1.097E3,7E0,1.53E2,1.859E3,5.6E1,7.02E2,1.1E1,1.07E3,1.095E3,2E0,5.9E1,9.4E1,2.3E2,1.629E3,5E0,5.1E1,3.31E2,3.71E2,1.093E3,2E0,2.29E2,1E0,1.57E2,1.472E3,4E0,1E0,1.45E2,1.86E2,3.68E2,3E0,1.091E3,2E0,2.27E2,2E0,1.15E2,4.2E1,1.333E3,1.39E2,2.1E1,1.24E2,6.3E1,1.23E2,2.9E2,7.8E1,2E0,1E0],"tree_param":{"num_deleted":"0","num_feature":"8","num_nodes":"55","size_leaf_vector":"1"}},{"base_weights":[5.785855E-2,-9.71934E0,8.86282E0,-8.590189E0,-1.3280075E1,1.0761172E1,3.6405666E0,-9.970662E0,9.945358E0,-6.32698E-1,-7.175733E-1,1.1078286E1,-7.60085E-1,3.8393548E0,-6.1567897E-1,-8.623633E0,-1.226577E1,1.370856E1,5.904828E0,1.3055323E1,1.0861329E1,3.7444434E0,4.5635743E0,-8.871909E0,-3.8914496E-1,-1.165292E1,-6.461258E-1,1.5002405E1,9.1728525E0,6.25095E0,2.7438707E0,7.495555E-1,1.24570055E1,6.953221E-2,1.0865959E1,3.8206263E0,1.101495E0,5.1833405E0,3.0671263E0,-4.5441452E-1,-4.1979346E-1,-1.1655712E-1,-5.836956E-1,8.2941085E-1,6.151086E-1,5.590789E-1,1.8132986E-1,3.34337E-1,1.6160928E-1,6.187089E-2,2.4210766E-1,6.35102E-1,3.9026704E-1,5.611605E-1,5.323139E-1,-9.866143E-3,1.913774E-1,1.4884123E-1,-2.6650066E-2,2.6491195E-1,7.51147E-2,2.2974744E-1,1.1714082E-1],"categories":[],"categories_nodes":[],"categories_segments":[],"categories_sizes":[],"default_left":[0,0,0,0,0,0,0,0,0,0,0,0,0,0,0,0,0,0,0,0,0,0,0,0,0,0,0,0,0,0,0,0,0,0,0,0,0,0,0,0,0,0,0,0,0,0,0,0,0,0,0,0,0,0,0,0,0,0,0,0,0,0,0],"id":22,"left_children":[1,3,5,7,9,11,13,15,17,-1,-1,19,-1,21,-1,23,25,27,29,31,33,35,37,39,-1,41,-1,43,45,47,49,-1,51,-1,53,55,57,59,61,-1,-1,-1,-1,-1,-1,-1,-1,-1,-1,-1,-1,-1,-1,-1,-1,-1,-1,-1,-1,-1,-1,-1,-1],"loss_changes":[4.3603506E5,9.535391E3,2.6380781E4,4.6796953E4,2.0478125E2,1.6256078E4,2.305379E3,5.146828E3,1.8501289E3,0E0,0E0,6.8646875E2,0E0,3.1302734E1,0E0,1.5513281E2,1.0136719E2,2.4383984E2,5.1774902E1,2.8683594E1,6.146875E1,1.2223828E2,5.5515625E1,8.3671875E0,0E0,3.8148438E1,0E0,5.7490234E0,1.4884412E2,5.2058105E1,1.9295937E1,0E0,6.954883E1,0E0,1.7453125E1,1.7719727E1,5.9825813E1,1.4456543E1,1.6900314E1,0E0,0E0,0E0,0E0,0E0,0E0,0E0,0E0,0E0,0E0,0E0,0E0,0E0,0E0,0E0,0E0,0E0,0E0,0E0,0E0,0E0,0E0,0E0,0E0],"parents":[2147483647,0,0,1,1,2,2,3,3,4,4,5,5,6,6,7,7,8,8,11,11,13,13,15,15,16,16,17,17,18,18,19,19,20,20,21,21,22,22,23,23,25,25,27,27,28,28,29,29,30,30,32,32,34,34,35,35,36,36,37,37,38,38],"right_children":[2,4,6,8,10,12,14,16,18,-1,-1,20,-1,22,-1,24,26,28,30,32,34,36,38,40,-1,42,-1,44,46,48,50,-1,52,-1,54,56,58,60,62,-1,-1,-1,-1,-1,-1,-1,-1,-1,-1,-1,-1,-1,-1,-1,-1,-1,-1,-1,-1,-1,-1,-1,-1],"split_conditions":[7.4771686E2,1.9E1,5E0,8E0,7.3631966E1,2.1E1,2.1E1,5E0,5E0,-6.32698E-1,-7.175733E-1,8.7453217E2,-7.60085E-1,1.7909106E3,-6.1567897E-1,1.3092784E2,7E0,1.0003901E2,7.336539E2,7.8159546E2,2.8853064E1,1.7380337E3,8E0,4.0932747E1,-3.8914496E-1,2.7341047E1,-6.461258E-1,7E0,8E0,1.1E1,8.398494E1,7.495555E-1,1.058836E2,6.953221E-2,9.900795E1,2.7341047E1,6E0,2.1279448E3,1.9E1,-4.5441452E-1,-4.1979346E-1,-1.1655712E-1,-5.836956E-1,8.2941085E-1,6.151086E-1,5.590789E-1,1.8132986E-1,3.34337E-1,1.6160928E-1,6.187089E-2,2.4210766E-1,6.35102E-1,3.9026704E-1,5.611605E-1,5.323139E-1,-9.866143E-3,1.913774E-1,1.4884123E-1,-2.6650066E-2,2.6491195E-1,7.51147E-2,2.2974744E-1,1.1714082E-1],"split_indices":[7,0,1,0,3,0,0,0,1,0,0,7,0,7,0,7,2,3,7,7,3,7,2,3,0,3,0,2,2,2,3,0,3,0,3,3,2,7,0,0,0,0,0,0,0,0,0,0,0,0,0,0,0,0,0,0,0,0,0,0,0,0,0],"split_type":[0,0,0,0,0,0,0,0,0,0,0,0,0,0,0,0,0,0,0,0,0,0,0,0,0,0,0,0,0,0,0,0,0,0,0,0,0,0,0,0,0,0,0,0,0,0,0,0,0,0,0,0,0,0,0,0,0,0,0,0,0,0,0],"sum_hessian":[5.063E3,2.399E3,2.664E3,1.824E3,5.75E2,1.953E3,7.11E2,1.698E3,1.26E2,3.71E2,2.04E2,1.93E3,2.3E1,7.03E2,8E0,1.073E3,6.25E2,6.4E1,6.2E1,1.85E2,1.745E3,6.27E2,7.6E1,8.21E2,2.52E2,3.33E2,2.92E2,4.8E1,1.6E1,5.5E1,7E0,3.8E1,1.47E2,1E0,1.744E3,6.09E2,1.8E1,5.2E1,2.4E1,5.52E2,2.69E2,1E0,3.32E2,2.7E1,2.1E1,1.1E1,5E0,4.7E1,8E0,5E0,2E0,1.38E2,9E0,6.45E2,1.099E3,1E0,6.08E2,8E0,1E1,5E1,2E0,6E0,1.8E1],"tree_param":{"num_deleted":"0","num_feature":"8","num_nodes":"63","size_leaf_vector":"1"}},{"base_weights":[-2.9947344E-2,-1.0221838E1,8.786086E0,-1.2149558E1,-7.937253E0,5.7221427E0,1.035399E1,-1.1846837E1,-6.864944E-1,-8.178135E0,7.634338E0,1.1211561E1,3.9103792E0,1.0139981E1,1.1277865E1,-3.51101E-1,-1.1885403E1,-8.138961E0,-6.4709E-1,1.1959714E1,-8.2686615E-1,8.846534E0,1.1510258E1,3.6843524E0,6.292088E0,8.168111E0,1.0180896E1,1.1459185E1,8.818649E0,-6.177818E-1,-5.6937623E-1,-4.264743E-1,-7.7921634E0,6.8086475E-1,2.960547E-1,9.821479E0,1.6549192E-1,1.5703074E0,1.1602731E1,3.7419956E0,1.3551702E0,4.410073E0,6.889813E0,1.0045755E1,5.5890913E0,1.0232976E1,8.625886E0,5.7632416E-1,6.9571424E0,1.3005231E-1,9.212016E0,-4.1989094E-1,-3.7432194E-1,5.4505503E-1,3.345459E-1,9.834271E-2,1.9430352E-2,6.220888E-1,5.2288175E-1,1.4820379E-1,1.9443028E-1,1.4729455E-2,1.9208238E-1,2.585944E-1,-4.345131E-2,4.4586155E-1,2.908677E-1,5.475678E-1,1.9559574E-1,3.186601E-1,7.237158E-2,5.439797E-1,5.0528663E-1,5.6279707E-1,3.535625E-1,7.971395E-2,4.391716E-1,5.057005E-1,2.7238706E-1],"categories":[],"categories_nodes":[],"categories_segments":[],"categories_sizes":[],"default_left":[0,0,0,0,0,0,0,0,0,0,0,0,0,0,0,0,0,0,0,0,0,0,0,0,0,0,0,0,0,0,0,0,0,0,0,0,0,0,0,0,0,0,0,0,0,0,0,0,0,0,0,0,0,0,0,0,0,0,0,0,0,0,0,0,0,0,0,0,0,0,0,0,0,0,0,0,0,0,0],"id":23,"left_children":[1,3,5,7,9,11,13,15,-1,17,19,21,23,25,27,-1,29,31,-1,33,-1,35,37,39,41,43,45,47,49,-1,-1,-1,51,-1,-1,53,-1,55,57,59,61,63,65,67,69,71,73,-1,75,-1,77,-1,-1,-1,-1,-1,-1,-1,-1,-1,-1,-1,-1,-1,-1,-1,-1,-1,-1,-1,-1,-1,-1,-1,-1,-1,-1,-1,-1],"loss_changes":[4.5680775E5,1.0288281E4,1.3036359E4,4.4826562E2,4.120922E3,9.155771E3,2.4192188E2,1.173125E2,0E0,9.358594E1,1.9751577E3,5.9945312E1,3.5203418E2,3.5671875E1,4.6089844E1,0E0,1.095625E2,7.709375E1,0E0,6.951318E1,0E0,1.2943164E2,1.6561523E2,8.072266E1,3.598633E1,1.1334009E2,2.8265625E1,1.1917969E1,4.2075684E1,0E0,0E0,0E0,4.323047E1,0E0,0E0,1.1557129E1,0E0,6.4146423E-1,6.0125E1,5.9527344E1,4.3699177E1,7.286334E1,4.1621094E1,6.270056E1,4.5983032E1,4.1875E0,1.3711182E2,0E0,5.4555756E1,0E0,2.97854E1,0E0,0E0,0E0,0E0,0E0,0E0,0E0,0E0,0E0,0E0,0E0,0E0,0E0,0E0,0E0,0E0,0E0,0E0,0E0,0E0,0E0,0E0,0E0,0E0,0E0,0E0,0E0,0E0],"parents":[2147483647,0,0,1,1,2,2,3,3,4,4,5,5,6,6,7,7,9,9,10,10,11,11,12,12,13,13,14,14,16,16,17,17,19,19,21,21,22,22,23,23,24,24,25,25,26,26,27,27,28,28,32,32,35,35,37,37,38,38,39,39,40,40,41,41,42,42,43,43,44,44,45,45,46,46,48,48,50,50],"right_children":[2,4,6,8,10,12,14,16,-1,18,20,22,24,26,28,-1,30,32,-1,34,-1,36,38,40,42,44,46,48,50,-1,-1,-1,52,-1,-1,54,-1,56,58,60,62,64,66,68,70,72,74,-1,76,-1,78,-1,-1,-1,-1,-1,-1,-1,-1,-1,-1,-1,-1,-1,-1,-1,-1,-1,-1,-1,-1,-1,-1,-1,-1,-1,-1,-1,-1],"split_conditions":[7.044495E1,3.5787937E1,8.885357E1,7.811098E1,8E0,3.570613E1,6.841913E1,5E0,-6.864944E-1,5E0,2.1E1,6.700207E1,8.611459E1,6.675685E1,6.916697E1,-3.51101E-1,6.762143E1,6.76018E1,-6.4709E-1,2E0,-8.2686615E-1,6.689887E1,7.556967E1,1.0976083E2,8.270595E1,1.0003901E2,6.835101E1,1.1252497E2,1.2E1,-6.177818E-1,-5.6937623E-1,-4.264743E-1,3.911632E1,6.8086475E-1,2.960547E-1,3.1272919E1,1.6549192E-1,7E0,1.0033605E2,6.700207E1,1.1252497E2,8.14672E1,6.7495995E1,1.9E1,1.5E1,1.1E1,9.951127E1,5.7632416E-1,9.798598E1,1.3005231E-1,1.0313687E2,-4.1989094E-1,-3.7432194E-1,5.4505503E-1,3.345459E-1,9.834271E-2,1.9430352E-2,6.220888E-1,5.2288175E-1,1.4820379E-1,1.9443028E-1,1.4729455E-2,1.9208238E-1,2.585944E-1,-4.345131E-2,4.4586155E-1,2.908677E-1,5.475678E-1,1.9559574E-1,3.186601E-1,7.237158E-2,5.439797E-1,5.0528663E-1,5.6279707E-1,3.535625E-1,7.971395E-2,4.391716E-1,5.057005E-1,2.7238706E-1],"split_indices":[4,4,3,3,0,3,5,0,0,0,0,5,3,5,5,0,5,5,0,2,0,5,4,4,4,3,5,4,0,0,0,0,3,0,0,3,0,2,4,5,4,4,5,0,0,0,3,0,3,0,4,0,0,0,0,0,0,0,0,0,0,0,0,0,0,0,0,0,0,0,0,0,0,0,0,0,0,0,0],"split_type":[0,0,0,0,0,0,0,0,0,0,0,0,0,0,0,0,0,0,0,0,0,0,0,0,0,0,0,0,0,0,0,0,0,0,0,0,0,0,0,0,0,0,0,0,0,0,0,0,0,0,0,0,0,0,0,0,0,0,0,0,0,0,0,0,0,0,0,0,0,0,0,0,0,0,0,0,0,0,0],"sum_hessian":[5.082E3,2.357E3,2.725E3,1.276E3,1.081E3,9.24E2,1.801E3,1.078E3,1.98E2,1.065E3,1.6E1,2.28E2,6.96E2,1.472E3,3.29E2,1E1,1.068E3,1.059E3,6E0,1.4E1,2E0,2.9E1,1.99E2,6.38E2,5.8E1,3.4E1,1.438E3,3.03E2,2.6E1,5.37E2,5.31E2,4.87E2,5.72E2,1E1,4E0,2.4E1,5E0,2E0,1.97E2,6.22E2,1.6E1,1.6E1,4.2E1,1.8E1,1.6E1,1.386E3,5.2E1,2.97E2,6E0,2E0,2.4E1,1.83E2,3.89E2,1.6E1,8E0,1E0,1E0,1.08E2,8.9E1,1.02E2,5.2E2,1.2E1,4E0,1.4E1,2E0,1.2E1,3E1,1.5E1,3E0,1.3E1,3E0,2.14E2,1.172E3,1.7E1,3.5E1,2E0,4E0,1.8E1,6E0],"tree_param":{"num_deleted":"0","num_feature":"8","num_nodes":"79","size_leaf_vector":"1"}},{"base_weights":[-1.5508053E-3,-9.702492E0,8.302484E0,-1.15181465E1,-7.5399394E0,1.00762415E1,3.6369152E0,-3.888912E-1,-1.1586403E1,-7.760839E0,9.834317E0,1.30435505E1,9.801869E0,4.0305943E0,3.254072E0,-1.11139765E1,-1.2035265E1,-4.070754E-1,-7.240822E0,5.7015425E-1,2.3649597E-1,7.366074E-1,1.18109665E1,9.306305E0,1.0821597E1,3.66966E0,4.8324895E0,3.30513E0,-2.2255757E-1,-5.8083767E-1,-5.2976364E-1,-6.480431E-1,-5.771973E-1,-7.568459E0,-3.339618E-1,6.291048E0,6.077549E-1,1.0175461E1,9.055039E0,1.0555538E1,1.1824655E1,4.119777E0,2.7736635E0,1.843528E0,5.107451E0,2.2822862E0,3.6324701E0,-3.903657E-1,-3.3236325E-1,3.4385365E-1,5.4721832E-2,4.9146095E-1,5.7860273E-1,4.198115E-1,4.920435E-1,5.6064713E-1,4.9555668E-1,6.006443E-1,1.7754899E-1,1.6156377E-1,2.3666608E-1,6.457102E-2,1.5383485E-1,1.326537E-1,1.7072907E-2,2.0299618E-1,2.9477108E-1,6.678275E-2,1.3638858E-1,2.1489568E-1,1.665285E-1],"categories":[],"categories_nodes":[],"categories_segments":[],"categories_sizes":[],"default_left":[0,0,0,0,0,0,0,0,0,0,0,0,0,0,0,0,0,0,0,0,0,0,0,0,0,0,0,0,0,0,0,0,0,0,0,0,0,0,0,0,0,0,0,0,0,0,0,0,0,0,0,0,0,0,0,0,0,0,0,0,0,0,0,0,0,0,0,0,0,0,0],"id":24,"left_children":[1,3,5,7,9,11,13,-1,15,17,19,21,23,25,27,29,31,-1,33,-1,-1,-1,35,37,39,41,43,45,-1,-1,-1,-1,-1,47,-1,49,-1,51,53,55,57,59,61,63,65,67,69,-1,-1,-1,-1,-1,-1,-1,-1,-1,-1,-1,-1,-1,-1,-1,-1,-1,-1,-1,-1,-1,-1,-1,-1],"loss_changes":[4.122099E5,9.179578E3,2.277914E4,2.3692188E2,4.221324E3,1.4980156E3,1.0158008E2,0E0,1.3257812E2,1.5226172E2,5.817102E1,1.715E2,8.250625E2,8.964551E1,1.6853662E2,3.990625E1,1.3779688E2,0E0,3.4085938E1,0E0,0E0,0E0,1.1538965E2,1.7866406E2,3.34375E1,9.343213E1,8.263135E1,1.219541E2,0E0,0E0,0E0,0E0,0E0,1.037207E1,0E0,1.6836212E1,0E0,1.6816406E1,4.2007812E2,9.136328E1,1.3799512E2,7.792334E1,3.6451904E1,1.2470028E1,6.0258057E1,3.7262512E1,4.454834E1,0E0,0E0,0E0,0E0,0E0,0E0,0E0,0E0,0E0,0E0,0E0,0E0,0E0,0E0,0E0,0E0,0E0,0E0,0E0,0E0,0E0,0E0,0E0,0E0],"parents":[2147483647,0,0,1,1,2,2,3,3,4,4,5,5,6,6,8,8,9,9,10,10,11,11,12,12,13,13,14,14,15,15,16,16,18,18,22,22,23,23,24,24,25,25,26,26,27,27,33,33,35,35,37,37,38,38,39,39,40,40,41,41,42,42,43,43,44,44,45,45,46,46],"right_children":[2,4,6,8,10,12,14,-1,16,18,20,22,24,26,28,30,32,-1,34,-1,-1,-1,36,38,40,42,44,46,-1,-1,-1,-1,-1,48,-1,50,-1,52,54,56,58,60,62,64,66,68,70,-1,-1,-1,-1,-1,-1,-1,-1,-1,-1,-1,-1,-1,-1,-1,-1,-1,-1,-1,-1,-1,-1,-1,-1],"split_conditions":[7.044495E1,3.678474E1,5E0,5E0,8E0,9E0,9.099063E1,-3.888912E-1,8E0,6.795591E1,1E0,9.7195694E1,7.1077835E1,6.055289E1,6E0,6.762143E1,2.2E1,-4.070754E-1,7.141463E1,5.7015425E-1,2.3649597E-1,7.366074E-1,6.9466835E1,8.413499E1,7.223223E1,6.763653E1,6.749109E1,6.723464E1,-2.2255757E-1,-5.8083767E-1,-5.2976364E-1,-6.480431E-1,-5.771973E-1,4E0,-3.339618E-1,1.0509207E2,6.077549E-1,6.840599E1,7.030054E1,6.821667E1,6.90295E1,5.9250313E1,7.863768E1,6E0,8.023159E1,9.733933E1,9.84631E1,-3.903657E-1,-3.3236325E-1,3.4385365E-1,5.4721832E-2,4.9146095E-1,5.7860273E-1,4.198115E-1,4.920435E-1,5.6064713E-1,4.9555668E-1,6.006443E-1,1.7754899E-1,1.6156377E-1,2.3666608E-1,6.457102E-2,1.5383485E-1,1.326537E-1,1.7072907E-2,2.0299618E-1,2.9477108E-1,6.678275E-2,1.3638858E-1,2.1489568E-1,1.665285E-1],"split_indices":[4,4,1,0,0,0,4,0,0,5,1,4,6,6,1,5,0,0,6,0,0,0,6,4,6,5,5,5,0,0,0,0,0,0,0,4,0,5,6,5,5,6,4,1,4,4,4,0,0,0,0,0,0,0,0,0,0,0,0,0,0,0,0,0,0,0,0,0,0,0,0],"split_type":[0,0,0,0,0,0,0,0,0,0,0,0,0,0,0,0,0,0,0,0,0,0,0,0,0,0,0,0,0,0,0,0,0,0,0,0,0,0,0,0,0,0,0,0,0,0,0,0,0,0,0,0,0,0,0,0,0,0,0,0,0,0,0,0,0,0,0,0,0,0,0],"sum_hessian":[5.115E3,2.359E3,2.756E3,1.28E3,1.079E3,1.996E3,7.6E2,2.5E1,1.255E3,1.066E3,1.3E1,1.65E2,1.831E3,3.7E2,3.9E2,6.24E2,6.31E2,6.07E2,4.59E2,9E0,4E0,6.5E1,1E2,1.239E3,5.92E2,2.59E2,1.11E2,3.88E2,2E0,3.06E2,3.18E2,2.1E2,4.21E2,2.82E2,1.77E2,7E0,9.3E1,2.69E2,9.7E2,4.77E2,1.15E2,1.7E2,8.9E1,1E1,1.01E2,9.6E1,2.92E2,2.18E2,6.4E1,6E0,1E0,2.22E2,4.7E1,5.34E2,4.36E2,2.28E2,2.49E2,1.12E2,3E0,7.2E1,9.8E1,1.6E1,7.3E1,6E0,4E0,4.6E1,5.5E1,3.2E1,6.4E1,8.7E1,2.05E2],"tree_param":{"num_deleted":"0","num_feature":"8","num_nodes":"71","size_leaf_vector":"1"}},{"base_weights":[-1.6338749E-2,-9.223848E0,7.841141E0,-1.0965486E1,-7.210751E0,9.623682E0,3.2833242E0,-1.0709788E1,-6.103094E-1,-7.418147E0,7.291006E0,1.2168188E1,9.424547E0,5.469929E0,3.1260638E0,-2.732223E-1,-1.07395525E1,-7.370022E0,-6.48488E-1,7.198699E-1,5.580851E-1,7.034921E-1,1.0788411E1,9.27026E0,1.0014634E1,4.86443E0,7.229524E0,2.6622877E0,3.4154139E0,-5.598401E-1,-5.176315E-1,-3.9161322E-1,-7.0433917E0,2.7915937E-1,-7.115008E-1,7.1841407E0,5.6659275E-1,9.314705E0,6.6327696E0,5.036837E-1,5.5054746E0,3.1490448E-1,4.198795E0,7.965889E-2,3.8169205E-1,2.7596312E0,2.1775372E-1,3.2774632E0,4.4909754E0,-3.7275448E-1,-3.2926837E-1,4.595522E-1,8.667534E-2,3.0707884E-1,4.6706542E-1,3.8818717E-1,1.9103216E-1,5.8786776E-2,3.5011116E-1,1.16566375E-1,2.3231672E-1,1.487088E-1,8.694928E-2,-5.5169623E-2,8.613994E-2,1.6800581E-1,-3.3875402E-2,-1.1248589E-2,2.2980507E-1],"categories":[],"categories_nodes":[],"categories_segments":[],"categories_sizes":[],"default_left":[0,0,0,0,0,0,0,0,0,0,0,0,0,0,0,0,0,0,0,0,0,0,0,0,0,0,0,0,0,0,0,0,0,0,0,0,0,0,0,0,0,0,0,0,0,0,0,0,0,0,0,0,0,0,0,0,0,0,0,0,0,0,0,0,0,0,0,0,0],"id":25,"left_children":[1,3,5,7,9,11,13,15,-1,17,19,21,23,25,27,-1,29,31,-1,33,-1,-1,35,37,39,41,43,45,47,-1,-1,-1,49,-1,-1,51,-1,53,55,-1,57,-1,59,-1,-1,61,63,65,67,-1,-1,-1,-1,-1,-1,-1,-1,-1,-1,-1,-1,-1,-1,-1,-1,-1,-1,-1,-1],"loss_changes":[3.7128903E5,8.2058125E3,2.2465125E4,2.7059375E2,3.3594453E3,8.936406E2,2.5111621E2,1.0633594E2,0E0,1.9403125E2,3.989228E2,2.1817383E2,7.559375E1,1.9169678E1,8.886914E1,0E0,6.985156E1,1.074375E2,0E0,5.883911E2,0E0,0E0,8.703906E1,1.1171094E2,4.3308594E1,1.2681641E1,1.2905457E1,6.7217896E1,5.1456055E1,0E0,0E0,0E0,7.17793E1,0E0,0E0,1.3721167E2,0E0,6.528125E1,5.9390015E1,0E0,3.713095E1,0E0,1.5076599E1,0E0,0E0,5.4826904E1,2.5761536E1,1.3270605E2,2.483081E1,0E0,0E0,0E0,0E0,0E0,0E0,0E0,0E0,0E0,0E0,0E0,0E0,0E0,0E0,0E0,0E0,0E0,0E0,0E0,0E0],"parents":[2147483647,0,0,1,1,2,2,3,3,4,4,5,5,6,6,7,7,9,9,10,10,11,11,12,12,13,13,14,14,16,16,17,17,19,19,22,22,23,23,24,24,25,25,26,26,27,27,28,28,32,32,35,35,37,37,38,38,40,40,42,42,45,45,46,46,47,47,48,48],"right_children":[2,4,6,8,10,12,14,16,-1,18,20,22,24,26,28,-1,30,32,-1,34,-1,-1,36,38,40,42,44,46,48,-1,-1,-1,50,-1,-1,52,-1,54,56,-1,58,-1,60,-1,-1,62,64,66,68,-1,-1,-1,-1,-1,-1,-1,-1,-1,-1,-1,-1,-1,-1,-1,-1,-1,-1,-1,-1],"split_conditions":[7.044495E1,3.5787937E1,5E0,7.3631966E1,7.188206E1,3.4380886E1,7.272857E2,7.5939545E1,-6.103094E-1,1.8971591E2,9.834862E1,9.7195694E1,6.8392044E1,8.270595E1,6.751035E1,-2.732223E-1,6.755968E1,3.9367294E1,-6.48488E-1,9.539485E1,5.580851E-1,7.034921E-1,2.9759222E1,6.835101E1,1.1252497E2,6.3364307E2,6E0,1.0685577E2,1.7780206E3,-5.598401E-1,-5.176315E-1,-3.9161322E-1,6.795591E1,2.7915937E-1,-7.115008E-1,1.0298585E2,5.6659275E-1,6.67196E1,9.733933E1,5.036837E-1,2E0,3.1490448E-1,3.218179E1,7.965889E-2,3.8169205E-1,8.346826E1,8.060813E1,1.7513427E3,9.51696E1,-3.7275448E-1,-3.2926837E-1,4.595522E-1,8.667534E-2,3.0707884E-1,4.6706542E-1,3.8818717E-1,1.9103216E-1,5.8786776E-2,3.5011116E-1,1.16566375E-1,2.3231672E-1,1.487088E-1,8.694928E-2,-5.5169623E-2,8.613994E-2,1.6800581E-1,-3.3875402E-2,-1.1248589E-2,2.2980507E-1],"split_indices":[4,4,1,3,3,3,7,7,0,7,3,4,5,4,5,0,5,3,0,3,0,0,3,5,4,7,1,4,7,0,0,0,5,0,0,4,0,5,4,0,1,0,3,0,0,3,3,7,4,0,0,0,0,0,0,0,0,0,0,0,0,0,0,0,0,0,0,0,0],"split_type":[0,0,0,0,0,0,0,0,0,0,0,0,0,0,0,0,0,0,0,0,0,0,0,0,0,0,0,0,0,0,0,0,0,0,0,0,0,0,0,0,0,0,0,0,0,0,0,0,0,0,0,0,0,0,0,0,0,0,0,0,0,0,0,0,0,0,0,0,0],"sum_hessian":[5.13E3,2.362E3,2.768E3,1.264E3,1.098E3,1.989E3,7.79E2,1.056E3,2.08E2,1.083E3,1.5E1,1.4E2,1.849E3,5E1,7.29E2,7E0,1.049E3,1.076E3,7E0,6E0,9E0,5.5E1,8.5E1,1.479E3,3.7E2,4E1,1E1,2.84E2,4.45E2,4.68E2,5.81E2,4.36E2,6.4E2,5E0,1E0,1.3E1,7.2E1,1.452E3,2.7E1,3.64E2,6E0,1E1,3E1,1E0,9E0,2.73E2,1.1E1,3.98E2,4.7E1,3.29E2,3.11E2,9E0,4E0,1.4E1,1.438E3,1.8E1,9E0,2E0,4E0,7E0,2.3E1,2.24E2,4.9E1,6E0,5E0,3.9E2,8E0,1E0,4.6E1],"tree_param":{"num_deleted":"0","num_feature":"8","num_nodes":"69","size_leaf_vector":"1"}},{"base_weights":[-6.376277E-2,-8.721213E0,7.4706855E0,-1.0449034E1,-6.8465624E0,9.134259E0,3.2264328E0,-1.0198295E1,-5.8253944E-1,-7.0398016E0,7.19265E0,1.121771E1,8.88583E0,4.8699765E0,3.042065E0,-1.008446E1,-5.796113E-1,-7.4532976E0,-6.7455797E0,9.522061E0,-6.937133E-1,6.724227E-1,1.017935E1,9.719115E0,8.768199E0,-3.0373383E-2,4.9511085E0,2.936663E0,3.8381708E0,-5.137463E-1,-4.7048807E-1,-7.4965677E0,-2.0250378E0,-3.4765616E-1,-3.1374928E-1,5.511089E-1,2.1586977E-1,7.383729E0,1.0596621E1,9.191806E0,1.112428E1,2.8226547E0,8.774061E0,2.443681E0,5.13373E0,3.2941828E0,2.5314567E0,4.2587404E0,2.88603E0,-3.692012E-1,-5.3775305E-1,5.604811E-1,-4.0680543E-1,5.2017212E-2,3.8181275E-1,5.81387E-1,4.5776606E-1,4.9158508E-1,3.6333463E-1,5.688559E-1,1.6011176E-1,-7.466507E-2,2.8636417E-1,4.816172E-1,4.340907E-1,1.6520049E-1,-6.7957304E-2,2.7991432E-1,2.0750533E-1,-4.604845E-2,1.6681574E-1,1.3019238E-1,-1.6839276E-1,2.374318E-1,1.3668787E-1,9.04243E-2,2.0411263E-1],"categories":[],"categories_nodes":[],"categories_segments":[],"categories_sizes":[],"default_left":[0,0,0,0,0,0,0,0,0,0,0,0,0,0,0,0,0,0,0,0,0,0,0,0,0,0,0,0,0,0,0,0,0,0,0,0,0,0,0,0,0,0,0,0,0,0,0,0,0,0,0,0,0,0,0,0,0,0,0,0,0,0,0,0,0,0,0,0,0,0,0,0,0,0,0,0,0],"id":26,"left_children":[1,3,5,7,9,11,13,15,-1,17,19,21,23,25,27,29,-1,31,33,35,-1,-1,37,39,41,-1,43,45,47,-1,-1,49,51,-1,-1,-1,-1,53,55,57,59,61,63,65,67,69,71,73,75,-1,-1,-1,-1,-1,-1,-1,-1,-1,-1,-1,-1,-1,-1,-1,-1,-1,-1,-1,-1,-1,-1,-1,-1,-1,-1,-1,-1],"loss_changes":[3.329293E5,7.6212188E3,1.9238969E4,2.5303125E2,3.1487969E3,9.148125E2,2.1850879E2,4.6375E1,0E0,8.683594E1,9.172881E2,3.3794727E2,8.6890625E1,3.678174E1,4.7046387E1,2.6554688E1,0E0,9.263086E1,2.1708984E1,6.9526855E1,0E0,0E0,8.973828E1,5.1867188E1,2.921875E1,0E0,2.1798096E1,8.118994E1,1.8943604E1,0E0,0E0,8.744141E1,4.9559232E2,0E0,0E0,0E0,0E0,2.7296875E1,7.633984E1,1.2195996E2,6.772266E1,4.6161316E1,3.8859375E1,2.7392403E1,8.295898E0,6.0790283E1,1.3432434E2,2.5866638E1,2.74198E1,0E0,0E0,0E0,0E0,0E0,0E0,0E0,0E0,0E0,0E0,0E0,0E0,0E0,0E0,0E0,0E0,0E0,0E0,0E0,0E0,0E0,0E0,0E0,0E0,0E0,0E0,0E0,0E0],"parents":[2147483647,0,0,1,1,2,2,3,3,4,4,5,5,6,6,7,7,9,9,10,10,11,11,12,12,13,13,14,14,15,15,17,17,18,18,19,19,22,22,23,23,24,24,26,26,27,27,28,28,31,31,32,32,37,37,38,38,39,39,40,40,41,41,42,42,43,43,44,44,45,45,46,46,47,47,48,48],"right_children":[2,4,6,8,10,12,14,16,-1,18,20,22,24,26,28,30,-1,32,34,36,-1,-1,38,40,42,-1,44,46,48,-1,-1,50,52,-1,-1,-1,-1,54,56,58,60,62,64,66,68,70,72,74,76,-1,-1,-1,-1,-1,-1,-1,-1,-1,-1,-1,-1,-1,-1,-1,-1,-1,-1,-1,-1,-1,-1,-1,-1,-1,-1,-1,-1],"split_conditions":[7.044495E1,3.4987244E1,5E0,7.3631966E1,7.188206E1,9.047244E1,7.9029095E2,7.233713E2,-5.8253944E-1,3.9367294E1,2.1E1,7.8159546E2,8.1837654E1,2.7341047E1,1.7780206E3,3.2137547E1,-5.796113E-1,8E0,1.3092784E2,1E0,-6.937133E-1,6.724227E-1,9.794641E1,8.023159E1,7.4045056E2,-3.0373383E-2,7.556967E1,9.099063E1,1.9767272E3,-5.137463E-1,-4.7048807E-1,5E0,9E0,-3.4765616E-1,-3.1374928E-1,5.511089E-1,2.1586977E-1,2.9514225E1,1.0382831E2,1.04754684E2,1.6193766E3,1.064665E2,9.482431E2,7.769202E1,7.336539E2,7.981732E2,6E0,8.204917E1,8.0042E1,-3.692012E-1,-5.3775305E-1,5.604811E-1,-4.0680543E-1,5.2017212E-2,3.8181275E-1,5.81387E-1,4.5776606E-1,4.9158508E-1,3.6333463E-1,5.688559E-1,1.6011176E-1,-7.466507E-2,2.8636417E-1,4.816172E-1,4.340907E-1,1.6520049E-1,-6.7957304E-2,2.7991432E-1,2.0750533E-1,-4.604845E-2,1.6681574E-1,1.3019238E-1,-1.6839276E-1,2.374318E-1,1.3668787E-1,9.04243E-2,2.0411263E-1],"split_indices":[4,4,1,3,3,3,7,7,0,3,0,7,4,3,7,4,0,0,7,1,0,0,4,4,7,0,4,4,7,0,0,0,0,0,0,0,0,3,4,3,7,3,7,3,7,7,1,3,3,0,0,0,0,0,0,0,0,0,0,0,0,0,0,0,0,0,0,0,0,0,0,0,0,0,0,0,0],"split_type":[0,0,0,0,0,0,0,0,0,0,0,0,0,0,0,0,0,0,0,0,0,0,0,0,0,0,0,0,0,0,0,0,0,0,0,0,0,0,0,0,0,0,0,0,0,0,0,0,0,0,0,0,0,0,0,0,0,0,0,0,0,0,0,0,0,0,0,0,0,0,0,0,0,0,0,0,0],"sum_hessian":[5.102E3,2.374E3,2.728E3,1.233E3,1.141E3,1.959E3,7.69E2,1.028E3,2.05E2,1.126E3,1.5E1,2.04E2,1.755E3,7.5E1,6.94E2,9.58E2,7E1,4.58E2,6.68E2,1.4E1,1E0,6.1E1,1.43E2,2.07E2,1.548E3,1E0,7.4E1,6.17E2,7.7E1,7.36E2,2.22E2,4.54E2,4E0,4.54E2,2.14E2,1E1,4E0,2.1E1,1.22E2,1.56E2,5.1E1,2E0,1.546E3,6E0,6.8E1,3.24E2,2.93E2,5.1E1,2.6E1,4.42E2,1.2E1,1E0,3E0,1E0,2E1,6.7E1,5.5E1,1.14E2,4.2E1,4.9E1,2E0,1E0,1E0,1.4E2,1.406E3,5E0,1E0,4.3E1,2.5E1,3E0,3.21E2,2.9E2,3E0,3.7E1,1.4E1,1.5E1,1.1E1],"tree_param":{"num_deleted":"0","num_feature":"8","num_nodes":"77","size_leaf_vector":"1"}},{"base_weights":[-1.1289142E-1,-8.333114E0,7.031632E0,-9.93283E0,-6.50683E0,8.68057E0,3.0327225E0,-9.46056E0,-1.035879E1,-6.7011547E0,5.6544857E0,1.1383731E1,8.444861E0,3.3782039E0,2.677017E0,-9.872035E0,-4.4079372E-1,-5.561154E-1,-9.928632E0,-6.651702E0,-5.695855E-1,9.276174E0,-7.7730066E-1,-3.38686E-2,1.1468092E1,7.8607826E0,9.002153E0,4.7195673E0,3.090119E0,2.7230835E0,-2.1480446E-1,-3.0835027E-1,-4.9689856E-1,-4.824688E-1,-5.680884E-1,-6.846901E0,-5.9516454E0,5.3206366E-1,2.072351E-1,5.491609E0,1.1635152E1,8.986675E0,7.5127187E0,8.782799E0,1.0605044E1,4.805859E0,-2.8707122E-2,2.8533843E0,4.286955E0,1.904418E0,2.9859183E0,-3.50055E-1,-3.131137E-1,-3.0907938E-1,-2.4918766E-1,3.0920982E-1,5.0716784E-2,6.384189E-1,5.073752E-1,4.2025992E-1,5.0164294E-1,3.5360637E-1,4.0356645E-1,4.4011554E-1,1.3472147E-1,5.3947276E-1,2.3979042E-1,2.0288394E-1,2.6290777E-1,1.1732576E-1,1.6110192E-1,3.4724212E-1,1.9641267E-1,1.0480926E-1,-1.2308164E-2,1.7861065E-1,1.2989809E-1],"categories":[],"categories_nodes":[],"categories_segments":[],"categories_sizes":[],"default_left":[0,0,0,0,0,0,0,0,0,0,0,0,0,0,0,0,0,0,0,0,0,0,0,0,0,0,0,0,0,0,0,0,0,0,0,0,0,0,0,0,0,0,0,0,0,0,0,0,0,0,0,0,0,0,0,0,0,0,0,0,0,0,0,0,0,0,0,0,0,0,0,0,0,0,0,0,0],"id":27,"left_children":[1,3,5,7,9,11,13,15,17,19,21,23,25,27,29,31,-1,-1,33,35,-1,37,-1,-1,39,41,43,45,47,49,-1,-1,-1,-1,-1,51,53,-1,-1,55,57,59,61,63,65,67,-1,69,71,73,75,-1,-1,-1,-1,-1,-1,-1,-1,-1,-1,-1,-1,-1,-1,-1,-1,-1,-1,-1,-1,-1,-1,-1,-1,-1,-1],"loss_changes":[2.9946197E5,6.862328E3,1.7961984E4,1.55875E2,2.6610938E3,1.1342031E3,8.902295E1,7.478516E1,1.0403125E2,1.7775781E2,1.5262762E3,1.6242578E2,5.086328E2,1.4037256E2,1.3954639E2,2.7640625E1,0E0,0E0,6.126172E1,1.0737891E2,0E0,6.797461E1,0E0,0E0,8.686914E1,2.7616406E2,2.2470312E2,3.427881E1,8.2117676E1,7.952246E1,0E0,0E0,0E0,0E0,0E0,3.1972656E1,2.3498047E1,0E0,0E0,1.2332581E1,1.1656445E2,3.8554688E1,1.0929297E2,7.144141E1,5.96709E1,1.675293E0,0E0,4.494702E1,2.3248474E1,4.1344666E1,5.850171E1,0E0,0E0,0E0,0E0,0E0,0E0,0E0,0E0,0E0,0E0,0E0,0E0,0E0,0E0,0E0,0E0,0E0,0E0,0E0,0E0,0E0,0E0,0E0,0E0,0E0,0E0],"parents":[2147483647,0,0,1,1,2,2,3,3,4,4,5,5,6,6,7,7,8,8,9,9,10,10,11,11,12,12,13,13,14,14,15,15,18,18,19,19,21,21,24,24,25,25,26,26,27,27,28,28,29,29,35,35,36,36,39,39,40,40,41,41,42,42,43,43,44,44,45,45,47,47,48,48,49,49,50,50],"right_children":[2,4,6,8,10,12,14,16,18,20,22,24,26,28,30,32,-1,-1,34,36,-1,38,-1,-1,40,42,44,46,48,50,-1,-1,-1,-1,-1,52,54,-1,-1,56,58,60,62,64,66,68,-1,70,72,74,76,-1,-1,-1,-1,-1,-1,-1,-1,-1,-1,-1,-1,-1,-1,-1,-1,-1,-1,-1,-1,-1,-1,-1,-1,-1,-1],"split_conditions":[7.044495E1,3.5787937E1,5E0,8E0,8E0,9E0,9.099063E1,6.796935E1,2.2E1,5E0,2.1E1,7.440375E1,7.0500595E1,1E1,6E0,5E0,-4.4079372E-1,-5.561154E-1,6E0,7.130847E1,-5.695855E-1,1E0,-7.7730066E-1,-3.38686E-2,6.675685E1,8.1837654E1,7.223223E1,9.048798E1,6.1063896E1,6.723464E1,-2.1480446E-1,-3.0835027E-1,-4.9689856E-1,-4.824688E-1,-5.680884E-1,4E0,4E0,5.3206366E-1,2.072351E-1,6.67368E1,1.0033605E2,7.9683304E1,6.993279E1,6.922005E1,1.11183784E2,6.753229E1,-2.8707122E-2,8.0003494E1,6.11441E1,6.721236E1,9.927706E1,-3.50055E-1,-3.131137E-1,-3.0907938E-1,-2.4918766E-1,3.0920982E-1,5.0716784E-2,6.384189E-1,5.073752E-1,4.2025992E-1,5.0164294E-1,3.5360637E-1,4.0356645E-1,4.4011554E-1,1.3472147E-1,5.3947276E-1,2.3979042E-1,2.0288394E-1,2.6290777E-1,1.1732576E-1,1.6110192E-1,3.4724212E-1,1.9641267E-1,1.0480926E-1,-1.2308164E-2,1.7861065E-1,1.2989809E-1],"split_indices":[4,4,1,0,0,0,4,5,0,0,0,4,6,0,1,0,0,0,1,6,0,1,0,0,5,4,6,4,6,5,0,0,0,0,0,0,0,0,0,5,4,4,6,5,4,5,0,4,6,5,4,0,0,0,0,0,0,0,0,0,0,0,0,0,0,0,0,0,0,0,0,0,0,0,0,0,0],"split_type":[0,0,0,0,0,0,0,0,0,0,0,0,0,0,0,0,0,0,0,0,0,0,0,0,0,0,0,0,0,0,0,0,0,0,0,0,0,0,0,0,0,0,0,0,0,0,0,0,0,0,0,0,0,0,0,0,0,0,0,0,0,0,0,0,0,0,0,0,0,0,0,0,0,0,0,0,0],"sum_hessian":[5.097E3,2.37E3,2.727E3,1.261E3,1.109E3,1.93E3,7.97E2,6.09E2,6.52E2,1.092E3,1.7E1,1.51E2,1.779E3,4E2,3.97E2,3.63E2,2.46E2,2.26E2,4.26E2,1.083E3,9E0,1.5E1,2E0,1E0,1.5E2,8.76E2,9.03E2,6.8E1,3.32E2,3.95E2,2E0,8E0,3.55E2,3.63E2,6.3E1,8.4E2,2.43E2,1.1E1,4E0,5E0,1.45E2,2.01E2,6.75E2,8E2,1.03E2,6.7E1,1E0,2.8E2,5.2E1,9.8E1,2.97E2,6.56E2,1.84E2,1.92E2,5.1E1,4E0,1E0,7.8E1,6.7E1,1.35E2,6.6E1,3.85E2,2.9E2,7.97E2,3E0,9.9E1,4E0,2.9E1,3.8E1,1.21E2,1.59E2,4E0,4.8E1,9E1,8E0,1.15E2,1.82E2],"tree_param":{"num_deleted":"0","num_feature":"8","num_nodes":"77","size_leaf_vector":"1"}},{"base_weights":[-9.626616E-2,-7.9567666E0,6.7586555E0,-9.450503E0,-6.234754E0,4.2072825E0,8.0000515E0,-9.208459E0,-5.311984E-1,-6.4181733E0,6.684724E0,8.479247E0,2.9177268E0,7.675183E0,9.099237E0,-8.628607E0,-9.528124E0,-6.377448E0,-5.572159E-1,8.836907E0,-5.58704E0,6.465804E0,5.0325376E-1,2.8154283E0,4.5071373E0,3.8102057E0,7.7360005E0,8.907511E0,1.1417354E1,-4.9360372E-2,-8.645802E0,-2.1056639E-1,-9.545592E0,-6.7911234E0,-6.079669E0,6.119408E-1,4.755623E0,-6.569379E-1,2.379099E-1,7.3072615E0,3.5505548E0,3.2845943E0,2.6174026E0,2.0927975E0,5.4671116E0,6.285744E-1,4.614394E0,8.540148E0,7.481752E0,9.03978E0,5.8768654E0,1.2614994E-1,1.1653329E1,-4.3278357E-1,-1.2089825E-1,-4.7229734E-1,-5.621665E-1,-3.398939E-1,-9.463024E-2,-3.1460077E-1,-2.6445788E-1,-1.1276245E-3,2.7207205E-1,2.5997838E-1,4.3444785E-1,2.2290258E-2,2.3100625E-1,8.754069E-2,1.7989124E-1,1.2170124E-1,1.7730024E-1,1.7034388E-1,6.789429E-2,1.8290642E-1,4.439809E-1,-5.077159E-2,8.522177E-2,2.5272942E-1,2.9091517E-2,2.2132213E-1,4.3144402E-1,3.0377197E-1,3.895892E-1,5.3782934E-1,4.4333792E-1,3.3296463E-1,1.1771065E-1,5.9460974E-1,1.3607064E-1],"categories":[],"categories_nodes":[],"categories_segments":[],"categories_sizes":[],"default_left":[0,0,0,0,0,0,0,0,0,0,0,0,0,0,0,0,0,0,0,0,0,0,0,0,0,0,0,0,0,0,0,0,0,0,0,0,0,0,0,0,0,0,0,0,0,0,0,0,0,0,0,0,0,0,0,0,0,0,0,0,0,0,0,0,0,0,0,0,0,0,0,0,0,0,0,0,0,0,0,0,0,0,0,0,0,0,0,0,0],"id":28,"left_children":[1,3,5,7,9,11,13,15,-1,17,19,21,23,25,27,29,31,33,-1,35,37,39,-1,41,43,45,47,49,51,-1,53,-1,55,57,59,-1,61,-1,-1,63,65,67,69,71,73,75,77,79,81,83,85,-1,87,-1,-1,-1,-1,-1,-1,-1,-1,-1,-1,-1,-1,-1,-1,-1,-1,-1,-1,-1,-1,-1,-1,-1,-1,-1,-1,-1,-1,-1,-1,-1,-1,-1,-1,-1,-1],"loss_changes":[2.7518097E5,6.060422E3,8.606633E3,2.634453E2,2.668504E3,4.905758E3,5.850781E2,1.14640625E2,0E0,1.3930078E2,4.7194946E2,5.958662E2,9.933838E1,3.0477344E2,8.185547E1,4.2441406E1,2.2496094E1,9.248828E1,0E0,1.3617505E2,2.9688974E2,2.0464233E2,0E0,5.1791992E1,8.126666E1,5.8506653E1,2.2214062E2,1.01603516E2,2.93667E1,0E0,2.859375E0,0E0,7.4804688E0,1.8925781E0,7.4322266E1,0E0,2.6338394E1,0E0,0E0,1.6449902E2,7.4317505E1,8.4501465E1,7.004077E1,7.928379E0,1.4036584E2,1.234307E1,3.0786224E1,8.189453E1,4.196172E2,1.3935547E1,3.6690735E1,0E0,2.5241455E1,0E0,0E0,0E0,0E0,0E0,0E0,0E0,0E0,0E0,0E0,0E0,0E0,0E0,0E0,0E0,0E0,0E0,0E0,0E0,0E0,0E0,0E0,0E0,0E0,0E0,0E0,0E0,0E0,0E0,0E0,0E0,0E0,0E0,0E0,0E0,0E0],"parents":[2147483647,0,0,1,1,2,2,3,3,4,4,5,5,6,6,