{"learner":{"attributes":{"scikit_learn":"{\"_estimator_type\": \"regressor\"}"},"feature_names":["hour","day_of_week","month","demand_prev_hour","demand_prev_day","demand_rolling_7d","demand_rolling_24h","hour_demand"],"feature_types":["int","int","int","float","float","float","float","float"],"gradient_booster":{"model":{"gbtree_model_param":{"num_parallel_tree":"1","num_trees":"300"},"iteration_indptr":[0,1,2,3,4,5,6,7,8,9,10,11,12,13,14,15,16,17,18,19,20,21,22,23,24,25,26,27,28,29,30,31,32,33,34,35,36,37,38,39,40,41,42,43,44,45,46,47,48,49,50,51,52,53,54,55,56,57,58,59,60,61,62,63,64,65,66,67,68,69,70,71,72,73,74,75,76,77,78,79,80,81,82,83,84,85,86,87,88,89,90,91,92,93,94,95,96,97,98,99,100,101,102,103,104,105,106,107,108,109,110,111,112,113,114,115,116,117,118,119,120,121,122,123,124,125,126,127,128,129,130,131,132,133,134,135,136,137,138,139,140,141,142,143,144,145,146,147,148,149,150,151,152,153,154,155,156,157,158,159,160,161,162,163,164,165,166,167,168,169,170,171,172,173,174,175,176,177,178,179,180,181,182,183,184,185,186,187,188,189,190,191,192,193,194,195,196,197,198,199,200,201,202,203,204,205,206,207,208,209,210,211,212,213,214,215,216,217,218,219,220,221,222,223,224,225,226,227,228,229,230,231,232,233,234,235,236,237,238,239,240,241,242,243,244,245,246,247,248,249,250,251,252,253,254,255,256,257,258,259,260,261,262,263,264,265,266,267,268,269,270,271,272,273,274,275,276,277,278,279,280,281,282,283,284,285,286,287,288,289,290,291,292,293,294,295,296,297,298,299,300],"tree_info":[0,0,0,0,0,0,0,0,0,0,0,0,0,0,0,0,0,0,0,0,0,0,0,0,0,0,0,0,0,0,0,0,0,0,0,0,0,0,0,0,0,0,0,0,0,0,0,0,0,0,0,0,0,0,0,0,0,0,0,0,0,0,0,0,0,0,0,0,0,0,0,0,0,0,0,0,0,0,0,0,0,0,0,0,0,0,0,0,0,0,0,0,0,0,0,0,0,0,0,0,0,0,0,0,0,0,0,0,0,0,0,0,0,0,0,0,0,0,0,0,0,0,0,0,0,0,0,0,0,0,0,0,0,0,0,0,0,0,0,0,0,0,0,0,0,0,0,0,0,0,0,0,0,0,0,0,0,0,0,0,0,0,0,0,0,0,0,0,0,0,0,0,0,0,0,0,0,0,0,0,0,0,0,0,0,0,0,0,0,0,0,0,0,0,0,0,0,0,0,0,0,0,0,0,0,0,0,0,0,0,0,0,0,0,0,0,0,0,0,0,0,0,0,0,0,0,0,0,0,0,0,0,0,0,0,0,0,0,0,0,0,0,0,0,0,0,0,0,0,0,0,0,0,0,0,0,0,0,0,0,0,0,0,0,0,0,0,0,0,0,0,0,0,0,0,0,0,0,0,0,0,0,0,0,0,0,0,0,0,0,0,0,0,0,0,0,0,0,0,0],"trees":[{"base_weights":[-4.9766958E-2,-2.6240776E1,2.1649576E1,-2.4212362E1,-2.8600218E0,2.6930164E1,8.16051E0,-3.048887E1,-2.2081522E1,3.209853E1,2.5963533E1,3.6036515E0,1.175099E1,-3.0704703E0,2.6884106E-1,1.304705E-1,-2.264138E0,3.2547085E0,4.4476366E-1,1.5334724E0,2.6817894E0,-7.350516E-1,6.6749126E-1,1.1884311E0,-4.9297777E-1],"categories":[],"categories_nodes":[],"categories_segments":[],"categories_sizes":[],"default_left":[0,0,0,0,0,0,0,0,0,0,0,0,0,0,0,0,0,0,0,0,0,0,0,0,0],"id":0,"left_children":[1,3,5,7,-1,9,11,13,15,17,19,21,23,-1,-1,-1,-1,-1,-1,-1,-1,-1,-1,-1,-1],"loss_changes":[2.0420004E6,4.329E3,1.3886856E5,8.777625E3,0E0,2.8773125E3,8.950598E3,1.9666094E3,9.260375E3,1.7692031E3,8.967875E3,8.79067E3,9.845703E2,0E0,0E0,0E0,0E0,0E0,0E0,0E0,0E0,0E0,0E0,0E0,0E0],"parents":[2147483647,0,0,1,1,2,2,3,3,5,5,6,6,7,7,8,8,9,9,10,10,11,11,12,12],"right_children":[2,4,6,8,-1,10,12,14,16,18,20,22,24,-1,-1,-1,-1,-1,-1,-1,-1,-1,-1,-1,-1],"split_conditions":[4.7671562E1,3.550704E1,5E0,6.0727802E1,-2.8600218E0,6.863282E1,6.048421E1,6.883787E1,6.107261E1,4E0,1E0,6E0,7.109363E1,-3.0704703E0,2.6884106E-1,1.304705E-1,-2.264138E0,3.2547085E0,4.4476366E-1,1.5334724E0,2.6817894E0,-7.350516E-1,6.6749126E-1,1.1884311E0,-4.9297777E-1],"split_indices":[3,3,1,6,0,6,6,5,6,1,1,1,6,0,0,0,0,0,0,0,0,0,0,0,0],"split_type":[0,0,0,0,0,0,0,0,0,0,0,0,0,0,0,0,0,0,0,0,0,0,0,0,0],"sum_hessian":[3.583E3,1.623E3,1.96E3,9.03E2,7.2E2,1.405E3,5.55E2,2.12E2,6.91E2,1.96E2,1.209E3,2.49E2,3.06E2,2.11E2,1E0,1.6E1,6.75E2,1.92E2,4E0,9.7E1,1.112E3,5.3E1,1.96E2,3.05E2,1E0],"tree_param":{"num_deleted":"0","num_feature":"8","num_nodes":"25","size_leaf_vector":"1"}},{"base_weights":[1.3739166E-1,-2.9840355E1,2.533372E1,-3.4747605E0,-2.3893284E1,1.6152115E1,2.9747362E1,-2.3970506E0,5.747795E-1,2.8974876E1,1.1965297E1,1.1827297E0,2.986738E0,1.0214076E0,2.9916515E0,-6.023287E-1,1.2099633E0],"categories":[],"categories_nodes":[],"categories_segments":[],"categories_sizes":[],"default_left":[0,0,0,0,0,0,0,0,0,0,0,0,0,0,0,0,0],"id":1,"left_children":[1,3,5,-1,7,9,11,-1,-1,13,15,-1,-1,-1,-1,-1,-1],"loss_changes":[2.7108792E6,4.3681125E4,7.662E4,0E0,2.421625E3,3.2840688E4,1.053375E3,0E0,0E0,1.2103672E3,1.5581641E3,0E0,0E0,0E0,0E0,0E0,0E0],"parents":[2147483647,0,0,1,1,2,2,4,4,5,5,6,6,9,9,10,10],"right_children":[2,4,6,-1,8,10,12,-1,-1,14,16,-1,-1,-1,-1,-1,-1],"split_conditions":[4.6343163E1,3.6146095E1,8.8667465E1,-3.4747605E0,7.202699E1,3.550704E1,6.0993557E1,-2.3970506E0,5.747795E-1,5.9743935E1,1.8645375E2,1.1827297E0,2.986738E0,1.0214076E0,2.9916515E0,-6.023287E-1,1.2099633E0],"split_indices":[4,4,3,0,3,3,6,0,0,6,7,0,0,0,0,0,0],"split_type":[0,0,0,0,0,0,0,0,0,0,0,0,0,0,0,0,0],"sum_hessian":[3.579E3,1.634E3,1.945E3,8.82E2,7.52E2,6.39E2,1.306E3,7.51E2,1E0,1.5E2,4.89E2,1.2E1,1.294E3,1E1,1.4E2,2E0,4.87E2],"tree_param":{"num_deleted":"0","num_feature":"8","num_nodes":"17","size_leaf_vector":"1"}},{"base_weights":[-3.3458477E-1,-2.7025291E1,2.2646124E1,-3.1413302E0,-2.1340965E1,2.7293255E1,1.0696882E1,-2.1493994E1,1.0123731E0,-1.1488478E0,2.7474084E0,9.1301985E-2,1.0706354E0,-2.1549602E0,-2.923617E-1],"categories":[],"categories_nodes":[],"categories_segments":[],"categories_sizes":[],"default_left":[0,0,0,0,0,0,0,0,0,0,0,0,0,0,0],"id":2,"left_children":[1,3,5,-1,7,9,11,13,-1,-1,-1,-1,-1,-1,-1],"loss_changes":[2.2167172E6,3.83525E4,1.06379E5,0E0,4.6704062E3,1.13610625E4,2.28125E0,4.511875E2,0E0,0E0,0E0,0E0,0E0,0E0,0E0],"parents":[2147483647,0,0,1,1,2,2,4,4,5,5,6,6,7,7],"right_children":[2,4,6,-1,8,10,12,14,-1,-1,-1,-1,-1,-1,-1],"split_conditions":[4.6343163E1,3.6146095E1,5E0,-3.1413302E0,7.202699E1,1.8901318E2,2.7311592E1,2.3812566E2,1.0123731E0,-1.1488478E0,2.7474084E0,9.1301985E-2,1.0706354E0,-2.1549602E0,-2.923617E-1],"split_indices":[4,4,1,0,3,7,3,7,0,0,0,0,0,0,0],"split_type":[0,0,0,0,0,0,0,0,0,0,0,0,0,0,0],"sum_hessian":[3.604E3,1.667E3,1.937E3,9.28E2,7.39E2,1.39E3,5.47E2,7.37E2,2E0,5E0,1.385E3,1E0,5.46E2,7.34E2,3E0],"tree_param":{"num_deleted":"0","num_feature":"8","num_nodes":"15","size_leaf_vector":"1"}},{"base_weights":[4.9269486E-2,-2.4170864E1,2.0495672E1,-2.8267152E0,-1.921626E1,1.3036436E1,2.4272766E0,-1.942516E1,1.2717623E0,2.4040642E1,9.29796E0,-1.9478425E0,-2.22416E-1,1.2832782E-1,2.413908E0,-1.0330566E0,9.595173E-1],"categories":[],"categories_nodes":[],"categories_segments":[],"categories_sizes":[],"default_left":[0,0,0,0,0,0,0,0,0,0,0,0,0,0,0,0,0],"id":3,"left_children":[1,3,5,-1,7,9,-1,11,-1,13,15,-1,-1,-1,-1,-1,-1],"loss_changes":[1.7936681E6,3.0934E4,5.3752062E4,0E0,6.3451562E3,2.6486602E4,0E0,4.8246875E2,0E0,2.1923438E2,3.4650547E3,0E0,0E0,0E0,0E0,0E0,0E0],"parents":[2147483647,0,0,1,1,2,2,4,4,5,5,7,7,9,9,10,10],"right_children":[2,4,6,-1,8,10,-1,12,-1,14,16,-1,-1,-1,-1,-1,-1],"split_conditions":[4.6343163E1,3.5031845E1,8.786696E1,-2.8267152E0,7.202699E1,3.550704E1,2.4272766E0,8E0,1.2717623E0,7.5877525E1,5E0,-1.9478425E0,-2.22416E-1,1.2832782E-1,2.413908E0,-1.0330566E0,9.595173E-1],"split_indices":[4,4,3,0,3,3,0,0,0,4,0,0,0,0,0,0,0],"split_type":[0,0,0,0,0,0,0,0,0,0,0,0,0,0,0,0,0],"sum_hessian":[3.612E3,1.653E3,1.959E3,8.92E2,7.61E2,6.66E2,1.293E3,7.58E2,3E0,1.62E2,5.04E2,7.55E2,3E0,1E0,1.61E2,5E0,4.99E2],"tree_param":{"num_deleted":"0","num_feature":"8","num_nodes":"17","size_leaf_vector":"1"}},{"base_weights":[-5.8514565E-2,-2.180924E1,1.8333303E1,-2.5527031E0,-1.7297686E1,2.2201115E1,8.327866E0,-1.74943E0,1.2240714E0,-7.2534823E-1,2.228957E0,8.563847E0,5.5674925E0,8.602824E-1,1.6494082E-1,5.677102E-1,7.138334E-2],"categories":[],"categories_nodes":[],"categories_segments":[],"categories_sizes":[],"default_left":[0,0,0,0,0,0,0,0,0,0,0,0,0,0,0,0,0],"id":4,"left_children":[1,3,5,-1,7,9,11,-1,-1,-1,-1,13,15,-1,-1,-1,-1],"loss_changes":[1.4485271E6,2.5618562E4,7.500325E4,0E0,5.5135625E3,4.487125E3,1.2312891E2,0E0,0E0,0E0,0E0,6.434375E1,1.0593994E1,0E0,0E0,0E0,0E0],"parents":[2147483647,0,0,1,1,2,2,4,4,5,5,6,6,11,11,12,12],"right_children":[2,4,6,-1,8,10,12,-1,-1,-1,-1,14,16,-1,-1,-1,-1],"split_conditions":[4.6343163E1,3.5031845E1,5E0,-2.5527031E0,7.202699E1,1.8645375E2,1.1E1,-1.74943E0,1.2240714E0,-7.2534823E-1,2.228957E0,1.1137068E2,1.07469E2,8.602824E-1,1.6494082E-1,5.677102E-1,7.138334E-2],"split_indices":[4,4,1,0,3,7,2,0,0,0,0,4,4,0,0,0,0],"split_type":[0,0,0,0,0,0,0,0,0,0,0,0,0,0,0,0,0],"sum_hessian":[3.611E3,1.654E3,1.957E3,8.94E2,7.6E2,1.407E3,5.5E2,7.57E2,3E0,3E0,1.404E3,4.97E2,5.3E1,4.93E2,4E0,5.1E1,2E0],"tree_param":{"num_deleted":"0","num_feature":"8","num_nodes":"17","size_leaf_vector":"1"}},{"base_weights":[1.698273E-1,-1.7894806E1,1.6353857E1,-1.5777464E1,-2.4009757E0,1.951906E1,7.461289E0,-1.7923418E1,1.5623175E1,2.0011625E0,-1.7754822E0,7.5727844E0,-5.959594E-1,-1.5642992E0,-2.1720855E0,2.0943067E0,8.5673743E-1,6.256434E-2,7.580317E-1],"categories":[],"categories_nodes":[],"categories_segments":[],"categories_sizes":[],"default_left":[0,0,0,0,0,0,0,0,0,0,0,0,0,0,0,0,0,0,0],"id":5,"left_children":[1,3,5,7,-1,9,11,13,15,-1,-1,17,-1,-1,-1,-1,-1,-1,-1],"loss_changes":[1.0598012E6,2.0284938E4,5.308847E4,8.812372E4,0E0,2.760875E4,9.888008E2,8.7534375E3,2.2934336E3,0E0,0E0,2.8691406E0,0E0,0E0,0E0,0E0,0E0,0E0,0E0],"parents":[2147483647,0,0,1,1,2,2,3,3,5,5,6,6,7,7,8,8,11,11],"right_children":[2,4,6,8,-1,10,12,14,16,-1,-1,18,-1,-1,-1,-1,-1,-1,-1],"split_conditions":[7.475853E2,1.6E1,5E0,8E0,-2.4009757E0,2.1E1,2.1E1,5E0,5E0,2.0011625E0,-1.7754822E0,7.545196E2,-5.959594E-1,-1.5642992E0,-2.1720855E0,2.0943067E0,8.5673743E-1,6.256434E-2,7.580317E-1],"split_indices":[7,0,1,0,0,0,0,0,1,0,0,7,0,0,0,0,0,0,0],"split_type":[0,0,0,0,0,0,0,0,0,0,0,0,0,0,0,0,0,0,0],"sum_hessian":[3.615E3,1.708E3,1.907E3,1.282E3,4.26E2,1.402E3,5.05E2,1.202E3,8E1,1.386E3,1.6E1,5.03E2,2E0,7.67E2,4.35E2,4E1,4E1,1E0,5.02E2],"tree_param":{"num_deleted":"0","num_feature":"8","num_nodes":"19","size_leaf_vector":"1"}},{"base_weights":[-1.3001658E-1,-1.6286718E1,1.4654183E1,-1.6540075E1,-8.0573255E-1,1.7573015E1,6.4715743E0,-1.4305439E0,-1.775914E1,-9.26263E0,6.232168E0,5.4246607E0,1.7914139E1,-5.15241E0,6.640012E0,-1.3995371E0,-1.9592894E0,2.681E-1,-1.2779479E0,-2.196592E-1,8.247127E-1,1.1411623E0,-4.9119464E-1,1.6536137E0,1.8998908E0,-7.47708E-1,1.1846488E-1,2.7452722E-2,6.650058E-1],"categories":[],"categories_nodes":[],"categories_segments":[],"categories_sizes":[],"default_left":[0,0,0,0,0,0,0,0,0,0,0,0,0,0,0,0,0,0,0,0,0,0,0,0,0,0,0,0,0],"id":6,"left_children":[1,3,5,7,9,11,13,-1,15,17,19,21,23,25,27,-1,-1,-1,-1,-1,-1,-1,-1,-1,-1,-1,-1,-1,-1],"loss_changes":[8.613424E5,6.6913438E3,4.440428E4,3.3472188E3,2.252752E3,5.2536562E3,1.1558926E3,0E0,6.0552812E3,8.853762E2,4.4723334E2,3.065085E3,4.396875E2,1.9160431E2,2.2716797E1,0E0,0E0,0E0,0E0,0E0,0E0,0E0,0E0,0E0,0E0,0E0,0E0,0E0,0E0],"parents":[2147483647,0,0,1,1,2,2,3,3,4,4,5,5,6,6,8,8,9,9,10,10,11,11,12,12,13,13,14,14],"right_children":[2,4,6,8,10,12,14,-1,16,18,20,22,24,26,28,-1,-1,-1,-1,-1,-1,-1,-1,-1,-1,-1,-1,-1,-1],"split_conditions":[7.475853E2,7.3459973E2,5E0,1.3778831E2,2.9979647E1,7.847601E2,7.644795E2,-1.4305439E0,6.818277E1,2.7646751E1,3E0,7.030489E1,7.049214E1,3.1703943E1,2.7311592E1,-1.3995371E0,-1.9592894E0,2.681E-1,-1.2779479E0,-2.196592E-1,8.247127E-1,1.1411623E0,-4.9119464E-1,1.6536137E0,1.8998908E0,-7.47708E-1,1.1846488E-1,2.7452722E-2,6.650058E-1],"split_indices":[7,7,1,7,3,7,7,0,6,3,2,6,6,3,3,0,0,0,0,0,0,0,0,0,0,0,0,0,0],"split_type":[0,0,0,0,0,0,0,0,0,0,0,0,0,0,0,0,0,0,0,0,0,0,0,0,0,0,0,0,0],"sum_hessian":[3.596E3,1.718E3,1.878E3,1.69E3,2.8E1,1.38E3,4.98E2,6.19E2,1.071E3,1.2E1,1.6E1,4E1,1.34E3,5E0,4.93E2,3.65E2,7.06E2,3E0,9E0,3E0,1.3E1,2.5E1,1.5E1,6.26E2,7.14E2,3E0,2E0,1E0,4.92E2],"tree_param":{"num_deleted":"0","num_feature":"8","num_nodes":"29","size_leaf_vector":"1"}},{"base_weights":[-2.1200825E-2,-1.6004534E1,1.366026E1,-1.897137E1,-1.2542701E1,9.579604E0,1.6334343E1,-1.8098557E1,-2.2190561E0,-1.2708839E0,1.1661087E0,6.8975377E0,1.4945203E1,-6.6977715E-1,1.644116E0,-5.659885E-1,-1.8162377E0,1.4212046E0,6.148134E-1,1.6091277E-1,1.501768E0],"categories":[],"categories_nodes":[],"categories_segments":[],"categories_sizes":[],"default_left":[0,0,0,0,0,0,0,0,0,0,0,0,0,0,0,0,0,0,0,0,0],"id":7,"left_children":[1,3,5,7,9,11,13,15,-1,-1,-1,17,19,-1,-1,-1,-1,-1,-1,-1,-1],"loss_changes":[7.9750875E5,1.60855625E4,2.0659688E4,5.0946875E2,3.9217344E3,1.0853375E4,3.4536875E3,6.7078125E1,0E0,0E0,0E0,2.501209E3,1.2951172E2,0E0,0E0,0E0,0E0,0E0,0E0,0E0,0E0],"parents":[2147483647,0,0,1,1,2,2,3,3,4,4,5,5,6,6,7,7,11,11,12,12],"right_children":[2,4,6,8,10,12,14,16,-1,-1,-1,18,20,-1,-1,-1,-1,-1,-1,-1,-1],"split_conditions":[4.6343163E1,3.6146095E1,6.92716E1,4.7671562E1,8E0,9.043438E1,5E0,5E0,-2.2190561E0,-1.2708839E0,1.1661087E0,3.550704E1,6.0444687E1,-6.6977715E-1,1.644116E0,-5.659885E-1,-1.8162377E0,1.4212046E0,6.148134E-1,1.6091277E-1,1.501768E0],"split_indices":[4,4,6,3,0,3,0,0,0,0,0,3,6,0,0,0,0,0,0,0,0],"split_type":[0,0,0,0,0,0,0,0,0,0,0,0,0,0,0,0,0,0,0,0,0],"sum_hessian":[3.637E3,1.677E3,1.96E3,8.91E2,7.86E2,7.85E2,1.175E3,7.27E2,1.64E2,7.83E2,3E0,5.31E2,2.54E2,4E0,1.171E3,6E0,7.21E2,4.1E1,4.9E2,2E0,2.52E2],"tree_param":{"num_deleted":"0","num_feature":"8","num_nodes":"21","size_leaf_vector":"1"}},{"base_weights":[-1.6401802E-1,-1.3293453E1,1.1863643E1,-1.1641407E1,-1.7951729E0,1.4354539E1,5.3176904E0,-1.3253256E1,1.471572E1,1.4728945E1,-1.4581331E0,5.400697E-1,-4.741691E-1,-1.1434058E0,-1.6046206E0,1.9266856E0,7.8111714E-1,1.4065034E0,1.6480805E0],"categories":[],"categories_nodes":[],"categories_segments":[],"categories_sizes":[],"default_left":[0,0,0,0,0,0,0,0,0,0,0,0,0,0,0,0,0,0,0],"id":8,"left_children":[1,3,5,7,-1,9,11,13,15,17,-1,-1,-1,-1,-1,-1,-1,-1,-1],"loss_changes":[5.7307756E5,1.2307094E4,3.0500531E4,5.5991562E4,0E0,1.590525E4,5.705879E2,5.2966094E3,1.6671289E3,4.158125E2,0E0,0E0,0E0,0E0,0E0,0E0,0E0,0E0,0E0],"parents":[2147483647,0,0,1,1,2,2,3,3,5,5,6,6,7,7,8,8,9,9],"right_children":[2,4,6,8,-1,10,12,14,16,18,-1,-1,-1,-1,-1,-1,-1,-1,-1],"split_conditions":[7.475853E2,1.5E1,5E0,8E0,-1.7951729E0,2.1E1,2.1E1,5E0,5E0,7.146619E1,-1.4581331E0,5.400697E-1,-4.741691E-1,-1.1434058E0,-1.6046206E0,1.9266856E0,7.8111714E-1,1.4065034E0,1.6480805E0],"split_indices":[7,0,1,0,0,0,0,0,1,6,0,0,0,0,0,0,0,0,0],"split_type":[0,0,0,0,0,0,0,0,0,0,0,0,0,0,0,0,0,0,0],"sum_hessian":[3.619E3,1.73E3,1.889E3,1.29E3,4.4E2,1.364E3,5.25E2,1.218E3,7.2E1,1.349E3,1.5E1,5.23E2,2E0,7.53E2,4.65E2,3.8E1,3.4E1,1.011E3,3.38E2],"tree_param":{"num_deleted":"0","num_feature":"8","num_nodes":"19","size_leaf_vector":"1"}},{"base_weights":[-1.3268597E-1,-1.1795413E1,1.0709339E1,-1.031101E1,-1.614034E1,1.2901017E1,4.7805862E0,-1.1899031E1,1.2471027E1,-1.8149111E0,-1.4615923E0,1.3248782E1,-1.381576E0,4.866544E0,-4.921287E-1,-1.0271792E0,-1.4421034E0,1.7412223E0,6.974496E-1,1.7160765E0,1.2901533E0,2.682762E-1,5.018243E-1],"categories":[],"categories_nodes":[],"categories_segments":[],"categories_sizes":[],"default_left":[0,0,0,0,0,0,0,0,0,0,0,0,0,0,0,0,0,0,0,0,0,0,0],"id":9,"left_children":[1,3,5,7,9,11,13,15,17,-1,-1,19,-1,21,-1,-1,-1,-1,-1,-1,-1,-1,-1],"loss_changes":[4.5748672E5,1.04095625E4,2.4055234E4,4.8244094E4,5.7265625E0,1.3606922E4,5.483965E2,4.3071562E3,1.7828223E3,0E0,0E0,7.2825E2,0E0,1.0230176E2,0E0,0E0,0E0,0E0,0E0,0E0,0E0,0E0,0E0],"parents":[2147483647,0,0,1,1,2,2,3,3,4,4,5,5,6,6,7,7,8,8,11,11,13,13],"right_children":[2,4,6,8,10,12,14,16,18,-1,-1,20,-1,22,-1,-1,-1,-1,-1,-1,-1,-1,-1],"split_conditions":[7.475853E2,1.6E1,5E0,8E0,2.2E1,2.1E1,2.1E1,5E0,5E0,-1.8149111E0,-1.4615923E0,9E0,-1.381576E0,6.684183E1,-4.921287E-1,-1.0271792E0,-1.4421034E0,1.7412223E0,6.974496E-1,1.7160765E0,1.2901533E0,2.682762E-1,5.018243E-1],"split_indices":[7,0,1,0,0,0,0,0,1,0,0,0,0,5,0,0,0,0,0,0,0,0,0],"split_type":[0,0,0,0,0,0,0,0,0,0,0,0,0,0,0,0,0,0,0,0,0,0,0],"sum_hessian":[3.608E3,1.738E3,1.87E3,1.308E3,4.3E2,1.361E3,5.09E2,1.225E3,8.3E1,1.62E2,2.68E2,1.346E3,1.5E1,5.07E2,2E0,7.6E2,4.65E2,3.8E1,4.5E1,9E1,1.256E3,3.9E1,4.68E2],"tree_param":{"num_deleted":"0","num_feature":"8","num_nodes":"23","size_leaf_vector":"1"}},{"base_weights":[-1.4030783E-1,-1.1820998E1,9.8089285E0,-1.3893976E1,-9.241537E0,1.1838036E1,4.639959E0,-3.8727126E-1,-1.3928288E0,-9.3518525E-1,9.100205E-1,-7.364229E-1,1.1934501E1,3.2083893E0,4.848611E0,1.5893102E0,1.1548672E0,-5.3555807E-3,3.25041E-1,4.9090424E-1,1.7873378E-1],"categories":[],"categories_nodes":[],"categories_segments":[],"categories_sizes":[],"default_left":[0,0,0,0,0,0,0,0,0,0,0,0,0,0,0,0,0,0,0,0,0],"id":10,"left_children":[1,3,5,7,9,11,13,-1,-1,-1,-1,-1,15,17,19,-1,-1,-1,-1,-1,-1],"loss_changes":[4.151149E5,8.143375E3,1.9957469E4,4.0125E1,1.9369727E3,2.999375E3,8.7100586E1,0E0,0E0,0E0,0E0,0E0,1.1854375E3,1.2521179E1,4.3448242E1,0E0,0E0,0E0,0E0,0E0,0E0],"parents":[2147483647,0,0,1,1,2,2,3,3,4,4,5,5,6,6,12,12,13,13,14,14],"right_children":[2,4,6,8,10,12,14,-1,-1,-1,-1,-1,16,18,20,-1,-1,-1,-1,-1,-1],"split_conditions":[4.6343163E1,3.6146095E1,5E0,3E0,8E0,5E0,6.697493E1,-3.8727126E-1,-1.3928288E0,-9.3518525E-1,9.100205E-1,-7.364229E-1,9E0,6.2308386E2,1.0976213E2,1.5893102E0,1.1548672E0,-5.3555807E-3,3.25041E-1,4.9090424E-1,1.7873378E-1],"split_indices":[4,4,1,0,0,0,5,0,0,0,0,0,0,7,4,0,0,0,0,0,0],"split_type":[0,0,0,0,0,0,0,0,0,0,0,0,0,0,0,0,0,0,0,0,0],"sum_hessian":[3.562E3,1.638E3,1.924E3,8.96E2,7.42E2,1.377E3,5.47E2,5E0,8.91E2,7.4E2,2E0,5E0,1.372E3,8E1,4.67E2,1.04E2,1.268E3,1E0,7.9E1,4.55E2,1.2E1],"tree_param":{"num_deleted":"0","num_feature":"8","num_nodes":"21","size_leaf_vector":"1"}},{"base_weights":[8.0662884E-2,-9.519505E0,8.770913E0,-9.766224E0,-2.0494802E0,5.202774E0,1.0391492E1,-8.086176E0,-1.0492475E1,-5.5435596E0,5.40447E0,3.9284492E0,9.984974E0,9.822793E0,1.1955657E0,-8.4720165E-1,7.753512E-1,-8.9177626E-1,-1.2612125E0,3.902722E-1,-6.457993E-1,6.741025E-1,-2.2745946E-1,4.0986872E-1,2.1266083E-1,-2.6037771E-2,1.0521504E0,2.062217E-2,9.861267E-1],"categories":[],"categories_nodes":[],"categories_segments":[],"categories_sizes":[],"default_left":[0,0,0,0,0,0,0,0,0,0,0,0,0,0,0,0,0,0,0,0,0,0,0,0,0,0,0,0,0],"id":11,"left_children":[1,3,5,7,9,11,13,15,17,19,21,23,25,27,-1,-1,-1,-1,-1,-1,-1,-1,-1,-1,-1,-1,-1,-1,-1],"loss_changes":[3.002572E5,3.0514375E3,1.0652719E4,1.5938906E3,1.7385262E3,3.4603174E3,5.63875E2,3.5125781E3,3.2361016E3,5.0609033E2,3.0246228E2,1.0426807E2,6.898203E2,3.513047E2,0E0,0E0,0E0,0E0,0E0,0E0,0E0,0E0,0E0,0E0,0E0,0E0,0E0,0E0,0E0],"parents":[2147483647,0,0,1,1,2,2,3,3,4,4,5,5,6,6,7,7,8,8,9,9,10,10,11,11,12,12,13,13],"right_children":[2,4,6,8,10,12,14,16,18,20,22,24,26,28,-1,-1,-1,-1,-1,-1,-1,-1,-1,-1,-1,-1,-1,-1,-1],"split_conditions":[7.545196E2,7.262166E2,8.786696E1,6.863282E1,3.304163E1,6.92256E1,7.146619E1,9.1508934E1,1.7980946E2,2.7646751E1,6.848079E1,1.1E1,7.644795E2,6.0267826E1,1.1955657E0,-8.4720165E-1,7.753512E-1,-8.9177626E-1,-1.2612125E0,3.902722E-1,-6.457993E-1,6.741025E-1,-2.2745946E-1,4.0986872E-1,2.1266083E-1,-2.6037771E-2,1.0521504E0,2.062217E-2,9.861267E-1],"split_indices":[7,7,3,6,3,6,6,3,7,3,5,2,7,6,0,0,0,0,0,0,0,0,0,0,0,0,0,0,0],"split_type":[0,0,0,0,0,0,0,0,0,0,0,0,0,0,0,0,0,0,0,0,0,0,0,0,0,0,0,0,0],"sum_hessian":[3.589E3,1.705E3,1.884E3,1.649E3,5.6E1,5.95E2,1.289E3,5.16E2,1.133E3,3.9E1,1.7E1,4.77E2,1.18E2,9.72E2,3.17E2,5.06E2,1E1,6.65E2,4.68E2,2E0,3.7E1,1.5E1,2E0,4.3E2,4.7E1,6E0,1.12E2,4E0,9.68E2],"tree_param":{"num_deleted":"0","num_feature":"8","num_nodes":"29","size_leaf_vector":"1"}},{"base_weights":[-1.6660015E-1,-9.717471E0,8.006981E0,-1.1453355E1,-7.3774095E0,9.685733E0,3.662796E0,-1.0578068E0,-1.226694E1,-7.4758224E0,8.0427617E-1,-6.343112E-1,9.765804E0,2.9814591E0,4.175199E0,-1.4041089E0,-1.1096525E0,-8.0429614E-1,-6.637683E-1,1.4005991E0,9.3381006E-1,3.0781248E-1,-9.162468E-2,4.6562806E-2,4.2298108E-1],"categories":[],"categories_nodes":[],"categories_segments":[],"categories_sizes":[],"default_left":[0,0,0,0,0,0,0,0,0,0,0,0,0,0,0,0,0,0,0,0,0,0,0,0,0],"id":12,"left_children":[1,3,5,7,9,11,13,-1,15,17,-1,-1,19,21,23,-1,-1,-1,-1,-1,-1,-1,-1,-1,-1],"loss_changes":[2.8220303E5,6.349E3,1.4029E4,2.6289062E1,1.399332E3,2.109125E3,1.3012354E2,0E0,1.7615625E2,7.626172E1,0E0,0E0,1.8795781E3,1.09802246E2,5.1333496E1,0E0,0E0,0E0,0E0,0E0,0E0,0E0,0E0,0E0,0E0],"parents":[2147483647,0,0,1,1,2,2,3,3,4,4,5,5,6,6,8,8,9,9,12,12,13,13,14,14],"right_children":[2,4,6,8,10,12,14,-1,16,18,-1,-1,20,22,24,-1,-1,-1,-1,-1,-1,-1,-1,-1,-1],"split_conditions":[4.6343163E1,3.6894417E1,5E0,8E0,7E0,5E0,6.759954E1,-1.0578068E0,2.2E1,6.793719E1,8.0427617E-1,-6.343112E-1,9E0,1.07469E2,5.934356E1,-1.4041089E0,-1.1096525E0,-8.0429614E-1,-6.637683E-1,1.4005991E0,9.3381006E-1,3.0781248E-1,-9.162468E-2,4.6562806E-2,4.2298108E-1],"split_indices":[4,4,1,0,0,0,5,0,0,5,0,0,0,4,6,0,0,0,0,0,0,0,0,0,0],"split_type":[0,0,0,0,0,0,0,0,0,0,0,0,0,0,0,0,0,0,0,0,0,0,0,0,0],"sum_hessian":[3.605E3,1.662E3,1.943E3,9.43E2,7.19E2,1.397E3,5.46E2,4.88E2,4.55E2,7.17E2,2E0,5E0,1.392E3,2.49E2,2.97E2,1.59E2,2.96E2,4.02E2,3.15E2,1.13E2,1.279E3,2.44E2,5E0,5E0,2.92E2],"tree_param":{"num_deleted":"0","num_feature":"8","num_nodes":"25","size_leaf_vector":"1"}},{"base_weights":[8.535685E-2,-7.731179E0,7.0476937E0,-7.896734E0,-2.446074E0,4.284269E0,8.31876E0,-6.6750507E0,-8.434059E0,-4.966533E0,4.1671376E0,3.185675E0,8.243443E0,7.8316245E0,9.7134966E-1,-7.031821E-1,6.9390285E-1,-7.167905E-1,-1.0121442E0,-6.172906E-1,2.3422241E-1,5.74314E-1,-1.5893273E-1,-1.5149145E-1,3.2500178E-1,9.598984E-1,2.8045782E-1,-3.1196922E-2,7.8496337E-1],"categories":[],"categories_nodes":[],"categories_segments":[],"categories_sizes":[],"default_left":[0,0,0,0,0,0,0,0,0,0,0,0,0,0,0,0,0,0,0,0,0,0,0,0,0,0,0,0,0],"id":13,"left_children":[1,3,5,7,9,11,13,15,17,19,21,23,25,27,-1,-1,-1,-1,-1,-1,-1,-1,-1,-1,-1,-1,-1,-1,-1],"loss_changes":[1.9684238E5,1.3943828E3,6.541211E3,8.016328E2,1.0869125E3,2.5349521E3,5.0628906E2,2.8085176E3,2.0450781E3,4.6906055E2,2.1801047E2,1.722124E2,8.23834E2,1.578711E2,0E0,0E0,0E0,0E0,0E0,0E0,0E0,0E0,0E0,0E0,0E0,0E0,0E0,0E0,0E0],"parents":[2147483647,0,0,1,1,2,2,3,3,4,4,5,5,6,6,7,7,8,8,9,9,10,10,11,11,12,12,13,13],"right_children":[2,4,6,8,10,12,14,16,18,20,22,24,26,28,-1,-1,-1,-1,-1,-1,-1,-1,-1,-1,-1,-1,-1,-1,-1],"split_conditions":[7.545196E2,7.262166E2,8.786696E1,6.863282E1,3.304163E1,6.92256E1,7.146619E1,9.641325E1,1.7980946E2,7.211655E1,6.994627E1,7.76484E2,6.825169E1,5.9928238E1,9.7134966E-1,-7.031821E-1,6.9390285E-1,-7.167905E-1,-1.0121442E0,-6.172906E-1,2.3422241E-1,5.74314E-1,-1.5893273E-1,-1.5149145E-1,3.2500178E-1,9.598984E-1,2.8045782E-1,-3.1196922E-2,7.8496337E-1],"split_indices":[7,7,3,6,3,6,6,3,7,6,6,7,5,6,0,0,0,0,0,0,0,0,0,0,0,0,0,0,0],"split_type":[0,0,0,0,0,0,0,0,0,0,0,0,0,0,0,0,0,0,0,0,0,0,0,0,0,0,0,0,0],"sum_hessian":[3.607E3,1.699E3,1.908E3,1.645E3,5.4E1,6.08E2,1.3E3,5.23E2,1.122E3,4E1,1.4E1,4.83E2,1.25E2,9.88E2,3.12E2,5.12E2,1.1E1,6.56E2,4.66E2,3.5E1,5E0,1.1E1,3E0,5E0,4.78E2,9.7E1,2.8E1,2E0,9.86E2],"tree_param":{"num_deleted":"0","num_feature":"8","num_nodes":"29","size_leaf_vector":"1"}},{"base_weights":[-7.61738E-2,-7.829629E0,6.596064E0,-9.4924146E-1,-5.8438478E0,7.9570103E0,3.0768223E0,-5.886247E0,4.4955307E-1,-1.400679E0,7.995626E0,3.7006009E0,2.418398E0,1.0919751E-1,-5.9478736E-1,-3.3229733E-1,1.7967138E-1,7.576981E-1,9.2293674E-1,2.5810876E-1,4.15486E-1,2.0787452E-1,3.603537E-1],"categories":[],"categories_nodes":[],"categories_segments":[],"categories_sizes":[],"default_left":[0,0,0,0,0,0,0,0,0,0,0,0,0,0,0,0,0,0,0,0,0,0,0],"id":14,"left_children":[1,3,5,-1,7,9,11,13,-1,15,17,19,21,-1,-1,-1,-1,-1,-1,-1,-1,-1,-1],"loss_changes":[1.8701398E5,5.243461E3,9.183578E3,0E0,4.720547E2,5.611719E2,1.8114307E2,3.6532812E2,0E0,9.131545E1,3.6982812E2,8.521362E1,7.606091E1,0E0,0E0,0E0,0E0,0E0,0E0,0E0,0E0,0E0,0E0],"parents":[2147483647,0,0,1,1,2,2,4,4,5,5,6,6,7,7,9,9,10,10,11,11,12,12],"right_children":[2,4,6,-1,8,10,12,14,-1,16,18,20,22,-1,-1,-1,-1,-1,-1,-1,-1,-1,-1],"split_conditions":[4.6343163E1,3.6146095E1,5E0,-9.4924146E-1,7.012412E1,7.226544E1,9.054688E1,6.658649E1,4.4955307E-1,4E0,7.146619E1,5.955509E1,6.841813E1,1.0919751E-1,-5.9478736E-1,-3.3229733E-1,1.7967138E-1,7.576981E-1,9.2293674E-1,2.5810876E-1,4.15486E-1,2.0787452E-1,3.603537E-1],"split_indices":[4,4,1,0,5,4,4,5,0,2,6,6,5,0,0,0,0,0,0,0,0,0,0],"split_type":[0,0,0,0,0,0,0,0,0,0,0,0,0,0,0,0,0,0,0,0,0,0,0],"sum_hessian":[3.605E3,1.667E3,1.938E3,8.97E2,7.7E2,1.393E3,5.45E2,7.69E2,1E0,5E0,1.388E3,2.68E2,2.77E2,6E0,7.63E2,3E0,2E0,1.063E3,3.25E2,8.7E1,1.81E2,2.26E2,5.1E1],"tree_param":{"num_deleted":"0","num_feature":"8","num_nodes":"23","size_leaf_vector":"1"}},{"base_weights":[-8.195604E-3,-7.059597E0,5.9128494E0,-8.549683E0,-5.141795E0,7.17105E0,2.762931E0,-7.769162E-1,-9.30418E0,-5.3192096E0,1.2105049E0,9.975947E0,6.7086725E0,5.9144235E0,2.5073745E0,-1.0956112E0,-8.205811E-1,-5.581469E-1,-4.0686646E-1,-4.8837957E-1,1.0515388E0,6.1969167E-1,7.743481E-1,4.5633953E-2,5.9980124E-1,1.3285893E-1,2.6367804E-1],"categories":[],"categories_nodes":[],"categories_segments":[],"categories_sizes":[],"default_left":[0,0,0,0,0,0,0,0,0,0,0,0,0,0,0,0,0,0,0,0,0,0,0,0,0,0,0],"id":15,"left_children":[1,3,5,7,9,11,13,-1,15,17,-1,19,21,23,25,-1,-1,-1,-1,-1,-1,-1,-1,-1,-1,-1,-1],"loss_changes":[1.5093222E5,4.495375E3,7.688672E3,1.8095312E2,2.5678691E3,1.4823672E3,3.8411572E2,0E0,3.5427344E2,1.2586914E2,0E0,1.7637754E3,4.0508594E2,4.107666E0,6.4093994E1,0E0,0E0,0E0,0E0,0E0,0E0,0E0,0E0,0E0,0E0,0E0,0E0],"parents":[2147483647,0,0,1,1,2,2,3,3,4,4,5,5,6,6,8,8,9,9,11,11,12,12,13,13,14,14],"right_children":[2,4,6,8,10,12,14,-1,16,18,-1,20,22,24,26,-1,-1,-1,-1,-1,-1,-1,-1,-1,-1,-1,-1],"split_conditions":[4.6343163E1,3.6894417E1,5E0,8E0,7E0,8.8910895E2,7.3459973E2,-7.769162E-1,2.2E1,7.141068E1,1.2105049E0,5E0,7.117667E1,6E0,5.9257843E1,-1.0956112E0,-8.205811E-1,-5.581469E-1,-4.0686646E-1,-4.8837957E-1,1.0515388E0,6.1969167E-1,7.743481E-1,4.5633953E-2,5.9980124E-1,1.3285893E-1,2.6367804E-1],"split_indices":[4,4,1,0,0,7,7,0,0,6,0,0,6,1,6,0,0,0,0,0,0,0,0,0,0,0,0],"split_type":[0,0,0,0,0,0,0,0,0,0,0,0,0,0,0,0,0,0,0,0,0,0,0,0,0,0,0],"sum_hessian":[3.605E3,1.645E3,1.96E3,9.16E2,7.29E2,1.396E3,5.64E2,4.78E2,4.38E2,7.25E2,4E0,1.83E2,1.213E3,3.4E1,5.3E2,1.57E2,2.81E2,5.85E2,1.4E2,5E0,1.78E2,8.35E2,3.78E2,1E0,3.3E1,5.8E1,4.72E2],"tree_param":{"num_deleted":"0","num_feature":"8","num_nodes":"27","size_leaf_vector":"1"}},{"base_weights":[2.1526048E-2,-5.7523723E0,2.9325888E0,-4.8444695E0,-7.101433E0,5.466641E0,-8.328639E0,-4.9724182E-1,-3.3638701E0,-7.662702E-1,-6.192388E-1,6.604465E0,2.5169106E0,-9.894374E-1,-7.36026E-1,-3.9678445E-1,-1.9511782E-1,1.0706017E0,6.215336E-1,3.0781323E-1,2.1436928E-1],"categories":[],"categories_nodes":[],"categories_segments":[],"categories_sizes":[],"default_left":[0,0,0,0,0,0,0,0,0,0,0,0,0,0,0,0,0,0,0,0,0],"id":16,"left_children":[1,3,5,7,9,11,13,-1,15,-1,-1,17,19,-1,-1,-1,-1,-1,-1,-1,-1],"loss_changes":[6.0425715E4,1.3038867E3,6.842997E4,5.5796875E1,4.59375E0,6.475047E3,3.0453125E2,0E0,2.4429138E1,0E0,0E0,1.912918E3,8.262793E1,0E0,0E0,0E0,0E0,0E0,0E0,0E0,0E0],"parents":[2147483647,0,0,1,1,2,2,3,3,4,4,5,5,6,6,8,8,11,11,12,12],"right_children":[2,4,6,8,10,12,14,-1,16,-1,-1,18,20,-1,-1,-1,-1,-1,-1,-1,-1],"split_conditions":[8E0,5E0,2.1E1,7.188803E1,6.791577E1,5E0,2.2E1,-4.9724182E-1,3E0,-7.662702E-1,-6.192388E-1,9E0,1.3E1,-9.894374E-1,-7.36026E-1,-3.9678445E-1,-1.9511782E-1,1.0706017E0,6.215336E-1,3.0781323E-1,2.1436928E-1],"split_indices":[0,0,0,6,5,1,0,0,0,0,0,0,0,0,0,0,0,0,0,0,0],"split_type":[0,0,0,0,0,0,0,0,0,0,0,0,0,0,0,0,0,0,0,0,0],"sum_hessian":[3.585E3,1.2E3,2.385E3,7.31E2,4.69E2,1.949E3,4.36E2,6.62E2,6.9E1,2.67E2,2.02E2,1.402E3,5.47E2,1.49E2,2.87E2,4.2E1,2.7E1,1.1E2,1.292E3,2.04E2,3.43E2],"tree_param":{"num_deleted":"0","num_feature":"8","num_nodes":"21","size_leaf_vector":"1"}},{"base_weights":[9.071545E-2,-4.9607425E0,4.614289E0,-4.1479325E0,-7.382614E0,4.7459497E0,-8.856147E-1,-5.138646E0,9.518675E0,-8.7614214E-1,-6.376235E-1,2.9993742E0,5.5190067E0,-4.3423566E-1,-6.3647133E-1,1.0535737E0,5.457872E-1,6.239209E-1,2.2172895E-1,5.2312624E-1,6.6761225E-1],"categories":[],"categories_nodes":[],"categories_segments":[],"categories_sizes":[],"default_left":[0,0,0,0,0,0,0,0,0,0,0,0,0,0,0,0,0,0,0,0,0],"id":17,"left_children":[1,3,5,7,9,11,-1,13,15,-1,-1,17,19,-1,-1,-1,-1,-1,-1,-1,-1],"loss_changes":[8.169124E4,3.1717227E3,3.5550273E3,1.752122E4,3.006914E2,2.443461E3,0E0,1.0265391E3,7.593457E1,0E0,0E0,1.4131177E3,2.5522266E2,0E0,0E0,0E0,0E0,0E0,0E0,0E0,0E0],"parents":[2147483647,0,0,1,1,2,2,3,3,4,4,5,5,7,7,8,8,11,11,12,12],"right_children":[2,4,6,8,10,12,-1,14,16,-1,-1,18,20,-1,-1,-1,-1,-1,-1,-1,-1],"split_conditions":[7.475853E2,1.6E1,2.1E1,8E0,2.2E1,8.786696E1,-8.856147E-1,5E0,7.1964825E2,-8.7614214E-1,-6.376235E-1,9E0,6.841813E1,-4.3423566E-1,-6.3647133E-1,1.0535737E0,5.457872E-1,6.239209E-1,2.2172895E-1,5.2312624E-1,6.6761225E-1],"split_indices":[7,0,0,0,0,3,0,0,7,0,0,0,5,0,0,0,0,0,0,0,0],"split_type":[0,0,0,0,0,0,0,0,0,0,0,0,0,0,0,0,0,0,0,0,0],"sum_hessian":[3.565E3,1.684E3,1.881E3,1.271E3,4.13E2,1.866E3,1.5E1,1.188E3,8.3E1,1.58E2,2.55E2,5.8E2,1.286E3,7.34E2,4.54E2,6E1,2.3E1,1.06E2,4.74E2,1.052E3,2.34E2],"tree_param":{"num_deleted":"0","num_feature":"8","num_nodes":"21","size_leaf_vector":"1"}},{"base_weights":[-4.7210068E-2,-3.6501746E0,3.2101297E0,-4.650205E0,-1.1345035E0,4.2273827E0,-8.10619E-1,-3.9371476E0,-5.79201E-1,6.0287814E0,-6.1005986E-1,5.0068154E0,1.9951708E0,-4.060417E-1,-2.6662877E-1,9.737558E-1,2.9081824E-1,4.781517E-1,6.24643E-1,2.0957807E-1,-2.7757773E-2],"categories":[],"categories_nodes":[],"categories_segments":[],"categories_sizes":[],"default_left":[0,0,0,0,0,0,0,0,0,0,0,0,0,0,0,0,0,0,0,0,0],"id":18,"left_children":[1,3,5,7,9,11,-1,13,-1,15,-1,17,19,-1,-1,-1,-1,-1,-1,-1,-1],"loss_changes":[4.2613613E4,4.3107734E3,2.2123879E4,8.8903906E2,1.7863953E4,3.0000254E3,0E0,6.712305E1,0E0,2.2425688E3,0E0,2.1261328E2,1.0855005E2,0E0,0E0,0E0,0E0,0E0,0E0,0E0,0E0],"parents":[2147483647,0,0,1,1,2,2,3,3,4,4,5,5,7,7,9,9,11,11,12,12],"right_children":[2,4,6,8,10,12,-1,14,-1,16,-1,18,20,-1,-1,-1,-1,-1,-1,-1,-1],"split_conditions":[7.4983734E1,8E0,2.1E1,5E0,2.1E1,5E0,-8.10619E-1,7.188803E1,-5.79201E-1,4E0,-6.1005986E-1,7.181364E1,8.786696E1,-4.060417E-1,-2.6662877E-1,9.737558E-1,2.9081824E-1,4.781517E-1,6.24643E-1,2.0957807E-1,-2.7757773E-2],"split_indices":[3,0,0,0,0,1,0,6,0,1,0,6,3,0,0,0,0,0,0,0,0],"split_type":[0,0,0,0,0,0,0,0,0,0,0,0,0,0,0,0,0,0,0,0,0],"sum_hessian":[3.621E3,1.719E3,1.902E3,1.227E3,4.92E2,1.748E3,1.54E2,7.69E2,4.58E2,2.01E2,2.91E2,1.291E3,4.57E2,6.91E2,7.8E1,8.7E1,1.14E2,1.113E3,1.78E2,4.38E2,1.9E1],"tree_param":{"num_deleted":"0","num_feature":"8","num_nodes":"21","size_leaf_vector":"1"}},{"base_weights":[1.1931855E-1,-4.625538E0,4.0884085E0,-5.639488E0,-3.3414638E0,2.9984152E0,4.5978227E0,-5.2805405E0,-7.2907555E-1,-3.574383E0,6.929373E0,6.571587E0,1.7837162E0,3.5935774E0,4.747055E0,-2.3771682E-1,-5.346604E-1,-3.9606294E-1,-3.0184433E-1,1.050508E0,2.1559274E-1,6.9127584E-1,1.9599168E-1,7.661762E-2,1.9055241E-1,3.9078805E-1,8.353574E-2,5.2132124E-1,4.438069E-1],"categories":[],"categories_nodes":[],"categories_segments":[],"categories_sizes":[],"default_left":[0,0,0,0,0,0,0,0,0,0,0,0,0,0,0,0,0,0,0,0,0,0,0,0,0,0,0,0,0],"id":19,"left_children":[1,3,5,7,9,11,13,15,-1,17,19,21,23,25,27,-1,-1,-1,-1,-1,-1,-1,-1,-1,-1,-1,-1,-1,-1],"loss_changes":[6.772301E4,2.0384336E3,1.0182656E3,3.4569336E2,1.8821641E3,2.71052E3,1.1327734E2,8.2990234E1,0E0,9.5259766E1,1.9399103E2,1.8399707E2,5.2565308E1,1.5012573E2,4.823047E1,0E0,0E0,0E0,0E0,0E0,0E0,0E0,0E0,0E0,0E0,0E0,0E0,0E0,0E0],"parents":[2147483647,0,0,1,1,2,2,3,3,4,4,5,5,6,6,7,7,9,9,10,10,11,11,12,12,13,13,14,14],"right_children":[2,4,6,8,10,12,14,16,-1,18,20,22,24,26,28,-1,-1,-1,-1,-1,-1,-1,-1,-1,-1,-1,-1,-1,-1],"split_conditions":[7.226544E1,3.6894417E1,8.668891E1,7.643014E1,7E0,9E0,6.7031784E1,5E0,-7.2907555E-1,6.7907974E1,2E0,1.1E1,6.697493E1,1.0596774E2,9.888124E1,-2.3771682E-1,-5.346604E-1,-3.9606294E-1,-3.0184433E-1,1.050508E0,2.1559274E-1,6.9127584E-1,1.9599168E-1,7.661762E-2,1.9055241E-1,3.9078805E-1,8.353574E-2,5.2132124E-1,4.438069E-1],"split_indices":[4,4,3,3,0,0,5,0,0,5,2,2,5,4,3,0,0,0,0,0,0,0,0,0,0,0,0,0,0],"split_type":[0,0,0,0,0,0,0,0,0,0,0,0,0,0,0,0,0,0,0,0,0,0,0,0,0,0,0,0,0],"sum_hessian":[3.586E3,1.633E3,1.953E3,9.03E2,7.3E2,6.33E2,1.32E3,7.59E2,1.44E2,7.17E2,1.3E1,1.55E2,4.78E2,1.87E2,1.133E3,2.1E1,7.38E2,4.05E2,3.12E2,4E0,9E0,1.42E2,1.3E1,5.5E1,4.23E2,1.66E2,2.1E1,4.2E2,7.13E2],"tree_param":{"num_deleted":"0","num_feature":"8","num_nodes":"29","size_leaf_vector":"1"}},{"base_weights":[-1.82969E-2,-4.226192E0,3.5058353E0,-5.088033E0,-3.114973E0,6.614608E0,3.2944815E0,-4.7482095E0,-6.474062E-1,-3.2920952E0,7.131955E0,6.772533E0,1.4911652E0,1.8934363E0,3.8978374E0,-4.5853224E-1,-7.4486315E-1,-3.585895E-1,-2.6619878E-1,8.2672185E-1,1.1134958E-1,5.1583606E-3,6.829226E-1,-8.978564E-2,2.2554211E-1,4.4332343E-1,1.3406669E-1,3.7298983E-1,4.5631814E-1],"categories":[],"categories_nodes":[],"categories_segments":[],"categories_sizes":[],"default_left":[0,0,0,0,0,0,0,0,0,0,0,0,0,0,0,0,0,0,0,0,0,0,0,0,0,0,0,0,0],"id":20,"left_children":[1,3,5,7,9,11,13,15,-1,17,19,21,23,25,27,-1,-1,-1,-1,-1,-1,-1,-1,-1,-1,-1,-1,-1,-1],"loss_changes":[5.3488785E4,1.4952051E3,1.180832E3,2.7868164E2,1.4441294E3,4.659912E1,1.5252676E3,1.6176562E2,0E0,8.593262E1,4.962799E1,4.2057617E1,2.8383457E1,7.649026E2,5.8703125E1,0E0,0E0,0E0,0E0,0E0,0E0,0E0,0E0,0E0,0E0,0E0,0E0,0E0,0E0],"parents":[2147483647,0,0,1,1,2,2,3,3,4,4,5,5,6,6,7,7,9,9,10,10,11,11,12,12,13,13,14,14],"right_children":[2,4,6,8,10,12,14,16,-1,18,20,22,24,26,28,-1,-1,-1,-1,-1,-1,-1,-1,-1,-1,-1,-1,-1,-1],"split_conditions":[7.226544E1,3.6894417E1,7.847601E2,7.368013E1,7.202699E1,9.731319E1,8.668891E1,7.3459973E2,-6.474062E-1,6.8132286E1,9.047674E2,7.373135E1,9.7591736E1,3.550704E1,6.842658E1,-4.5853224E-1,-7.4486315E-1,-3.585895E-1,-2.6619878E-1,8.2672185E-1,1.1134958E-1,5.1583606E-3,6.829226E-1,-8.978564E-2,2.2554211E-1,4.4332343E-1,1.3406669E-1,3.7298983E-1,4.5631814E-1],"split_indices":[4,4,7,3,3,4,3,7,0,5,7,4,4,3,5,0,0,0,0,0,0,0,0,0,0,0,0,0,0],"split_type":[0,0,0,0,0,0,0,0,0,0,0,0,0,0,0,0,0,0,0,0,0,0,0,0,0,0,0,0,0],"sum_hessian":[3.597E3,1.639E3,1.958E3,9.13E2,7.26E2,1.15E2,1.843E3,7.51E2,1.62E2,7.17E2,9E0,1.1E2,5E0,5.61E2,1.282E3,7.21E2,3E1,4.73E2,2.44E2,6E0,3E0,1E0,1.09E2,1E0,4E0,9.4E1,4.67E2,1.05E3,2.32E2],"tree_param":{"num_deleted":"0","num_feature":"8","num_nodes":"29","size_leaf_vector":"1"}},{"base_weights":[-1.9269072E-2,-3.2472243E0,3.0061178E0,-3.3556225E0,-4.338506E-1,2.214476E0,4.179133E0,-2.8500893E0,-3.9359E0,-2.5550141E0,3.2041473E0,1.2699156E0,2.9118164E0,3.920466E0,5.8056583E0,-2.0653541E-1,-3.214043E-1,-3.7377864E-1,-5.552468E-1,-4.718917E-3,-3.8417643E-1,3.5647193E-1,-4.237965E-2,1.3126247E-1,-2.5657806E-1,3.224417E-1,1.9507557E-1,4.7203636E-1,3.35893E-1,6.0164756E-1,1.5376809E-1],"categories":[],"categories_nodes":[],"categories_segments":[],"categories_sizes":[],"default_left":[0,0,0,0,0,0,0,0,0,0,0,0,0,0,0,0,0,0,0,0,0,0,0,0,0,0,0,0,0,0,0],"id":21,"left_children":[1,3,5,7,9,11,13,15,17,19,21,23,25,27,29,-1,-1,-1,-1,-1,-1,-1,-1,-1,-1,-1,-1,-1,-1,-1,-1],"loss_changes":[3.4961586E4,5.209199E2,1.669793E3,4.3292578E2,5.8110846E2,7.1528076E2,1.9711426E2,2.2642627E2,1.405918E2,1.5075992E2,4.4181366E1,9.580005E1,1.5992236E2,2.1403223E2,3.5621582E1,0E0,0E0,0E0,0E0,0E0,0E0,0E0,0E0,0E0,0E0,0E0,0E0,0E0,0E0,0E0,0E0],"parents":[2147483647,0,0,1,1,2,2,3,3,4,4,5,5,6,6,7,7,8,8,9,9,10,10,11,11,12,12,13,13,14,14],"right_children":[2,4,6,8,10,12,14,16,18,20,22,24,26,28,30,-1,-1,-1,-1,-1,-1,-1,-1,-1,-1,-1,-1,-1,-1,-1,-1],"split_conditions":[7.644795E2,7.262166E2,7.049214E1,7E0,3.304163E1,8.605416E1,7.223717E1,6.863282E1,7.963629E1,7.392152E2,6.994627E1,7.043146E1,1.6111548E3,9.888124E1,6.9006485E1,-2.0653541E-1,-3.214043E-1,-3.7377864E-1,-5.552468E-1,-4.718917E-3,-3.8417643E-1,3.5647193E-1,-4.237965E-2,1.3126247E-1,-2.5657806E-1,3.224417E-1,1.9507557E-1,4.7203636E-1,3.35893E-1,6.0164756E-1,1.5376809E-1],"split_indices":[7,7,6,2,3,3,6,6,3,7,6,6,7,3,5,0,0,0,0,0,0,0,0,0,0,0,0,0,0,0,0],"split_type":[0,0,0,0,0,0,0,0,0,0,0,0,0,0,0,0,0,0,0,0,0,0,0,0,0,0,0,0,0,0,0],"sum_hessian":[3.57E3,1.727E3,1.843E3,1.662E3,6.5E1,1.109E3,7.34E2,9.04E2,7.58E2,4.2E1,2.3E1,4.77E2,6.32E2,6.48E2,8.6E1,2.97E2,6.07E2,6.9E2,6.8E1,1.6E1,2.6E1,2.1E1,2E0,4.75E2,2E0,4.68E2,1.64E2,2.52E2,3.96E2,8E1,6E0],"tree_param":{"num_deleted":"0","num_feature":"8","num_nodes":"31","size_leaf_vector":"1"}},{"base_weights":[1.8335074E-3,-2.9722755E0,2.6596434E0,-2.4558299E0,-4.5132403E0,3.2642105E0,9.828079E-1,-3.0913234E0,7.2380066E0,-5.4787436E0,-3.85854E-1,3.3930752E0,-6.906981E-1,6.244548E-1,2.0007708E0,-2.535907E-1,-3.970941E-1,1.0241557E0,3.9047778E-1,-5.4976887E-1,-4.2056147E-2,5.3372085E-1,3.1072822E-1,-1.5986145E-1,7.367893E-2,2.0552658E-1,-4.248254E-2],"categories":[],"categories_nodes":[],"categories_segments":[],"categories_sizes":[],"default_left":[0,0,0,0,0,0,0,0,0,0,0,0,0,0,0,0,0,0,0,0,0,0,0,0,0,0,0],"id":22,"left_children":[1,3,5,7,9,11,13,15,17,19,-1,21,-1,23,25,-1,-1,-1,-1,-1,-1,-1,-1,-1,-1,-1,-1],"loss_changes":[2.8290625E4,1.2887285E3,1.8999639E3,7.972508E3,1.5852441E2,1.9351357E3,1.7906644E2,5.364033E2,6.009663E2,3.484375E0,0E0,6.799453E2,0E0,1.01534836E2,2.1549377E1,0E0,0E0,0E0,0E0,0E0,0E0,0E0,0E0,0E0,0E0,0E0,0E0],"parents":[2147483647,0,0,1,1,2,2,3,3,4,4,5,5,6,6,7,7,8,8,9,9,11,11,13,13,14,14],"right_children":[2,4,6,8,10,12,14,16,18,20,-1,22,-1,24,26,-1,-1,-1,-1,-1,-1,-1,-1,-1,-1,-1,-1],"split_conditions":[7.475853E2,1.6E1,5E0,8E0,2.2E1,2.1E1,6.833163E1,5E0,3E0,6.9006485E1,-3.85854E-1,9.2015656E1,-6.906981E-1,3.282198E1,8.786696E1,-2.535907E-1,-3.970941E-1,1.0241557E0,3.9047778E-1,-5.4976887E-1,-4.2056147E-2,5.3372085E-1,3.1072822E-1,-1.5986145E-1,7.367893E-2,2.0552658E-1,-4.248254E-2],"split_indices":[7,0,1,0,0,0,5,0,1,5,0,3,0,3,3,0,0,0,0,0,0,0,0,0,0,0,0],"split_type":[0,0,0,0,0,0,0,0,0,0,0,0,0,0,0,0,0,0,0,0,0,0,0,0,0,0,0],"sum_hessian":[3.569E3,1.684E3,1.885E3,1.271E3,4.13E2,1.382E3,5.03E2,1.196E3,7.5E1,1.52E2,2.61E2,1.368E3,1.4E1,3.78E2,1.25E2,7.45E2,4.51E2,3.4E1,4.1E1,1.51E2,1E0,1.64E2,1.204E3,1.5E1,3.63E2,1.23E2,2E0],"tree_param":{"num_deleted":"0","num_feature":"8","num_nodes":"27","size_leaf_vector":"1"}},{"base_weights":[2.3493175E-3,-3.1574016E0,2.7201824E0,-3.8769495E0,-2.2827861E0,5.168967E0,2.4930916E0,-3.6143203E0,-5.155789E-1,-2.4163373E0,5.7919436E0,6.369181E0,3.2858882E0,1.1803359E0,2.948612E0,-2.9280865E-1,-3.9441785E-1,-2.9447123E-1,-2.014317E-1,8.6928576E-1,1.0494863E-1,6.7150825E-1,7.383326E-2,6.0011294E-2,3.8723338E-1,1.4665212E-2,1.3440211E-1,2.9847383E-1,1.223918E-2],"categories":[],"categories_nodes":[],"categories_segments":[],"categories_sizes":[],"default_left":[0,0,0,0,0,0,0,0,0,0,0,0,0,0,0,0,0,0,0,0,0,0,0,0,0,0,0,0,0],"id":23,"left_children":[1,3,5,7,9,11,13,15,-1,17,19,21,23,25,27,-1,-1,-1,-1,-1,-1,-1,-1,-1,-1,-1,-1,-1,-1],"loss_changes":[3.1181855E4,1.0123906E3,1.0210664E3,2.1380371E2,9.003347E2,2.592334E2,1.056584E3,1.1768359E2,0E0,1.3199219E2,1.4698929E2,1.5634814E2,1.0336023E2,7.870709E1,1.339668E2,0E0,0E0,0E0,0E0,0E0,0E0,0E0,0E0,0E0,0E0,0E0,0E0,0E0,0E0],"parents":[2147483647,0,0,1,1,2,2,3,3,4,4,5,5,6,6,7,7,9,9,10,10,11,11,12,12,13,13,14,14],"right_children":[2,4,6,8,10,12,14,16,-1,18,20,22,24,26,28,-1,-1,-1,-1,-1,-1,-1,-1,-1,-1,-1,-1,-1,-1],"split_conditions":[7.226544E1,3.6894417E1,3.550704E1,7.802556E1,7E0,1.0029839E2,8.668891E1,5E0,-5.155789E-1,3.9317726E1,2E0,1.1E1,2.9727943E1,6.697493E1,6.9214195E1,-2.9280865E-1,-3.9441785E-1,-2.9447123E-1,-2.014317E-1,8.6928576E-1,1.0494863E-1,6.7150825E-1,7.383326E-2,6.0011294E-2,3.8723338E-1,1.4665212E-2,1.3440211E-1,2.9847383E-1,1.223918E-2],"split_indices":[4,4,3,3,0,4,3,2,0,3,2,2,3,5,5,0,0,0,0,0,0,0,0,0,0,0,0,0,0],"split_type":[0,0,0,0,0,0,0,0,0,0,0,0,0,0,0,0,0,0,0,0,0,0,0,0,0,0,0,0,0],"sum_hessian":[3.621E3,1.674E3,1.947E3,9.09E2,7.65E2,1.56E2,1.791E3,7.7E2,1.39E2,7.56E2,9E0,8.8E1,6.8E1,4.66E2,1.325E3,2.66E2,5.04E2,3.13E2,4.43E2,3E0,6E0,8.2E1,6E0,1.4E1,5.4E1,6.5E1,4.01E2,1.308E3,1.7E1],"tree_param":{"num_deleted":"0","num_feature":"8","num_nodes":"29","size_leaf_vector":"1"}},{"base_weights":[-2.4644783E-2,-2.834652E0,2.3635635E0,-3.4921854E0,-1.9977826E0,2.879876E0,1.0108353E0,-9.9115694E-1,-3.5451539E0,-2.1418304E0,5.180701E0,5.535632E0,2.619406E0,1.1484568E0,-4.6646348E-1,4.2482473E-2,-1.2682034E-1,-3.1676516E-1,-3.8810262E-1,-2.5358602E-1,-1.7152219E-1,8.3668756E-1,1.2274005E-1,9.320163E-1,4.1719076E-1,2.0497172E-1,3.3002874E-1,2.0317471E-1,8.30141E-2,-2.3113571E-1,4.776712E-3],"categories":[],"categories_nodes":[],"categories_segments":[],"categories_sizes":[],"default_left":[0,0,0,0,0,0,0,0,0,0,0,0,0,0,0,0,0,0,0,0,0,0,0,0,0,0,0,0,0,0,0],"id":24,"left_children":[1,3,5,7,9,11,13,15,17,19,21,23,25,27,29,-1,-1,-1,-1,-1,-1,-1,-1,-1,-1,-1,-1,-1,-1,-1,-1],"loss_changes":[2.4145701E4,8.747119E2,1.3438916E3,1.0417578E2,8.1964014E2,8.9940137E2,1.13481445E2,1.2893433E1,5.2390625E1,1.0062671E2,1.5018695E2,4.3007373E2,4.6616797E2,1.3214948E2,4.798707E1,0E0,0E0,0E0,0E0,0E0,0E0,0E0,0E0,0E0,0E0,0E0,0E0,0E0,0E0,0E0,0E0],"parents":[2147483647,0,0,1,1,2,2,3,3,4,4,5,5,6,6,7,7,8,8,9,9,10,10,11,11,12,12,13,13,14,14],"right_children":[2,4,6,8,10,12,14,16,18,20,22,24,26,28,30,-1,-1,-1,-1,-1,-1,-1,-1,-1,-1,-1,-1,-1,-1,-1,-1],"split_conditions":[7.226544E1,3.6894417E1,5E0,5E0,7E0,9E0,6.869396E1,6.682372E1,8E0,6.766571E1,4.1550224E1,9.2291E1,7.0688034E1,1.2E1,6.890987E1,4.2482473E-2,-1.2682034E-1,-3.1676516E-1,-3.8810262E-1,-2.5358602E-1,-1.7152219E-1,8.3668756E-1,1.2274005E-1,9.320163E-1,4.1719076E-1,2.0497172E-1,3.3002874E-1,2.0317471E-1,8.30141E-2,-2.3113571E-1,4.776712E-3],"split_indices":[4,4,1,0,0,0,6,5,0,5,4,4,6,0,6,0,0,0,0,0,0,0,0,0,0,0,0,0,0,0,0],"split_type":[0,0,0,0,0,0,0,0,0,0,0,0,0,0,0,0,0,0,0,0,0,0,0,0,0,0,0,0,0,0,0],"sum_hessian":[3.588E3,1.648E3,1.94E3,9.14E2,7.34E2,1.4E3,5.4E2,2.1E1,8.93E2,7.23E2,1.1E1,1.16E2,1.284E3,4.95E2,4.5E1,3E0,1.8E1,4.45E2,4.48E2,3.63E2,3.6E2,3E0,8E0,2.3E1,9.3E1,7.1E2,5.74E2,1.24E2,3.71E2,6E0,3.9E1],"tree_param":{"num_deleted":"0","num_feature":"8","num_nodes":"31","size_leaf_vector":"1"}},{"base_weights":[-1.2804067E-3,-2.212314E0,2.0142546E0,-1.8192466E0,-3.3493063E0,1.3676323E0,2.9944553E0,-2.3014357E0,4.7028356E0,-2.883064E0,-4.357987E0,1.4102693E0,-4.2151746E-1,3.0920675E0,-4.9776593E-1,-1.9146158E-1,-2.9173514E-1,6.6418606E-1,3.4163132E-1,-2.9261094E-1,-5.769542E-2,-1.3503139E-2,-4.3857047E-1,4.6064377E-2,1.5971954E-1,4.22163E-1,2.8166914E-1],"categories":[],"categories_nodes":[],"categories_segments":[],"categories_sizes":[],"default_left":[0,0,0,0,0,0,0,0,0,0,0,0,0,0,0,0,0,0,0,0,0,0,0,0,0,0,0],"id":25,"left_children":[1,3,5,7,9,11,13,15,17,19,21,23,-1,25,-1,-1,-1,-1,-1,-1,-1,-1,-1,-1,-1,-1,-1],"loss_changes":[1.6185699E4,7.4358984E2,1.1837812E3,4.136168E3,1.4363574E2,3.0441382E2,6.6136523E2,2.608286E2,1.1355493E2,2.2828125E1,1.2137939E1,2.0028027E2,0E0,1.7228027E2,0E0,0E0,0E0,0E0,0E0,0E0,0E0,0E0,0E0,0E0,0E0,0E0,0E0],"parents":[2147483647,0,0,1,1,2,2,3,3,4,4,5,5,6,6,7,7,8,8,9,9,10,10,11,11,13,13],"right_children":[2,4,6,8,10,12,14,16,18,20,22,24,-1,26,-1,-1,-1,-1,-1,-1,-1,-1,-1,-1,-1,-1,-1],"split_conditions":[7.545196E2,1.6E1,7.049214E1,8E0,8.1020546E1,2.1E1,2.1E1,5E0,6.498084E2,7.236606E1,6.671133E1,7.8692345E1,-4.2151746E-1,9.4976555E1,-4.9776593E-1,-1.9146158E-1,-2.9173514E-1,6.6418606E-1,3.4163132E-1,-2.9261094E-1,-5.769542E-2,-1.3503139E-2,-4.3857047E-1,4.6064377E-2,1.5971954E-1,4.22163E-1,2.8166914E-1],"split_indices":[7,0,6,0,3,0,0,0,7,6,5,3,0,3,0,0,0,0,0,0,0,0,0,0,0,0,0],"split_type":[0,0,0,0,0,0,0,0,0,0,0,0,0,0,0,0,0,0,0,0,0,0,0,0,0,0,0],"sum_hessian":[3.622E3,1.727E3,1.895E3,1.293E3,4.34E2,1.149E3,7.46E2,1.207E3,8.6E1,3.1E2,1.24E2,1.144E3,5E0,7.4E2,6E0,7.54E2,4.53E2,2.6E1,6E1,3.03E2,7E0,1E0,1.23E2,1.91E2,9.53E2,1.31E2,6.09E2],"tree_param":{"num_deleted":"0","num_feature":"8","num_nodes":"27","size_leaf_vector":"1"}},{"base_weights":[-3.9569724E-2,-1.4895082E0,1.3831815E0,-1.9905379E0,-3.9306927E-1,1.8227884E0,-3.792904E-1,-1.6170985E0,-2.5858884E0,2.3472445E0,-2.9130692E0,1.5660707E0,3.2475696E0,-2.0510606E-1,-1.3003618E-1,-3.3777452E-1,-2.107269E-1,3.765036E-1,3.6617484E-2,-2.9531622E-1,-1.053643E-1,8.9317285E-2,1.8340097E-1,3.7324467E-1,2.228345E-1],"categories":[],"categories_nodes":[],"categories_segments":[],"categories_sizes":[],"default_left":[0,0,0,0,0,0,0,0,0,0,0,0,0,0,0,0,0,0,0,0,0,0,0,0,0],"id":26,"left_children":[1,3,5,7,9,11,-1,13,15,17,19,21,23,-1,-1,-1,-1,-1,-1,-1,-1,-1,-1,-1,-1],"loss_changes":[7.3810493E3,9.6953345E2,4.144018E3,2.4921973E2,3.91513E3,5.8466943E2,0E0,9.112756E1,1.3874976E2,7.5708496E2,6.4345703E0,2.4837012E2,8.196362E1,0E0,0E0,0E0,0E0,0E0,0E0,0E0,0E0,0E0,0E0,0E0,0E0],"parents":[2147483647,0,0,1,1,2,2,3,3,4,4,5,5,7,7,8,8,9,9,10,10,11,11,12,12],"right_children":[2,4,6,8,10,12,-1,14,16,18,20,22,24,-1,-1,-1,-1,-1,-1,-1,-1,-1,-1,-1,-1],"split_conditions":[7.715347E1,8E0,2.1E1,5E0,2.1E1,7.1598885E1,-3.792904E-1,3.9317726E1,6.7270485E1,3.550704E1,7.236606E1,9.043438E1,1.0431959E2,-2.0510606E-1,-1.3003618E-1,-3.3777452E-1,-2.107269E-1,3.765036E-1,3.6617484E-2,-2.9531622E-1,-1.053643E-1,8.9317285E-2,1.8340097E-1,3.7324467E-1,2.228345E-1],"split_indices":[3,0,0,0,0,6,0,3,5,3,6,3,3,0,0,0,0,0,0,0,0,0,0,0,0],"split_type":[0,0,0,0,0,0,0,0,0,0,0,0,0,0,0,0,0,0,0,0,0,0,0,0,0],"sum_hessian":[3.568E3,1.767E3,1.801E3,1.21E3,5.57E2,1.663E3,1.38E2,7.55E2,4.55E2,2.67E2,2.9E2,1.418E3,2.45E2,3.07E2,4.48E2,1.6E2,2.95E2,1.53E2,1.14E2,2.81E2,9E0,4.1E2,1.008E3,1.57E2,8.8E1],"tree_param":{"num_deleted":"0","num_feature":"8","num_nodes":"25","size_leaf_vector":"1"}},{"base_weights":[5.5144145E-3,-1.7588656E0,1.6259243E0,-1.4307739E0,-2.7448044E0,1.6779892E0,-5.5178803E-1,-1.8551849E0,4.7298017E0,-2.3676896E0,-3.5509104E-1,2.0809174E0,5.8135384E-1,-1.5569758E-1,-2.3244523E-1,7.17977E-1,2.0971969E-1,-2.2103634E-1,-3.607374E-1,3.352097E-1,1.9508164E-1,-1.861105E-1,6.930017E-2],"categories":[],"categories_nodes":[],"categories_segments":[],"categories_sizes":[],"default_left":[0,0,0,0,0,0,0,0,0,0,0,0,0,0,0,0,0,0,0,0,0,0,0],"id":27,"left_children":[1,3,5,7,9,11,-1,13,15,17,-1,19,21,-1,-1,-1,-1,-1,-1,-1,-1,-1,-1],"loss_changes":[1.0486885E4,5.483916E2,7.5744727E2,3.5160847E3,8.959253E1,8.343789E2,0E0,1.5626904E2,4.8584546E2,2.0592651E1,0E0,1.9701904E2,1.4770482E2,0E0,0E0,0E0,0E0,0E0,0E0,0E0,0E0,0E0,0E0],"parents":[2147483647,0,0,1,1,2,2,3,3,4,4,5,5,7,7,8,8,9,9,11,11,12,12],"right_children":[2,4,6,8,10,12,-1,14,16,18,-1,20,22,-1,-1,-1,-1,-1,-1,-1,-1,-1,-1],"split_conditions":[7.545196E2,1.6E1,2.1E1,8E0,8.1020546E1,5E0,-5.5178803E-1,5E0,3E0,7.3459973E2,-3.5509104E-1,9.043438E1,3.238493E1,-1.5569758E-1,-2.3244523E-1,7.17977E-1,2.0971969E-1,-2.2103634E-1,-3.607374E-1,3.352097E-1,1.9508164E-1,-1.861105E-1,6.930017E-2],"split_indices":[7,0,0,0,3,1,0,0,1,7,0,3,3,0,0,0,0,0,0,0,0,0,0],"split_type":[0,0,0,0,0,0,0,0,0,0,0,0,0,0,0,0,0,0,0,0,0,0,0],"sum_hessian":[3.658E3,1.751E3,1.907E3,1.323E3,4.28E2,1.897E3,1E1,1.241E3,8.2E1,3.05E2,1.23E2,1.384E3,5.13E2,7.72E2,4.69E2,3.8E1,4.4E1,2.83E2,2.2E1,1.17E2,1.267E3,1.9E1,4.94E2],"tree_param":{"num_deleted":"0","num_feature":"8","num_nodes":"23","size_leaf_vector":"1"}},{"base_weights":[4.4513777E-2,-1.849613E0,1.6565876E0,-2.273278E0,-1.3181511E0,1.1868194E0,2.2380435E0,-1.7176522E0,-2.5729024E0,-1.4649706E0,6.364323E0,1.9645176E0,4.6526986E-1,2.9880795E0,1.7661133E0,-1.5282977E-1,-2.62969E-1,-6.922558E-2,-2.6161692E-1,-1.5557553E-1,-5.289135E-2,7.152633E-1,3.5437446E-2,7.960694E-2,2.8721327E-1,2.7806392E-2,2.3541164E-1,3.0638286E-1,-2.5770336E-3,1.5109554E-1,3.2880676E-1],"categories":[],"categories_nodes":[],"categories_segments":[],"categories_sizes":[],"default_left":[0,0,0,0,0,0,0,0,0,0,0,0,0,0,0,0,0,0,0,0,0,0,0,0,0,0,0,0,0,0,0],"id":28,"left_children":[1,3,5,7,9,11,13,15,17,19,21,23,25,27,29,-1,-1,-1,-1,-1,-1,-1,-1,-1,-1,-1,-1,-1,-1,-1,-1],"loss_changes":[1.1050567E4,3.59687E2,5.207261E2,1.3089795E2,8.925698E2,6.082035E2,2.8085498E2,3.8104675E1,3.8708252E1,5.8770752E1,5.8391968E1,5.442704E2,1.9934174E2,7.5275635E1,1.8680396E2,0E0,0E0,0E0,0E0,0E0,0E0,0E0,0E0,0E0,0E0,0E0,0E0,0E0,0E0,0E0,0E0],"parents":[2147483647,0,0,1,1,2,2,3,3,4,4,5,5,6,6,7,7,8,8,9,9,10,10,11,11,12,12,13,13,14,14],"right_children":[2,4,6,8,10,12,14,16,18,20,22,24,26,28,30,-1,-1,-1,-1,-1,-1,-1,-1,-1,-1,-1,-1,-1,-1,-1,-1],"split_conditions":[7.226544E1,3.6894417E1,7.027135E1,5E0,7E0,9.2291E1,9.8736916E1,7.643014E1,5E0,7.188803E1,1.6E1,6.0993557E1,2E1,1.1137068E2,7.223717E1,-1.5282977E-1,-2.62969E-1,-6.922558E-2,-2.6161692E-1,-1.5557553E-1,-5.289135E-2,7.152633E-1,3.5437446E-2,7.960694E-2,2.8721327E-1,2.7806392E-2,2.3541164E-1,3.0638286E-1,-2.5770336E-3,1.5109554E-1,3.2880676E-1],"split_indices":[4,4,6,2,0,4,3,3,0,6,0,6,0,4,6,0,0,0,0,0,0,0,0,0,0,0,0,0,0,0,0],"split_type":[0,0,0,0,0,0,0,0,0,0,0,0,0,0,0,0,0,0,0,0,0,0,0,0,0,0,0,0,0,0,0],"sum_hessian":[3.609E3,1.659E3,1.95E3,9.14E2,7.45E2,1.087E3,8.63E2,3.32E2,5.82E2,7.35E2,1E1,5.19E2,5.68E2,3.23E2,5.4E2,2.86E2,4.6E1,1.5E1,5.67E2,6.67E2,6.8E1,8E0,2E0,2.31E2,2.88E2,5.22E2,4.6E1,3.15E2,8E0,4.71E2,6.9E1],"tree_param":{"num_deleted":"0","num_feature":"8","num_nodes":"31","size_leaf_vector":"1"}},{"base_weights":[6.901367E-2,-1.6554557E0,1.526645E0,-2.052211E0,-1.1383319E0,1.0067357E0,1.9992201E0,-1.9686621E0,-4.9117085E-1,-1.2126789E0,4.8061233E0,4.236751E0,7.898534E-1,2.6152372E0,1.6086624E0,-1.7699985E-1,-2.746896E-1,-1.7547095E-1,-8.3364815E-2,5.839395E-1,1.9229671E-2,2.8161523E-1,6.611372E-1,1.388702E-1,2.9717628E-2,2.8144965E-1,5.904534E-2,1.3864163E-1,3.3066508E-1],"categories":[],"categories_nodes":[],"categories_segments":[],"categories_sizes":[],"default_left":[0,0,0,0,0,0,0,0,0,0,0,0,0,0,0,0,0,0,0,0,0,0,0,0,0,0,0,0,0],"id":29,"left_children":[1,3,5,7,9,11,13,15,-1,17,19,21,23,25,27,-1,-1,-1,-1,-1,-1,-1,-1,-1,-1,-1,-1,-1,-1],"loss_changes":[9.059229E3,3.2705762E2,4.6978174E2,1.7335889E2,3.508828E2,6.41769E2,2.238855E2,1.16382324E2,0E0,1.4122363E2,4.2058884E1,1.0256311E2,2.5963617E2,1.4782861E2,2.1708606E2,0E0,0E0,0E0,0E0,0E0,0E0,0E0,0E0,0E0,0E0,0E0,0E0,0E0,0E0],"parents":[2147483647,0,0,1,1,2,2,3,3,4,4,5,5,6,6,7,7,9,9,10,10,11,11,12,12,13,13,14,14],"right_children":[2,4,6,8,10,12,14,16,-1,18,20,22,24,26,28,-1,-1,-1,-1,-1,-1,-1,-1,-1,-1,-1,-1,-1,-1],"split_conditions":[7.226544E1,3.6894417E1,6.985381E1,7.475853E2,9.5547035E1,7.1964825E2,9.8736916E1,4.4042637E1,-4.9117085E-1,3.9317726E1,4.1550224E1,6.1161575E1,8.694245E1,1.07469E2,7.223717E1,-1.7699985E-1,-2.746896E-1,-1.7547095E-1,-8.3364815E-2,5.839395E-1,1.9229671E-2,2.8161523E-1,6.611372E-1,1.388702E-1,2.9717628E-2,2.8144965E-1,5.904534E-2,1.3864163E-1,3.3066508E-1],"split_indices":[4,4,6,7,3,7,3,3,0,3,4,6,4,4,6,0,0,0,0,0,0,0,0,0,0,0,0,0,0],"split_type":[0,0,0,0,0,0,0,0,0,0,0,0,0,0,0,0,0,0,0,0,0,0,0,0,0,0,0,0,0],"sum_hessian":[3.594E3,1.646E3,1.948E3,9.23E2,7.23E2,9.35E2,1.013E3,9.05E2,1.8E1,7.18E2,5E0,5.3E1,8.82E2,3.82E2,6.31E2,7.34E2,1.71E2,2.88E2,4.3E2,3E0,2E0,4E1,1.3E1,3.94E2,4.88E2,3.46E2,3.6E1,5.66E2,6.5E1],"tree_param":{"num_deleted":"0","num_feature":"8","num_nodes":"29","size_leaf_vector":"1"}},{"base_weights":[1.8984905E-2,-1.0177602E0,9.286892E-1,-1.3435296E0,-2.0093912E-1,1.2046499E0,-2.458964E0,-1.9052695E0,-1.1115332E0,2.6357243E0,-1.6725847E0,1.5148387E0,3.5040647E-1,-1.5425506E-1,-2.6846619E0,-1.9336288E-1,2.403166E-2,-1.3570023E-1,-5.911721E-2,3.8894734E-1,-3.3933938E-2,-2.5314946E-2,-1.7909886E-1,2.4830107E-1,1.2801807E-1,4.6444412E-2,-1.7564994E-1,-1.3756351E-1,-2.928222E-1],"categories":[],"categories_nodes":[],"categories_segments":[],"categories_sizes":[],"default_left":[0,0,0,0,0,0,0,0,0,0,0,0,0,0,0,0,0,0,0,0,0,0,0,0,0,0,0,0,0],"id":30,"left_children":[1,3,5,7,9,11,13,15,17,19,21,23,25,-1,27,-1,-1,-1,-1,-1,-1,-1,-1,-1,-1,-1,-1,-1,-1],"loss_changes":[3.4405537E3,4.523429E2,1.8312424E3,1.4814258E2,2.0759272E3,4.743042E2,9.905151E0,2.3559082E1,1.076272E2,6.406964E2,5.2690796E1,2.8376953E2,1.2084856E2,0E0,1.5567749E1,0E0,0E0,0E0,0E0,0E0,0E0,0E0,0E0,0E0,0E0,0E0,0E0,0E0,0E0],"parents":[2147483647,0,0,1,1,2,2,3,3,4,4,5,5,6,6,7,7,8,8,9,9,10,10,11,11,12,12,14,14],"right_children":[2,4,6,8,10,12,14,16,18,20,22,24,26,-1,28,-1,-1,-1,-1,-1,-1,-1,-1,-1,-1,-1,-1,-1,-1],"split_conditions":[7.4433365E1,8E0,2.1E1,3.2163216E1,1.3E1,5E0,6.1161575E1,7.276955E1,7.1082436E1,5E0,2E1,1E0,8.786696E1,-1.5425506E-1,1E0,-1.9336288E-1,2.403166E-2,-1.3570023E-1,-5.911721E-2,3.8894734E-1,-3.3933938E-2,-2.5314946E-2,-1.7909886E-1,2.4830107E-1,1.2801807E-1,4.6444412E-2,-1.7564994E-1,-1.3756351E-1,-2.928222E-1],"split_indices":[3,0,0,3,0,1,6,6,6,1,0,1,3,0,1,0,0,0,0,0,0,0,0,0,0,0,0,0,0],"split_type":[0,0,0,0,0,0,0,0,0,0,0,0,0,0,0,0,0,0,0,0,0,0,0,0,0,0,0,0,0],"sum_hessian":[3.638E3,1.7E3,1.938E3,1.213E3,4.87E2,1.795E3,1.43E2,3.44E2,8.69E2,1.65E2,3.22E2,1.314E3,4.81E2,3.6E1,1.07E2,3.4E2,4E0,5.85E2,2.84E2,1.15E2,5E1,2.6E1,2.96E2,2.47E2,1.067E3,4.6E2,2.1E1,2.2E1,8.5E1],"tree_param":{"num_deleted":"0","num_feature":"8","num_nodes":"29","size_leaf_vector":"1"}},{"base_weights":[-2.4636256E-2,-1.3174015E0,1.0919058E0,-1.6542466E0,-8.857943E-1,3.417416E-1,1.2213056E0,-1.1610854E0,-1.9273165E0,-1.0105889E0,5.1705675E0,8.993129E-1,-4.5252794E-1,2.1401267E0,1.1412308E0,-7.521139E-2,-1.5892854E-1,-1.8039303E-1,-2.6593527E-1,-1.1678722E-1,-4.261372E-2,7.3573357E-1,1.3760886E-1,5.315424E-2,2.9047012E-1,-1.1637545E-2,-2.4184413E-1,4.1526937E-1,1.1594459E-1,5.556683E-2,1.3318436E-1],"categories":[],"categories_nodes":[],"categories_segments":[],"categories_sizes":[],"default_left":[0,0,0,0,0,0,0,0,0,0,0,0,0,0,0,0,0,0,0,0,0,0,0,0,0,0,0,0,0,0,0],"id":31,"left_children":[1,3,5,7,9,11,13,15,17,19,21,23,25,27,29,-1,-1,-1,-1,-1,-1,-1,-1,-1,-1,-1,-1,-1,-1,-1,-1],"loss_changes":[5.267039E3,2.385188E2,1.8797852E2,1.159375E2,5.944892E2,1.3267908E2,1.10510254E2,5.514081E1,3.020752E1,6.5627686E1,8.2140625E1,1.21346634E2,8.11986E1,2.2855762E2,1.6874597E2,0E0,0E0,0E0,0E0,0E0,0E0,0E0,0E0,0E0,0E0,0E0,0E0,0E0,0E0,0E0,0E0],"parents":[2147483647,0,0,1,1,2,2,3,3,4,4,5,5,6,6,7,7,8,8,9,9,10,10,11,11,12,12,13,13,14,14],"right_children":[2,4,6,8,10,12,14,16,18,20,22,24,26,28,30,-1,-1,-1,-1,-1,-1,-1,-1,-1,-1,-1,-1,-1,-1,-1,-1],"split_conditions":[7.226544E1,3.6894417E1,6.7031784E1,5E0,7E0,1.1E1,3.4225792E1,8E0,9.1508934E1,4E0,2E0,1.9E1,1.0261621E2,9.2291E1,8.547347E1,-7.521139E-2,-1.5892854E-1,-1.8039303E-1,-2.6593527E-1,-1.1678722E-1,-4.261372E-2,7.3573357E-1,1.3760886E-1,5.315424E-2,2.9047012E-1,-1.1637545E-2,-2.4184413E-1,4.1526937E-1,1.1594459E-1,5.556683E-2,1.3318436E-1],"split_indices":[4,4,5,2,0,2,3,0,3,0,2,0,3,4,3,0,0,0,0,0,0,0,0,0,0,0,0,0,0,0,0],"split_type":[0,0,0,0,0,0,0,0,0,0,0,0,0,0,0,0,0,0,0,0,0,0,0,0,0,0,0,0,0,0,0],"sum_hessian":[3.639E3,1.686E3,1.953E3,9.39E2,7.47E2,2.9E2,1.663E3,3.44E2,5.95E2,7.36E2,1.1E1,1.7E2,1.2E2,1.23E2,1.54E3,1.83E2,1.61E2,5.24E2,7.1E1,5.76E2,1.6E2,4E0,7E0,1.49E2,2.1E1,1.07E2,1.3E1,3.5E1,8.8E1,3.83E2,1.157E3],"tree_param":{"num_deleted":"0","num_feature":"8","num_nodes":"31","size_leaf_vector":"1"}},{"base_weights":[7.845119E-3,-1.2019085E0,1.0501125E0,-1.518627E0,-8.079112E-1,1.9047939E0,6.9535565E-1,-1.3717806E0,-2.249129E0,-8.8771623E-1,4.986063E0,4.112951E0,1.561294E0,7.991034E-2,1.2410258E0,-1.6871326E-1,-1.0279652E-1,-2.2724631E-1,-1.625952E-2,-1.0342529E-1,-2.741161E-2,5.258887E-1,3.7630465E-2,6.5071636E-1,2.5203687E-1,2.0286718E-1,1.07422255E-1,2.7455185E-2,-1.1831643E-1,1.313281E-1,-1.3794689E-1],"categories":[],"categories_nodes":[],"categories_segments":[],"categories_sizes":[],"default_left":[0,0,0,0,0,0,0,0,0,0,0,0,0,0,0,0,0,0,0,0,0,0,0,0,0,0,0,0,0,0,0],"id":32,"left_children":[1,3,5,7,9,11,13,15,17,19,21,23,25,27,29,-1,-1,-1,-1,-1,-1,-1,-1,-1,-1,-1,-1,-1,-1,-1,-1],"loss_changes":[4.544242E3,2.0200903E2,5.803804E2,8.3156006E1,3.707718E2,3.9644604E2,4.6160645E2,7.56814E1,5.2608643E0,6.5838745E1,3.9394531E0,1.9634546E2,1.022439E2,1.6191626E2,1.4709021E2,0E0,0E0,0E0,0E0,0E0,0E0,0E0,0E0,0E0,0E0,0E0,0E0,0E0,0E0,0E0,0E0],"parents":[2147483647,0,0,1,1,2,2,3,3,4,4,5,5,6,6,7,7,8,8,9,9,10,10,11,11,12,12,13,13,14,14],"right_children":[2,4,6,8,10,12,14,16,18,20,22,24,26,28,30,-1,-1,-1,-1,-1,-1,-1,-1,-1,-1,-1,-1,-1,-1,-1,-1],"split_conditions":[7.226544E1,3.6894417E1,2E0,7.840883E1,9.5547035E1,9.091984E1,6.983255E1,7.023752E1,3.3373558E1,7.141068E1,7.06052E1,6.3095764E1,9.1200554E1,9.617065E1,5E0,-1.6871326E-1,-1.0279652E-1,-2.2724631E-1,-1.625952E-2,-1.0342529E-1,-2.741161E-2,5.258887E-1,3.7630465E-2,6.5071636E-1,2.5203687E-1,2.0286718E-1,1.07422255E-1,2.7455185E-2,-1.1831643E-1,1.313281E-1,-1.3794689E-1],"split_indices":[4,4,1,3,3,3,6,6,4,6,6,6,4,3,1,0,0,0,0,0,0,0,0,0,0,0,0,0,0,0,0],"split_type":[0,0,0,0,0,0,0,0,0,0,0,0,0,0,0,0,0,0,0,0,0,0,0,0,0,0,0,0,0,0,0],"sum_hessian":[3.594E3,1.663E3,1.931E3,9.14E2,7.49E2,5.6E2,1.371E3,7.73E2,1.41E2,7.43E2,6E0,6.8E1,4.92E2,6.47E2,7.24E2,3.93E2,3.8E2,1.39E2,2E0,5.97E2,1.46E2,5E0,1E0,2.1E1,4.7E1,2.43E2,2.49E2,5.64E2,8.3E1,7.07E2,1.7E1],"tree_param":{"num_deleted":"0","num_feature":"8","num_nodes":"31","size_leaf_vector":"1"}},{"base_weights":[4.8310142E-2,-1.0626855E0,9.9026585E-1,-1.370148E0,-6.914412E-1,6.380813E-1,1.5767306E0,-9.5370334E-1,-1.5826329E0,-8.10308E-1,4.45341E0,1.2659712E0,2.6402244E-1,1.7210574E0,5.785327E-1,-1.0698994E-1,-2.0663729E-2,-1.7707197E-2,-1.617699E-1,-7.632676E-2,-3.623629E-1,6.866539E-1,1.3116096E-1,2.674358E-2,1.8271306E-1,-1.4358466E-2,7.869529E-2,2.6598865E-1,1.5235788E-1,-1.968251E-2,1.342781E-1],"categories":[],"categories_nodes":[],"categories_segments":[],"categories_sizes":[],"default_left":[0,0,0,0,0,0,0,0,0,0,0,0,0,0,0,0,0,0,0,0,0,0,0,0,0,0,0,0,0,0,0],"id":33,"left_children":[1,3,5,7,9,11,13,15,17,19,21,23,25,27,29,-1,-1,-1,-1,-1,-1,-1,-1,-1,-1,-1,-1,-1,-1,-1,-1],"loss_changes":[3.7904836E3,1.8496973E2,3.9979553E2,7.244653E1,4.8465747E2,2.8792072E2,1.0047839E2,2.6498962E1,2.7696655E1,8.542584E1,9.143713E1,2.5475171E2,1.6660896E2,9.783606E1,6.057805E1,0E0,0E0,0E0,0E0,0E0,0E0,0E0,0E0,0E0,0E0,0E0,0E0,0E0,0E0,0E0,0E0],"parents":[2147483647,0,0,1,1,2,2,3,3,4,4,5,5,6,6,7,7,8,8,9,9,10,10,11,11,12,12,13,13,14,14],"right_children":[2,4,6,8,10,12,14,16,18,20,22,24,26,28,30,-1,-1,-1,-1,-1,-1,-1,-1,-1,-1,-1,-1,-1,-1,-1,-1],"split_conditions":[7.226544E1,3.6894417E1,7.052161E1,5E0,7E0,8.6394325E1,1.0657292E2,7.1972404E1,5E0,4.6343163E1,2E0,6.0533424E1,6.964804E1,9.4495476E1,7.155624E1,-1.0698994E-1,-2.0663729E-2,-1.7707197E-2,-1.617699E-1,-7.632676E-2,-3.623629E-1,6.866539E-1,1.3116096E-1,2.674358E-2,1.8271306E-1,-1.4358466E-2,7.869529E-2,2.6598865E-1,1.5235788E-1,-1.968251E-2,1.342781E-1],"split_indices":[4,4,6,2,0,4,4,6,0,4,2,6,6,3,6,0,0,0,0,0,0,0,0,0,0,0,0,0,0,0,0],"split_type":[0,0,0,0,0,0,0,0,0,0,0,0,0,0,0,0,0,0,0,0,0,0,0,0,0,0,0,0,0,0,0],"sum_hessian":[3.612E3,1.657E3,1.955E3,8.99E2,7.58E2,1.228E3,7.27E2,3.13E2,5.86E2,7.45E2,1.3E1,4.54E2,7.74E2,6.32E2,9.5E1,2.69E2,4.4E1,1.5E1,5.71E2,7.39E2,6E0,4E0,9E0,1.66E2,2.88E2,4.37E2,3.37E2,9.9E1,5.33E2,4.9E1,4.6E1],"tree_param":{"num_deleted":"0","num_feature":"8","num_nodes":"31","size_leaf_vector":"1"}},{"base_weights":[3.219624E-2,-7.765877E-1,7.745371E-1,-4.1643658E-1,-1.0660776E0,5.56629E-1,1.7074232E0,3.9862248E-1,-5.48361E-1,-1.1829225E0,-4.4612363E-1,1.4914663E0,3.8280612E-1,1.5319341E0,4.1170754E0,-7.97851E-2,2.538681E-1,-4.397161E-2,-2.008461E-1,-1.1123835E-1,-1.7711918E-1,-2.5515E-2,-1.294045E-1,1.6700223E-1,-1.320944E-1,6.5263235E-3,7.4833505E-2,1.2688468E-1,2.461835E-1,-2.9764429E-2,4.4122225E-1],"categories":[],"categories_nodes":[],"categories_segments":[],"categories_sizes":[],"default_left":[0,0,0,0,0,0,0,0,0,0,0,0,0,0,0,0,0,0,0,0,0,0,0,0,0,0,0,0,0,0,0],"id":34,"left_children":[1,3,5,7,9,11,13,15,17,19,21,23,25,27,29,-1,-1,-1,-1,-1,-1,-1,-1,-1,-1,-1,-1,-1,-1,-1,-1],"loss_changes":[2.1614214E3,1.7742041E2,3.768109E2,8.453328E1,6.6322754E1,2.4560187E2,1.1773682E2,2.9434555E2,1.0186798E2,2.3262573E1,2.4096096E1,1.3054712E2,1.5018399E2,6.682684E1,3.392917E1,0E0,0E0,0E0,0E0,0E0,0E0,0E0,0E0,0E0,0E0,0E0,0E0,0E0,0E0,0E0,0E0],"parents":[2147483647,0,0,1,1,2,2,3,3,4,4,5,5,6,6,7,7,8,8,9,9,10,10,11,11,12,12,13,13,14,14],"right_children":[2,4,6,8,10,12,14,16,18,20,22,24,26,28,30,-1,-1,-1,-1,-1,-1,-1,-1,-1,-1,-1,-1,-1,-1,-1,-1],"split_conditions":[7.545196E2,6E0,7.146619E1,1E0,6.631297E2,1E0,7.289368E1,5.5081165E2,9.428528E1,4.7671562E1,9.1508934E1,1.6266578E3,6.994627E1,6E0,2.9916016E1,-7.97851E-2,2.538681E-1,-4.397161E-2,-2.008461E-1,-1.1123835E-1,-1.7711918E-1,-2.5515E-2,-1.294045E-1,1.6700223E-1,-1.320944E-1,6.5263235E-3,7.4833505E-2,1.2688468E-1,2.461835E-1,-2.9764429E-2,4.4122225E-1],"split_indices":[7,2,6,1,7,1,6,7,3,3,3,7,6,2,3,0,0,0,0,0,0,0,0,0,0,0,0,0,0,0,0],"split_type":[0,0,0,0,0,0,0,0,0,0,0,0,0,0,0,0,0,0,0,0,0,0,0,0,0,0,0,0,0,0,0],"sum_hessian":[3.59E3,1.718E3,1.872E3,7.71E2,9.47E2,1.524E3,3.48E2,1.06E2,6.65E2,7.93E2,1.54E2,2.33E2,1.291E3,3.32E2,1.6E1,7E1,3.6E1,6.25E2,4E1,7.21E2,7.2E1,1.31E2,2.3E1,2.21E2,1.2E1,6.94E2,5.97E2,2.68E2,6.4E1,1E0,1.5E1],"tree_param":{"num_deleted":"0","num_feature":"8","num_nodes":"31","size_leaf_vector":"1"}},{"base_weights":[-2.3738278E-2,-9.14502E-1,7.5814414E-1,-8.5700655E-1,-2.698521E0,2.4726584E0,6.595517E-1,-1.047524E0,-5.1373035E-1,-3.2794487E0,1.8343921E0,2.955307E-1,2.973431E0,1.5669388E-1,1.1355915E0,-1.3400064E-1,-7.723253E-2,-4.635035E-2,-3.260431E-1,-1.5883161E-1,-4.1433755E-1,2.160267E-1,-1.2876766E-2,-1.0393204E-1,1.5318716E-1,3.9820135E-1,1.8893936E-1,4.4305075E-2,-7.2771996E-2,1.08440116E-1,3.3531615E-1],"categories":[],"categories_nodes":[],"categories_segments":[],"categories_sizes":[],"default_left":[0,0,0,0,0,0,0,0,0,0,0,0,0,0,0,0,0,0,0,0,0,0,0,0,0,0,0,0,0,0,0],"id":35,"left_children":[1,3,5,7,9,11,13,15,17,19,21,23,25,27,29,-1,-1,-1,-1,-1,-1,-1,-1,-1,-1,-1,-1,-1,-1,-1,-1],"loss_changes":[2.5448948E3,1.6363147E2,3.2079407E2,1.0600427E2,1.6437704E2,1.0899188E2,4.4124567E2,8.046753E1,7.563266E1,3.5762756E1,7.1485596E0,4.92188E1,5.4222717E1,2.305573E2,8.943445E1,0E0,0E0,0E0,0E0,0E0,0E0,0E0,0E0,0E0,0E0,0E0,0E0,0E0,0E0,0E0,0E0],"parents":[2147483647,0,0,1,1,2,2,3,3,4,4,5,5,6,6,7,7,8,8,9,9,10,10,11,11,12,12,13,13,14,14],"right_children":[2,4,6,8,10,12,14,16,18,20,22,24,26,28,30,-1,-1,-1,-1,-1,-1,-1,-1,-1,-1,-1,-1,-1,-1,-1,-1],"split_conditions":[7.226544E1,7.262166E2,7.76484E2,6.808377E1,8.069458E2,6.017035E1,7.0006996E1,3.24752E1,4.6343163E1,3.257479E1,1.9E1,6.7162866E2,7.1964825E2,1.0138462E2,7.289368E1,-1.3400064E-1,-7.723253E-2,-4.635035E-2,-3.260431E-1,-1.5883161E-1,-4.1433755E-1,2.160267E-1,-1.2876766E-2,-1.0393204E-1,1.5318716E-1,3.9820135E-1,1.8893936E-1,4.4305075E-2,-7.2771996E-2,1.08440116E-1,3.3531615E-1],"split_indices":[4,7,7,5,7,6,6,4,4,4,0,7,7,4,6,0,0,0,0,0,0,0,0,0,0,0,0,0,0,0,0],"split_type":[0,0,0,0,0,0,0,0,0,0,0,0,0,0,0,0,0,0,0,0,0,0,0,0,0,0,0,0,0,0,0],"sum_hessian":[3.644E3,1.703E3,1.941E3,1.657E3,4.6E1,9.9E1,1.842E3,1.059E3,5.98E2,4.2E1,4E0,2E1,7.9E1,8.99E2,9.43E2,5.04E2,5.55E2,5.93E2,5E0,1.9E1,2.3E1,3E0,1E0,1E1,1E1,3.4E1,4.5E1,6.81E2,2.18E2,9.29E2,1.4E1],"tree_param":{"num_deleted":"0","num_feature":"8","num_nodes":"31","size_leaf_vector":"1"}},{"base_weights":[-1.3468719E-2,-8.4055334E-1,6.9507194E-1,-7.9358864E-1,-2.1751432E0,2.380928E0,5.663308E-1,-7.114244E-1,-1.5033611E0,-2.7613692E0,1.7849357E0,3.1052783E0,8.100305E-1,2.600131E-1,9.011472E-1,-6.89942E-2,-3.2373995E-1,1.0735389E-1,-1.5683086E-1,-1.6313659E-1,-3.7774265E-1,2.079257E-1,1.7361451E-2,7.426599E-2,3.6693394E-1,-1.0645061E-1,1.475221E-1,6.719051E-2,-1.8983893E-3,1.0436372E-1,-3.9551486E-3],"categories":[],"categories_nodes":[],"categories_segments":[],"categories_sizes":[],"default_left":[0,0,0,0,0,0,0,0,0,0,0,0,0,0,0,0,0,0,0,0,0,0,0,0,0,0,0,0,0,0,0],"id":36,"left_children":[1,3,5,7,9,11,13,15,17,19,21,23,25,27,29,-1,-1,-1,-1,-1,-1,-1,-1,-1,-1,-1,-1,-1,-1,-1,-1],"loss_changes":[2.1249106E3,9.623035E1,4.1713525E2,8.936072E1,1.5000539E2,1.4331274E2,1.8559058E2,6.8328674E1,3.5865784E1,2.5447418E1,2.9375153E0,1.0897949E2,7.0198105E1,1.1015392E2,1.1655316E2,0E0,0E0,0E0,0E0,0E0,0E0,0E0,0E0,0E0,0E0,0E0,0E0,0E0,0E0,0E0,0E0],"parents":[2147483647,0,0,1,1,2,2,3,3,4,4,5,5,6,6,7,7,8,8,9,9,10,10,11,11,12,12,13,13,14,14],"right_children":[2,4,6,8,10,12,14,16,18,20,22,24,26,28,30,-1,-1,-1,-1,-1,-1,-1,-1,-1,-1,-1,-1,-1,-1,-1,-1],"split_conditions":[7.226544E1,7.262166E2,8.002239E2,4.7671562E1,8.069458E2,7.963629E1,7.016852E1,4.6343163E1,5.7822098E1,7.475853E2,1.9E1,6.017035E1,7.392152E2,8.694245E1,1.06810455E2,-6.89942E-2,-3.2373995E-1,1.0735389E-1,-1.5683086E-1,-1.6313659E-1,-3.7774265E-1,2.079257E-1,1.7361451E-2,7.426599E-2,3.6693394E-1,-1.0645061E-1,1.475221E-1,6.719051E-2,-1.8983893E-3,1.0436372E-1,-3.9551486E-3],"split_indices":[4,7,7,3,7,3,6,4,6,7,0,6,7,4,3,0,0,0,0,0,0,0,0,0,0,0,0,0,0,0,0],"split_type":[0,0,0,0,0,0,0,0,0,0,0,0,0,0,0,0,0,0,0,0,0,0,0,0,0,0,0,0,0,0,0],"sum_hessian":[3.616E3,1.668E3,1.948E3,1.619E3,4.9E1,1.32E2,1.816E3,1.46E3,1.59E2,4.4E1,5E0,8.7E1,4.5E1,9.53E2,8.63E2,1.454E3,6E0,2E0,1.57E2,2.7E1,1.7E1,3E0,2E0,1.9E1,6.8E1,1.1E1,3.4E1,3.82E2,5.71E2,7.49E2,1.14E2],"tree_param":{"num_deleted":"0","num_feature":"8","num_nodes":"31","size_leaf_vector":"1"}},{"base_weights":[-2.0705048E-2,-7.4443376E-1,6.0600543E-1,-4.154729E-1,-9.204915E-1,8.425234E-1,-1.2532013E-4,-2.2484271E-1,-9.364915E-1,-1.1150316E0,-7.039288E-1,2.425376E0,6.9284534E-1,-1.418131E-1,8.739308E-1,-3.6953893E-2,6.1818635E-1,-8.19161E-2,-1.9210903E-1,-1.2821494E-1,-8.956184E-2,-6.631872E-2,-1.9599645E-1,4.9975848E-1,1.5395999E-1,-1.0359128E-1,7.6170914E-2,4.272648E-3,-6.384358E-2,8.741695E-3,1.8052593E-1],"categories":[],"categories_nodes":[],"categories_segments":[],"categories_sizes":[],"default_left":[0,0,0,0,0,0,0,0,0,0,0,0,0,0,0,0,0,0,0,0,0,0,0,0,0,0,0,0,0,0,0],"id":37,"left_children":[1,3,5,7,9,11,13,15,17,19,21,23,25,27,29,-1,-1,-1,-1,-1,-1,-1,-1,-1,-1,-1,-1,-1,-1,-1,-1],"loss_changes":[1.6341946E3,9.492352E1,2.7683026E2,5.7745735E1,4.1786682E1,3.206775E2,6.836184E1,4.1931366E2,1.0268768E1,1.4902405E1,2.0468994E1,2.3037988E2,1.5585162E2,4.3668495E1,5.561366E1,0E0,0E0,0E0,0E0,0E0,0E0,0E0,0E0,0E0,0E0,0E0,0E0,0E0,0E0,0E0,0E0],"parents":[2147483647,0,0,1,1,2,2,3,3,4,4,5,5,6,6,7,7,8,8,9,9,10,10,11,11,12,12,13,13,14,14],"right_children":[2,4,6,8,10,12,14,16,18,20,22,24,26,28,30,-1,-1,-1,-1,-1,-1,-1,-1,-1,-1,-1,-1,-1,-1,-1,-1],"split_conditions":[7.226544E1,5E0,5E0,1.6E1,3.3373558E1,9E0,1.9E1,8E0,3.300163E1,6.731916E1,2.1E1,9.2291E1,6.6786316E1,1.6E1,6.7907974E1,-3.6953893E-2,6.1818635E-1,-8.19161E-2,-1.9210903E-1,-1.2821494E-1,-8.956184E-2,-6.631872E-2,-1.9599645E-1,4.9975848E-1,1.5395999E-1,-1.0359128E-1,7.6170914E-2,4.272648E-3,-6.384358E-2,8.741695E-3,1.8052593E-1],"split_indices":[4,2,1,0,4,0,0,0,4,5,0,4,5,0,5,0,0,0,0,0,0,0,0,0,0,0,0,0,0,0,0],"split_type":[0,0,0,0,0,0,0,0,0,0,0,0,0,0,0,0,0,0,0,0,0,0,0,0,0,0,0,0,0,0,0],"sum_hessian":[3.593E3,1.667E3,1.926E3,5.87E2,1.08E3,1.384E3,5.42E2,4.35E2,1.52E2,5.58E2,5.22E2,1.13E2,1.271E3,4.7E2,7.2E1,4.3E2,5E0,1.44E2,8E0,3.03E2,2.55E2,5.13E2,9E0,2.3E1,9E1,4.6E1,1.225E3,3.46E2,1.24E2,4.2E1,3E1],"tree_param":{"num_deleted":"0","num_feature":"8","num_nodes":"31","size_leaf_vector":"1"}},{"base_weights":[3.1600963E-2,-5.6731725E-1,3.3198857E-1,-8.6594963E-1,-2.4875998E-1,6.2923276E-1,-1.0134718E0,-6.8798256E-1,-1.1311876E0,-7.7358454E-1,-6.828395E-2,5.101028E-1,1.1834246E0,-8.7391347E-1,-1.371782E0,-8.669111E-2,-4.419138E-3,3.0204883E-2,-1.1803063E-1,-5.6062795E-2,-1.4779189E-1,2.4818735E-2,-3.846444E-2,4.613727E-2,1.894996E-1,-1.2008911E-1,1.3096155E-1,-6.3895546E-2,-1.1465335E-1,5.2254996E-3,-1.3866962E-1],"categories":[],"categories_nodes":[],"categories_segments":[],"categories_sizes":[],"default_left":[0,0,0,0,0,0,0,0,0,0,0,0,0,0,0,0,0,0,0,0,0,0,0,0,0,0,0,0,0,0,0],"id":38,"left_children":[1,3,5,7,9,11,13,15,17,19,21,23,25,27,29,-1,-1,-1,-1,-1,-1,-1,-1,-1,-1,-1,-1,-1,-1,-1,-1],"loss_changes":[6.511278E2,1.1393695E2,9.670204E2,2.5469452E1,5.580909E1,1.2750482E2,1.5908173E1,4.415764E1,1.881903E1,1.850608E1,4.513039E1,1.06035675E2,1.1196765E2,1.741092E1,2.783493E0,0E0,0E0,0E0,0E0,0E0,0E0,0E0,0E0,0E0,0E0,0E0,0E0,0E0,0E0,0E0,0E0],"parents":[2147483647,0,0,1,1,2,2,3,3,4,4,5,5,6,6,7,7,8,8,9,9,10,10,11,11,12,12,13,13,14,14],"right_children":[2,4,6,8,10,12,14,16,18,20,22,24,26,28,30,-1,-1,-1,-1,-1,-1,-1,-1,-1,-1,-1,-1,-1,-1,-1,-1],"split_conditions":[8E0,6.766571E1,2.1E1,5E0,2E0,6.842658E1,8.491593E1,4E0,2.7646751E1,6E0,5E0,7.215824E1,6.0444687E1,2.3E1,6.673487E1,-8.669111E-2,-4.419138E-3,3.0204883E-2,-1.1803063E-1,-5.6062795E-2,-1.4779189E-1,2.4818735E-2,-3.846444E-2,4.613727E-2,1.894996E-1,-1.2008911E-1,1.3096155E-1,-6.3895546E-2,-1.1465335E-1,5.2254996E-3,-1.3866962E-1],"split_indices":[0,5,0,0,0,5,3,0,3,2,0,6,6,0,5,0,0,0,0,0,0,0,0,0,0,0,0,0,0,0,0],"split_type":[0,0,0,0,0,0,0,0,0,0,0,0,0,0,0,0,0,0,0,0,0,0,0,0,0,0,0,0,0,0,0],"sum_hessian":[3.609E3,1.204E3,2.405E3,6.17E2,5.87E2,1.972E3,4.33E2,3.8E2,2.37E2,1.46E2,4.41E2,1.631E3,3.41E2,3.24E2,1.09E2,2.96E2,8.4E1,7E0,2.3E2,1.19E2,2.7E1,2.21E2,2.2E2,1.582E3,4.9E1,1.5E1,3.26E2,1.83E2,1.41E2,1E0,1.08E2],"tree_param":{"num_deleted":"0","num_feature":"8","num_nodes":"31","size_leaf_vector":"1"}},{"base_weights":[-1.1000846E-2,-4.146069E-1,4.0732628E-1,-2.5108063E-1,-9.257012E-1,2.5718114E-1,1.0628365E0,-5.325969E-1,1.527053E0,-7.7347255E-1,-3.4711963E-1,4.001137E-1,-2.6737043E-1,1.4165235E0,3.3959383E-1,-6.597352E-2,-6.4366877E-6,3.7639606E-1,4.1007947E-2,-5.1494785E-2,-1.0871502E-1,1.1834542E-2,8.208076E-2,1.13726E-2,-1.0581154E-1,1.1493146E-1,2.7079853E-1,-1.6350573E-2,1.7419836E-1],"categories":[],"categories_nodes":[],"categories_segments":[],"categories_sizes":[],"default_left":[0,0,0,0,0,0,0,0,0,0,0,0,0,0,0,0,0,0,0,0,0,0,0,0,0,0,0,0,0],"id":39,"left_children":[1,3,5,7,9,11,13,15,17,19,-1,21,23,25,27,-1,-1,-1,-1,-1,-1,-1,-1,-1,-1,-1,-1,-1,-1],"loss_changes":[5.95159E2,1.4877563E2,1.6900122E2,6.878499E2,1.5436194E2,1.0662521E2,7.970706E1,8.0095184E1,4.620129E2,3.085466E1,0E0,1.3156583E2,9.2814804E1,5.828772E1,8.044478E1,0E0,0E0,0E0,0E0,0E0,0E0,0E0,0E0,0E0,0E0,0E0,0E0,0E0,0E0],"parents":[2147483647,0,0,1,1,2,2,3,3,4,4,5,5,6,6,7,7,8,8,9,9,11,11,12,12,13,13,14,14],"right_children":[2,4,6,8,10,12,14,16,18,20,-1,22,24,26,28,-1,-1,-1,-1,-1,-1,-1,-1,-1,-1,-1,-1,-1,-1],"split_conditions":[8.209759E2,1.6E1,7.146619E1,8E0,7.475853E2,1.0250086E2,1.0420127E2,7.143138E1,7.1964825E2,3.2496574E1,-3.4711963E-1,6.981724E1,1.6111548E3,7.248684E1,1.0928896E2,-6.597352E-2,-6.4366877E-6,3.7639606E-1,4.1007947E-2,-5.1494785E-2,-1.0871502E-1,1.1834542E-2,8.208076E-2,1.13726E-2,-1.0581154E-1,1.1493146E-1,2.7079853E-1,-1.6350573E-2,1.7419836E-1],"split_indices":[7,0,6,0,7,3,3,6,7,3,0,6,7,6,3,0,0,0,0,0,0,0,0,0,0,0,0,0,0],"split_type":[0,0,0,0,0,0,0,0,0,0,0,0,0,0,0,0,0,0,0,0,0,0,0,0,0,0,0,0,0],"sum_hessian":[3.515E3,1.789E3,1.726E3,1.361E3,4.28E2,1.41E3,3.16E2,1.178E3,1.83E2,4.1E2,1.8E1,1.109E3,3.01E2,2.09E2,1.07E2,9.5E2,2.28E2,5.7E1,1.26E2,2.32E2,1.78E2,6.68E2,4.41E2,2.06E2,9.5E1,1.81E2,2.8E1,8.2E1,2.5E1],"tree_param":{"num_deleted":"0","num_feature":"8","num_nodes":"29","size_leaf_vector":"1"}},{"base_weights":[1.8346872E-2,-4.107236E-1,3.971017E-1,-5.297106E-1,-1.1860231E-1,4.303696E-1,-2.8576347E-1,-5.97471E-1,-9.349304E-2,-5.503405E-1,5.9411902E-2,1.2763523E-1,8.3497053E-1,-3.771344E-2,-8.124864E-2,1.6344364E-1,-5.0035782E-2,-2.6113246E-2,-1.27687E-1,1.5669131E-1,-1.0384842E-2,7.331225E-4,9.3793415E-2,5.113523E-2,1.2518014E-1],"categories":[],"categories_nodes":[],"categories_segments":[],"categories_sizes":[],"default_left":[0,0,0,0,0,0,0,0,0,0,0,0,0,0,0,0,0,0,0,0,0,0,0,0,0],"id":40,"left_children":[1,3,5,7,9,11,-1,13,15,17,19,21,23,-1,-1,-1,-1,-1,-1,-1,-1,-1,-1,-1,-1],"loss_changes":[5.85048E2,5.835846E1,2.1317725E2,3.51315E1,3.8206974E1,2.3182422E2,0E0,4.7549225E1,1.2149564E2,2.8799973E1,8.818447E1,1.06318695E2,1.0619855E2,0E0,0E0,0E0,0E0,0E0,0E0,0E0,0E0,0E0,0E0,0E0,0E0],"parents":[2147483647,0,0,1,1,2,2,3,3,4,4,5,5,7,7,8,8,9,9,10,10,11,11,12,12],"right_children":[2,4,6,8,10,12,-1,14,16,18,20,22,24,-1,-1,-1,-1,-1,-1,-1,-1,-1,-1,-1,-1],"split_conditions":[7.475853E2,6.820319E1,2.1E1,6.689844E2,6.1267735E1,7.037857E1,-2.8576347E-1,5E0,1E1,6.0694202E1,6.3095764E1,1.7977396E3,6E0,-3.771344E-2,-8.124864E-2,1.6344364E-1,-5.0035782E-2,-2.6113246E-2,-1.27687E-1,1.5669131E-1,-1.0384842E-2,7.331225E-4,9.3793415E-2,5.113523E-2,1.2518014E-1],"split_indices":[7,5,0,7,6,6,0,0,0,6,6,7,2,0,0,0,0,0,0,0,0,0,0,0,0],"split_type":[0,0,0,0,0,0,0,0,0,0,0,0,0,0,0,0,0,0,0,0,0,0,0,0,0],"sum_hessian":[3.59E3,1.683E3,1.907E3,1.193E3,4.9E2,1.892E3,1.5E1,1.031E3,1.62E2,1.4E2,3.5E2,1.086E3,8.06E2,5.16E2,5.15E2,2.8E1,1.34E2,1.05E2,3.5E1,3E1,3.2E2,9.5E2,1.36E2,4.6E2,3.46E2],"tree_param":{"num_deleted":"0","num_feature":"8","num_nodes":"25","size_leaf_vector":"1"}},{"base_weights":[7.069844E-2,-3.3634356E-1,4.3967527E-1,-4.8810172E-1,-7.908724E-2,4.682336E-1,-3.3090392E-1,-5.301688E-1,1.8143676E-2,-6.722721E-1,6.123601E-2,-7.971471E-1,5.2557E-1,-5.6984283E-2,-2.121708E-2,1.8098344E-1,-7.5505726E-2,-4.2844415E-2,-1.2797302E-1,3.351907E-2,-5.8336325E-2,8.4074E-2,-1.07529E-1,9.4617836E-2,3.7399795E-2],"categories":[],"categories_nodes":[],"categories_segments":[],"categories_sizes":[],"default_left":[0,0,0,0,0,0,0,0,0,0,0,0,0,0,0,0,0,0,0,0,0,0,0,0,0],"id":41,"left_children":[1,3,5,7,9,11,-1,13,15,17,19,21,23,-1,-1,-1,-1,-1,-1,-1,-1,-1,-1,-1,-1],"loss_changes":[5.447242E2,6.715227E1,2.1136938E2,2.313321E1,5.397734E1,1.3936371E2,0E0,1.2024384E1,1.2874226E2,1.5624828E1,9.404114E1,4.2787785E1,1.1381387E2,0E0,0E0,0E0,0E0,0E0,0E0,0E0,0E0,0E0,0E0,0E0,0E0],"parents":[2147483647,0,0,1,1,2,2,3,3,4,4,5,5,7,7,8,8,9,9,10,10,11,11,12,12],"right_children":[2,4,6,8,10,12,-1,14,16,18,20,22,24,-1,-1,-1,-1,-1,-1,-1,-1,-1,-1,-1,-1],"split_conditions":[7.545196E2,6.808377E1,2.1E1,6.9703314E2,2E0,6.6786316E1,-3.3090392E-1,7.117667E1,1E1,6.8591194E1,1.6E1,1.1E1,1.0619473E3,-5.6984283E-2,-2.121708E-2,1.8098344E-1,-7.5505726E-2,-4.2844415E-2,-1.2797302E-1,3.351907E-2,-5.8336325E-2,8.4074E-2,-1.07529E-1,9.4617836E-2,3.7399795E-2],"split_indices":[7,5,0,7,0,5,0,6,0,5,0,0,7,0,0,0,0,0,0,0,0,0,0,0,0],"split_type":[0,0,0,0,0,0,0,0,0,0,0,0,0,0,0,0,0,0,0,0,0,0,0,0,0],"sum_hessian":[3.617E3,1.72E3,1.897E3,1.079E3,6.41E2,1.887E3,1E1,9.96E2,8.3E1,1.19E2,5.22E2,7.9E1,1.808E3,8.82E2,1.14E2,2.3E1,6E1,9.1E1,2.8E1,3.68E2,1.54E2,1E1,6.9E1,4.72E2,1.336E3],"tree_param":{"num_deleted":"0","num_feature":"8","num_nodes":"25","size_leaf_vector":"1"}},{"base_weights":[-1.8194692E-2,-5.215022E-1,2.8226778E-1,-3.592443E-1,-6.7871755E-1,1.094198E0,1.5198474E-1,-2.9719758E-1,-9.573851E-1,-6.121258E-1,-1.0505484E0,3.508764E0,7.933087E-1,2.1157487E-1,-5.544321E-1,-5.058765E-2,-1.5105418E-2,1.6832499E-2,-1.2502453E-1,-7.784138E-2,-1.7422875E-2,-1.165702E-1,-2.7710965E-2,7.358711E-2,4.7279668E-1,-7.240213E-2,1.0150329E-1,1.780737E-2,3.480587E-1,-1.0950603E-1,5.689287E-2],"categories":[],"categories_nodes":[],"categories_segments":[],"categories_sizes":[],"default_left":[0,0,0,0,0,0,0,0,0,0,0,0,0,0,0,0,0,0,0,0,0,0,0,0,0,0,0,0,0,0,0],"id":42,"left_children":[1,3,5,7,9,11,13,15,17,19,21,23,25,27,29,-1,-1,-1,-1,-1,-1,-1,-1,-1,-1,-1,-1,-1,-1,-1,-1],"loss_changes":[5.4454114E2,3.3116547E1,2.3770406E2,2.3554161E1,1.357254E1,2.1202914E2,8.26306E1,1.84346E1,2.1162453E1,4.206549E1,6.9350357E0,9.416785E1,9.888385E1,1.9413884E2,9.603509E1,0E0,0E0,0E0,0E0,0E0,0E0,0E0,0E0,0E0,0E0,0E0,0E0,0E0,0E0,0E0,0E0],"parents":[2147483647,0,0,1,1,2,2,3,3,4,4,5,5,6,6,7,7,8,8,9,9,10,10,11,11,12,12,13,13,14,14],"right_children":[2,4,6,8,10,12,14,16,18,20,22,24,26,28,30,-1,-1,-1,-1,-1,-1,-1,-1,-1,-1,-1,-1,-1,-1,-1,-1],"split_conditions":[4.1497147E1,7E0,1E0,8.547347E1,4.0080544E1,3.550704E1,1.06457664E2,3.2163216E1,1E0,3.4013344E1,4.132231E1,4.4440105E1,4.3406338E1,1.06232994E2,1.0928896E2,-5.058765E-2,-1.5105418E-2,1.6832499E-2,-1.2502453E-1,-7.784138E-2,-1.7422875E-2,-1.165702E-1,-2.7710965E-2,7.358711E-2,4.7279668E-1,-7.240213E-2,1.0150329E-1,1.780737E-2,3.480587E-1,-1.0950603E-1,5.689287E-2],"split_indices":[4,2,1,3,4,3,3,3,1,4,4,4,3,3,3,0,0,0,0,0,0,0,0,0,0,0,0,0,0,0,0],"split_type":[0,0,0,0,0,0,0,0,0,0,0,0,0,0,0,0,0,0,0,0,0,0,0,0,0,0,0,0,0,0,0],"sum_hessian":[3.591E3,1.341E3,2.25E3,6.68E2,6.73E2,3.06E2,1.944E3,6.12E2,5.6E1,5.82E2,9.1E1,2.8E1,2.78E2,1.796E3,1.48E2,2.47E2,3.65E2,1.2E1,4.4E1,4.19E2,1.63E2,7.7E1,1.4E1,1.1E1,1.7E1,3.4E1,2.44E2,1.783E3,1.3E1,1E2,4.8E1],"tree_param":{"num_deleted":"0","num_feature":"8","num_nodes":"31","size_leaf_vector":"1"}},{"base_weights":[-1.89369E-2,-4.4298968E-1,3.5265723E-1,-5.930606E-1,-2.5490087E-1,5.8949304E-1,-2.8121528E-1,-8.350802E-1,-4.347103E-1,-3.3177423E-1,2.8021474E0,2.115089E0,4.2568788E-1,-1.8892081E-1,-2.1646583E0,5.218303E-2,-8.810412E-2,-2.84789E-2,-9.2366055E-2,-5.4157015E-2,-5.1672584E-3,4.1179195E-1,6.110529E-2,2.993481E-1,2.2948265E-2,3.3531003E-2,1.9692494E-1,-7.7965865E-3,-1.9327131E-1,-1.9800786E-2,-3.278646E-1],"categories":[],"categories_nodes":[],"categories_segments":[],"categories_sizes":[],"default_left":[0,0,0,0,0,0,0,0,0,0,0,0,0,0,0,0,0,0,0,0,0,0,0,0,0,0,0,0,0,0,0],"id":43,"left_children":[1,3,5,7,9,11,13,15,17,19,21,23,25,27,29,-1,-1,-1,-1,-1,-1,-1,-1,-1,-1,-1,-1,-1,-1,-1,-1],"loss_changes":[5.658469E2,4.658029E1,2.881656E2,3.378778E1,1.8160759E2,3.441093E2,8.904289E1,2.4874863E1,4.0614677E1,4.3286797E1,4.2195297E1,2.1850952E2,1.7331021E2,9.695517E1,4.9333786E1,0E0,0E0,0E0,0E0,0E0,0E0,0E0,0E0,0E0,0E0,0E0,0E0,0E0,0E0,0E0,0E0],"parents":[2147483647,0,0,1,1,2,2,3,3,4,4,5,5,6,6,7,7,8,8,9,9,10,10,11,11,12,12,13,13,14,14],"right_children":[2,4,6,8,10,12,14,16,18,20,22,24,26,28,30,-1,-1,-1,-1,-1,-1,-1,-1,-1,-1,-1,-1,-1,-1,-1,-1],"split_conditions":[7.373135E1,3.6894417E1,5E0,6.964804E1,9.702545E1,8.8667465E1,8.786696E1,5E0,4.3406338E1,3E0,7.226544E1,1.0383661E2,7.228677E1,6.9614746E1,1.3E1,5.218303E-2,-8.810412E-2,-2.84789E-2,-9.2366055E-2,-5.4157015E-2,-5.1672584E-3,4.1179195E-1,6.110529E-2,2.993481E-1,2.2948265E-2,3.3531003E-2,1.9692494E-1,-7.7965865E-3,-1.9327131E-1,-1.9800786E-2,-3.278646E-1],"split_indices":[4,4,1,6,3,3,3,0,3,0,4,4,6,6,0,0,0,0,0,0,0,0,0,0,0,0,0,0,0,0,0],"split_type":[0,0,0,0,0,0,0,0,0,0,0,0,0,0,0,0,0,0,0,0,0,0,0,0,0,0,0,0,0,0,0],"sum_hessian":[3.581E3,1.672E3,1.909E3,9.24E2,7.48E2,1.39E3,5.19E2,3.57E2,5.67E2,7.34E2,1.4E1,1.29E2,1.261E3,5E2,1.9E1,1E1,3.47E2,4.4E2,1.27E2,4.17E2,3.17E2,6E0,8E0,8.6E1,4.3E1,1.197E3,6.4E1,4.75E2,2.5E1,9E0,1E1],"tree_param":{"num_deleted":"0","num_feature":"8","num_nodes":"31","size_leaf_vector":"1"}},{"base_weights":[4.3086905E-2,-3.7203935E-1,4.189643E-1,-4.851083E-1,-9.3154654E-2,2.5000536E0,3.5835359E-1,-4.325499E-1,-2.0815341E0,-4.4058838E-1,5.30558E-1,3.7662594E0,1.0348402E0,5.8301526E-1,5.438966E-2,-3.6436547E-2,-9.830477E-2,-1.0393385E-1,-2.555909E-1,-7.301702E-2,-3.5245635E-2,1.6120712E-1,-8.24768E-3,4.6204805E-1,-1.0435381E-1,1.8373607E-1,-4.3363493E-2,1.2448142E-1,1.2726905E-2,-1.1743809E-2,9.328823E-2],"categories":[],"categories_nodes":[],"categories_segments":[],"categories_sizes":[],"default_left":[0,0,0,0,0,0,0,0,0,0,0,0,0,0,0,0,0,0,0,0,0,0,0,0,0,0,0,0,0,0,0],"id":44,"left_children":[1,3,5,7,9,11,13,15,17,19,21,23,25,27,29,-1,-1,-1,-1,-1,-1,-1,-1,-1,-1,-1,-1,-1,-1,-1,-1],"loss_changes":[5.5517725E2,5.3096695E1,2.3101697E2,9.635266E1,1.08218E2,7.6986206E1,1.2412752E2,4.2125427E1,5.0102234E0,6.8800964E0,1.19342735E2,1.3093262E2,4.0516632E1,3.146943E2,1.1813736E2,0E0,0E0,0E0,0E0,0E0,0E0,0E0,0E0,0E0,0E0,0E0,0E0,0E0,0E0,0E0,0E0],"parents":[2147483647,0,0,1,1,2,2,3,3,4,4,5,5,6,6,7,7,8,8,9,9,10,10,11,11,12,12,13,13,14,14],"right_children":[2,4,6,8,10,12,14,16,18,20,22,24,26,28,30,-1,-1,-1,-1,-1,-1,-1,-1,-1,-1,-1,-1,-1,-1,-1,-1],"split_conditions":[7.542631E1,4.06237E1,7.1964825E2,7.3459973E2,1.304083E2,2E0,4E0,8.1020546E1,7.475853E2,3.2074097E1,4.2751934E1,9.925632E1,8.114298E1,9.8736916E1,1.7977396E3,-3.6436547E-2,-9.830477E-2,-1.0393385E-1,-2.555909E-1,-7.301702E-2,-3.5245635E-2,1.6120712E-1,-8.24768E-3,4.6204805E-1,-1.0435381E-1,1.8373607E-1,-4.3363493E-2,1.2448142E-1,1.2726905E-2,-1.1743809E-2,9.328823E-2],"split_indices":[4,4,7,7,7,1,1,3,7,3,4,3,4,3,7,0,0,0,0,0,0,0,0,0,0,0,0,0,0,0,0],"split_type":[0,0,0,0,0,0,0,0,0,0,0,0,0,0,0,0,0,0,0,0,0,0,0,0,0,0,0,0,0,0,0],"sum_hessian":[3.548E3,1.686E3,1.862E3,1.197E3,4.89E2,4.7E1,1.815E3,1.165E3,3.2E1,3.15E2,1.74E2,2.1E1,2.6E1,1.041E3,7.74E2,1.044E3,1.21E2,1.5E1,1.7E1,6.5E1,2.5E2,6E1,1.14E2,1.8E1,3E0,1.6E1,1E1,4.21E2,6.2E2,6.51E2,1.23E2],"tree_param":{"num_deleted":"0","num_feature":"8","num_nodes":"31","size_leaf_vector":"1"}},{"base_weights":[-2.0015564E-2,-3.5566962E-1,2.740852E-1,-3.6784765E-1,1.4852715E0,6.7333007E-1,1.169274E-1,-3.3516857E-1,-1.8027489E0,2.1106453E-1,1.0423279E-1,2.1298356E0,4.404393E-1,-5.447841E-1,1.9575223E-1,-3.176885E-2,-2.569889E-1,-1.8873195E-1,-1.0429982E-2,-2.8254265E-2,4.1655622E-2,3.435424E-1,1.3523673E-1,-5.3617515E-2,6.1188012E-2,-2.1993387E-2,-2.692469E-1,-1.13129966E-1,2.3917167E-2],"categories":[],"categories_nodes":[],"categories_segments":[],"categories_sizes":[],"default_left":[0,0,0,0,0,0,0,0,0,0,0,0,0,0,0,0,0,0,0,0,0,0,0,0,0,0,0,0,0],"id":45,"left_children":[1,3,5,7,9,11,13,15,17,-1,19,21,23,25,27,-1,-1,-1,-1,-1,-1,-1,-1,-1,-1,-1,-1,-1,-1],"loss_changes":[3.5408853E2,4.0283646E1,1.1957373E2,7.519353E1,9.263994E0,1.781421E2,7.240874E1,5.986409E1,4.1867523E0,0E0,1.6756659E0,5.086911E1,8.050065E1,1.0029523E2,7.251337E1,0E0,0E0,0E0,0E0,0E0,0E0,0E0,0E0,0E0,0E0,0E0,0E0,0E0,0E0],"parents":[2147483647,0,0,1,1,2,2,3,3,4,4,5,5,6,6,7,7,8,8,10,10,11,11,12,12,13,13,14,14],"right_children":[2,4,6,8,10,12,14,16,18,-1,20,22,24,26,28,-1,-1,-1,-1,-1,-1,-1,-1,-1,-1,-1,-1,-1,-1],"split_conditions":[7.226544E1,8.069458E2,2E0,7.3459973E2,6.7312996E1,9.2015656E1,6.696835E1,4.6343163E1,6.8560905E1,2.1106453E-1,6.806137E1,7.644795E2,9.4602106E2,6.694415E1,7.687755E1,-3.176885E-2,-2.569889E-1,-1.8873195E-1,-1.0429982E-2,-2.8254265E-2,4.1655622E-2,3.435424E-1,1.3523673E-1,-5.3617515E-2,6.1188012E-2,-2.1993387E-2,-2.692469E-1,-1.13129966E-1,2.3917167E-2],"split_indices":[4,7,1,7,5,3,5,4,5,0,5,7,7,5,4,0,0,0,0,0,0,0,0,0,0,0,0,0,0],"split_type":[0,0,0,0,0,0,0,0,0,0,0,0,0,0,0,0,0,0,0,0,0,0,0,0,0,0,0,0,0],"sum_hessian":[3.577E3,1.67E3,1.907E3,1.663E3,7E0,5.34E2,1.373E3,1.632E3,3.1E1,3E0,4E0,6.8E1,4.66E2,1.43E2,1.23E3,1.625E3,7E0,2.9E1,2E0,2E0,2E0,1.9E1,4.9E1,6.8E1,3.98E2,1.29E2,1.4E1,3.5E1,1.195E3],"tree_param":{"num_deleted":"0","num_feature":"8","num_nodes":"29","size_leaf_vector":"1"}},{"base_weights":[6.008464E-2,-2.7356064E-1,2.2458108E-1,-4.3963382E-1,-1.0548795E-1,3.8862032E-1,-4.8001933E-1,-2.5302145E-1,-7.123671E-1,-4.6684223E-1,1.2323341E-1,9.015575E-1,1.9509435E-1,6.2825374E-2,-5.637979E-1,-4.3858852E-2,2.4513062E-2,-8.3760045E-2,-2.8325794E-2,-7.980065E-2,-2.6544137E-2,3.1013796E-2,-1.3410692E-2,8.115538E-2,3.4212145E-1,1.3543538E-2,1.983112E-1,-9.396987E-2,2.41386E-2,-8.382591E-2,-3.9061617E-2],"categories":[],"categories_nodes":[],"categories_segments":[],"categories_sizes":[],"default_left":[0,0,0,0,0,0,0,0,0,0,0,0,0,0,0,0,0,0,0,0,0,0,0,0,0,0,0,0,0,0,0],"id":46,"left_children":[1,3,5,7,9,11,13,15,17,19,21,23,25,27,29,-1,-1,-1,-1,-1,-1,-1,-1,-1,-1,-1,-1,-1,-1,-1,-1],"loss_changes":[1.9871088E2,3.31513E1,2.811038E2,2.9636024E1,4.995997E1,1.945766E2,2.1097336E1,3.4185936E1,1.1764778E1,1.4547928E1,1.8100441E1,1.0812436E2,1.5183708E2,1.2948897E1,1.732795E1,0E0,0E0,0E0,0E0,0E0,0E0,0E0,0E0,0E0,0E0,0E0,0E0,0E0,0E0,0E0,0E0],"parents":[2147483647,0,0,1,1,2,2,3,3,4,4,5,5,6,6,7,7,8,8,9,9,10,10,11,11,12,12,13,13,14,14],"right_children":[2,4,6,8,10,12,14,16,18,20,22,24,26,28,30,-1,-1,-1,-1,-1,-1,-1,-1,-1,-1,-1,-1,-1,-1,-1,-1],"split_conditions":[8E0,7.030489E1,2.1E1,5E0,3E0,2E0,1E0,6E0,6.964804E1,1E0,6E0,6.906208E1,7.248684E1,6.695194E1,2.2E1,-4.3858852E-2,2.4513062E-2,-8.3760045E-2,-2.8325794E-2,-7.980065E-2,-2.6544137E-2,3.1013796E-2,-1.3410692E-2,8.115538E-2,3.4212145E-1,1.3543538E-2,1.983112E-1,-9.396987E-2,2.41386E-2,-8.382591E-2,-3.9061617E-2],"split_indices":[0,6,0,0,0,1,1,1,6,0,2,5,6,5,0,0,0,0,0,0,0,0,0,0,0,0,0,0,0,0,0],"split_type":[0,0,0,0,0,0,0,0,0,0,0,0,0,0,0,0,0,0,0,0,0,0,0,0,0,0,0,0,0,0,0],"sum_hessian":[3.61E3,1.191E3,2.419E3,5.95E2,5.96E2,1.964E3,4.55E2,3.59E2,2.36E2,2.29E2,3.67E2,5.33E2,1.431E3,6.1E1,3.94E2,2.62E2,9.7E1,1.79E2,5.7E1,8.1E1,1.48E2,2.12E2,1.55E2,5.21E2,1.2E1,1.39E3,4.1E1,6E0,5.5E1,1.45E2,2.49E2],"tree_param":{"num_deleted":"0","num_feature":"8","num_nodes":"31","size_leaf_vector":"1"}},{"base_weights":[8.059979E-3,-2.7810618E-1,2.0194703E-1,-3.220014E-1,2.2803435E-1,7.34673E-1,1.1956131E-1,-6.0416657E-1,-2.7886358E-1,9.401689E-1,4.7525425E-2,9.390546E-1,-1.3381437E0,3.475735E-2,5.7126397E-1,5.0264966E-2,-7.313509E-2,4.5003846E-2,-3.0438287E-2,1.22229055E-1,1.4875968E-2,4.9999837E-2,-3.7636086E-2,4.6246715E-2,1.4272729E-1,-1.927846E-1,4.49508E-2,1.5049234E-2,-7.4156255E-2,1.1404503E-2,1.3322775E-1],"categories":[],"categories_nodes":[],"categories_segments":[],"categories_sizes":[],"default_left":[0,0,0,0,0,0,0,0,0,0,0,0,0,0,0,0,0,0,0,0,0,0,0,0,0,0,0,0,0,0,0],"id":47,"left_children":[1,3,5,7,9,11,13,15,17,19,21,23,25,27,29,-1,-1,-1,-1,-1,-1,-1,-1,-1,-1,-1,-1,-1,-1,-1,-1],"loss_changes":[2.0152097E2,3.29597E1,9.458053E1,1.56141205E1,1.52021885E1,1.2871652E2,7.195463E1,2.6472763E1,2.2671356E1,4.4494286E0,2.0312405E1,5.8592194E1,3.3850014E1,1.4332547E2,1.0258138E2,0E0,0E0,0E0,0E0,0E0,0E0,0E0,0E0,0E0,0E0,0E0,0E0,0E0,0E0,0E0,0E0],"parents":[2147483647,0,0,1,1,2,2,3,3,4,4,5,5,6,6,7,7,8,8,9,9,10,10,11,11,12,12,13,13,14,14],"right_children":[2,4,6,8,10,12,14,16,18,20,22,24,26,28,30,-1,-1,-1,-1,-1,-1,-1,-1,-1,-1,-1,-1,-1,-1,-1,-1],"split_conditions":[6.7162866E2,7.1972404E1,1E0,5.9599426E1,7.207431E1,1.5800251E3,1.7977396E3,2.9301579E1,5.9849606E1,1.7220268E2,3E0,6.671261E1,7.08398E1,1.6193035E3,2E1,5.0264966E-2,-7.313509E-2,4.5003846E-2,-3.0438287E-2,1.22229055E-1,1.4875968E-2,4.9999837E-2,-3.7636086E-2,4.6246715E-2,1.4272729E-1,-1.927846E-1,4.49508E-2,1.5049234E-2,-7.4156255E-2,1.1404503E-2,1.3322775E-1],"split_indices":[7,6,1,6,6,7,7,3,6,7,1,6,6,7,0,0,0,0,0,0,0,0,0,0,0,0,0,0,0,0,0],"split_type":[0,0,0,0,0,0,0,0,0,0,0,0,0,0,0,0,0,0,0,0,0,0,0,0,0,0,0,0,0,0,0],"sum_hessian":[3.622E3,1.462E3,2.16E3,1.347E3,1.15E2,2.84E2,1.876E3,1.7E2,1.177E3,1.9E1,9.6E1,2.61E2,2.3E1,1.584E3,2.92E2,1.6E1,1.54E2,3.7E1,1.14E3,1.2E1,7E0,4.6E1,5E1,1.37E2,1.24E2,1.7E1,6E0,1.382E3,2.02E2,1.86E2,1.06E2],"tree_param":{"num_deleted":"0","num_feature":"8","num_nodes":"31","size_leaf_vector":"1"}},{"base_weights":[-1.6621275E-2,-2.5901473E-1,1.668201E-1,6.6706866E-1,-2.7129984E-1,6.3844845E-2,6.1945534E-1,-6.623645E-1,2.5935707E0,-2.2931732E-1,-5.891615E-1,8.598717E-1,1.8653749E-2,7.85216E-1,-5.6634766E-1,7.297072E-2,-1.7533615E-1,3.8465184E-1,-1.237402E-2,-3.1193648E-2,6.699505E-3,-7.164555E-2,6.646285E-2,1.6411714E-1,-1.6119523E-2,-4.0639355E-3,7.126292E-2,1.8292812E-1,5.2790303E-2,-2.4519849E-1,6.8159714E-2],"categories":[],"categories_nodes":[],"categories_segments":[],"categories_sizes":[],"default_left":[0,0,0,0,0,0,0,0,0,0,0,0,0,0,0,0,0,0,0,0,0,0,0,0,0,0,0,0,0,0,0],"id":48,"left_children":[1,3,5,7,9,11,13,15,17,19,21,23,25,27,29,-1,-1,-1,-1,-1,-1,-1,-1,-1,-1,-1,-1,-1,-1,-1,-1],"loss_changes":[1.620686E2,1.8766808E1,9.651848E1,6.493487E1,2.004869E1,6.093056E1,7.770238E1,3.2215885E1,3.642633E1,3.3888374E1,3.0789654E1,7.3918846E1,6.639301E1,8.6244415E1,1.26014885E2,0E0,0E0,0E0,0E0,0E0,0E0,0E0,0E0,0E0,0E0,0E0,0E0,0E0,0E0,0E0,0E0],"parents":[2147483647,0,0,1,1,2,2,3,3,4,4,5,5,6,6,7,7,8,8,9,9,10,10,11,11,12,12,13,13,14,14],"right_children":[2,4,6,8,10,12,14,16,18,20,22,24,26,28,30,-1,-1,-1,-1,-1,-1,-1,-1,-1,-1,-1,-1,-1,-1,-1,-1],"split_conditions":[4.34739E1,6.664727E1,6.841813E1,7E0,4.7671562E1,3.1562145E1,1.06810455E2,5E0,1E1,4.112416E1,6.8560905E1,1.0029839E2,2E1,6.8467255E1,1.0822083E2,7.297072E-2,-1.7533615E-1,3.8465184E-1,-1.237402E-2,-3.1193648E-2,6.699505E-3,-7.164555E-2,6.646285E-2,1.6411714E-1,-1.6119523E-2,-4.0639355E-3,7.126292E-2,1.8292812E-1,5.2790303E-2,-2.4519849E-1,6.8159714E-2],"split_indices":[4,5,5,0,3,3,3,0,0,3,5,4,0,5,3,0,0,0,0,0,0,0,0,0,0,0,0,0,0,0,0],"split_type":[0,0,0,0,0,0,0,0,0,0,0,0,0,0,0,0,0,0,0,0,0,0,0,0,0,0,0,0,0,0,0],"sum_hessian":[3.635E3,1.565E3,2.07E3,1.7E1,1.548E3,1.691E3,3.79E2,1.2E1,5E0,1.375E3,1.73E2,8.6E1,1.605E3,3.34E2,4.5E1,6E0,6E0,2E0,3E0,1.075E3,3E2,1.59E2,1.4E1,4.7E1,3.9E1,1.483E3,1.22E2,6E1,2.74E2,1.6E1,2.9E1],"tree_param":{"num_deleted":"0","num_feature":"8","num_nodes":"31","size_leaf_vector":"1"}},{"base_weights":[3.0251985E-2,4.5909843E-1,-3.8730457E-2,-4.3518287E-1,9.359573E-1,1.3769197E-2,-4.0573275E-1,-2.202113E-1,-9.214167E-1,4.2056117E0,6.677267E-1,-3.003344E-1,7.888322E-2,-2.4241097E-1,-1.7703809E0,2.2498054E-2,-3.8326528E-2,-1.6998653E-1,-4.5593772E-2,4.7297335E-1,-4.456373E-2,4.4087723E-2,1.7765431E-1,-4.4918317E-2,6.03498E-3,1.1402468E-2,-6.3715644E-2,-4.2529088E-3,-7.8721784E-2,-9.616513E-2,-2.4537385E-1],"categories":[],"categories_nodes":[],"categories_segments":[],"categories_sizes":[],"default_left":[0,0,0,0,0,0,0,0,0,0,0,0,0,0,0,0,0,0,0,0,0,0,0,0,0,0,0,0,0,0,0],"id":49,"left_children":[1,3,5,7,9,11,13,15,17,19,21,23,25,27,29,-1,-1,-1,-1,-1,-1,-1,-1,-1,-1,-1,-1,-1,-1,-1,-1],"loss_changes":[1.0717892E2,2.1611246E2,6.020032E1,1.7591179E1,2.7449902E2,5.6097084E1,8.499902E1,9.867874E0,1.5329464E1,6.904645E1,7.405948E1,2.5422314E1,5.750769E1,3.8491047E1,1.0860504E1,0E0,0E0,0E0,0E0,0E0,0E0,0E0,0E0,0E0,0E0,0E0,0E0,0E0,0E0,0E0,0E0],"parents":[2147483647,0,0,1,1,2,2,3,3,4,4,5,5,6,6,7,7,8,8,9,9,10,10,11,11,12,12,13,13,14,14],"right_children":[2,4,6,8,10,12,14,16,18,20,22,24,26,28,30,-1,-1,-1,-1,-1,-1,-1,-1,-1,-1,-1,-1,-1,-1,-1,-1],"split_conditions":[1E0,8E0,2.1E1,1.7220268E2,9E0,1.2435345E2,7.262166E2,3.724844E1,6.721086E1,7.0281506E2,6.84312E1,4.1237335E1,1.9794039E3,8.547347E1,7.475853E2,2.2498054E-2,-3.8326528E-2,-1.6998653E-1,-4.5593772E-2,4.7297335E-1,-4.456373E-2,4.4087723E-2,1.7765431E-1,-4.4918317E-2,6.03498E-3,1.1402468E-2,-6.3715644E-2,-4.2529088E-3,-7.8721784E-2,-9.616513E-2,-2.4537385E-1],"split_indices":[1,0,0,7,0,7,7,3,5,7,5,3,7,3,7,0,0,0,0,0,0,0,0,0,0,0,0,0,0,0,0],"split_type":[0,0,0,0,0,0,0,0,0,0,0,0,0,0,0,0,0,0,0,0,0,0,0,0,0,0,0,0,0,0,0],"sum_hessian":[3.615E3,4.97E2,3.118E3,1.73E2,3.24E2,2.732E3,3.86E2,1.25E2,4.8E1,1.9E1,3.05E2,4.66E2,2.266E3,3.5E2,3.6E1,3.3E1,9.2E1,1.3E1,3.5E1,1.7E1,2E0,2.59E2,4.6E1,3.29E2,1.37E2,2.164E3,1.02E2,2.6E2,9E1,2.2E1,1.4E1],"tree_param":{"num_deleted":"0","num_feature":"8","num_nodes":"31","size_leaf_vector":"1"}},{"base_weights":[2.1099333E-2,-2.586731E-1,1.8449907E-1,-4.604021E-1,-1.05683476E-1,2.383776E-1,-6.2297624E-1,-6.03138E-1,-2.9918322E-1,1.0278792E-1,-2.4381964E-1,2.1872666E-1,2.7799153E0,1.0271043E0,-9.7907025E-1,-7.404572E-2,-3.1416476E-2,-2.0444512E-2,-1.0806419E-1,-7.1677426E-3,6.495721E-2,-1.8850306E-2,-6.518697E-2,-6.444043E-2,2.5573794E-2,-4.8205473E-2,3.7180835E-1,-6.549902E-2,1.3599537E-1,-5.957358E-2,-1.9958903E-1],"categories":[],"categories_nodes":[],"categories_segments":[],"categories_sizes":[],"default_left":[0,0,0,0,0,0,0,0,0,0,0,0,0,0,0,0,0,0,0,0,0,0,0,0,0,0,0,0,0,0,0],"id":50,"left_children":[1,3,5,7,9,11,13,15,17,19,21,23,25,27,29,-1,-1,-1,-1,-1,-1,-1,-1,-1,-1,-1,-1,-1,-1,-1,-1],"loss_changes":[1.6513168E2,4.0865494E1,9.9935265E1,1.2283478E1,2.2126553E1,1.03889015E2,8.964008E1,1.0701675E1,1.9550804E1,2.9614428E1,9.791267E0,6.886802E1,5.792601E1,2.0130539E1,4.121853E1,0E0,0E0,0E0,0E0,0E0,0E0,0E0,0E0,0E0,0E0,0E0,0E0,0E0,0E0,0E0,0E0],"parents":[2147483647,0,0,1,1,2,2,3,3,4,4,5,5,6,6,7,7,8,8,9,9,10,10,11,11,12,12,13,13,14,14],"right_children":[2,4,6,8,10,12,14,16,18,20,22,24,26,28,30,-1,-1,-1,-1,-1,-1,-1,-1,-1,-1,-1,-1,-1,-1,-1,-1],"split_conditions":[4.1497147E1,6.9959366E1,1.07469E2,3.2260036E1,5E0,7.311813E1,3E0,2.2E1,6.859853E1,3.8638958E1,4.036308E1,5.9257843E1,9.686899E1,1.0810397E2,1.8E1,-7.404572E-2,-3.1416476E-2,-2.0444512E-2,-1.0806419E-1,-7.1677426E-3,6.495721E-2,-1.8850306E-2,-6.518697E-2,-6.444043E-2,2.5573794E-2,-4.8205473E-2,3.7180835E-1,-6.549902E-2,1.3599537E-1,-5.957358E-2,-1.9958903E-1],"split_indices":[4,6,4,4,2,6,2,0,5,4,4,6,4,4,0,0,0,0,0,0,0,0,0,0,0,0,0,0,0,0,0],"split_type":[0,0,0,0,0,0,0,0,0,0,0,0,0,0,0,0,0,0,0,0,0,0,0,0,0,0,0,0,0,0,0],"sum_hessian":[3.602E3,1.327E3,2.275E3,5.68E2,7.59E2,2.136E3,1.39E2,2.94E2,2.74E2,3.03E2,4.56E2,2.125E3,1.1E1,2.3E1,1.16E2,1.94E2,1E2,2.5E2,2.4E1,2.33E2,7E1,4.08E2,4.8E1,8.4E1,2.041E3,3E0,8E0,3E0,2E1,9E1,2.6E1],"tree_param":{"num_deleted":"0","num_feature":"8","num_nodes":"31","size_leaf_vector":"1"}},{"base_weights":[-9.918374E-4,-5.713887E-2,6.260002E-1,-2.6469776E-2,-1.2379673E0,1.0760552E0,-1.3180816E-1,1.2772973E-1,-2.2802013E-1,1.6006608E0,-1.5630981E0,1.7229575E0,6.71386E-1,2.0700651E-1,-1.4454895E0,-2.1478733E-2,3.2556977E-2,-1.747296E-2,-1.0467949E-1,-6.086464E-2,2.1259148E-1,-2.0163675E-1,-4.0981103E-2,1.746109E-2,1.9748612E-1,-1.5924086E-1,8.784174E-2,4.5681268E-2,-2.433815E-1,-2.4602623E-1,3.5941903E-2],"categories":[],"categories_nodes":[],"categories_segments":[],"categories_sizes":[],"default_left":[0,0,0,0,0,0,0,0,0,0,0,0,0,0,0,0,0,0,0,0,0,0,0,0,0,0,0,0,0,0,0],"id":51,"left_children":[1,3,5,7,9,11,13,15,17,19,21,23,25,27,29,-1,-1,-1,-1,-1,-1,-1,-1,-1,-1,-1,-1,-1,-1,-1,-1],"loss_changes":[1.2592663E2,1.187298E2,1.0097943E2,9.975371E1,8.911276E1,4.264572E1,5.2236904E1,1.236116E2,5.9778893E1,1.9234573E1,3.6120087E1,2.4798157E1,6.4172516E1,6.822987E1,4.837906E1,0E0,0E0,0E0,0E0,0E0,0E0,0E0,0E0,0E0,0E0,0E0,0E0,0E0,0E0,0E0,0E0],"parents":[2147483647,0,0,1,1,2,2,3,3,4,4,5,5,6,6,7,7,8,8,9,9,10,10,11,11,12,12,13,13,14,14],"right_children":[2,4,6,8,10,12,14,16,18,20,22,24,26,28,30,-1,-1,-1,-1,-1,-1,-1,-1,-1,-1,-1,-1,-1,-1,-1,-1],"split_conditions":[1.7977396E3,1.7273256E3,1.9794039E3,4E0,2E0,6.737216E1,1E1,2.2497597E2,1.5928412E3,1.7630558E3,1.7752227E3,6.687914E1,6.741007E1,6.9006485E1,4E0,-2.1478733E-2,3.2556977E-2,-1.747296E-2,-1.0467949E-1,-6.086464E-2,2.1259148E-1,-2.0163675E-1,-4.0981103E-2,1.746109E-2,1.9748612E-1,-1.5924086E-1,8.784174E-2,4.5681268E-2,-2.433815E-1,-2.4602623E-1,3.5941903E-2],"split_indices":[7,7,7,1,2,5,2,7,7,7,7,5,5,5,1,0,0,0,0,0,0,0,0,0,0,0,0,0,0,0,0],"split_type":[0,0,0,0,0,0,0,0,0,0,0,0,0,0,0,0,0,0,0,0,0,0,0,0,0,0,0,0,0,0,0],"sum_hessian":[3.567E3,3.278E3,2.89E2,3.2E3,7.8E1,1.8E2,1.09E2,1.814E3,1.386E3,6E0,7.2E1,6.3E1,1.17E2,9E1,1.9E1,6.64E2,1.15E3,1.307E3,7.9E1,1E0,5E0,4.9E1,2.3E1,1E1,5.3E1,7E0,1.1E2,8.6E1,4E0,1.1E1,8E0],"tree_param":{"num_deleted":"0","num_feature":"8","num_nodes":"31","size_leaf_vector":"1"}},{"base_weights":[-3.091171E-2,-7.4145365E-1,2.2244805E-3,-3.5761595E-1,-1.1910853E0,-5.421614E-1,3.826755E-2,-7.582517E-1,7.769714E-1,-3.9544478E-1,-2.1238477E0,1.4278853E0,-6.133444E-1,4.5694888E-1,-2.406243E-2,-1.5244679E-1,-2.1634491E-2,1.8891302E-1,-7.424656E-2,-8.750987E-2,8.555626E-2,-2.228916E-1,1.8887838E-2,-3.2948814E-2,1.853487E-1,-3.6069654E-2,-1.056713E-1,1.2142449E-2,9.2975006E-2,-2.2343999E-2,1.3632785E-2],"categories":[],"categories_nodes":[],"categories_segments":[],"categories_sizes":[],"default_left":[0,0,0,0,0,0,0,0,0,0,0,0,0,0,0,0,0,0,0,0,0,0,0,0,0,0,0,0,0,0,0],"id":52,"left_children":[1,3,5,7,9,11,13,15,17,19,21,23,25,27,29,-1,-1,-1,-1,-1,-1,-1,-1,-1,-1,-1,-1,-1,-1,-1,-1],"loss_changes":[8.507507E1,2.5656525E1,6.79347E1,4.5673992E1,4.923501E1,3.452921E1,8.478999E1,2.8246624E1,5.263916E1,3.0745785E1,9.880798E0,9.784979E0,2.1729637E1,6.622142E1,9.068264E1,0E0,0E0,0E0,0E0,0E0,0E0,0E0,0E0,0E0,0E0,0E0,0E0,0E0,0E0,0E0,0E0],"parents":[2147483647,0,0,1,1,2,2,3,3,4,4,5,5,6,6,7,7,8,8,9,9,10,10,11,11,12,12,13,13,14,14],"right_children":[2,4,6,8,10,12,14,16,18,20,22,24,26,28,30,-1,-1,-1,-1,-1,-1,-1,-1,-1,-1,-1,-1,-1,-1,-1,-1],"split_conditions":[6.6786316E1,6.919156E1,5.955509E1,8.211795E1,9.402851E1,5.8287228E1,1E0,6.66682E1,9E0,1.1E1,7.149206E1,7.643014E1,7.368013E1,6.705002E1,7.030489E1,-1.5244679E-1,-2.1634491E-2,1.8891302E-1,-7.424656E-2,-8.750987E-2,8.555626E-2,-2.228916E-1,1.8887838E-2,-3.2948814E-2,1.853487E-1,-3.6069654E-2,-1.056713E-1,1.2142449E-2,9.2975006E-2,-2.2343999E-2,1.3632785E-2],"split_indices":[5,6,6,3,3,6,1,5,2,2,6,3,3,6,6,0,0,0,0,0,0,0,0,0,0,0,0,0,0,0,0],"split_type":[0,0,0,0,0,0,0,0,0,0,0,0,0,0,0,0,0,0,0,0,0,0,0,0,0,0,0,0,0,0,0],"sum_hessian":[3.608E3,1.56E2,3.452E3,8.9E1,6.7E1,2.1E2,3.242E3,6.7E1,2.2E1,4E1,2.7E1,4E0,2.06E2,4.16E2,2.826E3,2.4E1,4.3E1,1.2E1,1E1,3E1,1E1,2.6E1,1E0,1E0,3E0,1.37E2,6.9E1,2.47E2,1.69E2,1.259E3,1.567E3],"tree_param":{"num_deleted":"0","num_feature":"8","num_nodes":"31","size_leaf_vector":"1"}},{"base_weights":[-9.889229E-3,-2.3526503E-2,1.4391216E0,-1.5561709E-1,1.04738966E-1,2.4034183E0,4.5356248E-2,1.0589063E0,-1.7663883E-1,2.821177E-1,-2.8609654E-1,3.0148642E0,-1.8829133E-2,-3.7823296E-1,7.261403E-1,-4.8256952E-2,1.4481458E-1,-8.3546145E-3,-4.0478256E-2,2.4501598E-2,2.64878E-1,-5.0822247E-2,3.7193637E-2,5.0977625E-2,3.6374867E-1,-4.5122504E-2,5.733897E-2,1.5031173E-2,-8.141026E-2,1.20736144E-1,-2.737525E-2],"categories":[],"categories_nodes":[],"categories_segments":[],"categories_sizes":[],"default_left":[0,0,0,0,0,0,0,0,0,0,0,0,0,0,0,0,0,0,0,0,0,0,0,0,0,0,0,0,0,0,0],"id":53,"left_children":[1,3,5,7,9,11,13,15,17,19,21,23,25,27,29,-1,-1,-1,-1,-1,-1,-1,-1,-1,-1,-1,-1,-1,-1,-1,-1],"loss_changes":[7.20582E1,6.122756E1,4.5151054E1,4.638111E1,1.2754728E2,2.9905304E1,6.8523335E0,2.2094257E1,3.7083256E1,1.0774344E2,8.499067E1,1.5684067E1,3.598296E0,4.0674953E0,5.9831176E0,0E0,0E0,0E0,0E0,0E0,0E0,0E0,0E0,0E0,0E0,0E0,0E0,0E0,0E0,0E0,0E0],"parents":[2147483647,0,0,1,1,2,2,3,3,4,4,5,5,6,6,7,7,8,8,9,9,10,10,11,11,12,12,13,13,14,14],"right_children":[2,4,6,8,10,12,14,16,18,20,22,24,26,28,30,-1,-1,-1,-1,-1,-1,-1,-1,-1,-1,-1,-1,-1,-1,-1,-1],"split_conditions":[7.289368E1,7.757468E1,4E0,2.7646751E1,1.01851585E2,1.7E1,1.0077911E2,1E0,9E0,7.248684E1,1.07480644E2,5E0,2.2E1,3.7925705E1,1.7E1,-4.8256952E-2,1.4481458E-1,-8.3546145E-3,-4.0478256E-2,2.4501598E-2,2.64878E-1,-5.0822247E-2,3.7193637E-2,5.0977625E-2,3.6374867E-1,-4.5122504E-2,5.733897E-2,1.5031173E-2,-8.141026E-2,1.20736144E-1,-2.737525E-2],"split_indices":[6,3,1,3,3,0,3,0,2,6,3,0,0,3,0,0,0,0,0,0,0,0,0,0,0,0,0,0,0,0,0],"split_type":[0,0,0,0,0,0,0,0,0,0,0,0,0,0,0,0,0,0,0,0,0,0,0,0,0,0,0,0,0,0,0],"sum_hessian":[3.633E3,3.604E3,2.9E1,1.775E3,1.829E3,1.5E1,1.4E1,2.6E1,1.749E3,1.259E3,5.7E2,1.1E1,4E0,1E1,4E0,5E0,2.1E1,1.247E3,5.02E2,1.245E3,1.4E1,4.27E2,1.43E2,4E0,7E0,3E0,1E0,6E0,4E0,2E0,2E0],"tree_param":{"num_deleted":"0","num_feature":"8","num_nodes":"31","size_leaf_vector":"1"}},{"base_weights":[-1.266724E-2,-2.3787463E-1,1.194362E-1,-3.5799193E-1,-1.0589381E-1,5.3936136E-1,-4.4017617E-2,-2.8655055E-1,-5.964081E-1,-2.335012E-2,-4.71157E-1,4.5750824E-1,1.9806043E0,-7.084825E-1,-1.3275645E-2,-4.3443237E-2,1.1761581E-2,-8.214145E-2,-6.308622E-3,-1.7002208E-2,2.4810629E-2,3.2511488E-2,-6.291617E-2,7.3114626E-2,-1.5833294E-2,-6.772229E-2,2.8264084E-1,1.2909798E-1,-1.20763734E-1,5.5453748E-2,-9.774323E-3],"categories":[],"categories_nodes":[],"categories_segments":[],"categories_sizes":[],"default_left":[0,0,0,0,0,0,0,0,0,0,0,0,0,0,0,0,0,0,0,0,0,0,0,0,0,0,0,0,0,0,0],"id":54,"left_children":[1,3,5,7,9,11,13,15,17,19,21,23,25,27,29,-1,-1,-1,-1,-1,-1,-1,-1,-1,-1,-1,-1,-1,-1,-1,-1],"loss_changes":[1.0807748E2,2.1101273E1,1.573006E2,1.1085472E1,1.9452156E1,7.120618E1,3.371874E1,3.3068577E1,1.8581028E1,2.1432333E1,1.599469E1,1.0404863E2,8.375458E1,8.065219E1,7.629047E1,0E0,0E0,0E0,0E0,0E0,0E0,0E0,0E0,0E0,0E0,0E0,0E0,0E0,0E0,0E0,0E0],"parents":[2147483647,0,0,1,1,2,2,3,3,4,4,5,5,6,6,7,7,8,8,9,9,10,10,11,11,12,12,13,13,14,14],"right_children":[2,4,6,8,10,12,14,16,18,20,22,24,26,28,30,-1,-1,-1,-1,-1,-1,-1,-1,-1,-1,-1,-1,-1,-1,-1,-1],"split_conditions":[4.1497147E1,7.030489E1,2E0,3.8969936E1,4.3406338E1,7.215824E1,5.9257843E1,3.269289E1,4.06237E1,3.550704E1,1E0,9.864914E1,9.612898E1,7.202699E1,6.0727802E1,-4.3443237E-2,1.1761581E-2,-8.214145E-2,-6.308622E-3,-1.7002208E-2,2.4810629E-2,3.2511488E-2,-6.291617E-2,7.3114626E-2,-1.5833294E-2,-6.772229E-2,2.8264084E-1,1.2909798E-1,-1.20763734E-1,5.5453748E-2,-9.774323E-3],"split_indices":[4,6,1,4,3,6,6,4,4,3,1,4,4,3,6,0,0,0,0,0,0,0,0,0,0,0,0,0,0,0,0],"split_type":[0,0,0,0,0,0,0,0,0,0,0,0,0,0,0,0,0,0,0,0,0,0,0,0,0,0,0,0,0,0,0],"sum_hessian":[3.623E3,1.338E3,2.285E3,6.96E2,6.42E2,6.37E2,1.648E3,5.44E2,1.52E2,5.28E2,1.14E2,6.09E2,2.8E1,6.8E1,1.58E3,3.98E2,1.46E2,1.05E2,4.7E1,3.44E2,1.84E2,1.8E1,9.6E1,4.21E2,1.88E2,7E0,2.1E1,1.2E1,5.6E1,2.01E2,1.379E3],"tree_param":{"num_deleted":"0","num_feature":"8","num_nodes":"31","size_leaf_vector":"1"}},{"base_weights":[-2.8904337E-2,9.049904E-2,-1.9242355E-1,1.6081529E-2,4.7456437E-1,-2.7098528E-1,7.3529595E-1,5.1058136E-2,-6.92109E-1,8.3105737E-1,1.2889579E-1,-1.24535665E-1,-1.0406692E0,7.7583514E-2,1.6669685E0,-5.0026394E-4,9.5349E-2,